<?xml version="1.0"?>
<opencv_storage>
<cascade>
  <stageType>BOOST</stageType>
  <featureType>LBP</featureType>
  <height>20</height>
  <width>20</width>
  <stageParams>
    <boostType>GAB</boostType>
    <minHitRate>9.9900001287460327e-01</minHitRate>
    <maxFalseAlarm>5.0000000000000000e-01</maxFalseAlarm>
    <weightTrimRate>9.4999999999999996e-01</weightTrimRate>
    <maxDepth>1</maxDepth>
    <maxWeakCount>1000</maxWeakCount></stageParams>
  <featureParams>
    <maxCatCount>256</maxCatCount>
    <featSize>1</featSize></featureParams>
  <stageNum>3</stageNum>
  <stages>
    <!-- stage 0 -->
    <_>
      <maxWeakCount>13</maxWeakCount>
      <stageThreshold>-1.5834810733795166e+00</stageThreshold>
      <weakClassifiers>
        <_>
          <internalNodes>
            0 -1 20 -1 -4199441 -1443889153 -1417181777 -69210369
            -1428484753 598453247 3088943</internalNodes>
          <leafValues>
            -5.8480209112167358e-01 7.3252117633819580e-01</leafValues></_>
        <_>
          <internalNodes>
            0 -1 4 -779625473 386659223 824004959 391379207 1115416319
            290399027 1980960815 322114307</internalNodes>
          <leafValues>
            -5.2496814727783203e-01 4.7754168510437012e-01</leafValues></_>
        <_>
          <internalNodes>
            0 -1 35 -802959109 1369438779 991772087 -1752966977
            -882670933 -1073797569 1623035023 5231199</internalNodes>
          <leafValues>
            -3.6094051599502563e-01 3.7978765368461609e-01</leafValues></_>
        <_>
          <internalNodes>
            0 -1 7 -783287405 20315095 -1518583331 266171231 71303424
            26040959 1364399332 1330641755</internalNodes>
          <leafValues>
            -4.1484716534614563e-01 3.1183865666389465e-01</leafValues></_>
        <_>
          <internalNodes>
            0 -1 21 -269507725 21302018 138675062 20318094 -1881865465
            77007165 178064171 268372747</internalNodes>
          <leafValues>
            -5.0397813320159912e-01 2.2692681849002838e-01</leafValues></_>
        <_>
          <internalNodes>
            0 -1 18 151519440 489949360 798261193 529861633 -132610884
            -85018930 1566084299 134217792</internalNodes>
          <leafValues>
            -4.7821390628814697e-01 2.3641769587993622e-01</leafValues></_>
        <_>
          <internalNodes>
            0 -1 14 1901809919 291438995 539361468 295706930 998864381
            563356405 810812328 820129816</internalNodes>
          <leafValues>
            -4.3403357267379761e-01 2.1023491024971008e-01</leafValues></_>
        <_>
          <internalNodes>
            0 -1 38 -353515894 34057862 1107562506 1073327 911549939
            138704195 1108235407 1107673183</internalNodes>
          <leafValues>
            -4.4619697332382202e-01 2.4043233692646027e-01</leafValues></_>
        <_>
          <internalNodes>
            0 -1 19 -1052673 1900511637 -442538729 658441549 -109652757
            2050883641 -873509718 -269514193</internalNodes>
          <leafValues>
            -1.9999402761459351e-01 4.6576118469238281e-01</leafValues></_>
        <_>
          <internalNodes>
            0 -1 27 403702960 1037567433 1401437471 1039025925 278939832
            -639384287 1311000984 134483720</internalNodes>
          <leafValues>
            -4.5589113235473633e-01 1.9443373382091522e-01</leafValues></_>
        <_>
          <internalNodes>
            0 -1 26 -1027608993 2289204 127233296 38467375 2128454219
            -834765846 593455876 1221326452</internalNodes>
          <leafValues>
            -3.5544565320014954e-01 2.6124283671379089e-01</leafValues></_>
        <_>
          <internalNodes>
            0 -1 5 -588136302 1600410421 1217421405 1416569345 545980568
            458440707 88163023 1140277351</internalNodes>
          <leafValues>
            -3.6698740720748901e-01 2.4748995900154114e-01</leafValues></_>
        <_>
          <internalNodes>
            0 -1 23 1244853328 951552032 784746077 520242517 595610112
            -358403846 696426377 1069439119</internalNodes>
          <leafValues>
            -3.3861598372459412e-01 2.6764264702796936e-01</leafValues></_></weakClassifiers></_>
    <!-- stage 1 -->
    <_>
      <maxWeakCount>17</maxWeakCount>
      <stageThreshold>-1.6991331577301025e+00</stageThreshold>
      <weakClassifiers>
        <_>
          <internalNodes>
            0 -1 1 -570425345 -150217 -570687689 1476330343 -117441537
            -1695055052 -17473 58139395</internalNodes>
          <leafValues>
            -4.9611338973045349e-01 6.4205664396286011e-01</leafValues></_>
        <_>
          <internalNodes>
            0 -1 28 -77596929 1931325566 676716375 -1276146505
            -976241153 673150759 150990319 7333375</internalNodes>
          <leafValues>
            -4.1596919298171997e-01 4.1324844956398010e-01</leafValues></_>
        <_>
          <internalNodes>
            0 -1 12 -750272512 -779910144 131072 1363267603 1090551808
            134348804 16826368 1126692507</internalNodes>
          <leafValues>
            -4.8055687546730042e-01 2.6772513985633850e-01</leafValues></_>
        <_>
          <internalNodes>
            0 -1 22 43024 172228608 17866905 352658632 2663338
            -1937734614 16949663 254478474</internalNodes>
          <leafValues>
            -3.8682037591934204e-01 3.2393833994865417e-01</leafValues></_>
        <_>
          <internalNodes>
            0 -1 29 -1072660480 -753920476 553664981 1570308164
            -1432313688 -1362624368 58759358 453182474</internalNodes>
          <leafValues>
            -3.8751336932182312e-01 2.8720366954803467e-01</leafValues></_>
        <_>
          <internalNodes>
            0 -1 9 -16777221 -623398409 257027851 87425505 -147872885
            1391525925 2131451695 255291967</internalNodes>
          <leafValues>
            -4.2674311995506287e-01 2.4175345897674561e-01</leafValues></_>
        <_>
          <internalNodes>
            0 -1 43 -259595582 -259088382 4243480 268665378 1346871426
            1073741890 51626203 1934864607</internalNodes>
          <leafValues>
            -3.0847293138504028e-01 3.3833828568458557e-01</leafValues></_>
        <_>
          <internalNodes>
            0 -1 13 -787746688 -237985056 4368 1573097476 1073775232
            1208000770 33723274 1334263962</internalNodes>
          <leafValues>
            -3.1713023781776428e-01 3.2321077585220337e-01</leafValues></_>
        <_>
          <internalNodes>
            0 -1 37 2135949051 402981898 17219795 1024672387 1633135855
            722645018 38642667 233814207</internalNodes>
          <leafValues>
            -3.2000675797462463e-01 2.9615059494972229e-01</leafValues></_>
        <_>
          <internalNodes>
            0 -1 36 -133918536 -578377580 17045661 1367408688
            -1739552072 -90170200 170043578 420610058</internalNodes>
          <leafValues>
            -3.1229022145271301e-01 3.1096047163009644e-01</leafValues></_>
        <_>
          <internalNodes>
            0 -1 40 -556351250 -800292796 -2010497016 -783597558
            -872363893 -804896508 -502875942 2064375887</internalNodes>
          <leafValues>
            -2.6847630739212036e-01 3.7547382712364197e-01</leafValues></_>
        <_>
          <internalNodes>
            0 -1 6 -739250257 469749227 488463643 20178075 1077282049
            14883111 -782154949 61077343</internalNodes>
          <leafValues>
            -3.5697656869888306e-01 2.7526181936264038e-01</leafValues></_>
        <_>
          <internalNodes>
            0 -1 33 -262872976 2024277060 473564252 1426674760
            1210056880 -2005548912 578064 254758687</internalNodes>
          <leafValues>
            -3.6452916264533997e-01 2.4887661635875702e-01</leafValues></_>
        <_>
          <internalNodes>
            0 -1 16 285257840 -805260672 150995984 524369962 -1971207280
            -213384832 247569066 252903426</internalNodes>
          <leafValues>
            -3.5723584890365601e-01 2.4337731301784515e-01</leafValues></_>
        <_>
          <internalNodes>
            0 -1 8 -761530126 1343410164 1343282513 1964112159
            1101869459 299043021 2068779263 967830463</internalNodes>
          <leafValues>
            -3.1653842329978943e-01 2.7790069580078125e-01</leafValues></_>
        <_>
          <internalNodes>
            0 -1 24 1258261299 201295862 -648450986 -1176530498
            727002657 -1939142418 -1982730500 -2106754</internalNodes>
          <leafValues>
            -2.9718509316444397e-01 3.0923932790756226e-01</leafValues></_>
        <_>
          <internalNodes>
            0 -1 2 -1977161996 -543756036 9549269 -844705335 1405395439
            -1166473569 -1396643604 -1052719036</internalNodes>
          <leafValues>
            -3.6899438500404358e-01 2.5090590119361877e-01</leafValues></_></weakClassifiers></_>
    <!-- stage 2 -->
    <_>
      <maxWeakCount>15</maxWeakCount>
      <stageThreshold>-1.5116450786590576e+00</stageThreshold>
      <weakClassifiers>
        <_>
          <internalNodes>
            0 -1 3 -536870913 -6593 -537264645 1440424179 -1610612805
            -2103476049 -6291457 54202679</internalNodes>
          <leafValues>
            -4.6265327930450439e-01 5.9769445657730103e-01</leafValues></_>
        <_>
          <internalNodes>
            0 -1 42 -1039480182 49152 4358144 268566560 -2147187072
            21365760 -2147310438 -221253409</internalNodes>
          <leafValues>
            -4.0731081366539001e-01 4.6913611888885498e-01</leafValues></_>
        <_>
          <internalNodes>
            0 -1 11 -615783936 -786306040 272678912 1363394629
            -2142624768 67112973 237970 -674263349</internalNodes>
          <leafValues>
            -3.5943141579627991e-01 4.4251260161399841e-01</leafValues></_>
        <_>
          <internalNodes>
            0 -1 41 -760561430 -1073348608 6340656 1342310946
            -1283006282 1107951680 -536285053 -214191201</internalNodes>
          <leafValues>
            -3.0828061699867249e-01 4.3296667933464050e-01</leafValues></_>
        <_>
          <internalNodes>
            0 -1 25 -424719857 -1059157943 -1508677924 -772015137
            1982548515 -896319233 -550331722 -1617</internalNodes>
          <leafValues>
            -3.4319019317626953e-01 3.2508897781372070e-01</leafValues></_>
        <_>
          <internalNodes>
            0 -1 0 -222109699 -1109401863 180836279 335527746
            -1194922757 1342147228 -403644425 1667364161</internalNodes>
          <leafValues>
            -3.4118288755416870e-01 3.3080661296844482e-01</leafValues></_>
        <_>
          <internalNodes>
            0 -1 39 -359929150 -402152830 10747906 1349496979 1363397170
            33555456 1112456835 -76562209</internalNodes>
          <leafValues>
            -3.0246633291244507e-01 3.4675487875938416e-01</leafValues></_>
        <_>
          <internalNodes>
            0 -1 31 -657948520 -686028668 943195121 -705884091
            -1156909440 -1656706928 -2146911333 -1727135224</internalNodes>
          <leafValues>
            -2.7014714479446411e-01 3.4515348076820374e-01</leafValues></_>
        <_>
          <internalNodes>
            0 -1 17 -17125637 -86014754 -2071637051 525574519
            -1150635458 180425312 -1538330149 1006609375</internalNodes>
          <leafValues>
            -3.1683874130249023e-01 2.9627701640129089e-01</leafValues></_>
        <_>
          <internalNodes>
            0 -1 15 -212863350 -526445952 455361536 90695385 -489979902
            -1977891840 -468540798 -750259801</internalNodes>
          <leafValues>
            -2.5898259878158569e-01 3.8272079825401306e-01</leafValues></_>
        <_>
          <internalNodes>
            0 -1 26 -959458594 -532239188 86003778 -1069160735
            -670055013 -851640357 -204492121 -611059974</internalNodes>
          <leafValues>
            -1.8759018182754517e-01 4.5451676845550537e-01</leafValues></_>
        <_>
          <internalNodes>
            0 -1 34 -622280492 1081106436 1091360761 -576060915
            -1465907128 -2013003128 537955976 998967578</internalNodes>
          <leafValues>
            -3.5689485073089600e-01 2.4504803121089935e-01</leafValues></_>
        <_>
          <internalNodes>
            0 -1 10 -110431534 -258939404 1700335617 -791292344
            -1442477952 -2012798848 -2147373678 -673195829</internalNodes>
          <leafValues>
            -2.0604898035526276e-01 4.3376553058624268e-01</leafValues></_>
        <_>
          <internalNodes>
            0 -1 30 -78668686 -1878769590 117461081 352764971 243776183
            541197842 1126224283 286520047</internalNodes>
          <leafValues>
            -3.2767498493194580e-01 2.4594794213771820e-01</leafValues></_>
        <_>
          <internalNodes>
            0 -1 32 -346045869 -2111619431 70443053 -667946834
            -550018537 -1016728045 1347943796 -641011564</internalNodes>
          <leafValues>
            -2.0319819450378418e-01 3.9104136824607849e-01</leafValues></_></weakClassifiers></_></stages>
  <features>
    <_>
      <rect>
        0 0 4 4</rect></_>
    <_>
      <rect>
        0 0 5 6</rect></_>
    <_>
      <rect>
        0 0 6 3</rect></_>
    <_>
      <rect>
        0 0 6 6</rect></_>
    <_>
      <rect>
        0 1 4 5</rect></_>
    <_>
      <rect>
        0 2 2 6</rect></_>
    <_>
      <rect>
        0 5 3 3</rect></_>
    <_>
      <rect>
        0 5 3 4</rect></_>
    <_>
      <rect>
        0 5 6 5</rect></_>
    <_>
      <rect>
        0 6 6 2</rect></_>
    <_>
      <rect>
        0 7 1 1</rect></_>
    <_>
      <rect>
        0 8 1 1</rect></_>
    <_>
      <rect>
        0 9 1 1</rect></_>
    <_>
      <rect>
        1 4 1 1</rect></_>
    <_>
      <rect>
        1 11 6 3</rect></_>
    <_>
      <rect>
        1 13 1 1</rect></_>
    <_>
      <rect>
        2 1 1 1</rect></_>
    <_>
      <rect>
        2 2 6 6</rect></_>
    <_>
      <rect>
        3 0 3 2</rect></_>
    <_>
      <rect>
        4 6 3 2</rect></_>
    <_>
      <rect>
        5 0 5 6</rect></_>
    <_>
      <rect>
        5 7 3 2</rect></_>
    <_>
      <rect>
        6 4 1 1</rect></_>
    <_>
      <rect>
        6 4 2 1</rect></_>
    <_>
      <rect>
        6 8 3 2</rect></_>
    <_>
      <rect>
        6 10 3 1</rect></_>
    <_>
      <rect>
        6 11 1 1</rect></_>
    <_>
      <rect>
        8 0 3 2</rect></_>
    <_>
      <rect>
        8 1 4 5</rect></_>
    <_>
      <rect>
        8 2 1 1</rect></_>
    <_>
      <rect>
        8 5 4 1</rect></_>
    <_>
      <rect>
        9 1 1 1</rect></_>
    <_>
      <rect>
        9 11 1 2</rect></_>
    <_>
      <rect>
        10 6 2 1</rect></_>
    <_>
      <rect>
        10 7 1 1</rect></_>
    <_>
      <rect>
        11 0 3 5</rect></_>
    <_>
      <rect>
        12 0 1 1</rect></_>
    <_>
      <rect>
        13 2 2 6</rect></_>
    <_>
      <rect>
        16 10 1 1</rect></_>
    <_>
      <rect>
        16 11 1 1</rect></_>
    <_>
      <rect>
        17 6 1 1</rect></_>
    <_>
      <rect>
        17 8 1 1</rect></_>
    <_>
      <rect>
        17 10 1 1</rect></_>
    <_>
      <rect>
        17 11 1 1</rect></_></features></cascade>
</opencv_storage>
