<?xml version="1.0"?>
<opencv_storage>
<cascade>
  <stageType>BOOST</stageType>
  <featureType>LBP</featureType>
  <height>20</height>
  <width>20</width>
  <stageParams>
    <boostType>GAB</boostType>
    <minHitRate>9.9900001287460327e-01</minHitRate>
    <maxFalseAlarm>5.0000000000000000e-01</maxFalseAlarm>
    <weightTrimRate>9.4999999999999996e-01</weightTrimRate>
    <maxDepth>1</maxDepth>
    <maxWeakCount>1000</maxWeakCount></stageParams>
  <featureParams>
    <maxCatCount>256</maxCatCount>
    <featSize>1</featSize></featureParams>
  <stageNum>9</stageNum>
  <stages>
    <!-- stage 0 -->
    <_>
      <maxWeakCount>13</maxWeakCount>
      <stageThreshold>-1.5834810733795166e+00</stageThreshold>
      <weakClassifiers>
        <_>
          <internalNodes>
            0 -1 93 -1 -4199441 -1443889153 -1417181777 -69210369
            -1428484753 598453247 3088943</internalNodes>
          <leafValues>
            -5.8480209112167358e-01 7.3252117633819580e-01</leafValues></_>
        <_>
          <internalNodes>
            0 -1 10 -779625473 386659223 824004959 391379207 1115416319
            290399027 1980960815 322114307</internalNodes>
          <leafValues>
            -5.2496814727783203e-01 4.7754168510437012e-01</leafValues></_>
        <_>
          <internalNodes>
            0 -1 179 -802959109 1369438779 991772087 -1752966977
            -882670933 -1073797569 1623035023 5231199</internalNodes>
          <leafValues>
            -3.6094051599502563e-01 3.7978765368461609e-01</leafValues></_>
        <_>
          <internalNodes>
            0 -1 20 -783287405 20315095 -1518583331 266171231 71303424
            26040959 1364399332 1330641755</internalNodes>
          <leafValues>
            -4.1484716534614563e-01 3.1183865666389465e-01</leafValues></_>
        <_>
          <internalNodes>
            0 -1 103 -269507725 21302018 138675062 20318094 -1881865465
            77007165 178064171 268372747</internalNodes>
          <leafValues>
            -5.0397813320159912e-01 2.2692681849002838e-01</leafValues></_>
        <_>
          <internalNodes>
            0 -1 66 151519440 489949360 798261193 529861633 -132610884
            -85018930 1566084299 134217792</internalNodes>
          <leafValues>
            -4.7821390628814697e-01 2.3641769587993622e-01</leafValues></_>
        <_>
          <internalNodes>
            0 -1 50 1901809919 291438995 539361468 295706930 998864381
            563356405 810812328 820129816</internalNodes>
          <leafValues>
            -4.3403357267379761e-01 2.1023491024971008e-01</leafValues></_>
        <_>
          <internalNodes>
            0 -1 211 -353515894 34057862 1107562506 1073327 911549939
            138704195 1108235407 1107673183</internalNodes>
          <leafValues>
            -4.4619697332382202e-01 2.4043233692646027e-01</leafValues></_>
        <_>
          <internalNodes>
            0 -1 84 -1052673 1900511637 -442538729 658441549 -109652757
            2050883641 -873509718 -269514193</internalNodes>
          <leafValues>
            -1.9999402761459351e-01 4.6576118469238281e-01</leafValues></_>
        <_>
          <internalNodes>
            0 -1 139 403702960 1037567433 1401437471 1039025925
            278939832 -639384287 1311000984 134483720</internalNodes>
          <leafValues>
            -4.5589113235473633e-01 1.9443373382091522e-01</leafValues></_>
        <_>
          <internalNodes>
            0 -1 122 -1027608993 2289204 127233296 38467375 2128454219
            -834765846 593455876 1221326452</internalNodes>
          <leafValues>
            -3.5544565320014954e-01 2.6124283671379089e-01</leafValues></_>
        <_>
          <internalNodes>
            0 -1 13 -588136302 1600410421 1217421405 1416569345
            545980568 458440707 88163023 1140277351</internalNodes>
          <leafValues>
            -3.6698740720748901e-01 2.4748995900154114e-01</leafValues></_>
        <_>
          <internalNodes>
            0 -1 115 1244853328 951552032 784746077 520242517 595610112
            -358403846 696426377 1069439119</internalNodes>
          <leafValues>
            -3.3861598372459412e-01 2.6764264702796936e-01</leafValues></_></weakClassifiers></_>
    <!-- stage 1 -->
    <_>
      <maxWeakCount>17</maxWeakCount>
      <stageThreshold>-1.6991331577301025e+00</stageThreshold>
      <weakClassifiers>
        <_>
          <internalNodes>
            0 -1 7 -570425345 -150217 -570687689 1476330343 -117441537
            -1695055052 -17473 58139395</internalNodes>
          <leafValues>
            -4.9611338973045349e-01 6.4205664396286011e-01</leafValues></_>
        <_>
          <internalNodes>
            0 -1 142 -77596929 1931325566 676716375 -1276146505
            -976241153 673150759 150990319 7333375</internalNodes>
          <leafValues>
            -4.1596919298171997e-01 4.1324844956398010e-01</leafValues></_>
        <_>
          <internalNodes>
            0 -1 31 -750272512 -779910144 131072 1363267603 1090551808
            134348804 16826368 1126692507</internalNodes>
          <leafValues>
            -4.8055687546730042e-01 2.6772513985633850e-01</leafValues></_>
        <_>
          <internalNodes>
            0 -1 114 43024 172228608 17866905 352658632 2663338
            -1937734614 16949663 254478474</internalNodes>
          <leafValues>
            -3.8682037591934204e-01 3.2393833994865417e-01</leafValues></_>
        <_>
          <internalNodes>
            0 -1 143 -1072660480 -753920476 553664981 1570308164
            -1432313688 -1362624368 58759358 453182474</internalNodes>
          <leafValues>
            -3.8751336932182312e-01 2.8720366954803467e-01</leafValues></_>
        <_>
          <internalNodes>
            0 -1 25 -16777221 -623398409 257027851 87425505 -147872885
            1391525925 2131451695 255291967</internalNodes>
          <leafValues>
            -4.2674311995506287e-01 2.4175345897674561e-01</leafValues></_>
        <_>
          <internalNodes>
            0 -1 221 -259595582 -259088382 4243480 268665378 1346871426
            1073741890 51626203 1934864607</internalNodes>
          <leafValues>
            -3.0847293138504028e-01 3.3833828568458557e-01</leafValues></_>
        <_>
          <internalNodes>
            0 -1 38 -787746688 -237985056 4368 1573097476 1073775232
            1208000770 33723274 1334263962</internalNodes>
          <leafValues>
            -3.1713023781776428e-01 3.2321077585220337e-01</leafValues></_>
        <_>
          <internalNodes>
            0 -1 195 2135949051 402981898 17219795 1024672387 1633135855
            722645018 38642667 233814207</internalNodes>
          <leafValues>
            -3.2000675797462463e-01 2.9615059494972229e-01</leafValues></_>
        <_>
          <internalNodes>
            0 -1 188 -133918536 -578377580 17045661 1367408688
            -1739552072 -90170200 170043578 420610058</internalNodes>
          <leafValues>
            -3.1229022145271301e-01 3.1096047163009644e-01</leafValues></_>
        <_>
          <internalNodes>
            0 -1 216 -556351250 -800292796 -2010497016 -783597558
            -872363893 -804896508 -502875942 2064375887</internalNodes>
          <leafValues>
            -2.6847630739212036e-01 3.7547382712364197e-01</leafValues></_>
        <_>
          <internalNodes>
            0 -1 19 -739250257 469749227 488463643 20178075 1077282049
            14883111 -782154949 61077343</internalNodes>
          <leafValues>
            -3.5697656869888306e-01 2.7526181936264038e-01</leafValues></_>
        <_>
          <internalNodes>
            0 -1 174 -262872976 2024277060 473564252 1426674760
            1210056880 -2005548912 578064 254758687</internalNodes>
          <leafValues>
            -3.6452916264533997e-01 2.4887661635875702e-01</leafValues></_>
        <_>
          <internalNodes>
            0 -1 58 285257840 -805260672 150995984 524369962 -1971207280
            -213384832 247569066 252903426</internalNodes>
          <leafValues>
            -3.5723584890365601e-01 2.4337731301784515e-01</leafValues></_>
        <_>
          <internalNodes>
            0 -1 21 -761530126 1343410164 1343282513 1964112159
            1101869459 299043021 2068779263 967830463</internalNodes>
          <leafValues>
            -3.1653842329978943e-01 2.7790069580078125e-01</leafValues></_>
        <_>
          <internalNodes>
            0 -1 119 1258261299 201295862 -648450986 -1176530498
            727002657 -1939142418 -1982730500 -2106754</internalNodes>
          <leafValues>
            -2.9718509316444397e-01 3.0923932790756226e-01</leafValues></_>
        <_>
          <internalNodes>
            0 -1 8 -1977161996 -543756036 9549269 -844705335 1405395439
            -1166473569 -1396643604 -1052719036</internalNodes>
          <leafValues>
            -3.6899438500404358e-01 2.5090590119361877e-01</leafValues></_></weakClassifiers></_>
    <!-- stage 2 -->
    <_>
      <maxWeakCount>15</maxWeakCount>
      <stageThreshold>-1.5116450786590576e+00</stageThreshold>
      <weakClassifiers>
        <_>
          <internalNodes>
            0 -1 9 -536870913 -6593 -537264645 1440424179 -1610612805
            -2103476049 -6291457 54202679</internalNodes>
          <leafValues>
            -4.6265327930450439e-01 5.9769445657730103e-01</leafValues></_>
        <_>
          <internalNodes>
            0 -1 220 -1039480182 49152 4358144 268566560 -2147187072
            21365760 -2147310438 -221253409</internalNodes>
          <leafValues>
            -4.0731081366539001e-01 4.6913611888885498e-01</leafValues></_>
        <_>
          <internalNodes>
            0 -1 27 -615783936 -786306040 272678912 1363394629
            -2142624768 67112973 237970 -674263349</internalNodes>
          <leafValues>
            -3.5943141579627991e-01 4.4251260161399841e-01</leafValues></_>
        <_>
          <internalNodes>
            0 -1 218 -760561430 -1073348608 6340656 1342310946
            -1283006282 1107951680 -536285053 -214191201</internalNodes>
          <leafValues>
            -3.0828061699867249e-01 4.3296667933464050e-01</leafValues></_>
        <_>
          <internalNodes>
            0 -1 121 -424719857 -1059157943 -1508677924 -772015137
            1982548515 -896319233 -550331722 -1617</internalNodes>
          <leafValues>
            -3.4319019317626953e-01 3.2508897781372070e-01</leafValues></_>
        <_>
          <internalNodes>
            0 -1 4 -222109699 -1109401863 180836279 335527746
            -1194922757 1342147228 -403644425 1667364161</internalNodes>
          <leafValues>
            -3.4118288755416870e-01 3.3080661296844482e-01</leafValues></_>
        <_>
          <internalNodes>
            0 -1 212 -359929150 -402152830 10747906 1349496979
            1363397170 33555456 1112456835 -76562209</internalNodes>
          <leafValues>
            -3.0246633291244507e-01 3.4675487875938416e-01</leafValues></_>
        <_>
          <internalNodes>
            0 -1 155 -657948520 -686028668 943195121 -705884091
            -1156909440 -1656706928 -2146911333 -1727135224</internalNodes>
          <leafValues>
            -2.7014714479446411e-01 3.4515348076820374e-01</leafValues></_>
        <_>
          <internalNodes>
            0 -1 59 -17125637 -86014754 -2071637051 525574519
            -1150635458 180425312 -1538330149 1006609375</internalNodes>
          <leafValues>
            -3.1683874130249023e-01 2.9627701640129089e-01</leafValues></_>
        <_>
          <internalNodes>
            0 -1 52 -212863350 -526445952 455361536 90695385 -489979902
            -1977891840 -468540798 -750259801</internalNodes>
          <leafValues>
            -2.5898259878158569e-01 3.8272079825401306e-01</leafValues></_>
        <_>
          <internalNodes>
            0 -1 122 -959458594 -532239188 86003778 -1069160735
            -670055013 -851640357 -204492121 -611059974</internalNodes>
          <leafValues>
            -1.8759018182754517e-01 4.5451676845550537e-01</leafValues></_>
        <_>
          <internalNodes>
            0 -1 175 -622280492 1081106436 1091360761 -576060915
            -1465907128 -2013003128 537955976 998967578</internalNodes>
          <leafValues>
            -3.5689485073089600e-01 2.4504803121089935e-01</leafValues></_>
        <_>
          <internalNodes>
            0 -1 26 -110431534 -258939404 1700335617 -791292344
            -1442477952 -2012798848 -2147373678 -673195829</internalNodes>
          <leafValues>
            -2.0604898035526276e-01 4.3376553058624268e-01</leafValues></_>
        <_>
          <internalNodes>
            0 -1 148 -78668686 -1878769590 117461081 352764971 243776183
            541197842 1126224283 286520047</internalNodes>
          <leafValues>
            -3.2767498493194580e-01 2.4594794213771820e-01</leafValues></_>
        <_>
          <internalNodes>
            0 -1 166 -346045869 -2111619431 70443053 -667946834
            -550018537 -1016728045 1347943796 -641011564</internalNodes>
          <leafValues>
            -2.0319819450378418e-01 3.9104136824607849e-01</leafValues></_></weakClassifiers></_>
    <!-- stage 3 -->
    <_>
      <maxWeakCount>16</maxWeakCount>
      <stageThreshold>-1.6691505908966064e+00</stageThreshold>
      <weakClassifiers>
        <_>
          <internalNodes>
            0 -1 32 -805142528 -1862261760 147456 1359683584 -2147221504
            1057794 4194432 -2108963709</internalNodes>
          <leafValues>
            -2.7360498905181885e-01 5.5117338895797729e-01</leafValues></_>
        <_>
          <internalNodes>
            0 -1 219 -1031091574 -1073610752 545440256 1350738432
            -531517304 67133440 1146258603 -204775249</internalNodes>
          <leafValues>
            -3.3650380373001099e-01 4.3634247779846191e-01</leafValues></_>
        <_>
          <internalNodes>
            0 -1 57 -75497985 -36846633 -1965436841 -1614294285
            -74670081 -128517678 -1418788869 37434619</internalNodes>
          <leafValues>
            -5.1535046100616455e-01 2.8165483474731445e-01</leafValues></_>
        <_>
          <internalNodes>
            0 -1 157 -1073347584 -786167808 77204237 2140214600
            -1349994208 -1663301536 -1966559334 -1079312214</internalNodes>
          <leafValues>
            -2.9922372102737427e-01 4.7499403357505798e-01</leafValues></_>
        <_>
          <internalNodes>
            0 -1 180 -1873674152 -143260080 79981885 1427441744
            -1533758744 -1937741688 -1367037222 -1683289974</internalNodes>
          <leafValues>
            -2.9098045825958252e-01 4.1579452157020569e-01</leafValues></_>
        <_>
          <internalNodes>
            0 -1 18 -690798078 1509643103 1074795802 -242910897
            270598144 1896417819 17039383 -68456753</internalNodes>
          <leafValues>
            -3.5978263616561890e-01 3.2767537236213684e-01</leafValues></_>
        <_>
          <internalNodes>
            0 -1 134 -2010480640 -423592041 8994836 -190918201
            -2041145562 -1495645914 -1849840219 -90177617</internalNodes>
          <leafValues>
            -3.4035655856132507e-01 3.0068102478981018e-01</leafValues></_>
        <_>
          <internalNodes>
            0 -1 204 -552612182 514 217203983 77398027 -113269013
            -1944688973 -176962417 -1145057905</internalNodes>
          <leafValues>
            -2.7757862210273743e-01 3.4503626823425293e-01</leafValues></_>
        <_>
          <internalNodes>
            0 -1 65 -603719969 823333169 1961795611 321982613 68194541
            772474074 382207963 1893459115</internalNodes>
          <leafValues>
            -2.3752300441265106e-01 3.6211374402046204e-01</leafValues></_>
        <_>
          <internalNodes>
            0 -1 223 -400235864 1428815904 8560660 -259143552
            -1760451924 73860040 1144246986 -261418485</internalNodes>
          <leafValues>
            -3.0240529775619507e-01 3.2590952515602112e-01</leafValues></_>
        <_>
          <internalNodes>
            0 -1 170 -592965448 -196870136 -1677590123 -739820508
            810607280 -232775680 -28792178 721560064</internalNodes>
          <leafValues>
            -4.2995253205299377e-01 2.1329917013645172e-01</leafValues></_>
        <_>
          <internalNodes>
            0 -1 31 -549202304 -800672128 -1203501936 1407369355
            -748519296 315822124 -2128502640 -472660317</internalNodes>
          <leafValues>
            -2.6467916369438171e-01 3.3581370115280151e-01</leafValues></_>
        <_>
          <internalNodes>
            0 -1 131 -587728900 72425918 -1666873318 12255281 702350454
            -2002179887 250752570 804980762</internalNodes>
          <leafValues>
            -4.4884920120239258e-01 1.9790633022785187e-01</leafValues></_>
        <_>
          <internalNodes>
            0 -1 56 -2054806296 1540961180 -452536875 -577944113
            -1374924370 -1368471344 1249938426 -1073683688</internalNodes>
          <leafValues>
            -3.5948160290718079e-01 2.3083791136741638e-01</leafValues></_>
        <_>
          <internalNodes>
            0 -1 171 -429657062 -35486496 1326127615 -177397720
            1061075109 -1407136626 -1372542982 -1079303542</internalNodes>
          <leafValues>
            -2.0213504135608673e-01 4.4322919845581055e-01</leafValues></_>
        <_>
          <internalNodes>
            0 -1 34 -787561984 134586889 -957156590 -784923978
            -1002143740 386510336 -401491774 -33822581</internalNodes>
          <leafValues>
            -2.4217116832733154e-01 3.2784965634346008e-01</leafValues></_></weakClassifiers></_>
    <!-- stage 4 -->
    <_>
      <maxWeakCount>29</maxWeakCount>
      <stageThreshold>-1.4238170385360718e+00</stageThreshold>
      <weakClassifiers>
        <_>
          <internalNodes>
            0 -1 92 -75500033 -4473353 -838898177 -1389888769 -402915585
            -285283201 -2010452737 14410491</internalNodes>
          <leafValues>
            -2.8884881734848022e-01 5.3225249052047729e-01</leafValues></_>
        <_>
          <internalNodes>
            0 -1 5 -608960513 -1684277769 1237380223 1066619735
            -1950165585 -1686382977 -87303489 1936945971</internalNodes>
          <leafValues>
            -3.5265922546386719e-01 3.3480852842330933e-01</leafValues></_>
        <_>
          <internalNodes>
            0 -1 44 -67109893 58599319 672157880 64553393 -674282485
            53088292 944728187 197885018</internalNodes>
          <leafValues>
            -4.2569616436958313e-01 1.9320869445800781e-01</leafValues></_>
        <_>
          <internalNodes>
            0 -1 192 -233574308 1362640976 1302744569 1561547847
            2082493632 -2147466240 2117897 456873083</internalNodes>
          <leafValues>
            -2.5006756186485291e-01 3.1919521093368530e-01</leafValues></_>
        <_>
          <internalNodes>
            0 -1 202 -615789317 355999762 2465855 522912259 -1246237761
            -1397817185 998362042 176677819</internalNodes>
          <leafValues>
            -3.1851553916931152e-01 2.4194942414760590e-01</leafValues></_>
        <_>
          <internalNodes>
            0 -1 73 -932516110 13642420 1347443793 475529372 -2004175200
            -1460397931 252365755 198126843</internalNodes>
          <leafValues>
            -3.2985988259315491e-01 2.3090262711048126e-01</leafValues></_>
        <_>
          <internalNodes>
            0 -1 29 -773854317 292383835 -1074821547 299880754 8323329
            66224738 1093076755 1269556085</internalNodes>
          <leafValues>
            -3.4048038721084595e-01 2.1346114575862885e-01</leafValues></_>
        <_>
          <internalNodes>
            0 -1 158 1079465072 -799932412 1068899931 1560745625
            237797504 -1382600672 16964763 -1623518181</internalNodes>
          <leafValues>
            -2.3689946532249451e-01 3.0633783340454102e-01</leafValues></_>
        <_>
          <internalNodes>
            0 -1 187 -70262062 -488200816 1557784 1255603690 -517524976
            -838132212 1975542388 -865349769</internalNodes>
          <leafValues>
            -2.6159536838531494e-01 2.5583264231681824e-01</leafValues></_>
        <_>
          <internalNodes>
            0 -1 117 -71828482 -1789882996 689412660 599532089
            1649747518 -2063824080 241894958 719072516</internalNodes>
          <leafValues>
            -4.1439142823219299e-01 1.6749733686447144e-01</leafValues></_>
        <_>
          <internalNodes>
            0 -1 36 -601427214 -183980928 187119099 2135287957 285915816
            -1367210976 611560331 -346826973</internalNodes>
          <leafValues>
            -2.0043951272964478e-01 3.4525933861732483e-01</leafValues></_>
        <_>
          <internalNodes>
            0 -1 118 -1060707790 -1467867008 -1421711976 1025115141
            536929824 537028644 134221194 252396575</internalNodes>
          <leafValues>
            -3.3152195811271667e-01 2.0547710359096527e-01</leafValues></_>
        <_>
          <internalNodes>
            0 -1 211 -354172286 -2013117938 -2113744758 1390133405
            -1576728702 -297779182 -263259749 -11543553</internalNodes>
          <leafValues>
            -2.5953677296638489e-01 2.6140278577804565e-01</leafValues></_>
        <_>
          <internalNodes>
            0 -1 22 -257169240 -750718336 1814057648 -146716448 70435712
            205686784 47436250 -2375205</internalNodes>
          <leafValues>
            -1.8993973731994629e-01 3.4912303090095520e-01</leafValues></_>
        <_>
          <internalNodes>
            0 -1 68 -597433606 -1460101370 -628338571 289511489
            -433160053 320014884 -1130676261 866325047</internalNodes>
          <leafValues>
            -3.5679206252098083e-01 1.9071048498153687e-01</leafValues></_>
        <_>
          <internalNodes>
            0 -1 71 -497033537 35361713 774711851 62892085 -697056758
            469539038 1911827979 -1931024260</internalNodes>
          <leafValues>
            -2.8336980938911438e-01 2.4311164021492004e-01</leafValues></_>
        <_>
          <internalNodes>
            0 -1 217 -691019538 -800439072 -1595400053 -112846832
            -804874566 -230296567 -391728982 -80743697</internalNodes>
          <leafValues>
            -1.5497906506061554e-01 3.9714413881301880e-01</leafValues></_>
        <_>
          <internalNodes>
            0 -1 182 -1474949104 2085635088 -1826487171 -571457530
            270675985 -1392376597 615050136 993985722</internalNodes>
          <leafValues>
            -3.0552807450294495e-01 2.0970889925956726e-01</leafValues></_>
        <_>
          <internalNodes>
            0 -1 53 -756554750 1080119912 -598945678 -2113969077
            -2109014016 393780 1077912134 1088938995</internalNodes>
          <leafValues>
            -4.2844471335411072e-01 1.4666967093944550e-01</leafValues></_>
        <_>
          <internalNodes>
            0 -1 55 470867416 -78344356 -581873217 2101343253
            -1472140342 -1946457432 -276926481 1110500384</internalNodes>
          <leafValues>
            -3.7645581364631653e-01 1.6603687405586243e-01</leafValues></_>
        <_>
          <internalNodes>
            0 -1 88 -1032115949 333071195 -1163109136 -748555917
            174994723 -927061153 -502930092 -657091</internalNodes>
          <leafValues>
            -2.4980413913726807e-01 2.6664420962333679e-01</leafValues></_>
        <_>
          <internalNodes>
            0 -1 26 -108006526 1395721388 -1055878859 -1203796847
            -2109104128 479232 67298203 1522518154</internalNodes>
          <leafValues>
            -2.6031044125556946e-01 2.6499482989311218e-01</leafValues></_>
        <_>
          <internalNodes>
            0 -1 154 -268398416 -754445308 -1052761895 1473993776
            8554746 -400387960 -1977079553 184746122</internalNodes>
          <leafValues>
            -2.5718420743942261e-01 2.5516200065612793e-01</leafValues></_>
        <_>
          <internalNodes>
            0 -1 13 -649925985 -1664145857 1104710585 -655533945
            54069384 531304197 1090549932 1516198523</internalNodes>
          <leafValues>
            -2.8018552064895630e-01 2.3197662830352783e-01</leafValues></_>
        <_>
          <internalNodes>
            0 -1 94 8917168 846331948 93327125 487325701 -2120199520
            -1379401056 134235807 1292506578</internalNodes>
          <leafValues>
            -3.1695359945297241e-01 1.9628386199474335e-01</leafValues></_>
        <_>
          <internalNodes>
            0 -1 136 -631248165 -2138902901 -1672252045 -1997043373
            1683280331 -770867298 -1119364526 -327493665</internalNodes>
          <leafValues>
            -2.0123563706874847e-01 3.3381015062332153e-01</leafValues></_>
        <_>
          <internalNodes>
            0 -1 146 -27656962 -1385946340 -1373758337 -1475475412
            -1601233922 238179420 776316239 136180831</internalNodes>
          <leafValues>
            -4.0615236759185791e-01 1.6013006865978241e-01</leafValues></_>
        <_>
          <internalNodes>
            0 -1 45 -380644558 1431484997 1110786067 1434625640
            -2109505374 -1915439486 -1597775717 -806640241</internalNodes>
          <leafValues>
            -1.6691416501998901e-01 4.0592855215072632e-01</leafValues></_>
        <_>
          <internalNodes>
            0 -1 210 -712781630 1365050464 41946875 1374786120 -74143576
            -1644116456 -400492406 -352081777</internalNodes>
          <leafValues>
            -1.5464551746845245e-01 3.9779415726661682e-01</leafValues></_></weakClassifiers></_>
    <!-- stage 5 -->
    <_>
      <maxWeakCount>35</maxWeakCount>
      <stageThreshold>-1.4596047401428223e+00</stageThreshold>
      <weakClassifiers>
        <_>
          <internalNodes>
            0 -1 12 -50331681 -69206017 1006563103 -805879873 -235160129
            -1816443753 -541376737 871314303</internalNodes>
          <leafValues>
            -2.4476650357246399e-01 4.7923588752746582e-01</leafValues></_>
        <_>
          <internalNodes>
            0 -1 152 1079452167 -355537201 -16845476 -235405315
            -277878921 -318865413 -133164 -1</internalNodes>
          <leafValues>
            -2.4265250563621521e-01 3.2061952352523804e-01</leafValues></_>
        <_>
          <internalNodes>
            0 -1 3 602406847 134201243 1900796183 637237109 1675549599
            2080104399 -151268413 1400071987</internalNodes>
          <leafValues>
            -3.3857142925262451e-01 2.1116653084754944e-01</leafValues></_>
        <_>
          <internalNodes>
            0 -1 179 -64500497 -1215315009 678772407 -1114269585
            -620766481 -1362121105 76124143 3142399</internalNodes>
          <leafValues>
            -3.2874077558517456e-01 1.9931568205356598e-01</leafValues></_>
        <_>
          <internalNodes>
            0 -1 126 -652813128 -138148784 368369117 -6485772
            -1467302470 -84114328 -1702822929 -1148516214</internalNodes>
          <leafValues>
            -1.7686153948307037e-01 3.8202390074729919e-01</leafValues></_>
        <_>
          <internalNodes>
            0 -1 101 -932776910 1342439500 738214712 495586540 573628288
            -1472720919 1258994314 521079951</internalNodes>
          <leafValues>
            -3.0696573853492737e-01 1.9664309918880463e-01</leafValues></_>
        <_>
          <internalNodes>
            0 -1 75 -353525065 1649454423 -1459804233 62123999
            -977281007 -883042787 -1409701397 -1346638343</internalNodes>
          <leafValues>
            -2.0934389531612396e-01 2.9578968882560730e-01</leafValues></_>
        <_>
          <internalNodes>
            0 -1 224 -804478272 1361708036 705466392 -1858004952
            -686783608 811606852 1191218942 -1080328053</internalNodes>
          <leafValues>
            -1.9719408452510834e-01 3.0647653341293335e-01</leafValues></_>
        <_>
          <internalNodes>
            0 -1 218 -893329154 -1073084414 54910 1883652140 -1270548214
            1712128080 1619063771 -343414085</internalNodes>
          <leafValues>
            -2.2822456061840057e-01 2.4633546173572540e-01</leafValues></_>
        <_>
          <internalNodes>
            0 -1 30 1366524627 1542870837 -541664398 996532509 815935741
            1998346783 -935824547 1809738676</internalNodes>
          <leafValues>
            -2.6826685667037964e-01 2.1158494055271149e-01</leafValues></_>
        <_>
          <internalNodes>
            0 -1 145 -931884032 -59766692 389549965 2113212110
            1014671774 -1094918380 932229567 -1142224641</internalNodes>
          <leafValues>
            -1.7408372461795807e-01 3.4154096245765686e-01</leafValues></_>
        <_>
          <internalNodes>
            0 -1 103 -495803533 21892943 148058422 3547772 -1521417977
            121254269 180621178 266223212</internalNodes>
          <leafValues>
            -4.5413121581077576e-01 1.2418621033430099e-01</leafValues></_>
        <_>
          <internalNodes>
            0 -1 102 -1395735680 413673489 -1372825825 288236593
            16810880 -908941 255054479 1059790603</internalNodes>
          <leafValues>
            -2.7329984307289124e-01 2.0308965444564819e-01</leafValues></_>
        <_>
          <internalNodes>
            0 -1 110 -776220450 -928887666 -756398373 44180510
            -221208764 -797903274 -551424653 -1073479913</internalNodes>
          <leafValues>
            -2.2524644434452057e-01 2.5971457362174988e-01</leafValues></_>
        <_>
          <internalNodes>
            0 -1 129 1175550034 1483743424 524772701 493421649
            -1608244592 -1693958126 708876187 1001006219</internalNodes>
          <leafValues>
            -2.3445370793342590e-01 2.3214375972747803e-01</leafValues></_>
        <_>
          <internalNodes>
            0 -1 95 1610395509 60904420 -13387905 279237428 1712368465
            2138372388 -162388430 -17895648</internalNodes>
          <leafValues>
            -2.2703924775123596e-01 2.3576389253139496e-01</leafValues></_>
        <_>
          <internalNodes>
            0 -1 32 -745029632 -581483364 1353080848 1497582095
            -241399680 -2147447164 -952900733 -606104677</internalNodes>
          <leafValues>
            -2.0515801012516022e-01 2.6620757579803467e-01</leafValues></_>
        <_>
          <internalNodes>
            0 -1 56 -2073816839 -8589640 -1803934219 -710746631
            -1459998550 -1372690078 1491123963 4254968</internalNodes>
          <leafValues>
            -3.4499144554138184e-01 1.7454583942890167e-01</leafValues></_>
        <_>
          <internalNodes>
            0 -1 189 -802127784 -785185788 574414143 2031421493
            -1163736392 -835319952 1057025758 -1156903749</internalNodes>
          <leafValues>
            -1.9064007699489594e-01 3.1638193130493164e-01</leafValues></_>
        <_>
          <internalNodes>
            0 -1 39 -671117387 67100159 -266919045 16235767 1379073
            214384287 -605093855 180546162</internalNodes>
          <leafValues>
            -3.6944463849067688e-01 1.4508578181266785e-01</leafValues></_>
        <_>
          <internalNodes>
            0 -1 191 -401854384 -252166124 -1047068803 2036334628
            -2092687036 675809062 563350168 1059793992</internalNodes>
          <leafValues>
            -3.3024567365646362e-01 1.6719286143779755e-01</leafValues></_>
        <_>
          <internalNodes>
            0 -1 177 -455879961 -1437123609 1763863828 -354189313
            -96214202 -4106 709145616 -19136746</internalNodes>
          <leafValues>
            -1.9324386119842529e-01 2.9213967919349670e-01</leafValues></_>
        <_>
          <internalNodes>
            0 -1 149 -576727809 48629647 -50547175 167749887 -8424003
            27807221 -307767297 -1349518433</internalNodes>
          <leafValues>
            -2.1089045703411102e-01 2.6732358336448669e-01</leafValues></_>
        <_>
          <internalNodes>
            0 -1 208 -194592767 -237829120 -194096097 -45253521
            -242968368 -1728178942 -1475559477 -81015589</internalNodes>
          <leafValues>
            -1.2268814444541931e-01 4.3899273872375488e-01</leafValues></_>
        <_>
          <internalNodes>
            0 -1 87 -2040191437 846360184 -1560543882 2058288566
            98776848 1475953157 -2136882185 1207936890</internalNodes>
          <leafValues>
            -3.3878666162490845e-01 1.6387991607189178e-01</leafValues></_>
        <_>
          <internalNodes>
            0 -1 162 -1002386212 -766370436 -584785968 -249293541
            -1935095636 -256667 -1975508532 -1079047014</internalNodes>
          <leafValues>
            -1.8667697906494141e-01 2.9911607503890991e-01</leafValues></_>
        <_>
          <internalNodes>
            0 -1 164 5214230 184887346 564297534 -18143229 38044484
            2105648 850181082 1067393019</internalNodes>
          <leafValues>
            -3.2276070117950439e-01 1.6797387599945068e-01</leafValues></_>
        <_>
          <internalNodes>
            0 -1 132 1512222786 978343424 -1039646112 1015284658
            75565328 793776656 1749081872 184997310</internalNodes>
          <leafValues>
            -3.8747954368591309e-01 1.4262057840824127e-01</leafValues></_>
        <_>
          <internalNodes>
            0 -1 111 -836444971 -612396976 -1134534691 1609767060
            -1361139270 -69594464 -1199186005 -1107162086</internalNodes>
          <leafValues>
            -1.5605826675891876e-01 3.4105354547500610e-01</leafValues></_>
        <_>
          <internalNodes>
            0 -1 14 -306782525 -1686255203 1603957 1273337105 1209069635
            2129795860 1870343962 1329549151</internalNodes>
          <leafValues>
            -2.9528149962425232e-01 1.8008778989315033e-01</leafValues></_>
        <_>
          <internalNodes>
            0 -1 61 -1028395854 -957870922 1546182421 -584100856
            -1476226176 2142775242 108445371 -1409317409</internalNodes>
          <leafValues>
            -1.5481534600257874e-01 3.5973790287971497e-01</leafValues></_>
        <_>
          <internalNodes>
            0 -1 109 -196130928 -957473188 -1375205750 539550894
            -1745062120 -2069365381 -1675035392 1616822058</internalNodes>
          <leafValues>
            -3.5568609833717346e-01 1.5260776877403259e-01</leafValues></_>
        <_>
          <internalNodes>
            0 -1 160 -193800097 -257159582 438836575 -714201841
            -265411916 -218003440 323665835 -1691358209</internalNodes>
          <leafValues>
            -1.4106784760951996e-01 3.8402867317199707e-01</leafValues></_>
        <_>
          <internalNodes>
            0 -1 144 1490447486 -655295137 1316156895 -1448401391
            1560752422 107320439 45818743 676069428</internalNodes>
          <leafValues>
            -4.5139342546463013e-01 1.2339934706687927e-01</leafValues></_>
        <_>
          <internalNodes>
            0 -1 78 -1560556537 138755482 -1726499021 846449406 99042631
            209651063 -1577337359 -1947337492</internalNodes>
          <leafValues>
            -2.7077552676200867e-01 1.9984458386898041e-01</leafValues></_></weakClassifiers></_>
    <!-- stage 6 -->
    <_>
      <maxWeakCount>38</maxWeakCount>
      <stageThreshold>-1.3401401042938232e+00</stageThreshold>
      <weakClassifiers>
        <_>
          <internalNodes>
            0 -1 140 -4194817 -4211777 -1234174021 -1077953793
            -285278466 -268439938 -2134905665 15655167</internalNodes>
          <leafValues>
            -2.0813198387622833e-01 4.4893461465835571e-01</leafValues></_>
        <_>
          <internalNodes>
            0 -1 4 858980343 1576267221 465043359 -675817675 -1091051521
            534560221 -471334915 1936974352</internalNodes>
          <leafValues>
            -3.1514933705329895e-01 2.4866157770156860e-01</leafValues></_>
        <_>
          <internalNodes>
            0 -1 108 -352328186 41086942 -69337096 -264831632 -713033867
            -1064308886 -168100154 -168428296</internalNodes>
          <leafValues>
            -2.8767374157905579e-01 2.2298188507556915e-01</leafValues></_>
        <_>
          <internalNodes>
            0 -1 212 -365960534 34220578 -1607774622 275505360
            -1237059057 33883414 -431096721 -179315333</internalNodes>
          <leafValues>
            -2.5832965970039368e-01 2.0292960107326508e-01</leafValues></_>
        <_>
          <internalNodes>
            0 -1 97 -1542959072 -2012217344 531109853 488113444 42243202
            -1463155564 71625096 529140878</internalNodes>
          <leafValues>
            -3.0629831552505493e-01 1.6868546605110168e-01</leafValues></_>
        <_>
          <internalNodes>
            0 -1 33 -671127729 22409051 -604540230 -139224649 1145782854
            38559682 -16777245 -33816605</internalNodes>
          <leafValues>
            -2.7619764208793640e-01 1.7393563687801361e-01</leafValues></_>
        <_>
          <internalNodes>
            0 -1 173 -1006087084 1080044624 -851255842 -72610723
            -1656445772 -290947464 -1486310503 -1078255942</internalNodes>
          <leafValues>
            -1.6141246259212494e-01 2.8781118988990784e-01</leafValues></_>
        <_>
          <internalNodes>
            0 -1 89 -533787521 36570238 1845785844 406299544 1081025652
            4146951 -1922849161 1608514487</internalNodes>
          <leafValues>
            -4.2457655072212219e-01 1.0303934663534164e-01</leafValues></_>
        <_>
          <internalNodes>
            0 -1 171 41944112 2092565600 414760275 1574899806
            -1394036320 -310622760 251183098 1068436187</internalNodes>
          <leafValues>
            -2.5550773739814758e-01 1.8937438726425171e-01</leafValues></_>
        <_>
          <internalNodes>
            0 -1 34 -658259968 -927284721 -1070932335 -1279924353
            -66871168 387056994 -472665728 -739511617</internalNodes>
          <leafValues>
            -1.8722657859325409e-01 2.5929263234138489e-01</leafValues></_>
        <_>
          <internalNodes>
            0 -1 60 -20737 276701275 -1797909068 366033589 -67394152
            323813649 -103030795 832287739</internalNodes>
          <leafValues>
            -3.0002278089523315e-01 1.6072535514831543e-01</leafValues></_>
        <_>
          <internalNodes>
            0 -1 133 -723062540 75294916 5261392 489029731 177274880
            -1398781646 37749505 523912543</internalNodes>
          <leafValues>
            -3.3696568012237549e-01 1.5264900028705597e-01</leafValues></_>
        <_>
          <internalNodes>
            0 -1 176 183960339 788473602 537355536 1022173456 1926190420
            -1367750143 1713790897 -1281</internalNodes>
          <leafValues>
            -2.5589674711227417e-01 2.0970822870731354e-01</leafValues></_>
        <_>
          <internalNodes>
            0 -1 196 -1006501376 -736884192 716310120 -81395596
            1958216704 -1103361100 263760808 957023820</internalNodes>
          <leafValues>
            -3.0814287066459656e-01 1.5273332595825195e-01</leafValues></_>
        <_>
          <internalNodes>
            0 -1 125 486817789 -572573803 -657809923 -149111 -71570945
            -40157450 -285712641 -320704832</internalNodes>
          <leafValues>
            -2.1956153213977814e-01 2.1124415099620819e-01</leafValues></_>
        <_>
          <internalNodes>
            0 -1 27 -115608960 -671367625 -1529655280 -665099456
            953779840 71915570 -753425790 -151264613</internalNodes>
          <leafValues>
            -1.7198428511619568e-01 2.6999238133430481e-01</leafValues></_>
        <_>
          <internalNodes>
            0 -1 116 -2000419274 -867161386 -1069757835 1012535480
            -1439656812 -1460915056 -1422740838 1006569642</internalNodes>
          <leafValues>
            -2.5976368784904480e-01 1.7598883807659149e-01</leafValues></_>
        <_>
          <internalNodes>
            0 -1 64 -752123895 -1999768618 -1073267720 -2130707361
            -1471315193 -2077246188 -1575753 -925109541</internalNodes>
          <leafValues>
            -1.7765659093856812e-01 2.6156097650527954e-01</leafValues></_>
        <_>
          <internalNodes>
            0 -1 24 -557928699 1350493527 547162710 322171727 1077084417
            2108245 1196097815 711981906</internalNodes>
          <leafValues>
            -4.0927419066429138e-01 1.1619831621646881e-01</leafValues></_>
        <_>
          <internalNodes>
            0 -1 112 1678417040 -109204560 874102685 -546235264
            -1408714247 -1617165312 -1143428097 -1081403157</internalNodes>
          <leafValues>
            -1.6495186090469360e-01 3.0591079592704773e-01</leafValues></_>
        <_>
          <internalNodes>
            0 -1 43 -470842109 -2104480959 1998490435 -1786636127
            3613574 -1940518700 159381408 1238057437</internalNodes>
          <leafValues>
            -2.4286596477031708e-01 2.0276431739330292e-01</leafValues></_>
        <_>
          <internalNodes>
            0 -1 201 -111686914 -616233753 1580169691 899740384
            -151042074 1187981887 606183255 9028611</internalNodes>
          <leafValues>
            -2.8000286221504211e-01 1.6872742772102356e-01</leafValues></_>
        <_>
          <internalNodes>
            0 -1 198 -208149286 -1029470290 138833489 -90247969
            174331456 1269718340 1146291524 -20461985</internalNodes>
          <leafValues>
            -1.9210366904735565e-01 2.5266242027282715e-01</leafValues></_>
        <_>
          <internalNodes>
            0 -1 219 -86850930 -972127608 13660400 1883753063 -395185792
            1275086144 -566083375 1403511662</internalNodes>
          <leafValues>
            -2.5398620963096619e-01 1.8756866455078125e-01</leafValues></_>
        <_>
          <internalNodes>
            0 -1 69 -2105024496 1892976750 100185893 -10746316
            -2079283808 -2003020012 -1701928965 -1647698486</internalNodes>
          <leafValues>
            -1.7928516864776611e-01 2.6448130607604980e-01</leafValues></_>
        <_>
          <internalNodes>
            0 -1 40 -8669441 869935037 1423826677 -178915337 -1424123223
            72482968 -452132865 941975961</internalNodes>
          <leafValues>
            -2.3044402897357941e-01 2.2213500738143921e-01</leafValues></_>
        <_>
          <internalNodes>
            0 -1 107 1724859939 1120546667 -159261672 1985012596
            -85506521 -1428162742 -541788364 2113399540</internalNodes>
          <leafValues>
            -3.2871258258819580e-01 1.5427446365356445e-01</leafValues></_>
        <_>
          <internalNodes>
            0 -1 147 1280206340 -1907094644 891789307 -1314045899
            -2045460686 -569080652 -1145782390 -1074844518</internalNodes>
          <leafValues>
            -1.9551470875740051e-01 2.6147955656051636e-01</leafValues></_>
        <_>
          <internalNodes>
            0 -1 156 -1660676396 418433220 1898113021 94129728
            1650538416 -588643398 -301020611 256378892</internalNodes>
          <leafValues>
            -3.7192687392234802e-01 1.3196083903312683e-01</leafValues></_>
        <_>
          <internalNodes>
            0 -1 124 -220472577 -355478726 -1438851087 -2077371082
            -456393118 -1996988450 -144295465 -1071134930</internalNodes>
          <leafValues>
            -1.7506034672260284e-01 2.8651228547096252e-01</leafValues></_>
        <_>
          <internalNodes>
            0 -1 162 1279279120 1418723789 1973966864 1886659126
            144740528 -66790961 24904104 731579833</internalNodes>
          <leafValues>
            -3.1676557660102844e-01 1.5549065172672272e-01</leafValues></_>
        <_>
          <internalNodes>
            0 -1 207 -1599282038 36308648 -830290566 -1331434298
            -1857304270 274530306 -763964949 -162016403</internalNodes>
          <leafValues>
            -3.0025976896286011e-01 1.5499137341976166e-01</leafValues></_>
        <_>
          <internalNodes>
            0 -1 80 -1257766661 -1612735619 -1893323777 -1078682118
            1071431660 1845345246 -960989700 854473248</internalNodes>
          <leafValues>
            -2.9010489583015442e-01 1.6698886454105377e-01</leafValues></_>
        <_>
          <internalNodes>
            0 -1 81 -700050726 1504723688 1376072945 -7667373
            -1529823524 -1146977056 -1072410977 -666663677</internalNodes>
          <leafValues>
            -1.6393849253654480e-01 2.8806391358375549e-01</leafValues></_>
        <_>
          <internalNodes>
            0 -1 161 1611910999 -636850449 2105212697 -69987715
            -1574803439 -1107953808 -1082213743 -1075114545</internalNodes>
          <leafValues>
            -1.4248794317245483e-01 3.1937071681022644e-01</leafValues></_>
        <_>
          <internalNodes>
            0 -1 77 -954211789 34090518 -1931402177 700000475
            -1244512143 571433985 -1069209571 150518772</internalNodes>
          <leafValues>
            -3.4313055872917175e-01 1.4385141432285309e-01</leafValues></_>
        <_>
          <internalNodes>
            0 -1 17 -801586550 -673143232 1078538641 1060357178
            -1300217848 -1576427232 105025928 1429393456</internalNodes>
          <leafValues>
            -2.9093119502067566e-01 1.6268208622932434e-01</leafValues></_>
        <_>
          <internalNodes>
            0 -1 46 -785395710 -243140654 1101293395 -262614029
            571322762 -1700997247 -261904446 -822085665</internalNodes>
          <leafValues>
            -1.6345718502998352e-01 3.0920559167861938e-01</leafValues></_></weakClassifiers></_>
    <!-- stage 7 -->
    <_>
      <maxWeakCount>44</maxWeakCount>
      <stageThreshold>-1.4106218814849854e+00</stageThreshold>
      <weakClassifiers>
        <_>
          <internalNodes>
            0 -1 6 -571219969 -707155449 -537941795 1226920279
            -235542593 1561789520 -1460168049 322376467</internalNodes>
          <leafValues>
            -2.5845354795455933e-01 3.8107123970985413e-01</leafValues></_>
        <_>
          <internalNodes>
            0 -1 165 1651450371 1180639798 -285331932 -83952034
            2009035639 -1897960163 1433270101 -1185</internalNodes>
          <leafValues>
            -3.0929678678512573e-01 2.4985180795192719e-01</leafValues></_>
        <_>
          <internalNodes>
            0 -1 206 -475010936 141346 615151638 268623903 7981293
            611349596 -529542145 -420481409</internalNodes>
          <leafValues>
            -3.1755048036575317e-01 1.7676517367362976e-01</leafValues></_>
        <_>
          <internalNodes>
            0 -1 106 -491789805 -896205477 837055796 -118463617
            -808458569 -805371937 -2047093545 -524</internalNodes>
          <leafValues>
            -1.6136883199214935e-01 3.1537139415740967e-01</leafValues></_>
        <_>
          <internalNodes>
            0 -1 15 -118359045 -652610562 -644429411 1431403893
            -221056342 37945601 -1330496065 297485213</internalNodes>
          <leafValues>
            -3.3206981420516968e-01 1.4856101572513580e-01</leafValues></_>
        <_>
          <internalNodes>
            0 -1 72 -411048001 65908407 -298336503 -1422218447
            -1373172223 2048246867 -297990085 -268441413</internalNodes>
          <leafValues>
            -2.0262755453586578e-01 2.6114475727081299e-01</leafValues></_>
        <_>
          <internalNodes>
            0 -1 222 -798236022 -788092886 539394256 -792465344
            -1754274339 -1845015540 1981271962 -211818785</internalNodes>
          <leafValues>
            -1.3106712698936462e-01 3.2819709181785583e-01</leafValues></_>
        <_>
          <internalNodes>
            0 -1 163 -1000617252 340544728 143917654 499468460
            1484801536 -2012871676 755100824 457926747</internalNodes>
          <leafValues>
            -3.0268168449401855e-01 1.5766608715057373e-01</leafValues></_>
        <_>
          <internalNodes>
            0 -1 213 -565526386 -741513656 575146550 -784071640
            -261828472 -288823878 -1472138614 -1576276821</internalNodes>
          <leafValues>
            -1.7138716578483582e-01 2.6444655656814575e-01</leafValues></_>
        <_>
          <internalNodes>
            0 -1 51 -205814784 -1070986420 1084772880 -1712334443
            -702184960 677717351 -530407230 -1043859737</internalNodes>
          <leafValues>
            -2.2728580236434937e-01 1.9368602335453033e-01</leafValues></_>
        <_>
          <internalNodes>
            0 -1 120 38735158 137243412 541237084 -780257336 35071332
            250364168 371707902 1475606951</internalNodes>
          <leafValues>
            -3.4971711039543152e-01 1.3847111165523529e-01</leafValues></_>
        <_>
          <internalNodes>
            0 -1 105 -1275073793 301062135 -1393853702 363986869
            828004287 -1428478532 1878344904 -1347813377</internalNodes>
          <leafValues>
            -1.6408921778202057e-01 2.6339921355247498e-01</leafValues></_>
        <_>
          <internalNodes>
            0 -1 157 -902379260 -1029158400 1150295511 -34137748
            -1624723678 -1628690901 -1969570898 -1074851334</internalNodes>
          <leafValues>
            -1.7476373910903931e-01 2.5408852100372314e-01</leafValues></_>
        <_>
          <internalNodes>
            0 -1 141 386229277 -66853868 -1827909315 1225503816
            -1301568002 -218379208 675237318 3089759</internalNodes>
          <leafValues>
            -3.8694635033607483e-01 1.1610794067382812e-01</leafValues></_>
        <_>
          <internalNodes>
            0 -1 114 677513220 172624384 -1427370843 2138309656
            714979102 698932828 200320955 1069223342</internalNodes>
          <leafValues>
            -2.8031718730926514e-01 1.6250362992286682e-01</leafValues></_>
        <_>
          <internalNodes>
            0 -1 167 -274733953 -1025048645 1119718774 -938480086
            -182737853 -272960145 1730181892 -311427210</internalNodes>
          <leafValues>
            -1.9270455837249756e-01 2.6573753356933594e-01</leafValues></_>
        <_>
          <internalNodes>
            0 -1 28 -780149345 -953067801 1337576151 -570747994
            275124736 1085822503 396608482 -680789153</internalNodes>
          <leafValues>
            -1.8751972913742065e-01 2.4226920306682587e-01</leafValues></_>
        <_>
          <internalNodes>
            0 -1 150 1076027906 -659554272 -526713478 2100055137
            107138720 -1364176432 -2003144792 187325663</internalNodes>
          <leafValues>
            -2.8562730550765991e-01 1.5374001860618591e-01</leafValues></_>
        <_>
          <internalNodes>
            0 -1 37 -1056769374 252898880 778759409 -580023232
            -1047484756 247862256 570551704 -720644781</internalNodes>
          <leafValues>
            -1.7464998364448547e-01 2.4911616742610931e-01</leafValues></_>
        <_>
          <internalNodes>
            0 -1 113 1610110204 -1934586404 394556668 164176401
            1682520163 1142437159 707002386 178257968</internalNodes>
          <leafValues>
            -5.3782349824905396e-01 8.5263065993785858e-02</leafValues></_>
        <_>
          <internalNodes>
            0 -1 193 -810555561 -421019154 -2040973995 -589127810
            2133554992 -312752685 -647936508 -545261953</internalNodes>
          <leafValues>
            -1.7108047008514404e-01 2.7471494674682617e-01</leafValues></_>
        <_>
          <internalNodes>
            0 -1 151 174825490 -2072499136 -1629907594 318250708
            648200849 49965325 579964642 735772686</internalNodes>
          <leafValues>
            -3.3207780122756958e-01 1.4040869474411011e-01</leafValues></_>
        <_>
          <internalNodes>
            0 -1 90 -73541978 -1971100793 -1333769261 580188127
            -196441855 -378623883 -1755064746 -502792377</internalNodes>
          <leafValues>
            -2.0580364763736725e-01 2.2392794489860535e-01</leafValues></_>
        <_>
          <internalNodes>
            0 -1 13 -655889160 1550724925 6353857 1152918594 75497604
            -1903484334 1833979802 1242319450</internalNodes>
          <leafValues>
            -2.9848486185073853e-01 1.5450344979763031e-01</leafValues></_>
        <_>
          <internalNodes>
            0 -1 100 -969005550 150485372 613699381 -603181396 639819776
            -1347412049 589302465 1073707423</internalNodes>
          <leafValues>
            -2.7287095785140991e-01 1.7576685547828674e-01</leafValues></_>
        <_>
          <internalNodes>
            0 -1 214 1489425536 1948272984 -1897103649 1360637561
            -601574248 1744982178 -1030951734 -133445350</internalNodes>
          <leafValues>
            -1.8187355995178223e-01 2.5188180804252625e-01</leafValues></_>
        <_>
          <internalNodes>
            0 -1 8 33694368 2005697040 -2112309003 1540327800 1512741614
            -1945581432 751941372 1415610640</internalNodes>
          <leafValues>
            -4.0699407458305359e-01 1.1548089236021042e-01</leafValues></_>
        <_>
          <internalNodes>
            0 -1 194 -621625736 -216922082 2016138365 -79881188
            -1465194244 -1979688496 -1453789445 -1154807381</internalNodes>
          <leafValues>
            -1.5093991160392761e-01 3.0605936050415039e-01</leafValues></_>
        <_>
          <internalNodes>
            0 -1 47 -1453333248 46142320 1875895072 -2127379231 23003648
            21541747 1078445377 1241248870</internalNodes>
          <leafValues>
            -4.6032196283340454e-01 9.6781305968761444e-02</leafValues></_>
        <_>
          <internalNodes>
            0 -1 216 -694697730 -259872762 888819423 1471113330
            -201135622 405554500 -397620498 -70526497</internalNodes>
          <leafValues>
            -1.3395816087722778e-01 3.4151032567024231e-01</leafValues></_>
        <_>
          <internalNodes>
            0 -1 172 40370176 -156622832 1283773787 408686148 753669664
            -1704065867 629679136 1066010778</internalNodes>
          <leafValues>
            -3.5854342579841614e-01 1.3050965964794159e-01</leafValues></_>
        <_>
          <internalNodes>
            0 -1 49 -656949242 1084672728 2097456 299825759 -836108282
            244702395 10691250 -1031278862</internalNodes>
          <leafValues>
            -2.4766345322132111e-01 1.8438771367073059e-01</leafValues></_>
        <_>
          <internalNodes>
            0 -1 202 -15729153 1236205587 246185461 991801574 -16152071
            -1904476561 -1482826823 -1111760073</internalNodes>
          <leafValues>
            -1.5270598232746124e-01 3.0454680323600769e-01</leafValues></_>
        <_>
          <internalNodes>
            0 -1 50 1410068730 1880498613 1866142106 292578578 953111535
            55670004 1197310893 332152929</internalNodes>
          <leafValues>
            -2.8504776954650879e-01 1.5212553739547729e-01</leafValues></_>
        <_>
          <internalNodes>
            0 -1 82 -584401281 167641060 -1091502163 -2005607312
            938487199 685165745 1987189298 -22088652</internalNodes>
          <leafValues>
            -2.0981235802173615e-01 2.2565993666648865e-01</leafValues></_>
        <_>
          <internalNodes>
            0 -1 190 49432320 -927202540 -91501048 -529267384
            -1599850716 -1171097215 -2046283920 1066076478</internalNodes>
          <leafValues>
            -3.2755035161972046e-01 1.4792302250862122e-01</leafValues></_>
        <_>
          <internalNodes>
            0 -1 138 -233189129 -1034243365 -1166126315 -2142441473
            -135798932 -301211788 -785388729 -647496638</internalNodes>
          <leafValues>
            -1.6164748370647430e-01 2.9779756069183350e-01</leafValues></_>
        <_>
          <internalNodes>
            0 -1 76 187620319 240916340 -647995397 1004282074 606797728
            -1427483087 723880367 225139805</internalNodes>
          <leafValues>
            -2.1570725739002228e-01 2.0805689692497253e-01</leafValues></_>
        <_>
          <internalNodes>
            0 -1 42 -663492477 -2140616901 -2098043280 -706362863
            -1975025279 -586162315 -2139450693 -352584529</internalNodes>
          <leafValues>
            -1.3889054954051971e-01 3.7103548645973206e-01</leafValues></_>
        <_>
          <internalNodes>
            0 -1 0 52462496 496020096 -248830543 -1968030960 -1408902215
            -248375211 2034915200 1161950976</internalNodes>
          <leafValues>
            -3.8516104221343994e-01 1.2245201319456100e-01</leafValues></_>
        <_>
          <internalNodes>
            0 -1 200 1256426586 -623374139 -346001667 -716087097
            585173192 -867279374 -1832088566 -870089509</internalNodes>
          <leafValues>
            -1.7902371287345886e-01 2.6333579421043396e-01</leafValues></_>
        <_>
          <internalNodes>
            0 -1 86 1876667251 558041943 -1470745821 404368535
            1100354916 588533841 248840294 150397648</internalNodes>
          <leafValues>
            -3.6188328266143799e-01 1.2734983861446381e-01</leafValues></_>
        <_>
          <internalNodes>
            0 -1 137 -557061028 670040063 47168024 -1607677334
            1461366835 1601134159 -2134390844 -1259867562</internalNodes>
          <leafValues>
            -2.6732575893402100e-01 1.7658780515193939e-01</leafValues></_>
        <_>
          <internalNodes>
            0 -1 183 1548723951 -732033521 -925902754 -578014141
            -786476759 -1202971296 1429182866 1231549879</internalNodes>
          <leafValues>
            -2.0504708588123322e-01 2.2522994875907898e-01</leafValues></_></weakClassifiers></_>
    <!-- stage 8 -->
    <_>
      <maxWeakCount>47</maxWeakCount>
      <stageThreshold>-1.3464972972869873e+00</stageThreshold>
      <weakClassifiers>
        <_>
          <internalNodes>
            0 -1 91 -185336321 -585 -167772737 -85328917 -16842753
            -277086337 2130377471 -1058478850</internalNodes>
          <leafValues>
            -7.4701674282550812e-02 4.9402227997779846e-01</leafValues></_>
        <_>
          <internalNodes>
            0 -1 135 586031623 -2142044162 -39851716 -254279722
            1660383063 1290206071 -134283340 -136716489</internalNodes>
          <leafValues>
            -3.1998023390769958e-01 2.2946198284626007e-01</leafValues></_>
        <_>
          <internalNodes>
            0 -1 18 -136359077 -2624737 1979151319 -772284529 359989506
            -2146957 1903515103 -67141761</internalNodes>
          <leafValues>
            -2.2605803608894348e-01 2.6715111732482910e-01</leafValues></_>
        <_>
          <internalNodes>
            0 -1 83 -51381249 -2818793 805027191 268381213 1907888991
            1943601141 787429179 -335614944</internalNodes>
          <leafValues>
            -1.7983345687389374e-01 2.7765816450119019e-01</leafValues></_>
        <_>
          <internalNodes>
            0 -1 205 -134225233 992808 1448599931 312959803 -1402774145
            -1981189817 1464857087 -279448705</internalNodes>
          <leafValues>
            -2.3649255931377411e-01 1.9916866719722748e-01</leafValues></_>
        <_>
          <internalNodes>
            0 -1 128 36315141 -998470332 -1372271918 -182675 593104178
            -923879688 195079608 1068178830</internalNodes>
          <leafValues>
            -2.0603194832801819e-01 2.1622388064861298e-01</leafValues></_>
        <_>
          <internalNodes>
            0 -1 74 -1965362377 49524698 -1500941825 599240671
            -1052424943 -859574575 -565754381 -1430262073</internalNodes>
          <leafValues>
            -2.2470992803573608e-01 1.9836972653865814e-01</leafValues></_>
        <_>
          <internalNodes>
            0 -1 35 1946112731 1467954135 577901467 1366688606 285151743
            606171643 70260138 1880421798</internalNodes>
          <leafValues>
            -2.4866363406181335e-01 1.9503374397754669e-01</leafValues></_>
        <_>
          <internalNodes>
            0 -1 186 -470822157 -127930633 1179413079 -421527617
            -815844016 -268501935 419714896 -263586</internalNodes>
          <leafValues>
            -1.4881432056427002e-01 2.6438993215560913e-01</leafValues></_>
        <_>
          <internalNodes>
            0 -1 118 -1033466896 686293168 -1992423435 2033065072
            1781595104 -939451807 70780333 1065025947</internalNodes>
          <leafValues>
            -2.5274986028671265e-01 1.5491990745067596e-01</leafValues></_>
        <_>
          <internalNodes>
            0 -1 96 -4393 -5644991 -172523723 -1646946745 -46157098
            -2005225771 -101196341 -1342720001</internalNodes>
          <leafValues>
            -1.2278733402490616e-01 3.1518420577049255e-01</leafValues></_>
        <_>
          <internalNodes>
            0 -1 32 -538976621 -216027954 1356219152 -684721585
            -981024118 -1470724822 -758057034 -779619861</internalNodes>
          <leafValues>
            -1.2870697677135468e-01 3.2666727900505066e-01</leafValues></_>
        <_>
          <internalNodes>
            0 -1 104 -1432670445 867182423 -1579208848 1369446118
            38221667 -497656753 -1311427724 1776676666</internalNodes>
          <leafValues>
            -2.8993526101112366e-01 1.3862451910972595e-01</leafValues></_>
        <_>
          <internalNodes>
            0 -1 123 -8402977 -1899258001 -63923969 13029375 -545399821
            -822217345 -82362537 -85196841</internalNodes>
          <leafValues>
            -1.4477413892745972e-01 3.0243584513664246e-01</leafValues></_>
        <_>
          <internalNodes>
            0 -1 220 -1039996278 -2144557910 539418838 -1870486998
            1325835156 1078068325 -792537377 1950873558</internalNodes>
          <leafValues>
            -2.8039193153381348e-01 1.4930193126201630e-01</leafValues></_>
        <_>
          <internalNodes>
            0 -1 67 -2077192716 -1636743504 -25503905 -584479619
            1579871931 -1095070323 -1949922311 -1545157632</internalNodes>
          <leafValues>
            -2.4919722974300385e-01 1.5617570281028748e-01</leafValues></_>
        <_>
          <internalNodes>
            0 -1 99 79693824 1155016820 -663809968 2096382045 541240448
            -1896963792 -1707033718 803150878</internalNodes>
          <leafValues>
            -2.7251681685447693e-01 1.5311855077743530e-01</leafValues></_>
        <_>
          <internalNodes>
            0 -1 41 -126878334 451704841 117474160 157926376 -2091665152
            147296917 22988674 -1610641266</internalNodes>
          <leafValues>
            -1.7328386008739471e-01 2.1983191370964050e-01</leafValues></_>
        <_>
          <internalNodes>
            0 -1 1 33996995 361627271 -1581134987 1117234847 484179696
            -1926683719 278251992 1600340819</internalNodes>
          <leafValues>
            -2.4928793311119080e-01 1.5642730891704559e-01</leafValues></_>
        <_>
          <internalNodes>
            0 -1 63 -927906795 1659905983 468727226 603263451 857743617
            1135118709 982676792 1677411161</internalNodes>
          <leafValues>
            -3.6776033043861389e-01 1.0552182048559189e-01</leafValues></_>
        <_>
          <internalNodes>
            0 -1 159 531864074 -60816822 960357972 -1626913155 571760129
            -1158385293 573201331 -1086646117</internalNodes>
          <leafValues>
            -1.6449818015098572e-01 2.5562345981597900e-01</leafValues></_>
        <_>
          <internalNodes>
            0 -1 157 1646528576 1986331720 377914711 1567950404
            -1372542688 -848505936 461421537 732628923</internalNodes>
          <leafValues>
            -2.5674232840538025e-01 1.5049201250076294e-01</leafValues></_>
        <_>
          <internalNodes>
            0 -1 184 168806638 437926 575862262 199929575 1566372296
            1288373377 428001470 -1882214317</internalNodes>
          <leafValues>
            -2.7982687950134277e-01 1.5047113597393036e-01</leafValues></_>
        <_>
          <internalNodes>
            0 -1 2 874651856 44216995 1019734511 267039746 -555758919
            -824251709 -1918870817 -11045615</internalNodes>
          <leafValues>
            -2.0487944781780243e-01 1.9478206336498260e-01</leafValues></_>
        <_>
          <internalNodes>
            0 -1 127 -2145201072 -667496836 1301116247 1028658028
            -1475823960 -1196002334 698928107 -1144385285</internalNodes>
          <leafValues>
            -1.6588312387466431e-01 2.3709334433078766e-01</leafValues></_>
        <_>
          <internalNodes>
            0 -1 168 -238321703 1252705906 -817131619 -2133403110
            -1754540543 -856295098 -78251776 38228694</internalNodes>
          <leafValues>
            -2.5026941299438477e-01 1.7282837629318237e-01</leafValues></_>
        <_>
          <internalNodes>
            0 -1 185 8065845 147726905 1209139005 1887402036 909398288
            4684401 1983355632 -50065</internalNodes>
          <leafValues>
            -2.1424952149391174e-01 1.8473038077354431e-01</leafValues></_>
        <_>
          <internalNodes>
            0 -1 199 -589274036 1442685503 -794754673 2089607322
            -330815316 -636693024 1083997928 1074062346</internalNodes>
          <leafValues>
            -3.7782901525497437e-01 1.1475265026092529e-01</leafValues></_>
        <_>
          <internalNodes>
            0 -1 209 -530962936 4850796 -1937487108 818806823
            -1589620400 708998720 2046621664 993994302</internalNodes>
          <leafValues>
            -3.3531013131141663e-01 1.2827412784099579e-01</leafValues></_>
        <_>
          <internalNodes>
            0 -1 48 -678430718 -1545147508 -1070942699 -1712075531
            -1580228094 97314972 -1042880638 -1682451729</internalNodes>
          <leafValues>
            -1.8136547505855560e-01 2.1799398958683014e-01</leafValues></_>
        <_>
          <internalNodes>
            0 -1 215 -45363997 -621236118 -376747330 1367824463
            1465546204 -970925850 -37056769 -15992833</internalNodes>
          <leafValues>
            -1.0776762664318085e-01 3.7618237733840942e-01</leafValues></_>
        <_>
          <internalNodes>
            0 -1 130 170290292 147849772 697310265 1823213596
            -1405606831 -594257263 244300784 998965308</internalNodes>
          <leafValues>
            -3.4557437896728516e-01 1.2658013403415680e-01</leafValues></_>
        <_>
          <internalNodes>
            0 -1 98 -1522679809 -1296060507 251493497 104119225
            -1389346401 -1119979523 1597511686 -1195574764</internalNodes>
          <leafValues>
            -1.9303354620933533e-01 2.0791837573051453e-01</leafValues></_>
        <_>
          <internalNodes>
            0 -1 11 1866166179 177304930 1365552031 637238645 1865283999
            -1628029644 1564721099 1666195537</internalNodes>
          <leafValues>
            -3.2513326406478882e-01 1.2873548269271851e-01</leafValues></_>
        <_>
          <internalNodes>
            0 -1 54 -609492912 1397467366 -981072885 319277906 85059242
            -220284640 1413032330 -82857750</internalNodes>
          <leafValues>
            -1.3449694216251373e-01 3.0232080817222595e-01</leafValues></_>
        <_>
          <internalNodes>
            0 -1 79 -964720073 575282619 -1437860562 14334971 2050448394
            -1862284941 -212730457 1778054133</internalNodes>
          <leafValues>
            -2.5670140981674194e-01 1.5973336994647980e-01</leafValues></_>
        <_>
          <internalNodes>
            0 -1 181 607169520 -56835592 209246817 -1727225996
            1567690832 -627914116 1269907307 -1086389366</internalNodes>
          <leafValues>
            -1.8876212835311890e-01 2.1439826488494873e-01</leafValues></_>
        <_>
          <internalNodes>
            0 -1 178 1877993475 1658300286 -301566350 -856918018
            923739760 969174277 1950580850 1952546502</internalNodes>
          <leafValues>
            -3.2956364750862122e-01 1.1789590120315552e-01</leafValues></_>
        <_>
          <internalNodes>
            0 -1 169 -594013165 -548322671 -735896097 -44391524
            -1367490326 -285285144 -1140000293 -1970665165</internalNodes>
          <leafValues>
            -1.4037145674228668e-01 2.7054521441459656e-01</leafValues></_>
        <_>
          <internalNodes>
            0 -1 62 1688991739 -1728969544 205028949 -609345347
            -1615153518 -1971167039 -271330658 -1343238212</internalNodes>
          <leafValues>
            -1.1251895129680634e-01 3.4390488266944885e-01</leafValues></_>
        <_>
          <internalNodes>
            0 -1 203 -655884545 202377856 -980096930 322626187
            -1734362834 166526771 -1046262029 -1478645069</internalNodes>
          <leafValues>
            -1.9177389144897461e-01 2.0778976380825043e-01</leafValues></_>
        <_>
          <internalNodes>
            0 -1 197 -466197984 1381631525 -536581034 1952322612
            271722816 -1060739498 -1607456352 1059785854</internalNodes>
          <leafValues>
            -2.8192558884620667e-01 1.3882002234458923e-01</leafValues></_>
        <_>
          <internalNodes>
            0 -1 85 -319961229 291778462 801075999 -1984128769
            -1918800684 -1619190551 -1502381325 -1162088961</internalNodes>
          <leafValues>
            -1.4771041274070740e-01 2.6718711853027344e-01</leafValues></_>
        <_>
          <internalNodes>
            0 -1 16 -17788937 -582948421 -389204160 1291961493
            -952431354 1113470976 1732597693 428954461</internalNodes>
          <leafValues>
            -2.9611906409263611e-01 1.3759018480777740e-01</leafValues></_>
        <_>
          <internalNodes>
            0 -1 153 -620760357 -892633346 1114681960 -1934692452
            -604538109 -873660417 -10264784 -295765273</internalNodes>
          <leafValues>
            -1.6175423562526703e-01 2.5211361050605774e-01</leafValues></_>
        <_>
          <internalNodes>
            0 -1 70 244230672 11570676 244141909 -1618932260 7008934
            -2065812452 1125273273 256246960</internalNodes>
          <leafValues>
            -2.9587718844413757e-01 1.4039053022861481e-01</leafValues></_>
        <_>
          <internalNodes>
            0 -1 23 -146419189 977403441 139879937 1766176913 -432340448
            253969242 1359000472 -53230214</internalNodes>
          <leafValues>
            -1.7169524729251862e-01 2.4030439555644989e-01</leafValues></_></weakClassifiers></_></stages>
  <features>
    <_>
      <rect>
        0 0 2 4</rect></_>
    <_>
      <rect>
        0 0 2 6</rect></_>
    <_>
      <rect>
        0 0 3 2</rect></_>
    <_>
      <rect>
        0 0 3 5</rect></_>
    <_>
      <rect>
        0 0 4 4</rect></_>
    <_>
      <rect>
        0 0 4 5</rect></_>
    <_>
      <rect>
        0 0 4 6</rect></_>
    <_>
      <rect>
        0 0 5 6</rect></_>
    <_>
      <rect>
        0 0 6 3</rect></_>
    <_>
      <rect>
        0 0 6 6</rect></_>
    <_>
      <rect>
        0 1 4 5</rect></_>
    <_>
      <rect>
        0 1 6 4</rect></_>
    <_>
      <rect>
        0 1 6 6</rect></_>
    <_>
      <rect>
        0 2 2 6</rect></_>
    <_>
      <rect>
        0 2 4 6</rect></_>
    <_>
      <rect>
        0 2 6 6</rect></_>
    <_>
      <rect>
        0 4 5 5</rect></_>
    <_>
      <rect>
        0 5 1 2</rect></_>
    <_>
      <rect>
        0 5 2 5</rect></_>
    <_>
      <rect>
        0 5 3 3</rect></_>
    <_>
      <rect>
        0 5 3 4</rect></_>
    <_>
      <rect>
        0 5 6 5</rect></_>
    <_>
      <rect>
        0 6 1 1</rect></_>
    <_>
      <rect>
        0 6 1 2</rect></_>
    <_>
      <rect>
        0 6 4 3</rect></_>
    <_>
      <rect>
        0 6 6 2</rect></_>
    <_>
      <rect>
        0 7 1 1</rect></_>
    <_>
      <rect>
        0 8 1 1</rect></_>
    <_>
      <rect>
        0 8 2 2</rect></_>
    <_>
      <rect>
        0 8 3 2</rect></_>
    <_>
      <rect>
        0 8 6 4</rect></_>
    <_>
      <rect>
        0 9 1 1</rect></_>
    <_>
      <rect>
        0 10 1 1</rect></_>
    <_>
      <rect>
        0 10 3 2</rect></_>
    <_>
      <rect>
        0 11 1 1</rect></_>
    <_>
      <rect>
        0 11 6 3</rect></_>
    <_>
      <rect>
        1 1 3 1</rect></_>
    <_>
      <rect>
        1 2 1 1</rect></_>
    <_>
      <rect>
        1 4 1 1</rect></_>
    <_>
      <rect>
        1 5 3 3</rect></_>
    <_>
      <rect>
        1 5 6 5</rect></_>
    <_>
      <rect>
        1 6 1 1</rect></_>
    <_>
      <rect>
        1 7 1 1</rect></_>
    <_>
      <rect>
        1 7 2 1</rect></_>
    <_>
      <rect>
        1 7 6 2</rect></_>
    <_>
      <rect>
        1 8 1 1</rect></_>
    <_>
      <rect>
        1 9 1 1</rect></_>
    <_>
      <rect>
        1 9 2 1</rect></_>
    <_>
      <rect>
        1 10 1 1</rect></_>
    <_>
      <rect>
        1 11 1 1</rect></_>
    <_>
      <rect>
        1 11 6 3</rect></_>
    <_>
      <rect>
        1 12 1 1</rect></_>
    <_>
      <rect>
        1 13 1 1</rect></_>
    <_>
      <rect>
        1 13 2 1</rect></_>
    <_>
      <rect>
        1 17 1 1</rect></_>
    <_>
      <rect>
        2 0 5 4</rect></_>
    <_>
      <rect>
        2 0 6 3</rect></_>
    <_>
      <rect>
        2 0 6 6</rect></_>
    <_>
      <rect>
        2 1 1 1</rect></_>
    <_>
      <rect>
        2 2 6 6</rect></_>
    <_>
      <rect>
        2 4 6 5</rect></_>
    <_>
      <rect>
        2 5 1 1</rect></_>
    <_>
      <rect>
        2 6 2 1</rect></_>
    <_>
      <rect>
        2 6 5 3</rect></_>
    <_>
      <rect>
        2 12 1 1</rect></_>
    <_>
      <rect>
        2 14 6 2</rect></_>
    <_>
      <rect>
        3 0 3 2</rect></_>
    <_>
      <rect>
        3 0 4 3</rect></_>
    <_>
      <rect>
        3 2 5 6</rect></_>
    <_>
      <rect>
        3 4 1 1</rect></_>
    <_>
      <rect>
        3 4 2 1</rect></_>
    <_>
      <rect>
        3 4 3 3</rect></_>
    <_>
      <rect>
        3 4 4 3</rect></_>
    <_>
      <rect>
        3 6 2 1</rect></_>
    <_>
      <rect>
        3 6 2 3</rect></_>
    <_>
      <rect>
        3 6 3 3</rect></_>
    <_>
      <rect>
        3 7 2 1</rect></_>
    <_>
      <rect>
        3 7 3 2</rect></_>
    <_>
      <rect>
        3 9 2 2</rect></_>
    <_>
      <rect>
        3 11 2 1</rect></_>
    <_>
      <rect>
        4 0 3 4</rect></_>
    <_>
      <rect>
        4 0 4 1</rect></_>
    <_>
      <rect>
        4 2 4 3</rect></_>
    <_>
      <rect>
        4 5 4 3</rect></_>
    <_>
      <rect>
        4 6 3 2</rect></_>
    <_>
      <rect>
        4 7 2 2</rect></_>
    <_>
      <rect>
        4 7 3 2</rect></_>
    <_>
      <rect>
        4 8 3 2</rect></_>
    <_>
      <rect>
        4 8 4 2</rect></_>
    <_>
      <rect>
        4 9 5 1</rect></_>
    <_>
      <rect>
        4 14 1 1</rect></_>
    <_>
      <rect>
        5 0 5 4</rect></_>
    <_>
      <rect>
        5 0 5 5</rect></_>
    <_>
      <rect>
        5 0 5 6</rect></_>
    <_>
      <rect>
        5 2 2 1</rect></_>
    <_>
      <rect>
        5 2 3 3</rect></_>
    <_>
      <rect>
        5 2 5 6</rect></_>
    <_>
      <rect>
        5 3 2 1</rect></_>
    <_>
      <rect>
        5 3 2 3</rect></_>
    <_>
      <rect>
        5 5 1 1</rect></_>
    <_>
      <rect>
        5 6 1 1</rect></_>
    <_>
      <rect>
        5 6 2 1</rect></_>
    <_>
      <rect>
        5 7 2 1</rect></_>
    <_>
      <rect>
        5 7 3 2</rect></_>
    <_>
      <rect>
        5 8 3 2</rect></_>
    <_>
      <rect>
        5 8 5 4</rect></_>
    <_>
      <rect>
        5 9 2 2</rect></_>
    <_>
      <rect>
        5 10 3 1</rect></_>
    <_>
      <rect>
        5 10 3 2</rect></_>
    <_>
      <rect>
        5 13 2 1</rect></_>
    <_>
      <rect>
        5 14 1 1</rect></_>
    <_>
      <rect>
        6 0 2 1</rect></_>
    <_>
      <rect>
        6 1 1 1</rect></_>
    <_>
      <rect>
        6 2 3 5</rect></_>
    <_>
      <rect>
        6 4 1 1</rect></_>
    <_>
      <rect>
        6 4 2 1</rect></_>
    <_>
      <rect>
        6 5 1 1</rect></_>
    <_>
      <rect>
        6 5 3 3</rect></_>
    <_>
      <rect>
        6 7 2 1</rect></_>
    <_>
      <rect>
        6 8 3 2</rect></_>
    <_>
      <rect>
        6 9 3 1</rect></_>
    <_>
      <rect>
        6 10 3 1</rect></_>
    <_>
      <rect>
        6 11 1 1</rect></_>
    <_>
      <rect>
        6 12 1 1</rect></_>
    <_>
      <rect>
        6 14 1 1</rect></_>
    <_>
      <rect>
        7 0 3 4</rect></_>
    <_>
      <rect>
        7 1 1 1</rect></_>
    <_>
      <rect>
        7 2 2 1</rect></_>
    <_>
      <rect>
        7 4 1 1</rect></_>
    <_>
      <rect>
        7 4 2 1</rect></_>
    <_>
      <rect>
        7 6 1 1</rect></_>
    <_>
      <rect>
        7 6 2 2</rect></_>
    <_>
      <rect>
        7 6 3 1</rect></_>
    <_>
      <rect>
        7 7 3 1</rect></_>
    <_>
      <rect>
        7 9 1 2</rect></_>
    <_>
      <rect>
        7 9 2 2</rect></_>
    <_>
      <rect>
        7 12 1 1</rect></_>
    <_>
      <rect>
        7 12 3 1</rect></_>
    <_>
      <rect>
        7 15 1 1</rect></_>
    <_>
      <rect>
        8 0 3 2</rect></_>
    <_>
      <rect>
        8 0 4 5</rect></_>
    <_>
      <rect>
        8 0 4 6</rect></_>
    <_>
      <rect>
        8 1 4 5</rect></_>
    <_>
      <rect>
        8 2 1 1</rect></_>
    <_>
      <rect>
        8 2 3 5</rect></_>
    <_>
      <rect>
        8 3 1 1</rect></_>
    <_>
      <rect>
        8 3 4 4</rect></_>
    <_>
      <rect>
        8 4 1 1</rect></_>
    <_>
      <rect>
        8 5 4 1</rect></_>
    <_>
      <rect>
        8 5 4 5</rect></_>
    <_>
      <rect>
        8 6 2 1</rect></_>
    <_>
      <rect>
        8 8 1 1</rect></_>
    <_>
      <rect>
        8 9 2 2</rect></_>
    <_>
      <rect>
        8 12 1 1</rect></_>
    <_>
      <rect>
        9 0 1 1</rect></_>
    <_>
      <rect>
        9 1 1 1</rect></_>
    <_>
      <rect>
        9 1 2 2</rect></_>
    <_>
      <rect>
        9 3 1 1</rect></_>
    <_>
      <rect>
        9 4 2 1</rect></_>
    <_>
      <rect>
        9 5 2 1</rect></_>
    <_>
      <rect>
        9 5 3 1</rect></_>
    <_>
      <rect>
        9 6 1 1</rect></_>
    <_>
      <rect>
        9 7 1 1</rect></_>
    <_>
      <rect>
        9 7 3 1</rect></_>
    <_>
      <rect>
        9 8 1 1</rect></_>
    <_>
      <rect>
        9 10 2 1</rect></_>
    <_>
      <rect>
        9 11 1 2</rect></_>
    <_>
      <rect>
        9 12 1 1</rect></_>
    <_>
      <rect>
        9 14 1 1</rect></_>
    <_>
      <rect>
        10 0 2 1</rect></_>
    <_>
      <rect>
        10 2 2 2</rect></_>
    <_>
      <rect>
        10 3 1 1</rect></_>
    <_>
      <rect>
        10 4 1 1</rect></_>
    <_>
      <rect>
        10 6 1 1</rect></_>
    <_>
      <rect>
        10 6 2 1</rect></_>
    <_>
      <rect>
        10 7 1 1</rect></_>
    <_>
      <rect>
        10 9 1 1</rect></_>
    <_>
      <rect>
        10 11 1 1</rect></_>
    <_>
      <rect>
        10 11 2 1</rect></_>
    <_>
      <rect>
        11 0 3 5</rect></_>
    <_>
      <rect>
        11 1 1 1</rect></_>
    <_>
      <rect>
        11 2 1 2</rect></_>
    <_>
      <rect>
        11 5 1 1</rect></_>
    <_>
      <rect>
        11 7 3 1</rect></_>
    <_>
      <rect>
        11 8 3 4</rect></_>
    <_>
      <rect>
        11 9 1 1</rect></_>
    <_>
      <rect>
        11 11 1 1</rect></_>
    <_>
      <rect>
        11 12 1 1</rect></_>
    <_>
      <rect>
        12 0 1 1</rect></_>
    <_>
      <rect>
        12 2 1 1</rect></_>
    <_>
      <rect>
        12 5 1 1</rect></_>
    <_>
      <rect>
        12 6 1 1</rect></_>
    <_>
      <rect>
        12 6 2 1</rect></_>
    <_>
      <rect>
        12 12 1 1</rect></_>
    <_>
      <rect>
        13 2 1 1</rect></_>
    <_>
      <rect>
        13 2 2 6</rect></_>
    <_>
      <rect>
        13 4 1 1</rect></_>
    <_>
      <rect>
        13 5 1 1</rect></_>
    <_>
      <rect>
        13 13 1 1</rect></_>
    <_>
      <rect>
        14 0 2 4</rect></_>
    <_>
      <rect>
        14 1 2 1</rect></_>
    <_>
      <rect>
        14 1 2 5</rect></_>
    <_>
      <rect>
        14 2 2 6</rect></_>
    <_>
      <rect>
        14 4 2 5</rect></_>
    <_>
      <rect>
        14 5 2 5</rect></_>
    <_>
      <rect>
        14 8 2 2</rect></_>
    <_>
      <rect>
        14 9 2 2</rect></_>
    <_>
      <rect>
        14 12 2 1</rect></_>
    <_>
      <rect>
        15 4 1 1</rect></_>
    <_>
      <rect>
        15 7 1 1</rect></_>
    <_>
      <rect>
        16 3 1 1</rect></_>
    <_>
      <rect>
        16 10 1 1</rect></_>
    <_>
      <rect>
        16 11 1 1</rect></_>
    <_>
      <rect>
        17 3 1 1</rect></_>
    <_>
      <rect>
        17 4 1 1</rect></_>
    <_>
      <rect>
        17 5 1 1</rect></_>
    <_>
      <rect>
        17 6 1 1</rect></_>
    <_>
      <rect>
        17 7 1 1</rect></_>
    <_>
      <rect>
        17 8 1 1</rect></_>
    <_>
      <rect>
        17 9 1 1</rect></_>
    <_>
      <rect>
        17 10 1 1</rect></_>
    <_>
      <rect>
        17 11 1 1</rect></_>
    <_>
      <rect>
        17 12 1 1</rect></_>
    <_>
      <rect>
        17 13 1 1</rect></_>
    <_>
      <rect>
        17 17 1 1</rect></_></features></cascade>
</opencv_storage>
