<?xml version="1.0"?>
<opencv_storage>
<stage28>
  <maxWeakCount>92</maxWeakCount>
  <stageThreshold>-1.0245444774627686e+00</stageThreshold>
  <weakClassifiers>
    <_>
      <internalNodes>
        0 -1 1625 2130467 1114757616 1882349875 -1982014472 -2111201965
        -1692629516 -1959200769 -394501</internalNodes>
      <leafValues>
        5.0884686410427094e-02 3.8120338320732117e-01</leafValues></_>
    <_>
      <internalNodes>
        0 -1 1897 -838796039 138413661 -1597902123 332860501 1333804369
        1135672617 177289782 -923618753</internalNodes>
      <leafValues>
        -1.3855136930942535e-01 1.5654018521308899e-01</leafValues></_>
    <_>
      <internalNodes>
        0 -1 2504 750019967 160834606 -932115116 -775017364 123802612
        443157912 1998718384 1672566624</internalNodes>
      <leafValues>
        -2.1178570389747620e-01 9.3780972063541412e-02</leafValues></_>
    <_>
      <internalNodes>
        0 -1 2405 530521339 512565675 -1105037765 241141947 800887711
        1060945606 -682185518 -26558654</internalNodes>
      <leafValues>
        -1.1001965403556824e-01 1.9310705363750458e-01</leafValues></_>
    <_>
      <internalNodes>
        0 -1 355 -252754313 1933125029 1605664319 2099925935 1342849197
        -1154720753 1817009007 1416460159</internalNodes>
      <leafValues>
        -1.6678839921951294e-01 1.1251094192266464e-01</leafValues></_>
    <_>
      <internalNodes>
        0 -1 1286 -127412267 -422193187 -1098964189 -1281422695
        -181095169 -606997380 -84450849 -17045069</internalNodes>
      <leafValues>
        -7.3706127703189850e-02 2.6070505380630493e-01</leafValues></_>
    <_>
      <internalNodes>
        0 -1 1571 -144312652 419970541 -1776543354 854567653 -1244630488
        890157044 -1759495582 679097904</internalNodes>
      <leafValues>
        -2.5590595602989197e-01 8.4317080676555634e-02</leafValues></_>
    <_>
      <internalNodes>
        0 -1 2064 1325331158 745273978 -287197459 -1930704370 -35753980
        -1707280045 -385532669 -648679921</internalNodes>
      <leafValues>
        -1.5147159993648529e-01 1.3495920598506927e-01</leafValues></_>
    <_>
      <internalNodes>
        0 -1 1935 1158806576 407173458 1209076534 -1999229060 1538859008
        1061178305 -829218595 162740464</internalNodes>
      <leafValues>
        -2.2588150203227997e-01 8.5857681930065155e-02</leafValues></_>
    <_>
      <internalNodes>
        0 -1 3630 104836679 1619961903 -1937885056 184336222 1883076352
        781409087 1568619280 1499882334</internalNodes>
      <leafValues>
        -2.2974397242069244e-01 8.7289437651634216e-02</leafValues></_>
    <_>
      <internalNodes>
        0 -1 1925 417810723 811969138 -1350677467 -768151425 -1019348741
        -964726237 586318333 -856558849</internalNodes>
      <leafValues>
        -1.2431368231773376e-01 1.6511251032352448e-01</leafValues></_>
    <_>
      <internalNodes>
        0 -1 2167 1967098323 -1213885717 -1615601749 -1223982899
        -1944726285 -210275945 -549860689 -69209089</internalNodes>
      <leafValues>
        -5.5096603929996490e-02 4.1712662577629089e-01</leafValues></_>
    <_>
      <internalNodes>
        0 -1 98 485633263 59912200 302517641 354359404 388929993
        656871527 680251713 1380152068</internalNodes>
      <leafValues>
        -2.6349693536758423e-01 7.7886551618576050e-02</leafValues></_>
    <_>
      <internalNodes>
        0 -1 230 737558447 -2128603846 704117335 -559709966 31981263
        -1998568449 -841109507 -1614028549</internalNodes>
      <leafValues>
        -6.4951173961162567e-02 3.3569195866584778e-01</leafValues></_>
    <_>
      <internalNodes>
        0 -1 288 -153625855 1542318015 1090449237 -537281859 -1614298496
        -1385126804 -302862125 -320871461</internalNodes>
      <leafValues>
        -9.9451594054698944e-02 2.0109097659587860e-01</leafValues></_>
    <_>
      <internalNodes>
        0 -1 3602 125004517 182988037 -297902704 930883154 211117617
        -1377410699 556364425 1003173515</internalNodes>
      <leafValues>
        -1.8323470652103424e-01 1.0623836517333984e-01</leafValues></_>
    <_>
      <internalNodes>
        0 -1 684 -661765613 228911747 694224640 -1798417678 -1419411318
        -1115818068 -1230967418 -352981114</internalNodes>
      <leafValues>
        -1.0337043553590775e-01 1.9116197526454926e-01</leafValues></_>
    <_>
      <internalNodes>
        0 -1 3178 519015199 -288031825 -1942174703 -1200171734
        1451625483 -96424182 1209796208 -1092340015</internalNodes>
      <leafValues>
        -1.4727073907852173e-01 1.3569460809230804e-01</leafValues></_>
    <_>
      <internalNodes>
        0 -1 1400 384959504 329583631 -1340777392 553657584 -1863515175
        253908603 -869202146 1328629392</internalNodes>
      <leafValues>
        -2.3463100194931030e-01 9.0912647545337677e-02</leafValues></_>
    <_>
      <internalNodes>
        0 -1 3303 -723734468 538424644 874559888 216875100 -738181088
        -1875901979 -530305530 539386912</internalNodes>
      <leafValues>
        -3.1108421087265015e-01 6.1745207756757736e-02</leafValues></_>
    <_>
      <internalNodes>
        0 -1 2327 -740567089 986536670 129277730 -568729249 -220350033
        -218568658 -364357048 -267524093</internalNodes>
      <leafValues>
        -8.3663709461688995e-02 2.3851813375949860e-01</leafValues></_>
    <_>
      <internalNodes>
        0 -1 3968 268625606 1529218664 -172745141 -1693401884 -158149642
        -777480848 1165143754 -539775333</internalNodes>
      <leafValues>
        -1.1454922705888748e-01 1.7789761722087860e-01</leafValues></_>
    <_>
      <internalNodes>
        0 -1 3952 -743705957 -769144150 425358487 -1856289039 1229899770
        -445947331 -776154678 -281087777</internalNodes>
      <leafValues>
        -7.7855162322521210e-02 2.4339452385902405e-01</leafValues></_>
    <_>
      <internalNodes>
        0 -1 2295 -25213477 -1964295005 -400794815 700006 2129620752
        -1158621951 2131984209 1122559748</internalNodes>
      <leafValues>
        -2.0250615477561951e-01 1.0097593069076538e-01</leafValues></_>
    <_>
      <internalNodes>
        0 -1 1929 1191028575 2081165131 -16794057 -223859652 -1300582494
        -285270298 -1367243271 -1152385058</internalNodes>
      <leafValues>
        -9.8280683159828186e-02 2.2312122583389282e-01</leafValues></_>
    <_>
      <internalNodes>
        0 -1 2898 1245997146 -1936593252 -1673454244 147926355 616902780
        1692383305 76335368 1000997926</internalNodes>
      <leafValues>
        -2.7192491292953491e-01 7.8835174441337585e-02</leafValues></_>
    <_>
      <internalNodes>
        0 -1 3837 -232395841 -953601098 -1418217773 -1086728241
        -322187794 -285993306 -577774390 -1838405</internalNodes>
      <leafValues>
        -7.2768501937389374e-02 2.8707060217857361e-01</leafValues></_>
    <_>
      <internalNodes>
        0 -1 307 -261300719 -581633641 1989223441 -713175520 340152472
        -1290482768 -243139938 -68831502</internalNodes>
      <leafValues>
        -9.3167237937450409e-02 2.1005211770534515e-01</leafValues></_>
    <_>
      <internalNodes>
        0 -1 3079 2127564180 216137732 -358361708 -1851976172 -643822848
        -315729052 -560720271 1289694758</internalNodes>
      <leafValues>
        -1.9315187633037567e-01 1.0529307276010513e-01</leafValues></_>
    <_>
      <internalNodes>
        0 -1 2570 33799280 408042418 1359165275 754977134 134152687
        -1680732241 1486033311 -1484496744</internalNodes>
      <leafValues>
        -1.5559710562229156e-01 1.3292762637138367e-01</leafValues></_>
    <_>
      <internalNodes>
        0 -1 3384 -426117323 -815412395 -156311075 -758972557
        -2093021800 -2044381594 -1850900344 -246197165</internalNodes>
      <leafValues>
        -1.0280186682939529e-01 2.0046499371528625e-01</leafValues></_>
    <_>
      <internalNodes>
        0 -1 3930 -829994274 1073924778 -667128072 2081186924 1159862952
        -536423860 -96163070 1275130976</internalNodes>
      <leafValues>
        -2.2527025640010834e-01 8.8448368012905121e-02</leafValues></_>
    <_>
      <internalNodes>
        0 -1 1421 -775986185 -7905067 2107889405 -249557985 -679871777
        -2093125699 2139071646 -289913077</internalNodes>
      <leafValues>
        -6.5941907465457916e-02 2.9567068815231323e-01</leafValues></_>
    <_>
      <internalNodes>
        0 -1 1864 -496732566 1961763373 287229269 1886137875 1084740610
        -1968502712 -357278428 1034578879</internalNodes>
      <leafValues>
        -1.7019748687744141e-01 1.2095317989587784e-01</leafValues></_>
    <_>
      <internalNodes>
        0 -1 1254 1290970624 16515214 1787579353 461637812 1766489762
        -153974768 1261310352 524291716</internalNodes>
      <leafValues>
        -2.5346842408180237e-01 8.0912120640277863e-02</leafValues></_>
    <_>
      <internalNodes>
        0 -1 2475 417192669 -1815019339 723473950 2071983087 617972111
        -71668005 2045724655 -547700801</internalNodes>
      <leafValues>
        -6.5737105906009674e-02 3.2821226119995117e-01</leafValues></_>
    <_>
      <internalNodes>
        0 -1 3902 1636348418 827100446 55136621 -1209912664 -809180699
        -996586762 -1308772360 -1185336426</internalNodes>
      <leafValues>
        -1.4580960571765900e-01 1.4153526723384857e-01</leafValues></_>
    <_>
      <internalNodes>
        0 -1 1092 -3220991 -1953106502 1806767094 960486783 -2021818344
        286759043 -728710974 -1443365037</internalNodes>
      <leafValues>
        -1.2456957250833511e-01 1.6774319112300873e-01</leafValues></_>
    <_>
      <internalNodes>
        0 -1 2695 117373762 605434418 -988544480 -2098331026 1676025894
        -293955211 -1416469760 997997708</internalNodes>
      <leafValues>
        -2.6240682601928711e-01 7.7984794974327087e-02</leafValues></_>
    <_>
      <internalNodes>
        0 -1 36 1913102354 2137122462 523995517 1164821894 2131230619
        -1841389198 -333060645 -615022581</internalNodes>
      <leafValues>
        -1.0102050751447678e-01 2.0059655606746674e-01</leafValues></_>
    <_>
      <internalNodes>
        0 -1 1140 1107955104 1239943688 474390332 -822074455 -1964006735
        -1498122636 1212713610 134227968</internalNodes>
      <leafValues>
        -2.3234555125236511e-01 8.5809238255023956e-02</leafValues></_>
    <_>
      <internalNodes>
        0 -1 3207 -77604941 -302782593 -588916467 -802090313 -44215245
        -587868403 -773337 -209715673</internalNodes>
      <leafValues>
        -8.0530710518360138e-02 2.4452477693557739e-01</leafValues></_>
    <_>
      <internalNodes>
        0 -1 2818 683960916 -1451201985 -1157963588 890018232
        -1373290758 -2088127225 -1468455336 1089954908</internalNodes>
      <leafValues>
        -2.1344178915023804e-01 9.8627954721450806e-02</leafValues></_>
    <_>
      <internalNodes>
        0 -1 2051 -1195460623 -54877321 -538017285 -1419334922 737596876
        -1894670799 -990077271 -35580488</internalNodes>
      <leafValues>
        -9.1536775231361389e-02 2.2778847813606262e-01</leafValues></_>
    <_>
      <internalNodes>
        0 -1 2549 1587465744 7674471 -1535057892 540097070 534458944
        1179122523 1904683024 1374729159</internalNodes>
      <leafValues>
        -3.0629900097846985e-01 6.8788729608058929e-02</leafValues></_>
    <_>
      <internalNodes>
        0 -1 2934 -259538985 -924717217 -1615605276 -1726302657
        -1562954335 -50522268 -1084914739 -5296453</internalNodes>
      <leafValues>
        -7.9813025891780853e-02 2.6506012678146362e-01</leafValues></_>
    <_>
      <internalNodes>
        0 -1 2606 301990001 -24079728 638603846 1350620012 -1840934902
        -805219019 167772582 2438491</internalNodes>
      <leafValues>
        -3.8396710157394409e-01 5.6188918650150299e-02</leafValues></_>
    <_>
      <internalNodes>
        0 -1 1889 -32024325 1448291879 -563098805 1060078927 -308877927
        -41433610 -807813633 -6291521</internalNodes>
      <leafValues>
        -6.2298800796270370e-02 3.5815003514289856e-01</leafValues></_>
    <_>
      <internalNodes>
        0 -1 149 982688132 -790593360 20615557 29549376 1181097219
        278327882 1637222404 1087505509</internalNodes>
      <leafValues>
        -3.5675752162933350e-01 6.3702672719955444e-02</leafValues></_>
    <_>
      <internalNodes>
        0 -1 1776 -1145989801 -1154047896 1009673013 -638236077 -8409581
        -1163285505 2022455698 -24391185</internalNodes>
      <leafValues>
        -8.6087152361869812e-02 2.5334596633911133e-01</leafValues></_>
    <_>
      <internalNodes>
        0 -1 2563 -651526846 -1900365905 -1351059649 671721100 -6849493
        -827427460 1467179302 507634292</internalNodes>
      <leafValues>
        -2.1270503103733063e-01 1.0143682360649109e-01</leafValues></_>
    <_>
      <internalNodes>
        0 -1 2973 519501796 502216620 -394672750 -593887985 1322090479
        -817008860 -1621688838 -1915103297</internalNodes>
      <leafValues>
        -1.0725141316652298e-01 2.0486304163932800e-01</leafValues></_>
    <_>
      <internalNodes>
        0 -1 1615 -1947956428 -1922027530 1285956064 721954936 144983352
        -1754371448 1312686996 752501375</internalNodes>
      <leafValues>
        -2.4709515273571014e-01 8.7134569883346558e-02</leafValues></_>
    <_>
      <internalNodes>
        0 -1 2196 1378816487 -24754585 -3601525 2068614958 809274721
        -356559714 1836570782 -539788082</internalNodes>
      <leafValues>
        -9.5206163823604584e-02 2.2412140667438507e-01</leafValues></_>
    <_>
      <internalNodes>
        0 -1 3958 -1058544897 -597930890 -185885697 -3021666 1777190335
        -948680065 1465796654 -62923601</internalNodes>
      <leafValues>
        -7.5531639158725739e-02 2.6822710037231445e-01</leafValues></_>
    <_>
      <internalNodes>
        0 -1 2819 -1359194288 774522166 -2097150719 1625973540 508297996
        -747180765 -1047248800 1085353524</internalNodes>
      <leafValues>
        -2.6677066087722778e-01 7.9409651458263397e-02</leafValues></_>
    <_>
      <internalNodes>
        0 -1 1113 -881094477 -78297955 -1175563653 -650513557
        -2106220069 -1154713892 1325367739 -69511425</internalNodes>
      <leafValues>
        -6.8316064774990082e-02 3.1977176666259766e-01</leafValues></_>
    <_>
      <internalNodes>
        0 -1 3918 1516238335 -624300129 -2138365060 -573185618
        1598795695 -123170957 -405167729 -114312565</internalNodes>
      <leafValues>
        -6.5605565905570984e-02 3.2229253649711609e-01</leafValues></_>
    <_>
      <internalNodes>
        0 -1 3098 84038695 908093155 -1171346474 -58959748 1151537842
        -209305082 380809760 179899976</internalNodes>
      <leafValues>
        -1.9775387644767761e-01 1.1161510646343231e-01</leafValues></_>
    <_>
      <internalNodes>
        0 -1 2370 -550203019 1251075452 -1971392643 -1981312527
        1060173663 524090874 -134605167 -1907565</internalNodes>
      <leafValues>
        -9.9313616752624512e-02 2.2797866165637970e-01</leafValues></_>
    <_>
      <internalNodes>
        0 -1 3818 -36909169 973776608 674697723 -1799846371 287439952
        792557830 527855522 -11732796</internalNodes>
      <leafValues>
        -1.0928858816623688e-01 2.0119214057922363e-01</leafValues></_>
    <_>
      <internalNodes>
        0 -1 83 -1878473384 397738699 1351124483 -1069503978 811139617
        210247170 1656823469 1416708731</internalNodes>
      <leafValues>
        -2.4856649339199066e-01 8.7950289249420166e-02</leafValues></_>
    <_>
      <internalNodes>
        0 -1 2836 1208260662 -1121957427 832309880 391441400 2025470702
        -537649248 707542332 226362910</internalNodes>
      <leafValues>
        -2.0447723567485809e-01 1.0557306557893753e-01</leafValues></_>
    <_>
      <internalNodes>
        0 -1 2235 1224277616 1316749312 841511104 472733037 -803702752
        20410684 56122886 1127896938</internalNodes>
      <leafValues>
        -2.7800831198692322e-01 7.9392887651920319e-02</leafValues></_>
    <_>
      <internalNodes>
        0 -1 3316 1525153757 -65114945 -1888601267 -81185411 -746909719
        -1162767245 241904888 -540033041</internalNodes>
      <leafValues>
        -7.3484368622303009e-02 3.0220448970794678e-01</leafValues></_>
    <_>
      <internalNodes>
        0 -1 3927 -8914017 -130043217 988161747 2074839774 -1229347913
        -160377922 -1011452665 -71306293</internalNodes>
      <leafValues>
        -5.2817571908235550e-02 3.9256346225738525e-01</leafValues></_>
    <_>
      <internalNodes>
        0 -1 3750 77554200 113402599 -1610404858 13901836 1664024837
        638591326 1664096854 1009391059</internalNodes>
      <leafValues>
        -3.4488299489021301e-01 6.7086733877658844e-02</leafValues></_>
    <_>
      <internalNodes>
        0 -1 552 -723063305 1906421221 1852510996 1105281675 -30947697
        -1839488403 -24228165 -68620817</internalNodes>
      <leafValues>
        -7.0970706641674042e-02 3.1806531548500061e-01</leafValues></_>
    <_>
      <internalNodes>
        0 -1 944 -1922257636 864305400 1296977841 -217657361 1082219538
        815960196 -561716527 8408196</internalNodes>
      <leafValues>
        -2.2304935753345490e-01 9.7624510526657104e-02</leafValues></_>
    <_>
      <internalNodes>
        0 -1 1517 -868390241 -1090657655 -1505790018 -2068412495
        255175327 934794879 2129689594 -83890194</internalNodes>
      <leafValues>
        -7.4918366968631744e-02 2.8986448049545288e-01</leafValues></_>
    <_>
      <internalNodes>
        0 -1 632 1331488671 -68650510 -650413339 -184110861 1461188532
        -370247060 -4066357 -1048577</internalNodes>
      <leafValues>
        -7.0530876517295837e-02 3.0639460682868958e-01</leafValues></_>
    <_>
      <internalNodes>
        0 -1 1635 257852240 265695442 10762390 900755382 1787843348
        745055330 717293108 783813236</internalNodes>
      <leafValues>
        -3.3667811751365662e-01 6.6394299268722534e-02</leafValues></_>
    <_>
      <internalNodes>
        0 -1 2744 -763370025 -184574369 -1170234490 -539101177 -655747
        -13312387 -512329128 -389945904</internalNodes>
      <leafValues>
        -6.6475532948970795e-02 3.4326353669166565e-01</leafValues></_>
    <_>
      <internalNodes>
        0 -1 421 1611186216 1796442097 -2075703471 930427428 -1040173938
        21409866 -1682003374 212075216</internalNodes>
      <leafValues>
        -2.4551850557327271e-01 9.4817981123924255e-02</leafValues></_>
    <_>
      <internalNodes>
        0 -1 3924 -690499369 1584790142 1473015167 1981220843 -83801108
        1926397619 -234168805 -26490965</internalNodes>
      <leafValues>
        -8.6966916918754578e-02 2.6542946696281433e-01</leafValues></_>
    <_>
      <internalNodes>
        0 -1 1096 -1029420992 209228804 -1068216949 -2127768022
        169418496 23539823 1724042836 539464514</internalNodes>
      <leafValues>
        -3.6938709020614624e-01 5.9260189533233643e-02</leafValues></_>
    <_>
      <internalNodes>
        0 -1 1170 -1169956262 1934661592 -546173169 -1522602779
        -337673541 -1308900752 693948316 -1124124193</internalNodes>
      <leafValues>
        -1.0136824101209641e-01 2.2074945271015167e-01</leafValues></_>
    <_>
      <internalNodes>
        0 -1 377 -1601574752 1557418190 906687641 1412957488 151062692
        604381619 430783178 190724281</internalNodes>
      <leafValues>
        -1.9874294102191925e-01 1.0838270932435989e-01</leafValues></_>
    <_>
      <internalNodes>
        0 -1 1939 -1464269609 1435561247 167057236 -1950452866
        1954613003 1759096692 1926443002 -72554326</internalNodes>
      <leafValues>
        -1.2881037592887878e-01 1.7353549599647522e-01</leafValues></_>
    <_>
      <internalNodes>
        0 -1 3650 -546052544 -985485642 -894087369 -1805339106
        -236188143 352608881 2022724450 1851504131</internalNodes>
      <leafValues>
        -1.6965229809284210e-01 1.2839682400226593e-01</leafValues></_>
    <_>
      <internalNodes>
        0 -1 2925 -150548038 1556469210 -106300615 -103975982 -889348472
        -1916117083 -44102222 -573637076</internalNodes>
      <leafValues>
        -1.0674698650836945e-01 2.0933148264884949e-01</leafValues></_>
    <_>
      <internalNodes>
        0 -1 2478 972994264 -905009404 176493976 -1153851626 -76980772
        -1542693102 425552528 999396170</internalNodes>
      <leafValues>
        -1.6552126407623291e-01 1.3398627936840057e-01</leafValues></_>
    <_>
      <internalNodes>
        0 -1 3072 1460835231 2020904491 -265216571 1829292297 -875711503
        -1412970024 -345160693 -645230304</internalNodes>
      <leafValues>
        -1.0840548574924469e-01 2.0360985398292542e-01</leafValues></_>
    <_>
      <internalNodes>
        0 -1 3624 -971522593 982498302 439475750 -218682037 2104972809
        -1010827913 166572588 -284689274</internalNodes>
      <leafValues>
        -1.0141841322183609e-01 2.1592503786087036e-01</leafValues></_>
    <_>
      <internalNodes>
        0 -1 3888 -388797763 6719625 1006822942 307184831 1379655026
        964306948 -1185586700 1896723350</internalNodes>
      <leafValues>
        -2.1379654109477997e-01 1.0854708403348923e-01</leafValues></_>
    <_>
      <internalNodes>
        0 -1 3574 1713512672 -289894577 1379950829 1488193400 635975156
        -1433791055 631792565 195757148</internalNodes>
      <leafValues>
        -2.2460933029651642e-01 1.0207519680261612e-01</leafValues></_>
    <_>
      <internalNodes>
        0 -1 3798 -791596032 -320084372 -1383534616 -400581479
        2090989304 1677240680 -396703258 -313820133</internalNodes>
      <leafValues>
        -1.3183289766311646e-01 1.7547267675399780e-01</leafValues></_>
    <_>
      <internalNodes>
        0 -1 2091 -797186857 -1947104486 -185649805 1274404465
        -804943626 -352373268 -78058245 -1706130106</internalNodes>
      <leafValues>
        -1.0302230715751648e-01 2.1699240803718567e-01</leafValues></_>
    <_>
      <internalNodes>
        0 -1 2449 -240032793 -626427459 -114602141 -1246029675 -4831017
        -12584646 -537148422 -4195485</internalNodes>
      <leafValues>
        -6.4726412296295166e-02 3.3283397555351257e-01</leafValues></_>
    <_>
      <internalNodes>
        0 -1 524 1578977058 -2053658773 327748896 813745417 273154304
        25051155 1484587173 407571971</internalNodes>
      <leafValues>
        -3.6650678515434265e-01 6.1458535492420197e-02</leafValues></_>
    <_>
      <internalNodes>
        0 -1 2619 1350554143 1500526772 1975655853 1498514528
        -1706678890 -1074223191 -1085350272 -611937902</internalNodes>
      <leafValues>
        -1.0903719067573547e-01 1.9960092008113861e-01</leafValues></_>
    <_>
      <internalNodes>
        0 -1 667 -890773801 333870263 296537423 -1111085164 -99485285
        -554605396 -168317542 -373166507</internalNodes>
      <leafValues>
        -7.4143223464488983e-02 2.9393598437309265e-01</leafValues></_></weakClassifiers></stage28>
</opencv_storage>
