<?xml version="1.0"?>
<opencv_storage>
<stage9>
  <maxWeakCount>52</maxWeakCount>
  <stageThreshold>-1.3131637573242188e+00</stageThreshold>
  <weakClassifiers>
    <_>
      <internalNodes>
        0 -1 2604 -35168257 -33571361 -858808833 -89328149 -184614929
        -69769 -855709201 1152312446</internalNodes>
      <leafValues>
        -1.0064635425806046e-01 4.1729068756103516e-01</leafValues></_>
    <_>
      <internalNodes>
        0 -1 1530 -1614823425 259387327 -1343094917 -1413501167
        -1884913665 -940769291 -268759169 -1950382031</internalNodes>
      <leafValues>
        -1.9525825977325439e-01 2.6724880933761597e-01</leafValues></_>
    <_>
      <internalNodes>
        0 -1 89 -374540353 1996290975 -747180043 1442175733 593713
        280829499 204426319 1464827775</internalNodes>
      <leafValues>
        -3.0131736397743225e-01 1.5150135755538940e-01</leafValues></_>
    <_>
      <internalNodes>
        0 -1 2450 -704905250 892743436 -1414284266 467022135 -982182025
        664477620 192808823 788401704</internalNodes>
      <leafValues>
        -3.5125267505645752e-01 1.1656723171472549e-01</leafValues></_>
    <_>
      <internalNodes>
        0 -1 2919 69861442 -971624794 1898764884 -30538892 -1371794091
        -1166506563 969976738 1069496762</internalNodes>
      <leafValues>
        -2.5368276238441467e-01 1.5697392821311951e-01</leafValues></_>
    <_>
      <internalNodes>
        0 -1 3003 -15728641 -894639649 -1671488433 -2010266614
        -1151336685 -27562404 -42617518 -834142445</internalNodes>
      <leafValues>
        -1.5254324674606323e-01 2.5509282946586609e-01</leafValues></_>
    <_>
      <internalNodes>
        0 -1 3438 -397406124 -136445928 921313053 -574813156 -1145391568
        -293701404 -1081147990 1066076842</internalNodes>
      <leafValues>
        -2.2231282293796539e-01 1.7277686297893524e-01</leafValues></_>
    <_>
      <internalNodes>
        0 -1 1025 284898043 823554811 -267442800 217441668 320599551
        12877759 -133807844 684816040</internalNodes>
      <leafValues>
        -2.8450092673301697e-01 1.2628702819347382e-01</leafValues></_>
    <_>
      <internalNodes>
        0 -1 2974 1929062931 1398778853 -53586794 -1160613922 2103408501
        -1401754719 -1213106992 -1107428994</internalNodes>
      <leafValues>
        -2.0873549580574036e-01 1.9313703477382660e-01</leafValues></_>
    <_>
      <internalNodes>
        0 -1 1674 238199 47328510 51867507 268180730 39306803 -838900764
        -1483627625 805305813</internalNodes>
      <leafValues>
        -2.3714646697044373e-01 1.6214865446090698e-01</leafValues></_>
    <_>
      <internalNodes>
        0 -1 168 -204800350 1424543392 218595680 -650780288 -1521223552
        1164101138 1162069899 -674249825</internalNodes>
      <leafValues>
        -1.5811230242252350e-01 2.4169103801250458e-01</leafValues></_>
    <_>
      <internalNodes>
        0 -1 2338 1013989628 936712496 425487871 1609926428 -1101248600
        -473092 1747488686 170393672</internalNodes>
      <leafValues>
        -3.1245410442352295e-01 1.3545581698417664e-01</leafValues></_>
    <_>
      <internalNodes>
        0 -1 2536 -1009784193 -1972371569 -955646121 -129436289
        -1008730369 -856686729 -646057613 -3213328</internalNodes>
      <leafValues>
        -1.3434165716171265e-01 3.0729910731315613e-01</leafValues></_>
    <_>
      <internalNodes>
        0 -1 876 -939801161 932958101 336998155 787752765 788476594
        581893855 1802710562 988478976</internalNodes>
      <leafValues>
        -2.5403252243995667e-01 1.4759327471256256e-01</leafValues></_>
    <_>
      <internalNodes>
        0 -1 3944 -91239761 -536739706 -1061101029 -108394410
        -1066609926 -1943641054 -461188433 -11542837</internalNodes>
      <leafValues>
        -1.1869479715824127e-01 2.9964753985404968e-01</leafValues></_>
    <_>
      <internalNodes>
        0 -1 1331 781626096 1849600558 4127248 438196228 -230297440
        1618633264 1129571200 1597179102</internalNodes>
      <leafValues>
        -2.8549578785896301e-01 1.1647329479455948e-01</leafValues></_>
    <_>
      <internalNodes>
        0 -1 2988 -211823489 -1426063441 -873707689 -1733886040
        2012216083 -874512577 1467479872 -286064908</internalNodes>
      <leafValues>
        -1.4627212285995483e-01 2.3997159302234650e-01</leafValues></_>
    <_>
      <internalNodes>
        0 -1 1977 1651485438 591077582 53141205 353306671 -1552202750
        -1929429709 100886527 257912591</internalNodes>
      <leafValues>
        -2.4372933804988861e-01 1.4890716969966888e-01</leafValues></_>
    <_>
      <internalNodes>
        0 -1 2403 1112580112 -1091172983 1642872757 2111256944
        1002092320 -416408172 -2114145586 -1081405506</internalNodes>
      <leafValues>
        -1.7088142037391663e-01 2.1594995260238647e-01</leafValues></_>
    <_>
      <internalNodes>
        0 -1 267 1589368191 530184191 1396222808 133625075 599462925
        393810356 -281382671 1744172259</internalNodes>
      <leafValues>
        -2.8551682829856873e-01 1.4662383496761322e-01</leafValues></_>
    <_>
      <internalNodes>
        0 -1 1319 207009297 536877652 217239841 -1665118724 149074304
        -1978327546 709762722 536546431</internalNodes>
      <leafValues>
        -2.6673364639282227e-01 1.4501886069774628e-01</leafValues></_>
    <_>
      <internalNodes>
        0 -1 2005 -1527840137 38418546 -1984537195 -2144160491
        -1210252325 -857804976 -2062158348 -354551420</internalNodes>
      <leafValues>
        -1.9784663617610931e-01 1.9791485369205475e-01</leafValues></_>
    <_>
      <internalNodes>
        0 -1 2723 1547565396 419529408 2018281296 -653839327 -687672624
        -2131754958 -1811581087 1060767567</internalNodes>
      <leafValues>
        -2.0266994833946228e-01 1.8628980219364166e-01</leafValues></_>
    <_>
      <internalNodes>
        0 -1 2896 2138387423 797908185 -1200403527 707353280 -1141497025
        238944874 2077503199 -117507456</internalNodes>
      <leafValues>
        -1.6540713608264923e-01 2.3396800458431244e-01</leafValues></_>
    <_>
      <internalNodes>
        0 -1 3960 -762318168 -804279640 -1977419603 -263924092
        -147458422 1657684191 -477003317 -165682213</internalNodes>
      <leafValues>
        -1.5048030018806458e-01 2.4422693252563477e-01</leafValues></_>
    <_>
      <internalNodes>
        0 -1 3324 1089787590 215501949 190322172 463996004 192164912
        888422225 714113944 1069223435</internalNodes>
      <leafValues>
        -2.7793806791305542e-01 1.3614445924758911e-01</leafValues></_>
    <_>
      <internalNodes>
        0 -1 3426 -932388748 -21167056 881640865 1569260252 -1373989902
        -1854134442 -1373071362 -1182069096</internalNodes>
      <leafValues>
        -1.7379206418991089e-01 2.1682898700237274e-01</leafValues></_>
    <_>
      <internalNodes>
        0 -1 3227 1812073492 -570860158 1682656387 -658504464 -188548052
        -18944482 6947548 1080619786</internalNodes>
      <leafValues>
        -3.5816809535026550e-01 9.9890910089015961e-02</leafValues></_>
    <_>
      <internalNodes>
        0 -1 924 -483393861 -2098152324 364297859 2145747973 -2127448158
        -1107685150 202567371 -1883255361</internalNodes>
      <leafValues>
        -1.1566406488418579e-01 3.3779773116111755e-01</leafValues></_>
    <_>
      <internalNodes>
        0 -1 14 6335424 -724116380 534813571 -1355341824 -1293424947
        -1712271431 1853067236 58059780</internalNodes>
      <leafValues>
        -3.2374504208564758e-01 1.2592764198780060e-01</leafValues></_>
    <_>
      <internalNodes>
        0 -1 2544 -332405696 40493815 550431324 1617620594 1407324994
        88437439 1645270855 1916062578</internalNodes>
      <leafValues>
        -4.9299690127372742e-01 6.7727215588092804e-02</leafValues></_>
    <_>
      <internalNodes>
        0 -1 372 -804212544 -799926214 1145050368 1368218752 1984004752
        760231712 962134458 21300074</internalNodes>
      <leafValues>
        -2.4754051864147186e-01 1.5387672185897827e-01</leafValues></_>
    <_>
      <internalNodes>
        0 -1 1555 2050404477 -1875462564 -55935069 535391367 -1574416670
        -227111184 1512636061 -336680900</internalNodes>
      <leafValues>
        -1.5538050234317780e-01 2.3827214539051056e-01</leafValues></_>
    <_>
      <internalNodes>
        0 -1 3518 -746327173 -806370116 435313913 1493003003 -1633336556
        -1671434377 1599304772 -547621597</internalNodes>
      <leafValues>
        -1.4154922962188721e-01 2.6516991853713989e-01</leafValues></_>
    <_>
      <internalNodes>
        0 -1 1719 -198770622 48104014 -11794128 16226440 -177529854
        -1403162048 -5779081 1613101349</internalNodes>
      <leafValues>
        -3.1104689836502075e-01 1.2535990774631500e-01</leafValues></_>
    <_>
      <internalNodes>
        0 -1 0 1912766592 -250658612 84098138 86837052 1267003546
        -2108686335 1745020811 1212350762</internalNodes>
      <leafValues>
        -2.2396142780780792e-01 1.6612444818019867e-01</leafValues></_>
    <_>
      <internalNodes>
        0 -1 1651 -101875977 141308127 680854782 577931222 1698485816
        -2071849124 2103261053 148182036</internalNodes>
      <leafValues>
        -3.2239082455635071e-01 1.1143035441637039e-01</leafValues></_>
    <_>
      <internalNodes>
        0 -1 37 -754714670 -2050241008 633948027 -1000958313 1065002958
        -313268796 1221650674 -797982570</internalNodes>
      <leafValues>
        -1.4098563790321350e-01 2.6058059930801392e-01</leafValues></_>
    <_>
      <internalNodes>
        0 -1 960 -2141943040 590977759 -1954323869 568245111 1247492
        -2000853647 1227887841 716122962</internalNodes>
      <leafValues>
        -3.6532512307167053e-01 9.9051378667354584e-02</leafValues></_>
    <_>
      <internalNodes>
        0 -1 894 -705978953 -1060039984 -1113005771 1606246128 132884384
        -1293104767 229831162 -276095542</internalNodes>
      <leafValues>
        -1.1660967767238617e-01 3.3136814832687378e-01</leafValues></_>
    <_>
      <internalNodes>
        0 -1 1538 1583132308 -371967363 1423769285 1565862423 1367390427
        5775777 -1689307980 736701074</internalNodes>
      <leafValues>
        -2.8699001669883728e-01 1.3192333281040192e-01</leafValues></_>
    <_>
      <internalNodes>
        0 -1 2051 -1205548622 308937687 -771038852 -1199427958
        -1276676099 -1454244747 1032316060 -190811074</internalNodes>
      <leafValues>
        -1.9210894405841827e-01 1.9895349442958832e-01</leafValues></_>
    <_>
      <internalNodes>
        0 -1 2590 1398676959 -1187156044 285004669 -1080111704 421289598
        1052692398 1072625359 -1427502072</internalNodes>
      <leafValues>
        -1.8821661174297333e-01 2.0220430195331573e-01</leafValues></_>
    <_>
      <internalNodes>
        0 -1 2715 203575824 -1674575292 -145168112 -1672738776
        2016705936 -301122283 -296147752 801847183</internalNodes>
      <leafValues>
        -2.6293110847473145e-01 1.4161580801010132e-01</leafValues></_>
    <_>
      <internalNodes>
        0 -1 1237 566719967 582053264 52043313 595272551 -308339595
        1869465028 -33412567 -1426546608</internalNodes>
      <leafValues>
        -2.1764196455478668e-01 1.8602313101291656e-01</leafValues></_>
    <_>
      <internalNodes>
        0 -1 194 -1002061085 811325664 -644546426 1165002192 1446978451
        1085494849 -66969570 1366554470</internalNodes>
      <leafValues>
        -3.2107594609260559e-01 1.2173621356487274e-01</leafValues></_>
    <_>
      <internalNodes>
        0 -1 2151 103014228 -99082772 1326388436 -38006716 -1809776710
        -1632961190 -1816978550 -1679090550</internalNodes>
      <leafValues>
        -1.6470362246036530e-01 2.4228811264038086e-01</leafValues></_>
    <_>
      <internalNodes>
        0 -1 3572 -203465493 -1828356074 847230000 975289902 2132768668
        794830663 429335529 1208815795</internalNodes>
      <leafValues>
        -2.2769771516323090e-01 1.7319482564926147e-01</leafValues></_>
    <_>
      <internalNodes>
        0 -1 1989 201458203 172238167 937697271 510548350 72755988
        -1165141753 5586806 198981846</internalNodes>
      <leafValues>
        -3.6445739865303040e-01 1.0252416133880615e-01</leafValues></_>
    <_>
      <internalNodes>
        0 -1 3231 -1836386048 -227802012 242366833 1434911180 -190258888
        -1172119280 -1425229090 -1358287994</internalNodes>
      <leafValues>
        -1.9047774374485016e-01 1.9859148561954498e-01</leafValues></_>
    <_>
      <internalNodes>
        0 -1 726 -758085120 681841564 -924446671 300808421 -195780220
        -2075145677 -1473201280 155412613</internalNodes>
      <leafValues>
        -2.3676408827304840e-01 1.5713460743427277e-01</leafValues></_>
    <_>
      <internalNodes>
        0 -1 3630 -70257209 -980703745 754917126 -16854657 1960735744
        -325765163 520566356 -17829937</internalNodes>
      <leafValues>
        -1.3669268786907196e-01 2.7788802981376648e-01</leafValues></_></weakClassifiers></stage9>
</opencv_storage>
