<?xml version="1.0"?>
<opencv_storage>
<stage25>
  <maxWeakCount>93</maxWeakCount>
  <stageThreshold>-1.0162367820739746e+00</stageThreshold>
  <weakClassifiers>
    <_>
      <internalNodes>
        0 -1 2274 718162466 584974335 -186572240 -1627718818 1845454694
        -318867635 -1864369034 -50692098</internalNodes>
      <leafValues>
        -1.7035774653777480e-03 3.4410339593887329e-01</leafValues></_>
    <_>
      <internalNodes>
        0 -1 1773 1572578757 755288799 23482879 263584187 1398670223
        -1284617545 -420451654 707310080</internalNodes>
      <leafValues>
        -2.5115457177162170e-01 9.2762619256973267e-02</leafValues></_>
    <_>
      <internalNodes>
        0 -1 1576 -1234973217 -1260978789 801061944 -1466596655
        1898138889 -1204845315 -453639538 -13569</internalNodes>
      <leafValues>
        -9.1301009058952332e-02 2.3620900511741638e-01</leafValues></_>
    <_>
      <internalNodes>
        0 -1 2044 -153524518 547892462 210547839 11393691 1999599364
        -824701916 1333131523 1247065906</internalNodes>
      <leafValues>
        -2.1779063344001770e-01 8.8528729975223541e-02</leafValues></_>
    <_>
      <internalNodes>
        0 -1 3348 380609574 9312556 909496148 880620337 1446066004
        1184460807 1675132817 -285261889</internalNodes>
      <leafValues>
        -1.7268128693103790e-01 1.1385405063629150e-01</leafValues></_>
    <_>
      <internalNodes>
        0 -1 1042 -228590857 35810587 67979418 557897794 1075336191
        88676074 1614971204 363189376</internalNodes>
      <leafValues>
        -2.9091873764991760e-01 4.8687063157558441e-02</leafValues></_>
    <_>
      <internalNodes>
        0 -1 1642 -455149614 846758406 870634272 993894589 1194966260
        551826528 1080772481 427796539</internalNodes>
      <leafValues>
        -1.8231151998043060e-01 1.1894772201776505e-01</leafValues></_>
    <_>
      <internalNodes>
        0 -1 1922 -21041463 -638276097 -42144003 -135045505 -1096111573
        -563356448 -822809861 -75763555</internalNodes>
      <leafValues>
        -7.5723946094512939e-02 2.9417923092842102e-01</leafValues></_>
    <_>
      <internalNodes>
        0 -1 3590 -656425473 -589362999 -104265677 -1085291163
        1499889141 -1321483039 1265627199 -1051186</internalNodes>
      <leafValues>
        -6.6315457224845886e-02 2.9941281676292419e-01</leafValues></_>
    <_>
      <internalNodes>
        0 -1 1748 -2029291625 2077561647 -109696265 1060974143 502865903
        -1427268259 291206026 -897869385</internalNodes>
      <leafValues>
        -8.5983939468860626e-02 2.2351823747158051e-01</leafValues></_>
    <_>
      <internalNodes>
        0 -1 1359 574326290 646089456 170095933 736157272 326973185
        -1346512229 579557367 502539585</internalNodes>
      <leafValues>
        -2.5866866111755371e-01 6.8615064024925232e-02</leafValues></_>
    <_>
      <internalNodes>
        0 -1 874 1464640443 277108779 253951953 121130743 47090326
        -1158135632 1632292017 -1655333684</internalNodes>
      <leafValues>
        -1.1000227183103561e-01 1.6650079190731049e-01</leafValues></_>
    <_>
      <internalNodes>
        0 -1 175 -641077345 1470555193 1358255070 1088539357 -1645870333
        1043472098 -722362191 -634721477</internalNodes>
      <leafValues>
        -1.0986967384815216e-01 1.7069523036479950e-01</leafValues></_>
    <_>
      <internalNodes>
        0 -1 1065 -2100038530 66511613 -814920593 621057908 -1090539886
        -1879048384 -622357774 -730217282</internalNodes>
      <leafValues>
        -1.1718875914812088e-01 1.6896188259124756e-01</leafValues></_>
    <_>
      <internalNodes>
        0 -1 2921 -582904009 659594497 -1979063468 1019559230 440906096
        1821916570 718782376 720899116</internalNodes>
      <leafValues>
        -2.5366213917732239e-01 7.8240603208541870e-02</leafValues></_>
    <_>
      <internalNodes>
        0 -1 3280 -151022366 -1462948352 17237507 -1474312124
        -1702295121 1828849989 743774089 1141871003</internalNodes>
      <leafValues>
        -2.0580264925956726e-01 9.6415415406227112e-02</leafValues></_>
    <_>
      <internalNodes>
        0 -1 2323 -784360458 -2012576825 1102945309 -2137064462
        2120136032 -1713746840 1044815639 -1065264598</internalNodes>
      <leafValues>
        -1.4224265515804291e-01 1.3663728535175323e-01</leafValues></_>
    <_>
      <internalNodes>
        0 -1 1509 1210232416 -1770364296 804032889 -448442480 862051252
        -1897515532 -1929277762 529206010</internalNodes>
      <leafValues>
        -1.4199234545230865e-01 1.4138226211071014e-01</leafValues></_>
    <_>
      <internalNodes>
        0 -1 1107 1961709669 834568049 -2101866769 328315531 -1148683300
        -1220864393 -658176513 -2060776413</internalNodes>
      <leafValues>
        -1.2223584204912186e-01 1.5318514406681061e-01</leafValues></_>
    <_>
      <internalNodes>
        0 -1 366 -596321912 1382901393 243473437 -538613270 146578064
        -1521995056 999629005 1628924619</internalNodes>
      <leafValues>
        -1.3222070038318634e-01 1.4045460522174835e-01</leafValues></_>
    <_>
      <internalNodes>
        0 -1 2614 1947504516 -114130379 -1506341033 -953769091
        1919840178 -1724235777 188642735 -345109752</internalNodes>
      <leafValues>
        -1.4879968762397766e-01 1.2628559768199921e-01</leafValues></_>
    <_>
      <internalNodes>
        0 -1 1704 577710643 13510314 49669411 137083514 1400841760
        -1435816531 -480545966 1499705874</internalNodes>
      <leafValues>
        -2.6130756735801697e-01 6.9310441613197327e-02</leafValues></_>
    <_>
      <internalNodes>
        0 -1 516 1596322763 -1214906959 632530481 -8802303 -1729194878
        181558723 264945551 -1645486853</internalNodes>
      <leafValues>
        -7.0986740291118622e-02 2.6433610916137695e-01</leafValues></_>
    <_>
      <internalNodes>
        0 -1 376 -1155043564 1483503097 1864604509 1948010914 -872347976
        -1139717358 231813160 710602345</internalNodes>
      <leafValues>
        -1.3375477492809296e-01 1.4282436668872833e-01</leafValues></_>
    <_>
      <internalNodes>
        0 -1 2381 -943906657 -1162658114 247279331 -1381024642 880747077
        -1683247436 -1141410796 -50353266</internalNodes>
      <leafValues>
        -7.0667304098606110e-02 2.5869593024253845e-01</leafValues></_>
    <_>
      <internalNodes>
        0 -1 2778 41690112 13610889 1854366848 754216580 1666974051
        754278515 2117222240 405887530</internalNodes>
      <leafValues>
        -4.6081328392028809e-01 3.8739793002605438e-02</leafValues></_>
    <_>
      <internalNodes>
        0 -1 2492 -27656455 -126621001 578497710 -640621666 -44049219
        -1134278763 -42730370 -270010890</internalNodes>
      <leafValues>
        -6.9368273019790649e-02 3.0830597877502441e-01</leafValues></_>
    <_>
      <internalNodes>
        0 -1 3744 7242258 9241578 273107206 954281751 1466725476
        1023735441 -1657472702 963262459</internalNodes>
      <leafValues>
        -2.6455554366111755e-01 8.3813712000846863e-02</leafValues></_>
    <_>
      <internalNodes>
        0 -1 40 -774324598 -300871660 -2130200671 -682909541 1234223152
        507908869 -720435293 -753450941</internalNodes>
      <leafValues>
        -1.4293895661830902e-01 1.3871331512928009e-01</leafValues></_>
    <_>
      <internalNodes>
        0 -1 518 -604323189 -1280615830 251355003 -1117033415
        -1086353232 -1388608975 -589201251 -357512017</internalNodes>
      <leafValues>
        -7.9636014997959137e-02 2.7069708704948425e-01</leafValues></_>
    <_>
      <internalNodes>
        0 -1 3852 -570435105 -182849681 -1226827081 -619453443
        -368591461 -31953779 -568774917 -41164545</internalNodes>
      <leafValues>
        -5.3829096257686615e-02 3.7584999203681946e-01</leafValues></_>
    <_>
      <internalNodes>
        0 -1 1319 775170864 135815756 175338933 813703908 138543649
        236395248 740570657 724895074</internalNodes>
      <leafValues>
        -3.3476808667182922e-01 6.0578577220439911e-02</leafValues></_>
    <_>
      <internalNodes>
        0 -1 1234 -565870607 -675978107 1181146623 -11544083 -338745982
        -1191878122 1323142825 -6575969</internalNodes>
      <leafValues>
        -6.5965868532657623e-02 3.0654671788215637e-01</leafValues></_>
    <_>
      <internalNodes>
        0 -1 85 -1467745337 -2119072858 -2007064827 254543144 -797780271
        284180991 2107674492 250553152</internalNodes>
      <leafValues>
        -1.6213905811309814e-01 1.2673860788345337e-01</leafValues></_>
    <_>
      <internalNodes>
        0 -1 3640 -40906157 -810685522 -1201625365 -323028499 1017925232
        -1429737891 1108363108 -62663042</internalNodes>
      <leafValues>
        -1.1427894979715347e-01 1.6717712581157684e-01</leafValues></_>
    <_>
      <internalNodes>
        0 -1 3069 256966524 1725724613 -1488914476 -1367334640
        1736919093 328600028 586420422 415498288</internalNodes>
      <leafValues>
        -3.2954809069633484e-01 5.9519272297620773e-02</leafValues></_>
    <_>
      <internalNodes>
        0 -1 360 -598674572 -94129693 1819557249 -570466226 -645547111
        779239216 1989150682 -844648462</internalNodes>
      <leafValues>
        -9.7521111369132996e-02 2.0203594863414764e-01</leafValues></_>
    <_>
      <internalNodes>
        0 -1 202 -424290368 269344996 -1168687327 -1677603578 -497973853
        -1976627227 1206114945 1238758832</internalNodes>
      <leafValues>
        -1.6616165637969971e-01 1.1885388195514679e-01</leafValues></_>
    <_>
      <internalNodes>
        0 -1 2607 -660691744 -740518788 34596701 -575554538 -651125378
        -539297032 -1344524865 -1471423846</internalNodes>
      <leafValues>
        -1.1291526257991791e-01 1.8545132875442505e-01</leafValues></_>
    <_>
      <internalNodes>
        0 -1 2210 549391024 545679362 680104832 51460226 -1148686926
        704987179 828451007 17395795</internalNodes>
      <leafValues>
        -3.5133695602416992e-01 5.8392900973558426e-02</leafValues></_>
    <_>
      <internalNodes>
        0 -1 2479 -79796443 -1714798596 -1952334669 -603149108
        -810178731 787911412 708437659 -56935265</internalNodes>
      <leafValues>
        -1.0253839194774628e-01 2.1422272920608521e-01</leafValues></_>
    <_>
      <internalNodes>
        0 -1 2171 1076264480 1244431908 2073203988 -286249458 48933138
        1257176291 -1357205609 992694042</internalNodes>
      <leafValues>
        -1.9900417327880859e-01 1.0631310194730759e-01</leafValues></_>
    <_>
      <internalNodes>
        0 -1 649 -675610553 -1712060784 1645173141 1942422957 44115233
        785365704 1136119506 -591619383</internalNodes>
      <leafValues>
        -1.5703186392784119e-01 1.3102631270885468e-01</leafValues></_>
    <_>
      <internalNodes>
        0 -1 3967 -993820172 -581940655 1336447229 388480091 2039407790
        -1239013516 1986653103 -542394945</internalNodes>
      <leafValues>
        -9.3084931373596191e-02 2.2301618754863739e-01</leafValues></_>
    <_>
      <internalNodes>
        0 -1 2655 -2073653180 1182406404 -1558829191 -551276744
        784895380 -1170291078 -2052149191 248348338</internalNodes>
      <leafValues>
        -1.9556798040866852e-01 1.0325817018747330e-01</leafValues></_>
    <_>
      <internalNodes>
        0 -1 1969 1797892987 2102797503 790608883 -259117986 -1539836780
        -1897726603 -1431455297 -1078251633</internalNodes>
      <leafValues>
        -9.1910742223262787e-02 2.3100045323371887e-01</leafValues></_>
    <_>
      <internalNodes>
        0 -1 860 -682280278 800153391 -1929378611 -1256716839 1326023306
        221954149 1689465907 552624591</internalNodes>
      <leafValues>
        -2.3120178282260895e-01 9.4222694635391235e-02</leafValues></_>
    <_>
      <internalNodes>
        0 -1 1316 -1883434382 -690996040 591110000 -1897363227
        -463789903 -1006893988 985095705 -851378188</internalNodes>
      <leafValues>
        -1.2943969666957855e-01 1.7327445745468140e-01</leafValues></_>
    <_>
      <internalNodes>
        0 -1 3159 9972224 675882274 237111040 -1500183804 642851136
        638978613 1384518964 264191034</internalNodes>
      <leafValues>
        -4.6156534552574158e-01 4.4705867767333984e-02</leafValues></_>
    <_>
      <internalNodes>
        0 -1 3210 -222437936 -1964261330 -1193857645 224930831
        1591597638 -2133567704 795049798 -619716594</internalNodes>
      <leafValues>
        -1.2140974402427673e-01 1.7555825412273407e-01</leafValues></_>
    <_>
      <internalNodes>
        0 -1 31 872415256 36047702 716345988 1225646768 1824458909
        -22472703 243978941 34032</internalNodes>
      <leafValues>
        -2.7334594726562500e-01 7.6391339302062988e-02</leafValues></_>
    <_>
      <internalNodes>
        0 -1 913 -557973513 -579698275 -22419343 -241610023 -1872916957
        -750979160 981792748 -45870339</internalNodes>
      <leafValues>
        -8.3238765597343445e-02 2.5682672858238220e-01</leafValues></_>
    <_>
      <internalNodes>
        0 -1 3786 1209013384 -592248677 2014191432 2098166985 -170610024
        -1137692818 -1874798126 153281147</internalNodes>
      <leafValues>
        -1.7194513976573944e-01 1.2685172259807587e-01</leafValues></_>
    <_>
      <internalNodes>
        0 -1 1638 542559777 935997250 546253090 -1291967826 -733059599
        -1475710751 -813003900 472809849</internalNodes>
      <leafValues>
        -1.9404412806034088e-01 1.1219394952058792e-01</leafValues></_>
    <_>
      <internalNodes>
        0 -1 2899 -25433455 -1027538313 -1003534371 1513692581
        -288399264 1018936409 -201484547 -541861494</internalNodes>
      <leafValues>
        -9.9796459078788757e-02 2.1644417941570282e-01</leafValues></_>
    <_>
      <internalNodes>
        0 -1 3907 -995121042 -74187826 -1628235299 -92424117 -764289405
        1759039458 1986043756 -997595398</internalNodes>
      <leafValues>
        -1.2464058399200439e-01 1.8514107167720795e-01</leafValues></_>
    <_>
      <internalNodes>
        0 -1 3716 -8391207 -618713945 -1266988413 -1248081591 2105276672
        -558146067 1790917518 -277883853</internalNodes>
      <leafValues>
        -6.9707475602626801e-02 3.0881324410438538e-01</leafValues></_>
    <_>
      <internalNodes>
        0 -1 3267 -2038791660 1191052156 -1322184464 -566217636
        609759584 -1894589380 1025510949 470558236</internalNodes>
      <leafValues>
        -3.0520567297935486e-01 7.2568319737911224e-02</leafValues></_>
    <_>
      <internalNodes>
        0 -1 3725 -590893621 -2012836721 340603527 -1744372793
        -626699088 255202562 33685820 1310782774</internalNodes>
      <leafValues>
        -2.0633001625537872e-01 1.0285255312919617e-01</leafValues></_>
    <_>
      <internalNodes>
        0 -1 2689 -327210770 -400964993 767162102 679255459 2115874712
        -347072354 -1925532430 -1087135592</internalNodes>
      <leafValues>
        -1.4100098609924316e-01 1.6040107607841492e-01</leafValues></_>
    <_>
      <internalNodes>
        0 -1 1245 1951544763 535942707 -509393015 -551968921 -1564674063
        -218487580 -1853657285 -67120194</internalNodes>
      <leafValues>
        -6.8928442895412445e-02 3.3142909407615662e-01</leafValues></_>
    <_>
      <internalNodes>
        0 -1 1021 53805072 187191890 -349160878 557196 712007275
        637825281 851591944 1648519233</internalNodes>
      <leafValues>
        -3.6435541510581970e-01 6.0279436409473419e-02</leafValues></_>
    <_>
      <internalNodes>
        0 -1 1435 -198422012 172504992 -869472369 12642866 -1040567792
        -2108983204 -1222307546 9471252</internalNodes>
      <leafValues>
        -2.9741010069847107e-01 7.5542010366916656e-02</leafValues></_>
    <_>
      <internalNodes>
        0 -1 2303 -638880010 179021549 1134966139 70117575 -1485777101
        -1350713998 -280510638 -935625732</internalNodes>
      <leafValues>
        -1.4378006756305695e-01 1.6124659776687622e-01</leafValues></_>
    <_>
      <internalNodes>
        0 -1 3320 -758718302 1421314562 -266437074 351675017 -261483212
        545592068 1682723084 1499685653</internalNodes>
      <leafValues>
        -2.2723771631717682e-01 9.8732501268386841e-02</leafValues></_>
    <_>
      <internalNodes>
        0 -1 762 -1874685040 209930130 -1756144259 -1397954526
        -1294719815 -654703773 1316377227 -1940963259</internalNodes>
      <leafValues>
        -1.4654833078384399e-01 1.4813913404941559e-01</leafValues></_>
    <_>
      <internalNodes>
        0 -1 1285 -1776404152 875072397 -1600539872 -1606436305
        -1706666478 -1816169944 1230936582 8271964</internalNodes>
      <leafValues>
        -2.6792559027671814e-01 8.1916049122810364e-02</leafValues></_>
    <_>
      <internalNodes>
        0 -1 709 -352487073 -541366851 729234894 -546628070 -302473499
        -1962147847 -607348326 -478101622</internalNodes>
      <leafValues>
        -8.2045733928680420e-02 2.7200958132743835e-01</leafValues></_>
    <_>
      <internalNodes>
        0 -1 1194 -972905334 -1984253220 -1142653324 -619445876
        100645808 1314665799 776191944 -1656680994</internalNodes>
      <leafValues>
        -1.3774023950099945e-01 1.5551070868968964e-01</leafValues></_>
    <_>
      <internalNodes>
        0 -1 3728 172911268 1108093189 -500682203 1690598499 1431708852
        -459654492 -1176882280 188294181</internalNodes>
      <leafValues>
        -2.6198107004165649e-01 8.1684820353984833e-02</leafValues></_>
    <_>
      <internalNodes>
        0 -1 1569 -1032586981 -969453977 1101758401 992297743
        -2109295702 -1334159320 -806805765 -72237157</internalNodes>
      <leafValues>
        -7.9709142446517944e-02 2.6482072472572327e-01</leafValues></_>
    <_>
      <internalNodes>
        0 -1 2582 558244790 549226978 700350264 -2114282536 -1308442816
        -1967990877 3843972 235685214</internalNodes>
      <leafValues>
        -2.0944219827651978e-01 1.0249283164739609e-01</leafValues></_>
    <_>
      <internalNodes>
        0 -1 3953 -1467113320 4202916 482349337 1367650932 -516846664
        -2046121968 81047354 8736948</internalNodes>
      <leafValues>
        -2.2837570309638977e-01 9.2786699533462524e-02</leafValues></_>
    <_>
      <internalNodes>
        0 -1 3765 -836047985 -750136568 -2071687878 -2063695876
        430801403 -1934933083 369092070 -51175690</internalNodes>
      <leafValues>
        -1.1780940741300583e-01 1.9097280502319336e-01</leafValues></_>
    <_>
      <internalNodes>
        0 -1 3905 -774253872 -35836010 1863195415 -585144039 -71195260
        -811106135 -719014881 -3937122</internalNodes>
      <leafValues>
        -8.0995328724384308e-02 2.6764869689941406e-01</leafValues></_>
    <_>
      <internalNodes>
        0 -1 2637 345118044 -764017622 1175281409 385895954 542794416
        -1391919488 175689992 988814130</internalNodes>
      <leafValues>
        -2.2100462019443512e-01 9.9052026867866516e-02</leafValues></_>
    <_>
      <internalNodes>
        0 -1 2197 -177340481 -1375227395 -1116748269 -1632868262
        656158657 -1705028345 -20297525 -2588</internalNodes>
      <leafValues>
        -9.1974861919879913e-02 2.4696557223796844e-01</leafValues></_>
    <_>
      <internalNodes>
        0 -1 2566 684225552 -1865253395 -346680630 -1324342365
        -1430698892 -1421227846 -2062149612 1952455733</internalNodes>
      <leafValues>
        -2.5533884763717651e-01 9.0880587697029114e-02</leafValues></_>
    <_>
      <internalNodes>
        0 -1 3968 1147056678 1771736735 -1290791864 1065491052
        -1793869914 306326670 -178121016 1247715500</internalNodes>
      <leafValues>
        -1.8851681053638458e-01 1.2011112272739410e-01</leafValues></_>
    <_>
      <internalNodes>
        0 -1 1152 1449490130 -891444494 -802424907 -1421132271
        -360383412 1921964220 1056522402 -1672935965</internalNodes>
      <leafValues>
        -1.3969732820987701e-01 1.5715430676937103e-01</leafValues></_>
    <_>
      <internalNodes>
        0 -1 3192 782352382 -287577315 -932199259 149812942 -690764800
        -550000155 -248834186 -1805037713</internalNodes>
      <leafValues>
        -1.4584308862686157e-01 1.4843825995922089e-01</leafValues></_>
    <_>
      <internalNodes>
        0 -1 2947 -2347120 -1184747937 1778916508 -1908336628 432405712
        -1975067312 -1893130758 805087122</internalNodes>
      <leafValues>
        -2.0395641028881073e-01 1.1551345139741898e-01</leafValues></_>
    <_>
      <internalNodes>
        0 -1 2133 -1574321326 -1810341242 -1944601295 -1684304288
        189460130 -553799980 1014914618 -1692433222</internalNodes>
      <leafValues>
        -1.1531336605548859e-01 1.8691040575504303e-01</leafValues></_>
    <_>
      <internalNodes>
        0 -1 1177 1384163720 -922358087 -1065346692 575628804
        -1334574432 819532183 374087460 782246656</internalNodes>
      <leafValues>
        -2.9161518812179565e-01 7.6957702636718750e-02</leafValues></_>
    <_>
      <internalNodes>
        0 -1 3498 2130701055 -273944913 -1828782339 -1742783631
        -1646836139 -1631832195 700152413 -1896113510</internalNodes>
      <leafValues>
        -1.0008811205625534e-01 2.1863885223865509e-01</leafValues></_>
    <_>
      <internalNodes>
        0 -1 3891 -489766364 178564270 1649410120 850512021 881873958
        1163245360 1079267034 741818434</internalNodes>
      <leafValues>
        -2.8466844558715820e-01 7.9170852899551392e-02</leafValues></_>
    <_>
      <internalNodes>
        0 -1 2271 235050010 782250930 -936284816 146048262 1847491271
        -1193634729 1279636324 786879856</internalNodes>
      <leafValues>
        -2.8455612063407898e-01 7.5955450534820557e-02</leafValues></_>
    <_>
      <internalNodes>
        0 -1 486 -24395525 -549885200 -1342370155 -178659419 -1335101054
        651318668 -977816630 -805335845</internalNodes>
      <leafValues>
        -7.5237527489662170e-02 3.0577710270881653e-01</leafValues></_>
    <_>
      <internalNodes>
        0 -1 571 -1612187237 -1080588745 1323689809 363022079 59586426
        -490510477 214548477 -412188818</internalNodes>
      <leafValues>
        -9.6123486757278442e-02 2.1822035312652588e-01</leafValues></_>
    <_>
      <internalNodes>
        0 -1 1904 -1597898146 178004025 -1461336063 -990117878
        -1941920128 389852453 794470152 736293974</internalNodes>
      <leafValues>
        -2.2364130616188049e-01 1.0000330954790115e-01</leafValues></_>
    <_>
      <internalNodes>
        0 -1 600 -981472333 444567384 536749271 -76429767 -1622364205
        -1990219865 -1631075154 -287703841</internalNodes>
      <leafValues>
        -7.5653567910194397e-02 2.9140350222587585e-01</leafValues></_>
    <_>
      <internalNodes>
        0 -1 3655 477134856 -1727482252 1678800919 1882779344 -616009708
        818567352 786314200 134228504</internalNodes>
      <leafValues>
        -3.9213857054710388e-01 5.6581381708383560e-02</leafValues></_>
    <_>
      <internalNodes>
        0 -1 1093 -267838961 -1156170153 -383361183 -1677728034
        -363673978 -100772754 -1753537034 -783057762</internalNodes>
      <leafValues>
        -1.2003976851701736e-01 1.8433432281017303e-01</leafValues></_></weakClassifiers></stage25>
</opencv_storage>
