<?xml version="1.0"?>
<opencv_storage>
<stage16>
  <maxWeakCount>79</maxWeakCount>
  <stageThreshold>-1.1710468530654907e+00</stageThreshold>
  <weakClassifiers>
    <_>
      <internalNodes>
        0 -1 1309 -369679819 77783 -1465014722 45592559 -981639147
        1301880159 -2114903557 -1409286151</internalNodes>
      <leafValues>
        -1.6915703890845180e-03 3.8203656673431396e-01</leafValues></_>
    <_>
      <internalNodes>
        0 -1 1041 -23068673 60902431 620491380 -103351590 -981514802
        53413669 -536871623 -2165249</internalNodes>
      <leafValues>
        -1.5293049812316895e-01 1.7895936965942383e-01</leafValues></_>
    <_>
      <internalNodes>
        0 -1 77 -146292709 -103558504 -910867043 -672794375 1228284162
        -1969933281 869744911 -71871873</internalNodes>
      <leafValues>
        -1.2325392663478851e-01 2.0920777320861816e-01</leafValues></_>
    <_>
      <internalNodes>
        0 -1 1594 -960759977 -1996566595 -588195105 -71819 -826439797
        -16860679 -1421955155 -8396805</internalNodes>
      <leafValues>
        -7.7366605401039124e-02 3.1932687759399414e-01</leafValues></_>
    <_>
      <internalNodes>
        0 -1 3228 2015573231 -41616109 -24509539 -40137499 -115349393
        -83424073 1150168232 1076163646</internalNodes>
      <leafValues>
        -2.8590860962867737e-01 6.0150161385536194e-02</leafValues></_>
    <_>
      <internalNodes>
        0 -1 1921 984534269 -2132497924 -805344524 332569118 1815674747
        -423696651 1914122555 -654399996</internalNodes>
      <leafValues>
        -1.2875142693519592e-01 1.8517331779003143e-01</leafValues></_>
    <_>
      <internalNodes>
        0 -1 1362 247197299 1122231940 1493290871 -610380584 -1912785053
        150202695 250951121 267885776</internalNodes>
      <leafValues>
        -2.1542789041996002e-01 1.2170054018497467e-01</leafValues></_>
    <_>
      <internalNodes>
        0 -1 2759 -160434433 -725660534 -1327009730 2113745791
        -264209672 -1927466372 -249505665 -1352927945</internalNodes>
      <leafValues>
        -1.0145622491836548e-01 2.6171132922172546e-01</leafValues></_>
    <_>
      <internalNodes>
        0 -1 2323 -625487700 9096832 -8875828 12234670 -965364399
        -1166884512 -549151180 1145542658</internalNodes>
      <leafValues>
        -2.0565740764141083e-01 1.2706488370895386e-01</leafValues></_>
    <_>
      <internalNodes>
        0 -1 269 1568604631 1404662103 502924816 -248749887 140579260
        621037259 -2147341431 156783758</internalNodes>
      <leafValues>
        -2.2604943811893463e-01 1.2230186909437180e-01</leafValues></_>
    <_>
      <internalNodes>
        0 -1 1699 -1371551230 280424079 640786613 -235912592 199225343
        -848437469 -1796950812 -173151472</internalNodes>
      <leafValues>
        -1.7316092550754547e-01 1.4324140548706055e-01</leafValues></_>
    <_>
      <internalNodes>
        0 -1 3188 -1544606206 674211038 -498177536 -1434388338
        1467098880 17241099 1360409348 1963150960</internalNodes>
      <leafValues>
        -4.0315952897071838e-01 6.1651632189750671e-02</leafValues></_>
    <_>
      <internalNodes>
        0 -1 497 -34975749 833944761 -759707661 -572809827 -84829005
        -1598897691 -276137697 -1946431543</internalNodes>
      <leafValues>
        -9.1444715857505798e-02 2.6330509781837463e-01</leafValues></_>
    <_>
      <internalNodes>
        0 -1 2735 -420831264 2023489710 -33096172 2050951453 -922451456
        -1376858747 168921992 993675099</internalNodes>
      <leafValues>
        -2.0436969399452209e-01 1.2236226350069046e-01</leafValues></_>
    <_>
      <internalNodes>
        0 -1 3644 -762708021 -926241841 -1924144825 -554971184
        -772558500 -898569905 -301504749 -870844589</internalNodes>
      <leafValues>
        -1.2130311876535416e-01 2.0059446990489960e-01</leafValues></_>
    <_>
      <internalNodes>
        0 -1 246 -611068008 -749277641 270281233 1399963997 -154218112
        739236302 -1065637990 -840177009</internalNodes>
      <leafValues>
        -9.3492165207862854e-02 2.4327735602855682e-01</leafValues></_>
    <_>
      <internalNodes>
        0 -1 1663 -489673965 812752120 -2002967180 -1141060170 78271788
        225125926 -1058416780 16752588</internalNodes>
      <leafValues>
        -2.3904013633728027e-01 1.0373317450284958e-01</leafValues></_>
    <_>
      <internalNodes>
        0 -1 2934 577838946 -1359434121 -1087972367 -6803393 735306513
        -72696331 -1317612075 -1142223985</internalNodes>
      <leafValues>
        -1.2830603122711182e-01 1.9285851716995239e-01</leafValues></_>
    <_>
      <internalNodes>
        0 -1 2926 962103546 1698748152 -1335776304 537208384 18624344
        252018619 652173904 146678880</internalNodes>
      <leafValues>
        -3.6060062050819397e-01 6.7058466374874115e-02</leafValues></_>
    <_>
      <internalNodes>
        0 -1 3563 -175528 1342179330 1360196723 87841669 1108814315
        -1977912653 676191553 218470579</internalNodes>
      <leafValues>
        -2.4336168169975281e-01 1.0435412079095840e-01</leafValues></_>
    <_>
      <internalNodes>
        0 -1 3113 1216339639 -153976765 -2022781121 -546560897
        -1554654031 -1492757855 -1897467911 -818197073</internalNodes>
      <leafValues>
        -9.1666534543037415e-02 2.6274776458740234e-01</leafValues></_>
    <_>
      <internalNodes>
        0 -1 2271 -1970374946 180905719 -2113429732 687646980 168394567
        -1170232973 -1250593456 1877669232</internalNodes>
      <leafValues>
        -2.5967037677764893e-01 9.2860199511051178e-02</leafValues></_>
    <_>
      <internalNodes>
        0 -1 3960 -666173730 -804511576 -95988002 -119035898 -995889240
        671467738 1566737850 -855666434</internalNodes>
      <leafValues>
        -1.2054125964641571e-01 2.0131906867027283e-01</leafValues></_>
    <_>
      <internalNodes>
        0 -1 2589 -1877875502 2102064662 2039855923 225047572 1651258498
        -18966376 311220091 -1895282606</internalNodes>
      <leafValues>
        -1.5962576866149902e-01 1.5541946887969971e-01</leafValues></_>
    <_>
      <internalNodes>
        0 -1 36 1241715218 322612828 118819937 225280516 1366787274
        -114265296 -425209974 1143463947</internalNodes>
      <leafValues>
        -1.6359581053256989e-01 1.5149955451488495e-01</leafValues></_>
    <_>
      <internalNodes>
        0 -1 1748 -2121387914 415250229 -1554579205 857866683 1875969453
        -1985001036 50934927 576198945</internalNodes>
      <leafValues>
        -2.1232642233371735e-01 1.1615344882011414e-01</leafValues></_>
    <_>
      <internalNodes>
        0 -1 2904 -1031864785 -455301341 926510769 -96523211 -1963836111
        -1348747675 -1386370409 -1141958694</internalNodes>
      <leafValues>
        -1.0669445991516113e-01 2.3215331137180328e-01</leafValues></_>
    <_>
      <internalNodes>
        0 -1 3139 1817594688 79171274 242157512 340134861 1150305816
        615667793 266455704 1602118945</internalNodes>
      <leafValues>
        -2.6407727599143982e-01 9.7462438046932220e-02</leafValues></_>
    <_>
      <internalNodes>
        0 -1 2459 -1426736707 -792727894 -1963537577 -711002406
        -134421510 -1027882814 586441143 -857234698</internalNodes>
      <leafValues>
        -1.2113213539123535e-01 2.0744727551937103e-01</leafValues></_>
    <_>
      <internalNodes>
        0 -1 3393 -731131240 -1929054650 -327172243 -2073959273
        -67567341 -1128208541 511141670 1157859894</internalNodes>
      <leafValues>
        -2.0692725479602814e-01 1.2543362379074097e-01</leafValues></_>
    <_>
      <internalNodes>
        0 -1 3147 303435794 -859648461 1155366454 -190681 572748546
        -1092003909 -1358704646 -53249</internalNodes>
      <leafValues>
        -1.3078905642032623e-01 2.0190756022930145e-01</leafValues></_>
    <_>
      <internalNodes>
        0 -1 3611 1145702416 704854780 1053897911 1012567135 1281762358
        -1911620348 1020306328 1026949775</internalNodes>
      <leafValues>
        -3.0530825257301331e-01 8.8679432868957520e-02</leafValues></_>
    <_>
      <internalNodes>
        0 -1 3371 233484538 97137519 -1081374835 792108667 24796603
        -854892047 -1290987302 -1345222667</internalNodes>
      <leafValues>
        -1.8226164579391479e-01 1.3817577064037323e-01</leafValues></_>
    <_>
      <internalNodes>
        0 -1 3594 1214385728 -1562636719 145578737 2024435028
        -2014166016 717313276 36700673 1072699454</internalNodes>
      <leafValues>
        -3.0205824971199036e-01 8.3577707409858704e-02</leafValues></_>
    <_>
      <internalNodes>
        0 -1 3510 -39980329 799342379 -512147661 -600974726 -653298895
        -564949017 2071547157 -61705624</internalNodes>
      <leafValues>
        -1.2457598000764847e-01 2.0388472080230713e-01</leafValues></_>
    <_>
      <internalNodes>
        0 -1 1059 1725943031 45745567 2023026832 -1319612406 -586213478
        7356459 1721290901 1925417352</internalNodes>
      <leafValues>
        -2.7435225248336792e-01 9.6141971647739410e-02</leafValues></_>
    <_>
      <internalNodes>
        0 -1 1762 -665728775 1398689514 -1334246351 -1316877560
        1006503148 -269922487 1185940169 -1344744879</internalNodes>
      <leafValues>
        -1.0262277722358704e-01 2.5198066234588623e-01</leafValues></_>
    <_>
      <internalNodes>
        0 -1 1250 -147556720 8426186 -2079755516 1364984304 639883696
        -64845996 1061961282 685404706</internalNodes>
      <leafValues>
        -2.4851503968238831e-01 1.0314324498176575e-01</leafValues></_>
    <_>
      <internalNodes>
        0 -1 3093 -1023414001 -298873021 -662858437 -13824148
        -1343715355 -545595843 -1348222994 -1079005446</internalNodes>
      <leafValues>
        -8.2846023142337799e-02 3.0637302994728088e-01</leafValues></_>
    <_>
      <internalNodes>
        0 -1 2485 612526609 53643396 -1965529736 -1202582178 1879259745
        1307864946 -990875548 1062481982</internalNodes>
      <leafValues>
        -3.0897590517997742e-01 8.3714045584201813e-02</leafValues></_>
    <_>
      <internalNodes>
        0 -1 1200 1373499611 -541201818 636084115 2147290267 138731402
        -1091431896 -1906036769 -19145057</internalNodes>
      <leafValues>
        -7.3732361197471619e-02 3.5126852989196777e-01</leafValues></_>
    <_>
      <internalNodes>
        0 -1 3940 -870137830 -2108555264 -2109672036 1382727743
        2101703214 1563829340 1193417560 1076164632</internalNodes>
      <leafValues>
        -2.4842202663421631e-01 1.0171136260032654e-01</leafValues></_>
    <_>
      <internalNodes>
        0 -1 2495 70690304 181415450 238029040 -394383590 570765828
        486424116 -1591960409 228339214</internalNodes>
      <leafValues>
        -3.2660984992980957e-01 7.5098179280757904e-02</leafValues></_>
    <_>
      <internalNodes>
        0 -1 3299 -562774406 1057598910 -1648741076 471899059 1982805084
        1353027899 1803500781 -114816</internalNodes>
      <leafValues>
        -1.3602067530155182e-01 1.8547821044921875e-01</leafValues></_>
    <_>
      <internalNodes>
        0 -1 1285 -404812608 808062510 -527786395 -1542805838 -485358682
        279115511 1499596308 887535456</internalNodes>
      <leafValues>
        -2.6784315705299377e-01 9.4882793724536896e-02</leafValues></_>
    <_>
      <internalNodes>
        0 -1 292 -749906417 1565436135 -1930674076 286940262 21589764
        -2098578185 -134845452 -2118099101</internalNodes>
      <leafValues>
        -2.0356933772563934e-01 1.2503601610660553e-01</leafValues></_>
    <_>
      <internalNodes>
        0 -1 1307 -856733725 1487096559 1644708299 2131141885 -828512351
        -1195744153 -1421611089 -546314967</internalNodes>
      <leafValues>
        -1.0074890404939651e-01 2.7102467417716980e-01</leafValues></_>
    <_>
      <internalNodes>
        0 -1 138 -503141182 1254793436 1746315084 -816986604 611616128
        374256659 -285883261 697812687</internalNodes>
      <leafValues>
        -1.7243775725364685e-01 1.5127940475940704e-01</leafValues></_>
    <_>
      <internalNodes>
        0 -1 3 405908632 1534575136 1598101423 -281417216 568634297
        8265584 -1492302632 -8892080</internalNodes>
      <leafValues>
        -2.2235482931137085e-01 1.2541107833385468e-01</leafValues></_>
    <_>
      <internalNodes>
        0 -1 3967 1078255752 -797407008 -1518744484 -1775442878
        1634177272 -1639421472 2110532235 1455632690</internalNodes>
      <leafValues>
        -1.9171504676342010e-01 1.3230645656585693e-01</leafValues></_>
    <_>
      <internalNodes>
        0 -1 1048 -1707425250 54968155 -1562175939 -240088585 743173399
        640657425 -641325693 -1997997628</internalNodes>
      <leafValues>
        -1.7443354427814484e-01 1.5198779106140137e-01</leafValues></_>
    <_>
      <internalNodes>
        0 -1 1073 11927568 389117257 -1207096965 305203591 -1265357440
        -1402703429 -936817383 84159376</internalNodes>
      <leafValues>
        -2.5966024398803711e-01 9.6269987523555756e-02</leafValues></_>
    <_>
      <internalNodes>
        0 -1 2467 1348657984 207691777 -771565016 1007052925 445844752
        -1818012143 415024961 254567516</internalNodes>
      <leafValues>
        -2.9695457220077515e-01 8.8254660367965698e-02</leafValues></_>
    <_>
      <internalNodes>
        0 -1 2823 -785726823 -362027857 1671134762 -997331537
        -2058093255 -281585840 1582783043 -395910894</internalNodes>
      <leafValues>
        -1.3483534753322601e-01 2.0161734521389008e-01</leafValues></_>
    <_>
      <internalNodes>
        0 -1 3584 1123460864 -730192816 614893008 2076193892 546470980
        -1954914208 396583312 1070728310</internalNodes>
      <leafValues>
        -2.5207355618476868e-01 1.0177948325872421e-01</leafValues></_>
    <_>
      <internalNodes>
        0 -1 3863 -545540673 -74864487 -501716552 956450299 -35709610
        -86291028 1675263415 -11807497</internalNodes>
      <leafValues>
        -7.1158565580844879e-02 3.6758714914321899e-01</leafValues></_>
    <_>
      <internalNodes>
        0 -1 1458 -1921508868 -1753443911 844566981 773174200 709667293
        426545942 -1151831812 572523280</internalNodes>
      <leafValues>
        -4.3970772624015808e-01 6.0890339314937592e-02</leafValues></_>
    <_>
      <internalNodes>
        0 -1 247 -218660717 -547956056 230105237 199204270 -901150072
        -1040661907 1381890024 -1303708823</internalNodes>
      <leafValues>
        -1.2085993587970734e-01 2.2157110273838043e-01</leafValues></_>
    <_>
      <internalNodes>
        0 -1 3211 -763533357 -537686288 -1214870467 -305369558
        2137526743 -1451349096 670116201 -843443933</internalNodes>
      <leafValues>
        -1.0624098032712936e-01 2.5240322947502136e-01</leafValues></_>
    <_>
      <internalNodes>
        0 -1 182 -614775148 1209315468 -796866519 -1043250546 140771681
        293034979 1880776015 1385456458</internalNodes>
      <leafValues>
        -2.8207939863204956e-01 9.0852200984954834e-02</leafValues></_>
    <_>
      <internalNodes>
        0 -1 580 -1933904215 46409412 -1434758375 1804441216 1285262467
        -1063123463 760319403 -1900065282</internalNodes>
      <leafValues>
        -1.0866024345159531e-01 2.4597573280334473e-01</leafValues></_>
    <_>
      <internalNodes>
        0 -1 1654 176401041 182461580 -1691863785 -208763225 1382035970
        716351725 1869734899 469445191</internalNodes>
      <leafValues>
        -2.3861479759216309e-01 1.1605972051620483e-01</leafValues></_>
    <_>
      <internalNodes>
        0 -1 2583 -565718570 -612504420 -629380331 -979388770 651002298
        -1435258616 -586695537 -273971838</internalNodes>
      <leafValues>
        -9.3138962984085083e-02 2.8292760252952576e-01</leafValues></_>
    <_>
      <internalNodes>
        0 -1 3617 742266998 73542193 -1831398893 -1632186275 -1778344528
        -302026337 -1523050060 -1344580508</internalNodes>
      <leafValues>
        -2.4980722367763519e-01 1.0386127233505249e-01</leafValues></_>
    <_>
      <internalNodes>
        0 -1 3015 1665770148 165318362 -1903198347 3174163 -313138308
        -302510650 -77261260 1225011458</internalNodes>
      <leafValues>
        -2.6018109917640686e-01 1.0729893296957016e-01</leafValues></_>
    <_>
      <internalNodes>
        0 -1 2311 1458106314 -1930436182 175898109 1084838934 -179417737
        -10682874 -1505474991 -262230782</internalNodes>
      <leafValues>
        -1.6809181869029999e-01 1.6304261982440948e-01</leafValues></_>
    <_>
      <internalNodes>
        0 -1 3943 -198777313 -594738681 1747604681 2037880929 -98703716
        -1961594852 -93543686 -47718549</internalNodes>
      <leafValues>
        -9.2666000127792358e-02 2.8651854395866394e-01</leafValues></_>
    <_>
      <internalNodes>
        0 -1 970 -297367881 370459364 -589003181 -779392266 2145861764
        -322453424 -2046690411 1474786479</internalNodes>
      <leafValues>
        -1.8311336636543274e-01 1.4559666812419891e-01</leafValues></_>
    <_>
      <internalNodes>
        0 -1 2355 -1572758318 -1302111 1434416845 -5419768 -1929331778
        -67449410 286111963 -57962549</internalNodes>
      <leafValues>
        -1.0479375720024109e-01 2.5818917155265808e-01</leafValues></_>
    <_>
      <internalNodes>
        0 -1 324 -755645392 -732002605 -790413133 433972990 -416270420
        -2079488537 -1056603487 -941361164</internalNodes>
      <leafValues>
        -1.3505509495735168e-01 1.8860512971878052e-01</leafValues></_>
    <_>
      <internalNodes>
        0 -1 108 1145215666 -724373806 1282240868 1234452520 -449073022
        1454171136 518341650 1075942678</internalNodes>
      <leafValues>
        -2.2400531172752380e-01 1.1535082757472992e-01</leafValues></_>
    <_>
      <internalNodes>
        0 -1 1551 -1550043809 -1548938397 1061121592 -1342626639
        696141411 1913869559 -1325604241 -21043972</internalNodes>
      <leafValues>
        -1.2284984439611435e-01 2.1441833674907684e-01</leafValues></_>
    <_>
      <internalNodes>
        0 -1 2196 1824505861 -32036828 -614054425 1046400324 -1153484281
        -1262813355 1283238104 478042179</internalNodes>
      <leafValues>
        -1.9154712557792664e-01 1.3893923163414001e-01</leafValues></_>
    <_>
      <internalNodes>
        0 -1 3957 -164830693 -231807328 1995097887 -737275666
        -1720204823 -1300088457 -2057907729 -371065355</internalNodes>
      <leafValues>
        -1.1861600726842880e-01 2.2370070219039917e-01</leafValues></_>
    <_>
      <internalNodes>
        0 -1 199 -213536557 -1779386743 345452641 -1458238433 -618939241
        -161247476 -609388595 -130301927</internalNodes>
      <leafValues>
        -1.0224254429340363e-01 2.5537782907485962e-01</leafValues></_>
    <_>
      <internalNodes>
        0 -1 3736 -498713648 1122307429 1726091904 845564723 274662144
        -1401140619 525668824 1068306067</internalNodes>
      <leafValues>
        -2.3265805840492249e-01 1.1416646838188171e-01</leafValues></_>
    <_>
      <internalNodes>
        0 -1 3282 -1369984137 1927220312 -1157628353 -5497304
        -1543539456 973074168 -1361269837 -1074042562</internalNodes>
      <leafValues>
        -1.0856638103723526e-01 2.4447128176689148e-01</leafValues></_>
    <_>
      <internalNodes>
        0 -1 3163 1186727444 369959487 1448953022 988689743 1426464900
        38443071 293745044 1843400916</internalNodes>
      <leafValues>
        -3.0668842792510986e-01 8.8347531855106354e-02</leafValues></_>
    <_>
      <internalNodes>
        0 -1 1842 -653795754 -1870174623 1676582897 -234827912
        -934390774 2050650104 1594097321 -1149508210</internalNodes>
      <leafValues>
        -1.2565846741199493e-01 2.0664128661155701e-01</leafValues></_></weakClassifiers></stage16>
</opencv_storage>
