<?xml version="1.0"?>
<opencv_storage>
<stage20>
  <maxWeakCount>84</maxWeakCount>
  <stageThreshold>-1.0770215988159180e+00</stageThreshold>
  <weakClassifiers>
    <_>
      <internalNodes>
        0 -1 1632 -822608389 -1953284609 80698583 872111613 -717580451
        -1960642464 2054648157 -67374919</internalNodes>
      <leafValues>
        9.5736861228942871e-02 4.3551453948020935e-01</leafValues></_>
    <_>
      <internalNodes>
        0 -1 2008 -823137769 -2110824578 -95235468 -262019074 1877192693
        -1884365441 -990664634 -168887560</internalNodes>
      <leafValues>
        -1.2998856604099274e-01 1.8496304750442505e-01</leafValues></_>
    <_>
      <internalNodes>
        0 -1 15 366215133 -442009331 436214031 734208305 1489759993
        1321634495 -91597086 1203990273</internalNodes>
      <leafValues>
        -2.1996232867240906e-01 1.1300189793109894e-01</leafValues></_>
    <_>
      <internalNodes>
        0 -1 1001 435675835 871543617 -252399748 -116922563 -1258292739
        88948059 -722182920 -128588442</internalNodes>
      <leafValues>
        -1.4492104947566986e-01 1.5453563630580902e-01</leafValues></_>
    <_>
      <internalNodes>
        0 -1 2946 -849077346 1515208501 -571189376 1906835517 -11968376
        -1090529355 182232264 1006249384</internalNodes>
      <leafValues>
        -2.2936283051967621e-01 8.1320941448211670e-02</leafValues></_>
    <_>
      <internalNodes>
        0 -1 3177 -146810061 -1361332226 -1872507617 -289540117
        2037346627 -109590573 -16468224 -25239811</internalNodes>
      <leafValues>
        -1.3012327253818512e-01 1.7869566380977631e-01</leafValues></_>
    <_>
      <internalNodes>
        0 -1 3526 -800808814 -1952013652 731508643 -1962073436
        -607514124 -511358063 -2146691967 126034487</internalNodes>
      <leafValues>
        -1.8501907587051392e-01 1.1493378877639771e-01</leafValues></_>
    <_>
      <internalNodes>
        0 -1 1208 527265236 59237041 519212977 -1695678543 213349983
        255117235 -1390517422 -83953076</internalNodes>
      <leafValues>
        -1.2684832513332367e-01 1.7087724804878235e-01</leafValues></_>
    <_>
      <internalNodes>
        0 -1 2278 180285015 1487862751 -276638352 -240081176 1091456505
        -1004622736 -482988300 2092378114</internalNodes>
      <leafValues>
        -1.6762828826904297e-01 1.2632110714912415e-01</leafValues></_>
    <_>
      <internalNodes>
        0 -1 2183 -746652163 227270653 -4575373 -1280524624 1872855005
        -684764776 1532644974 -68358244</internalNodes>
      <leafValues>
        -8.6764596402645111e-02 2.3620733618736267e-01</leafValues></_>
    <_>
      <internalNodes>
        0 -1 164 -66029833 396341825 22464279 -1619039213 631790467
        -2101676334 -1051848801 1920046565</internalNodes>
      <leafValues>
        -1.8008531630039215e-01 1.2860116362571716e-01</leafValues></_>
    <_>
      <internalNodes>
        0 -1 551 -896872737 -1062818060 751893895 -2127745659 547872727
        -1897742870 -1896505699 -805582597</internalNodes>
      <leafValues>
        -9.0239226818084717e-02 2.7768880128860474e-01</leafValues></_>
    <_>
      <internalNodes>
        0 -1 3761 3072770 604021802 -1528680909 488483547 79825305
        142934524 108073141 226435524</internalNodes>
      <leafValues>
        -2.5122508406639099e-01 9.7552560269832611e-02</leafValues></_>
    <_>
      <internalNodes>
        0 -1 3899 -541525022 -802640434 426082685 -54482912 -34439982
        -2005111700 1423014510 -28345526</internalNodes>
      <leafValues>
        -1.2634430825710297e-01 1.7401875555515289e-01</leafValues></_>
    <_>
      <internalNodes>
        0 -1 3171 -553685477 863907693 1148092024 2091843354 936902469
        -270700713 -121635530 -37761168</internalNodes>
      <leafValues>
        -1.0897998511791229e-01 1.9147427380084991e-01</leafValues></_>
    <_>
      <internalNodes>
        0 -1 3250 1421654961 -558584432 -1791991635 -1619055946
        -1139526080 -1173062068 -1315263556 1874797350</internalNodes>
      <leafValues>
        -1.6188049316406250e-01 1.3953898847103119e-01</leafValues></_>
    <_>
      <internalNodes>
        0 -1 1320 35106354 713991023 2040559985 414063004 80548357
        -1094676668 -167939599 737736902</internalNodes>
      <leafValues>
        -2.0711934566497803e-01 1.0911242663860321e-01</leafValues></_>
    <_>
      <internalNodes>
        0 -1 3255 1545592575 -44552964 1599059839 1567093481 -902579532
        -1166316100 -1636569889 -609499074</internalNodes>
      <leafValues>
        -8.5597425699234009e-02 2.7594244480133057e-01</leafValues></_>
    <_>
      <internalNodes>
        0 -1 1095 -587377057 -1792927857 -546672713 -1313539425
        -448449378 -1743978962 -286842886 -1516798117</internalNodes>
      <leafValues>
        -9.8659120500087738e-02 2.1227893233299255e-01</leafValues></_>
    <_>
      <internalNodes>
        0 -1 1406 -969986496 36110418 147757686 5161516 1046242048
        17509463 -855595215 1148252950</internalNodes>
      <leafValues>
        -4.1287034749984741e-01 4.7904547303915024e-02</leafValues></_>
    <_>
      <internalNodes>
        0 -1 2743 -324027425 -786463043 -317468682 1430773324 -646526722
        -934656176 -496552346 -547410493</internalNodes>
      <leafValues>
        -7.5554706156253815e-02 2.7185338735580444e-01</leafValues></_>
    <_>
      <internalNodes>
        0 -1 2511 -964417772 215312733 212602732 1525298141 -1351851484
        -1169494845 -1434449771 2026369013</internalNodes>
      <leafValues>
        -2.1875731647014618e-01 1.0419348627328873e-01</leafValues></_>
    <_>
      <internalNodes>
        0 -1 2962 1933836274 486419394 -41418918 1551003233 -1589111772
        -1588036489 -406869061 -39080529</internalNodes>
      <leafValues>
        -1.0601742565631866e-01 2.1323615312576294e-01</leafValues></_>
    <_>
      <internalNodes>
        0 -1 1771 939659588 -1815058768 456420869 758462000 2117440509
        -50543929 -755058454 711220752</internalNodes>
      <leafValues>
        -2.6758423447608948e-01 8.7946265935897827e-02</leafValues></_>
    <_>
      <internalNodes>
        0 -1 3346 2133724396 69224067 475536915 -1566403921 -402475524
        -2063372744 289718297 -1937673652</internalNodes>
      <leafValues>
        -2.2683537006378174e-01 9.9916830658912659e-02</leafValues></_>
    <_>
      <internalNodes>
        0 -1 3876 2081936034 -55434746 -1035059521 2049595911 1665757840
        1681693699 -870312453 2135542347</internalNodes>
      <leafValues>
        -1.5650631487369537e-01 1.4386615157127380e-01</leafValues></_>
    <_>
      <internalNodes>
        0 -1 288 -556345328 -47159574 -240509067 362404395 -213335296
        -2145841750 -1782472031 -1882726501</internalNodes>
      <leafValues>
        -1.3751573860645294e-01 1.6119726002216339e-01</leafValues></_>
    <_>
      <internalNodes>
        0 -1 2223 -566759693 -81362366 -1471643885 -43044510 1265049540
        -761080383 -27971655 -546639873</internalNodes>
      <leafValues>
        -8.8505536317825317e-02 2.6087003946304321e-01</leafValues></_>
    <_>
      <internalNodes>
        0 -1 558 -359825789 -1008827446 838895157 32612446 -995868655
        354319007 -485359007 440592918</internalNodes>
      <leafValues>
        -2.5326895713806152e-01 9.1776452958583832e-02</leafValues></_>
    <_>
      <internalNodes>
        0 -1 1491 1887566738 464915514 -1411887629 1281287028 208762354
        -1695019984 1323588271 -1075083557</internalNodes>
      <leafValues>
        -1.1993630975484848e-01 1.9618542492389679e-01</leafValues></_>
    <_>
      <internalNodes>
        0 -1 2631 321056 -1779692524 -1525783139 -1646918621 -1129281612
        1769578960 -2014529384 253307098</internalNodes>
      <leafValues>
        -2.0164294540882111e-01 1.1380303651094437e-01</leafValues></_>
    <_>
      <internalNodes>
        0 -1 2059 -2031990960 999826811 -2023721485 -1568662877
        806893557 -1901581429 -1446303816 -460987296</internalNodes>
      <leafValues>
        -1.7358766496181488e-01 1.2440767139196396e-01</leafValues></_>
    <_>
      <internalNodes>
        0 -1 3180 1189068802 752258928 1284711938 -324377912 1891045665
        60633394 886260020 1682104853</internalNodes>
      <leafValues>
        -3.6661177873611450e-01 6.2140587717294693e-02</leafValues></_>
    <_>
      <internalNodes>
        0 -1 3873 -105120801 -96222805 267565943 -116590895 -854756405
        -1209132196 1830744907 -544486233</internalNodes>
      <leafValues>
        -6.5867625176906586e-02 3.4019705653190613e-01</leafValues></_>
    <_>
      <internalNodes>
        0 -1 2683 73440474 285264884 651234396 561395248 1106853476
        -1485185263 1822699536 718015024</internalNodes>
      <leafValues>
        -3.5091456770896912e-01 6.6752254962921143e-02</leafValues></_>
    <_>
      <internalNodes>
        0 -1 396 -797183886 -722427517 -1405887681 1564964298 -871779848
        -52136487 1643223504 -1019030441</internalNodes>
      <leafValues>
        -1.3819727301597595e-01 1.6620823740959167e-01</leafValues></_>
    <_>
      <internalNodes>
        0 -1 3123 -1999641731 -383107107 -1402268738 -280486099
        -76731083 -977660295 -1279903087 -46166</internalNodes>
      <leafValues>
        -1.0130987316370010e-01 2.2221133112907410e-01</leafValues></_>
    <_>
      <internalNodes>
        0 -1 2958 209815808 144515620 -1132192428 -51561870 324338116
        -1502399763 58459100 801048234</internalNodes>
      <leafValues>
        -2.6690459251403809e-01 9.1546237468719482e-02</leafValues></_>
    <_>
      <internalNodes>
        0 -1 947 -85797027 2057460903 -34472713 401964795 -1828598577
        89048397 -1263063317 -1220759335</internalNodes>
      <leafValues>
        -1.1061400920152664e-01 2.0518150925636292e-01</leafValues></_>
    <_>
      <internalNodes>
        0 -1 3891 -492771198 243944491 1312564728 1210479260 -1199634387
        -985434573 -401828773 474863487</internalNodes>
      <leafValues>
        -2.6942643523216248e-01 8.6920902132987976e-02</leafValues></_>
    <_>
      <internalNodes>
        0 -1 3048 -1672174496 -589821450 396268927 490473076 -759265232
        -1661114446 1109272850 -939406336</internalNodes>
      <leafValues>
        -1.8726670742034912e-01 1.2666597962379456e-01</leafValues></_>
    <_>
      <internalNodes>
        0 -1 581 -713625601 -619658764 1069162403 -716043325 -2054433365
        -1677989786 -1349859346 -806691075</internalNodes>
      <leafValues>
        -6.1797752976417542e-02 3.6324995756149292e-01</leafValues></_>
    <_>
      <internalNodes>
        0 -1 251 -747116402 1667347302 245062247 1137799335 299320320
        -930907293 -1634696476 -1697428930</internalNodes>
      <leafValues>
        -1.7654535174369812e-01 1.3068707287311554e-01</leafValues></_>
    <_>
      <internalNodes>
        0 -1 3189 705327716 776092429 -670515300 -1297990718 502728502
        -214892163 289281500 621085318</internalNodes>
      <leafValues>
        -2.7613103389739990e-01 8.1538908183574677e-02</leafValues></_>
    <_>
      <internalNodes>
        0 -1 1029 -1887703301 795599844 -1158744490 -1649746742
        -2022209559 -1359220297 1287641549 -874513546</internalNodes>
      <leafValues>
        -8.2575701177120209e-02 2.8172895312309265e-01</leafValues></_>
    <_>
      <internalNodes>
        0 -1 101 1142223058 -592722033 885378401 1564558609 -692344560
        1106519141 255922944 2017005148</internalNodes>
      <leafValues>
        -2.7778321504592896e-01 8.8274456560611725e-02</leafValues></_>
    <_>
      <internalNodes>
        0 -1 3297 -890782345 -546336870 -1088438474 -2489988 -1273514572
        1768857282 -1254100051 -28966</internalNodes>
      <leafValues>
        -7.7385254204273224e-02 2.9058986902236938e-01</leafValues></_>
    <_>
      <internalNodes>
        0 -1 735 -1135396283 1342713311 -610387077 892547632 -597236513
        -1098642564 1286998984 462702951</internalNodes>
      <leafValues>
        -1.3601726293563843e-01 1.7101027071475983e-01</leafValues></_>
    <_>
      <internalNodes>
        0 -1 1434 1112064674 -2104470827 -898941500 -2133919189
        -181501180 -1763524 1161969698 1073927782</internalNodes>
      <leafValues>
        -2.3710301518440247e-01 9.8177820444107056e-02</leafValues></_>
    <_>
      <internalNodes>
        0 -1 2787 -1752468738 -358948867 477630823 -2131497498
        1820046930 -59121921 -545294490 -285809292</internalNodes>
      <leafValues>
        -1.3469590246677399e-01 1.7425286769866943e-01</leafValues></_>
    <_>
      <internalNodes>
        0 -1 2244 77338624 1056716150 -1587210118 1002325896 232079140
        -1429462516 -1418872219 774110272</internalNodes>
      <leafValues>
        -3.3711355924606323e-01 6.9727011024951935e-02</leafValues></_>
    <_>
      <internalNodes>
        0 -1 3968 -1035542286 1473072446 22467615 -1612452881 -614754582
        809893972 1392629454 -611638085</internalNodes>
      <leafValues>
        -1.0947985202074051e-01 2.1695148944854736e-01</leafValues></_>
    <_>
      <internalNodes>
        0 -1 1879 544011606 2026913916 1094476812 -1797455299
        -1431829212 1288232024 284862616 1067851549</internalNodes>
      <leafValues>
        -2.1807871758937836e-01 1.0777340084314346e-01</leafValues></_>
    <_>
      <internalNodes>
        0 -1 1062 -746840001 43767377 82044575 1507827039 -1971334294
        -1388320427 -783958025 -352453899</internalNodes>
      <leafValues>
        -1.1823581159114838e-01 1.9348204135894775e-01</leafValues></_>
    <_>
      <internalNodes>
        0 -1 270 -9975680 1619241712 -1031402640 292939315 2069939332
        -2000387940 -783113070 550365935</internalNodes>
      <leafValues>
        -1.7129884660243988e-01 1.3482269644737244e-01</leafValues></_>
    <_>
      <internalNodes>
        0 -1 2023 711067138 577642758 819365870 -1869736382 1700205345
        82136824 -2049728926 1421009684</internalNodes>
      <leafValues>
        -3.5215079784393311e-01 6.4795888960361481e-02</leafValues></_>
    <_>
      <internalNodes>
        0 -1 729 -449035172 -968566 -1430962369 1541577571 -166850082
        -88296190 1792564922 -370918298</internalNodes>
      <leafValues>
        -1.3918140530586243e-01 1.7707143723964691e-01</leafValues></_>
    <_>
      <internalNodes>
        0 -1 3477 978977048 145267972 378951953 509617456 182519905
        42351476 493487024 264505088</internalNodes>
      <leafValues>
        -4.0778988599777222e-01 5.8499984443187714e-02</leafValues></_>
    <_>
      <internalNodes>
        0 -1 3012 -766173422 -391369009 -580206917 1068001963
        -1829432103 -145466507 -2123692837 -986616521</internalNodes>
      <leafValues>
        -1.3613438606262207e-01 1.7315709590911865e-01</leafValues></_>
    <_>
      <internalNodes>
        0 -1 3168 1910112231 -655536198 -277022443 -591954949 -704653352
        -1101299849 -1368013872 -827588744</internalNodes>
      <leafValues>
        -8.3456918597221375e-02 2.7396702766418457e-01</leafValues></_>
    <_>
      <internalNodes>
        0 -1 3438 -454630863 1892568246 76304663 -555412972 -1466027190
        -1817217996 1066196732 999235214</internalNodes>
      <leafValues>
        -1.5506979823112488e-01 1.5418779850006104e-01</leafValues></_>
    <_>
      <internalNodes>
        0 -1 2370 90317158 172537132 34788093 731960064 2108235863
        121388198 114705426 15745040</internalNodes>
      <leafValues>
        -4.1733813285827637e-01 5.7182785123586655e-02</leafValues></_>
    <_>
      <internalNodes>
        0 -1 834 -710675461 522171886 -888291549 534509279 -1025853522
        -1968212808 1542063067 -273684769</internalNodes>
      <leafValues>
        -6.7038774490356445e-02 3.7104088068008423e-01</leafValues></_>
    <_>
      <internalNodes>
        0 -1 726 -792857199 -776192673 1199095191 -1680232359 -967138366
        -1034859898 -688441645 -833623869</internalNodes>
      <leafValues>
        -9.5288813114166260e-02 2.3914094269275665e-01</leafValues></_>
    <_>
      <internalNodes>
        0 -1 2192 -1350260332 2003837593 -1132191532 -2064736553
        -666678125 2086809393 2017335847 1010183698</internalNodes>
      <leafValues>
        -2.3915481567382812e-01 9.9329076707363129e-02</leafValues></_>
    <_>
      <internalNodes>
        0 -1 1886 1130464489 1531682697 -1645598601 -1241520643 92110479
        -1254228113 -1745088962 -2832360</internalNodes>
      <leafValues>
        -1.0944961756467819e-01 2.2157223522663116e-01</leafValues></_>
    <_>
      <internalNodes>
        0 -1 3962 -632894802 269395056 180723262 821561509 -223762968
        54365188 -1536605462 -804577146</internalNodes>
      <leafValues>
        -1.6350017488002777e-01 1.4664718508720398e-01</leafValues></_>
    <_>
      <internalNodes>
        0 -1 2463 271503207 -2100518342 1128553715 1822443542 -96992995
        2122010372 -1461764471 998984347</internalNodes>
      <leafValues>
        -1.8370841443538666e-01 1.3207669556140900e-01</leafValues></_>
    <_>
      <internalNodes>
        0 -1 2428 1378614486 452371497 -556303679 2098601974 -2046509401
        1805815071 -1922122054 -3445606</internalNodes>
      <leafValues>
        -1.0616642236709595e-01 2.3030579090118408e-01</leafValues></_>
    <_>
      <internalNodes>
        0 -1 3392 308329780 389294608 -1253855892 -1385329577 245963221
        -1704295216 294334690 1162334557</internalNodes>
      <leafValues>
        -1.8588383495807648e-01 1.2865720689296722e-01</leafValues></_>
    <_>
      <internalNodes>
        0 -1 3767 -883099126 199666380 347853159 -103219569 1053755886
        -1128296804 -689065501 -327681350</internalNodes>
      <leafValues>
        -1.2684144079685211e-01 2.0648193359375000e-01</leafValues></_>
    <_>
      <internalNodes>
        0 -1 3808 1877963991 -98171801 342548066 1984323574 -145696624
        -34021560 -1179858515 -49316292</internalNodes>
      <leafValues>
        -1.1471943557262421e-01 2.1252851188182831e-01</leafValues></_>
    <_>
      <internalNodes>
        0 -1 3664 1542284047 -553762465 159580831 1896278362 -988895096
        -983191327 -2113458041 -2143685607</internalNodes>
      <leafValues>
        -1.6728061437606812e-01 1.4680972695350647e-01</leafValues></_>
    <_>
      <internalNodes>
        0 -1 1249 1149939256 312406349 986135937 -1155781480 2205184
        -1966581964 -1941922894 1037373650</internalNodes>
      <leafValues>
        -2.2372211515903473e-01 1.1189628392457962e-01</leafValues></_>
    <_>
      <internalNodes>
        0 -1 2060 450843896 405588543 -363724681 -1606147390 -869446340
        -823928465 1819358242 1354865729</internalNodes>
      <leafValues>
        -2.1831198036670685e-01 1.0929647088050842e-01</leafValues></_>
    <_>
      <internalNodes>
        0 -1 3640 -246679971 -955813891 30471743 -1091832217 1575974431
        -8917917 1875064663 -2965932</internalNodes>
      <leafValues>
        -1.0747195035219193e-01 2.2367107868194580e-01</leafValues></_>
    <_>
      <internalNodes>
        0 -1 3023 -1014935941 -1293921104 801054037 -1423964525
        1933597117 -933407474 735324096 744162370</internalNodes>
      <leafValues>
        -1.5018461644649506e-01 1.5881580114364624e-01</leafValues></_>
    <_>
      <internalNodes>
        0 -1 1909 851369026 14338757 -1362470836 2048961877 -1597157110
        976962865 -1976685919 985668696</internalNodes>
      <leafValues>
        -2.4827580153942108e-01 9.6641413867473602e-02</leafValues></_>
    <_>
      <internalNodes>
        0 -1 2217 1333832867 331755354 -1983873390 1009669998
        -1440842130 1875863837 168376411 -1684803856</internalNodes>
      <leafValues>
        -1.6106311976909637e-01 1.6363723576068878e-01</leafValues></_>
    <_>
      <internalNodes>
        0 -1 3710 1174444034 2051803300 -1297480140 1415070724
        -889030880 217987860 -1425797707 1023415844</internalNodes>
      <leafValues>
        -2.8811398148536682e-01 8.2640968263149261e-02</leafValues></_>
    <_>
      <internalNodes>
        0 -1 950 -51484225 1948590179 -1560462279 -583403753 242688447
        1611213747 1884466142 -1057655082</internalNodes>
      <leafValues>
        -1.4451368153095245e-01 1.7269803583621979e-01</leafValues></_>
    <_>
      <internalNodes>
        0 -1 3454 -120031031 -603371325 1013842097 -275799185 2014617908
        25965156 539242359 1309024602</internalNodes>
      <leafValues>
        -1.8844370543956757e-01 1.2907472252845764e-01</leafValues></_>
    <_>
      <internalNodes>
        0 -1 3954 -653676934 1520452132 -1098214308 -255746006
        -144470569 -1261285635 -234291410 -110238102</internalNodes>
      <leafValues>
        -1.2751781940460205e-01 1.9383451342582703e-01</leafValues></_>
    <_>
      <internalNodes>
        0 -1 3453 2107056819 -1279717841 -558430250 1597241205
        -160807821 -549731702 -671114561 -610306597</internalNodes>
      <leafValues>
        -7.2607286274433136e-02 3.3850759267807007e-01</leafValues></_></weakClassifiers></stage20>
</opencv_storage>
