<?xml version="1.0"?>
<opencv_storage>
<stage33>
  <maxWeakCount>89</maxWeakCount>
  <stageThreshold>-1.0622394084930420e+00</stageThreshold>
  <weakClassifiers>
    <_>
      <internalNodes>
        0 -1 1693 -958666216 -1560568233 -1062072524 -792515552
        557764080 -1980917918 -1522878473 -1931494361</internalNodes>
      <leafValues>
        7.4750110507011414e-02 3.9376521110534668e-01</leafValues></_>
    <_>
      <internalNodes>
        0 -1 936 -244154497 55255033 -1787624803 460277943 -680500047
        -1466045746 -900867 -88478986</internalNodes>
      <leafValues>
        -8.8530883193016052e-02 2.4468247592449188e-01</leafValues></_>
    <_>
      <internalNodes>
        0 -1 2759 -1200949537 -435597653 -1595774292 872358783 -59936050
        -1592183248 -633980813 -1088635725</internalNodes>
      <leafValues>
        -1.1844065040349960e-01 1.8889385461807251e-01</leafValues></_>
    <_>
      <internalNodes>
        0 -1 261 2002715395 -783818155 -1048505065 1799897153 71004928
        1952522784 -884233669 1486667778</internalNodes>
      <leafValues>
        -2.6033836603164673e-01 6.3136830925941467e-02</leafValues></_>
    <_>
      <internalNodes>
        0 -1 1591 84248144 -1688588215 142746071 56934398 1499735120
        994066666 437925140 250095740</internalNodes>
      <leafValues>
        -3.2616925239562988e-01 5.2601784467697144e-02</leafValues></_>
    <_>
      <internalNodes>
        0 -1 978 -992626945 1253764855 1086247747 -576414290 149137299
        -823596233 1811928759 -536959521</internalNodes>
      <leafValues>
        -7.3905609548091888e-02 2.8053581714630127e-01</leafValues></_>
    <_>
      <internalNodes>
        0 -1 2580 -95460805 -1856085704 -1722826831 413518630 -867099469
        -575843040 -757837550 -2141073338</internalNodes>
      <leafValues>
        -1.3697519898414612e-01 1.5868547558784485e-01</leafValues></_>
    <_>
      <internalNodes>
        0 -1 3808 -998429181 1010434902 -1570055026 1559520602 769529010
        -1427861729 -936818658 2075094626</internalNodes>
      <leafValues>
        -1.5082216262817383e-01 1.4480639994144440e-01</leafValues></_>
    <_>
      <internalNodes>
        0 -1 3965 -1290803282 287441926 165801619 501853682 119928574
        -1991564822 -13235347 -539129862</internalNodes>
      <leafValues>
        -1.2037203460931778e-01 1.7288947105407715e-01</leafValues></_>
    <_>
      <internalNodes>
        0 -1 3881 -888148849 140871722 -2073659984 -754257871
        -1587032260 -558691557 -306716983 -116266949</internalNodes>
      <leafValues>
        -9.7429916262626648e-02 2.0150755345821381e-01</leafValues></_>
    <_>
      <internalNodes>
        0 -1 1764 1698870016 2020085956 244493839 2009933012 518824448
        300687800 801648634 201331712</internalNodes>
      <leafValues>
        -2.5753653049468994e-01 7.6624698936939240e-02</leafValues></_>
    <_>
      <internalNodes>
        0 -1 3123 11696919 -840805180 1054055060 -35107207 -1805684707
        2120250979 28436365 -272953666</internalNodes>
      <leafValues>
        -9.8233871161937714e-02 2.0224069058895111e-01</leafValues></_>
    <_>
      <internalNodes>
        0 -1 2641 -581153947 289424792 -778906351 -1857978212 1782726392
        21872135 27069468 111150096</internalNodes>
      <leafValues>
        -3.8927477598190308e-01 5.2887234836816788e-02</leafValues></_>
    <_>
      <internalNodes>
        0 -1 3962 -70259550 -799745528 -2141415664 -603660192
        -1841430096 1836065971 -178190357 1482548570</internalNodes>
      <leafValues>
        -1.6531221568584442e-01 1.3152906298637390e-01</leafValues></_>
    <_>
      <internalNodes>
        0 -1 236 -620822529 -799609257 8367965 738164671 -2025861246
        -655822952 -1068515649 -1613305985</internalNodes>
      <leafValues>
        -6.0668531805276871e-02 3.2028204202651978e-01</leafValues></_>
    <_>
      <internalNodes>
        0 -1 168 -750062678 -1189941714 -1526298127 -47197999 605550976
        1434606729 1869660825 1340851671</internalNodes>
      <leafValues>
        -1.3640271127223969e-01 1.5261988341808319e-01</leafValues></_>
    <_>
      <internalNodes>
        0 -1 2485 -1229821417 263388038 -1849367476 -1597257608
        -1832045885 -1047500384 -2126448279 -1293042998</internalNodes>
      <leafValues>
        -1.3690252602100372e-01 1.5778470039367676e-01</leafValues></_>
    <_>
      <internalNodes>
        0 -1 3584 -835534072 -227531012 -497892953 -4951472 -92822777
        -348619792 -2086969135 258709290</internalNodes>
      <leafValues>
        -1.7277760803699493e-01 1.2646327912807465e-01</leafValues></_>
    <_>
      <internalNodes>
        0 -1 3428 470129915 13265755 484319222 -1497481243 1697913462
        1207877109 1357755556 -641886168</internalNodes>
      <leafValues>
        -1.2206893414258957e-01 1.7744272947311401e-01</leafValues></_>
    <_>
      <internalNodes>
        0 -1 3003 1058871190 -1360334340 1335823530 53790 -1620812008
        -669193716 236401248 138622530</internalNodes>
      <leafValues>
        -2.7392345666885376e-01 7.9221419990062714e-02</leafValues></_>
    <_>
      <internalNodes>
        0 -1 3513 -83951658 -209720634 -1728742691 -17064473 430726536
        -15229617 1989365902 -50877857</internalNodes>
      <leafValues>
        -8.6684182286262512e-02 2.5711339712142944e-01</leafValues></_>
    <_>
      <internalNodes>
        0 -1 1094 -1168636602 3130492 1584661135 -1989333937 1244759040
        141953949 49417607 4453371</internalNodes>
      <leafValues>
        -2.4795873463153839e-01 9.4453766942024231e-02</leafValues></_>
    <_>
      <internalNodes>
        0 -1 1409 -1426097068 1461657087 1619661819 -751163556
        1850814921 -2067825060 -544784487 -706471958</internalNodes>
      <leafValues>
        -1.2889167666435242e-01 1.7682346701622009e-01</leafValues></_>
    <_>
      <internalNodes>
        0 -1 2914 282269808 -165018612 -1977581889 1190159365 1915323023
        -2101734061 1628347130 1127915706</internalNodes>
      <leafValues>
        -1.8108697235584259e-01 1.2653432786464691e-01</leafValues></_>
    <_>
      <internalNodes>
        0 -1 3695 -572525729 -84544865 -122394849 -714629677 -176556147
        -1214917070 -230024289 -74976357</internalNodes>
      <leafValues>
        -6.3841126859188080e-02 3.6567941308021545e-01</leafValues></_>
    <_>
      <internalNodes>
        0 -1 2176 4712520 -2136309215 638542952 375865621 -1530730461
        1119804200 -2015978751 534264064</internalNodes>
      <leafValues>
        -2.2653736174106598e-01 9.7922973334789276e-02</leafValues></_>
    <_>
      <internalNodes>
        0 -1 2660 -152569113 2092153996 -836010619 -138445924 469702017
        -1129817111 869615071 -8524133</internalNodes>
      <leafValues>
        -7.6539255678653717e-02 2.9907688498497009e-01</leafValues></_>
    <_>
      <internalNodes>
        0 -1 3896 187377850 -525424118 -748048289 -1511974152
        -2004120886 -1743867156 -1880482834 -1647216802</internalNodes>
      <leafValues>
        -1.5983031690120697e-01 1.3791520893573761e-01</leafValues></_>
    <_>
      <internalNodes>
        0 -1 3210 -734010149 -543365537 -119034063 344572318 -1131056129
        -1954371980 -79082233 -749213086</internalNodes>
      <leafValues>
        -8.7819784879684448e-02 2.4389401078224182e-01</leafValues></_>
    <_>
      <internalNodes>
        0 -1 3618 616203286 447619870 -1435916010 410782467 1979987836
        -54322251 -259457620 1001947066</internalNodes>
      <leafValues>
        -2.3662477731704712e-01 9.8587721586227417e-02</leafValues></_>
    <_>
      <internalNodes>
        0 -1 3143 -749779589 -138821889 -33598055 -2794809 -1044134772
        -1080432848 -724154033 -13384167</internalNodes>
      <leafValues>
        -5.3268000483512878e-02 4.1261801123619080e-01</leafValues></_>
    <_>
      <internalNodes>
        0 -1 599 2021599968 1095906583 469847985 1701875989 -2046324557
        122438819 -780106085 365905929</internalNodes>
      <leafValues>
        -2.2645804286003113e-01 1.0351838171482086e-01</leafValues></_>
    <_>
      <internalNodes>
        0 -1 1590 -167723146 2095319544 12217436 759213814 1717179330
        -34933242 -1531008395 -1898255842</internalNodes>
      <leafValues>
        -1.3185797631740570e-01 1.7905537784099579e-01</leafValues></_>
    <_>
      <internalNodes>
        0 -1 2558 -1396036384 -1153295070 10672634 -1861739050 -99941279
        -1690519045 -1331790460 286308700</internalNodes>
      <leafValues>
        -2.0926736295223236e-01 1.0875605046749115e-01</leafValues></_>
    <_>
      <internalNodes>
        0 -1 3381 1928453627 -924586305 -1407067052 -902963007
        -1693483264 -179704261 -1536598266 -957367689</internalNodes>
      <leafValues>
        -1.3194668292999268e-01 1.7603035271167755e-01</leafValues></_>
    <_>
      <internalNodes>
        0 -1 2964 107618316 692986862 -2147212200 949095897 575109300
        -1341265536 276825708 160455384</internalNodes>
      <leafValues>
        -3.5421305894851685e-01 6.9256275892257690e-02</leafValues></_>
    <_>
      <internalNodes>
        0 -1 3906 1229185274 -76108708 2067938008 -1726273785 93889253
        201795810 -75371121 -883318269</internalNodes>
      <leafValues>
        -1.1002752929925919e-01 1.9887699186801910e-01</leafValues></_>
    <_>
      <internalNodes>
        0 -1 3961 -1037260876 605161508 -252311438 478480390 1219266036
        -2011953133 1458254952 76881438</internalNodes>
      <leafValues>
        -2.2069211304187775e-01 9.9944822490215302e-02</leafValues></_>
    <_>
      <internalNodes>
        0 -1 2328 -2068166054 12912486 -1376638564 1243829766
        -1592972524 -1427208044 409797665 1124965703</internalNodes>
      <leafValues>
        -2.2982962429523468e-01 9.4691470265388489e-02</leafValues></_>
    <_>
      <internalNodes>
        0 -1 1122 -452730945 425177996 -1790492775 -1646597252
        -633209157 -1500983776 -140593973 -368055445</internalNodes>
      <leafValues>
        -6.8776763975620270e-02 3.2588779926300049e-01</leafValues></_>
    <_>
      <internalNodes>
        0 -1 2211 -397251988 -529355470 354150484 -1909446435 766028708
        514156895 716135365 982133035</internalNodes>
      <leafValues>
        -2.2381685674190521e-01 9.9316008388996124e-02</leafValues></_>
    <_>
      <internalNodes>
        0 -1 2453 2049824511 -402049030 1174362660 -1622679377 441644035
        -1211156585 -308282999 -1389161170</internalNodes>
      <leafValues>
        -1.0306625068187714e-01 2.1719121932983398e-01</leafValues></_>
    <_>
      <internalNodes>
        0 -1 2433 -720137577 1513737575 -2032249755 -130324246
        1400750467 -1259393490 367715993 -5245269</internalNodes>
      <leafValues>
        -8.5951089859008789e-02 2.6709327101707458e-01</leafValues></_>
    <_>
      <internalNodes>
        0 -1 1855 -328934314 1443398214 1615100037 500699678 1518391513
        954356128 -1472932293 96472584</internalNodes>
      <leafValues>
        -2.7839928865432739e-01 8.3622701466083527e-02</leafValues></_>
    <_>
      <internalNodes>
        0 -1 804 -115344555 -219233390 -539253303 -1141520427 1252897549
        -1354225824 -429607733 -627311413</internalNodes>
      <leafValues>
        -7.7129431068897247e-02 2.8973957896232605e-01</leafValues></_>
    <_>
      <internalNodes>
        0 -1 3390 426000 34287109 -1280922310 -1617422903 -1660484647
        -926655906 2020606702 537867040</internalNodes>
      <leafValues>
        -2.4656671285629272e-01 9.2531256377696991e-02</leafValues></_>
    <_>
      <internalNodes>
        0 -1 2074 -694158710 452324127 -578167857 -1379079217
        -1404398213 -826283418 -1305003954 -804521398</internalNodes>
      <leafValues>
        -1.1070183664560318e-01 2.1473397314548492e-01</leafValues></_>
    <_>
      <internalNodes>
        0 -1 12 -1761440713 209234962 -1871830113 -852887606 -1431194955
        -68816460 1144052253 1095080272</internalNodes>
      <leafValues>
        -1.6334877908229828e-01 1.3659338653087616e-01</leafValues></_>
    <_>
      <internalNodes>
        0 -1 1467 1567765869 -1928380288 1580343729 -296677370 345329712
        986986941 1148755829 1086556947</internalNodes>
      <leafValues>
        -1.7620806396007538e-01 1.3055419921875000e-01</leafValues></_>
    <_>
      <internalNodes>
        0 -1 2613 -1834503726 2092631100 -934493591 156708079
        -1445961298 -357166 -1353804846 -270725728</internalNodes>
      <leafValues>
        -1.2307417392730713e-01 1.9684368371963501e-01</leafValues></_>
    <_>
      <internalNodes>
        0 -1 895 -1533935701 -311110162 333317748 -1177659749
        -1189631557 -2101584203 -1220922466 -19138562</internalNodes>
      <leafValues>
        -6.9147907197475433e-02 3.2474440336227417e-01</leafValues></_>
    <_>
      <internalNodes>
        0 -1 604 1178833762 54952522 1648353926 -1990134040 116532753
        784804912 129605926 185549845</internalNodes>
      <leafValues>
        -3.1205776333808899e-01 7.7344737946987152e-02</leafValues></_>
    <_>
      <internalNodes>
        0 -1 580 -191384065 1508862206 -1195703555 -1355817546
        -912003429 -1430616579 -87041089 -24393011</internalNodes>
      <leafValues>
        -5.4848313331604004e-02 4.6570831537246704e-01</leafValues></_>
    <_>
      <internalNodes>
        0 -1 2116 286424314 104388606 336757393 -1276971025 1416353830
        1354277884 -650196163 1030940938</internalNodes>
      <leafValues>
        -1.6577267646789551e-01 1.3876619935035706e-01</leafValues></_>
    <_>
      <internalNodes>
        0 -1 3139 -25365697 1426456535 -2022758543 -1251523241
        -120810251 -2002913307 -1007629430 -3453045</internalNodes>
      <leafValues>
        -7.0795074105262756e-02 3.1921243667602539e-01</leafValues></_>
    <_>
      <internalNodes>
        0 -1 69 29952 363171860 1074216731 35614769 2080619956 33840188
        -1826210979 22045521</internalNodes>
      <leafValues>
        -3.8549134135246277e-01 5.8153860270977020e-02</leafValues></_>
    <_>
      <internalNodes>
        0 -1 3177 -1680883721 -119314561 1774792542 -94879925 -239798586
        -532483 -11016270 -1154306476</internalNodes>
      <leafValues>
        -8.5715658962726593e-02 2.7068239450454712e-01</leafValues></_>
    <_>
      <internalNodes>
        0 -1 2295 -189004577 237924032 1797141723 42130103 1628875753
        -42071914 977615123 1097186911</internalNodes>
      <leafValues>
        -2.0004841685295105e-01 1.1519785225391388e-01</leafValues></_>
    <_>
      <internalNodes>
        0 -1 1131 -293611747 -777649155 1290969455 -716264069 -76946499
        -907209117 -1443242053 -1078088629</internalNodes>
      <leafValues>
        -6.2614344060420990e-02 3.5973969101905823e-01</leafValues></_>
    <_>
      <internalNodes>
        0 -1 2135 521236159 1977093313 -1912660044 -1243366991 -8968632
        91066153 -2129582432 -66066624</internalNodes>
      <leafValues>
        -1.2874969840049744e-01 1.7913521826267242e-01</leafValues></_>
    <_>
      <internalNodes>
        0 -1 2661 -1759470428 138955952 -1257995388 201687236
        -1686085102 -443660681 -97350906 687227400</internalNodes>
      <leafValues>
        -3.0908066034317017e-01 8.1341527402400970e-02</leafValues></_>
    <_>
      <internalNodes>
        0 -1 336 -858157387 -1211796174 -2051157209 1496826873 -77333569
        -1528465756 -281622049 -67635290</internalNodes>
      <leafValues>
        -7.1205832064151764e-02 3.1847360730171204e-01</leafValues></_>
    <_>
      <internalNodes>
        0 -1 1027 100868634 -2062671318 1492405554 349976732 151848962
        -1999886227 1483037408 12155589</internalNodes>
      <leafValues>
        -3.1118223071098328e-01 7.2786115109920502e-02</leafValues></_>
    <_>
      <internalNodes>
        0 -1 381 -551426102 2111430050 -1260410489 -3583165 -54622057
        -808079483 381681340 -1015299190</internalNodes>
      <leafValues>
        -9.0206153690814972e-02 2.6143592596054077e-01</leafValues></_>
    <_>
      <internalNodes>
        0 -1 3514 -2014171367 -1937374045 -633643948 212399876
        -370861759 353818914 1330070068 1114012970</internalNodes>
      <leafValues>
        -2.7187642455101013e-01 9.0018555521965027e-02</leafValues></_>
    <_>
      <internalNodes>
        0 -1 966 -1036098019 -176212070 1833600469 -1152911641
        -1687488529 -386663255 -147593729 -340794737</internalNodes>
      <leafValues>
        -6.0411505401134491e-02 3.8972455263137817e-01</leafValues></_>
    <_>
      <internalNodes>
        0 -1 74 31959962 -1109941444 1398703405 -1097619711 -480608125
        -1987949815 -674082431 -748535260</internalNodes>
      <leafValues>
        -1.7275403439998627e-01 1.3423453271389008e-01</leafValues></_>
    <_>
      <internalNodes>
        0 -1 2167 -986364677 -1734105566 1844862509 -1257866019
        -1420208972 -1573228115 -112930117 -75760669</internalNodes>
      <leafValues>
        -8.3848409354686737e-02 2.7402642369270325e-01</leafValues></_>
    <_>
      <internalNodes>
        0 -1 270 524984336 939788672 4204352 294779946 1288380928
        961151086 59887104 1083499173</internalNodes>
      <leafValues>
        -3.0570447444915771e-01 7.7654980123043060e-02</leafValues></_>
    <_>
      <internalNodes>
        0 -1 3842 1346691074 -494138063 -1124102116 891865676 1522995790
        92938562 -1542623218 1796415470</internalNodes>
      <leafValues>
        -1.8368546664714813e-01 1.2722803652286530e-01</leafValues></_>
    <_>
      <internalNodes>
        0 -1 3420 1576523483 -210502705 -340413537 -539366157 -152794437
        -77081188 -541358693 -69229605</internalNodes>
      <leafValues>
        -5.1148243248462677e-02 4.4898450374603271e-01</leafValues></_>
    <_>
      <internalNodes>
        0 -1 31 1269108274 -2121324653 1347521342 -2128853672 1810904550
        -48035511 1329539736 -464431723</internalNodes>
      <leafValues>
        -1.8198004364967346e-01 1.2935936450958252e-01</leafValues></_>
    <_>
      <internalNodes>
        0 -1 3949 -777787256 1136823044 2075713980 -2127281997
        -591996966 -937589196 -253714461 -1945381642</internalNodes>
      <leafValues>
        -1.4099913835525513e-01 1.7117278277873993e-01</leafValues></_>
    <_>
      <internalNodes>
        0 -1 1427 -89474089 300190755 1985510119 800802301 -108241714
        -1201832160 -348206185 -1248265365</internalNodes>
      <leafValues>
        -9.5432788133621216e-02 2.4429441988468170e-01</leafValues></_>
    <_>
      <internalNodes>
        0 -1 3328 1298839440 104025761 68289036 1575773811 170923541
        689506880 -2080271223 134614436</internalNodes>
      <leafValues>
        -2.5174304842948914e-01 9.4720877707004547e-02</leafValues></_>
    <_>
      <internalNodes>
        0 -1 2688 -235876653 -588712457 -590346372 -109452807 1299036792
        -549404677 1777265870 -268728613</internalNodes>
      <leafValues>
        -7.3975533246994019e-02 3.1902810931205750e-01</leafValues></_>
    <_>
      <internalNodes>
        0 -1 3873 -411310165 -742798432 499813749 1972379152 325375535
        -1410938531 186218466 -543222135</internalNodes>
      <leafValues>
        -8.3287566900253296e-02 2.7687686681747437e-01</leafValues></_>
    <_>
      <internalNodes>
        0 -1 1644 674301813 5991288 1476545363 -1352916780 55259447
        1163919944 88683081 995307179</internalNodes>
      <leafValues>
        -2.9255422949790955e-01 8.5623830556869507e-02</leafValues></_>
    <_>
      <internalNodes>
        0 -1 1080 1478365708 -837813124 -262624142 318034343 1850281524
        -1945753872 -1065049344 -1577781995</internalNodes>
      <leafValues>
        -2.0301221311092377e-01 1.1545373499393463e-01</leafValues></_>
    <_>
      <internalNodes>
        0 -1 729 -497924282 1031370905 -2026807521 1030900416
        -1139227974 -1190237933 -345283186 1631542355</internalNodes>
      <leafValues>
        -1.5801599621772766e-01 1.6008701920509338e-01</leafValues></_>
    <_>
      <internalNodes>
        0 -1 1120 -134906377 -82926820 -235145761 -1187040619
        -1170951439 -1987944565 -647567682 -20537800</internalNodes>
      <leafValues>
        -5.8660566806793213e-02 3.9437374472618103e-01</leafValues></_>
    <_>
      <internalNodes>
        0 -1 3771 161616560 191073027 -372705296 -2054681660 -1365030750
        210483393 556095694 1426853178</internalNodes>
      <leafValues>
        -2.5324472784996033e-01 9.4985924661159515e-02</leafValues></_>
    <_>
      <internalNodes>
        0 -1 3709 -7627549 211092696 -662154212 1899188912 -560680947
        680353878 -1039449955 -1707248445</internalNodes>
      <leafValues>
        -1.5183873474597931e-01 1.5514382719993591e-01</leafValues></_>
    <_>
      <internalNodes>
        0 -1 2808 355333931 -1984818937 1624473955 -2008049784
        -517153931 -1084177661 -1807188751 77606400</internalNodes>
      <leafValues>
        -2.0836703479290009e-01 1.1509837955236435e-01</leafValues></_>
    <_>
      <internalNodes>
        0 -1 2216 -605228246 1797772726 -197784014 -1262648923
        1585020114 -1622749778 -954778065 -24395293</internalNodes>
      <leafValues>
        -1.0543118417263031e-01 2.3183687031269073e-01</leafValues></_>
    <_>
      <internalNodes>
        0 -1 360 -547956252 -181752391 1045007277 1026420890 1681959049
        -18549220 -540701302 -1413483765</internalNodes>
      <leafValues>
        -9.6540682017803192e-02 2.5033324956893921e-01</leafValues></_>
    <_>
      <internalNodes>
        0 -1 1619 1797490438 -1320665720 -381333978 628993126 1468281221
        -81367096 1452615174 786189832</internalNodes>
      <leafValues>
        -2.5208872556686401e-01 9.8882742226123810e-02</leafValues></_>
    <_>
      <internalNodes>
        0 -1 2951 1607988734 225951742 -709205523 1273571188 -934487306
        -900925581 -407128673 -39856190</internalNodes>
      <leafValues>
        -8.2810416817665100e-02 2.9193809628486633e-01</leafValues></_>
    <_>
      <internalNodes>
        0 -1 1405 4212806 1613697868 546395250 -1248615205 -1696623090
        -1937385459 -505373273 1755407730</internalNodes>
      <leafValues>
        -2.1183730661869049e-01 1.1791102588176727e-01</leafValues></_></weakClassifiers></stage33>
</opencv_storage>
