<?xml version="1.0"?>
<opencv_storage>
<stage4>
  <maxWeakCount>29</maxWeakCount>
  <stageThreshold>-1.4238170385360718e+00</stageThreshold>
  <weakClassifiers>
    <_>
      <internalNodes>
        0 -1 1792 -75500033 -4473353 -838898177 -1389888769 -402915585
        -285283201 -2010452737 14410491</internalNodes>
      <leafValues>
        -2.8884881734848022e-01 5.3225249052047729e-01</leafValues></_>
    <_>
      <internalNodes>
        0 -1 22 -608960513 -1684277769 1237380223 1066619735 -1950165585
        -1686382977 -87303489 1936945971</internalNodes>
      <leafValues>
        -3.5265922546386719e-01 3.3480852842330933e-01</leafValues></_>
    <_>
      <internalNodes>
        0 -1 621 -67109893 58599319 672157880 64553393 -674282485
        53088292 944728187 197885018</internalNodes>
      <leafValues>
        -4.2569616436958313e-01 1.9320869445800781e-01</leafValues></_>
    <_>
      <internalNodes>
        0 -1 3472 -233574308 1362640976 1302744569 1561547847 2082493632
        -2147466240 2117897 456873083</internalNodes>
      <leafValues>
        -2.5006756186485291e-01 3.1919521093368530e-01</leafValues></_>
    <_>
      <internalNodes>
        0 -1 3689 -615789317 355999762 2465855 522912259 -1246237761
        -1397817185 998362042 176677819</internalNodes>
      <leafValues>
        -3.1851553916931152e-01 2.4194942414760590e-01</leafValues></_>
    <_>
      <internalNodes>
        0 -1 1303 -932516110 13642420 1347443793 475529372 -2004175200
        -1460397931 252365755 198126843</internalNodes>
      <leafValues>
        -3.2985988259315491e-01 2.3090262711048126e-01</leafValues></_>
    <_>
      <internalNodes>
        0 -1 255 -773854317 292383835 -1074821547 299880754 8323329
        66224738 1093076755 1269556085</internalNodes>
      <leafValues>
        -3.4048038721084595e-01 2.1346114575862885e-01</leafValues></_>
    <_>
      <internalNodes>
        0 -1 2909 1079465072 -799932412 1068899931 1560745625 237797504
        -1382600672 16964763 -1623518181</internalNodes>
      <leafValues>
        -2.3689946532249451e-01 3.0633783340454102e-01</leafValues></_>
    <_>
      <internalNodes>
        0 -1 3375 -70262062 -488200816 1557784 1255603690 -517524976
        -838132212 1975542388 -865349769</internalNodes>
      <leafValues>
        -2.6159536838531494e-01 2.5583264231681824e-01</leafValues></_>
    <_>
      <internalNodes>
        0 -1 2203 -71828482 -1789882996 689412660 599532089 1649747518
        -2063824080 241894958 719072516</internalNodes>
      <leafValues>
        -4.1439142823219299e-01 1.6749733686447144e-01</leafValues></_>
    <_>
      <internalNodes>
        0 -1 426 -601427214 -183980928 187119099 2135287957 285915816
        -1367210976 611560331 -346826973</internalNodes>
      <leafValues>
        -2.0043951272964478e-01 3.4525933861732483e-01</leafValues></_>
    <_>
      <internalNodes>
        0 -1 2231 -1060707790 -1467867008 -1421711976 1025115141
        536929824 537028644 134221194 252396575</internalNodes>
      <leafValues>
        -3.3152195811271667e-01 2.0547710359096527e-01</leafValues></_>
    <_>
      <internalNodes>
        0 -1 3891 -354172286 -2013117938 -2113744758 1390133405
        -1576728702 -297779182 -263259749 -11543553</internalNodes>
      <leafValues>
        -2.5953677296638489e-01 2.6140278577804565e-01</leafValues></_>
    <_>
      <internalNodes>
        0 -1 198 -257169240 -750718336 1814057648 -146716448 70435712
        205686784 47436250 -2375205</internalNodes>
      <leafValues>
        -1.8993973731994629e-01 3.4912303090095520e-01</leafValues></_>
    <_>
      <internalNodes>
        0 -1 1223 -597433606 -1460101370 -628338571 289511489 -433160053
        320014884 -1130676261 866325047</internalNodes>
      <leafValues>
        -3.5679206252098083e-01 1.9071048498153687e-01</leafValues></_>
    <_>
      <internalNodes>
        0 -1 1261 -497033537 35361713 774711851 62892085 -697056758
        469539038 1911827979 -1931024260</internalNodes>
      <leafValues>
        -2.8336980938911438e-01 2.4311164021492004e-01</leafValues></_>
    <_>
      <internalNodes>
        0 -1 3943 -691019538 -800439072 -1595400053 -112846832
        -804874566 -230296567 -391728982 -80743697</internalNodes>
      <leafValues>
        -1.5497906506061554e-01 3.9714413881301880e-01</leafValues></_>
    <_>
      <internalNodes>
        0 -1 3297 -1474949104 2085635088 -1826487171 -571457530
        270675985 -1392376597 615050136 993985722</internalNodes>
      <leafValues>
        -3.0552807450294495e-01 2.0970889925956726e-01</leafValues></_>
    <_>
      <internalNodes>
        0 -1 716 -756554750 1080119912 -598945678 -2113969077
        -2109014016 393780 1077912134 1088938995</internalNodes>
      <leafValues>
        -4.2844471335411072e-01 1.4666967093944550e-01</leafValues></_>
    <_>
      <internalNodes>
        0 -1 783 470867416 -78344356 -581873217 2101343253 -1472140342
        -1946457432 -276926481 1110500384</internalNodes>
      <leafValues>
        -3.7645581364631653e-01 1.6603687405586243e-01</leafValues></_>
    <_>
      <internalNodes>
        0 -1 1667 -1032115949 333071195 -1163109136 -748555917 174994723
        -927061153 -502930092 -657091</internalNodes>
      <leafValues>
        -2.4980413913726807e-01 2.6664420962333679e-01</leafValues></_>
    <_>
      <internalNodes>
        0 -1 222 -108006526 1395721388 -1055878859 -1203796847
        -2109104128 479232 67298203 1522518154</internalNodes>
      <leafValues>
        -2.6031044125556946e-01 2.6499482989311218e-01</leafValues></_>
    <_>
      <internalNodes>
        0 -1 2835 -268398416 -754445308 -1052761895 1473993776 8554746
        -400387960 -1977079553 184746122</internalNodes>
      <leafValues>
        -2.5718420743942261e-01 2.5516200065612793e-01</leafValues></_>
    <_>
      <internalNodes>
        0 -1 83 -649925985 -1664145857 1104710585 -655533945 54069384
        531304197 1090549932 1516198523</internalNodes>
      <leafValues>
        -2.8018552064895630e-01 2.3197662830352783e-01</leafValues></_>
    <_>
      <internalNodes>
        0 -1 1830 8917168 846331948 93327125 487325701 -2120199520
        -1379401056 134235807 1292506578</internalNodes>
      <leafValues>
        -3.1695359945297241e-01 1.9628386199474335e-01</leafValues></_>
    <_>
      <internalNodes>
        0 -1 2547 -631248165 -2138902901 -1672252045 -1997043373
        1683280331 -770867298 -1119364526 -327493665</internalNodes>
      <leafValues>
        -2.0123563706874847e-01 3.3381015062332153e-01</leafValues></_>
    <_>
      <internalNodes>
        0 -1 2673 -27656962 -1385946340 -1373758337 -1475475412
        -1601233922 238179420 776316239 136180831</internalNodes>
      <leafValues>
        -4.0615236759185791e-01 1.6013006865978241e-01</leafValues></_>
    <_>
      <internalNodes>
        0 -1 624 -380644558 1431484997 1110786067 1434625640 -2109505374
        -1915439486 -1597775717 -806640241</internalNodes>
      <leafValues>
        -1.6691416501998901e-01 4.0592855215072632e-01</leafValues></_>
    <_>
      <internalNodes>
        0 -1 3861 -712781630 1365050464 41946875 1374786120 -74143576
        -1644116456 -400492406 -352081777</internalNodes>
      <leafValues>
        -1.5464551746845245e-01 3.9779415726661682e-01</leafValues></_></weakClassifiers></stage4>
</opencv_storage>
