<?xml version="1.0"?>
<opencv_storage>
<stage26>
  <maxWeakCount>95</maxWeakCount>
  <stageThreshold>-1.0662158727645874e+00</stageThreshold>
  <weakClassifiers>
    <_>
      <internalNodes>
        0 -1 3160 42402370 -834764750 1727022612 -120029194 -311024300
        -285968015 -10431120 -885383</internalNodes>
      <leafValues>
        -2.0411950536072254e-03 3.3131170272827148e-01</leafValues></_>
    <_>
      <internalNodes>
        0 -1 2439 -55199267 -1340348185 771558819 -846233205 -732498125
        -256044606 729221823 -806357513</internalNodes>
      <leafValues>
        -8.5328340530395508e-02 2.3929202556610107e-01</leafValues></_>
    <_>
      <internalNodes>
        0 -1 492 -1699693613 -1313754422 -1379503867 1575069216
        -805130718 -2111756073 2123700755 435282032</internalNodes>
      <leafValues>
        -2.1121318638324738e-01 9.5815815031528473e-02</leafValues></_>
    <_>
      <internalNodes>
        0 -1 1624 -340857769 1666314064 -1409801358 -1812914215
        1508881795 -78533037 417401845 -337903646</internalNodes>
      <leafValues>
        -1.1003304272890091e-01 1.8059003353118896e-01</leafValues></_>
    <_>
      <internalNodes>
        0 -1 508 525855199 -753672295 1426085031 596841751 42455183
        236321335 -307289977 -80484335</internalNodes>
      <leafValues>
        -1.3831686973571777e-01 1.5105770528316498e-01</leafValues></_>
    <_>
      <internalNodes>
        0 -1 1402 -935511344 268541817 1029446487 838873169 -2087148161
        8364319 -1399692213 13289472</internalNodes>
      <leafValues>
        -2.2255091369152069e-01 8.0851159989833832e-02</leafValues></_>
    <_>
      <internalNodes>
        0 -1 253 2059093577 1977713203 -1600974283 1272692853 74130243
        1041259019 -357493093 742415935</internalNodes>
      <leafValues>
        -1.7233926057815552e-01 1.1574718356132507e-01</leafValues></_>
    <_>
      <internalNodes>
        0 -1 2900 -88877637 -1134094096 826267965 -579864123 -1809475389
        -251763405 -680891633 -12648673</internalNodes>
      <leafValues>
        -7.7855840325355530e-02 2.5213995575904846e-01</leafValues></_>
    <_>
      <internalNodes>
        0 -1 3312 606171698 786463284 -1630870155 -17946864 -1459330800
        215529268 -2086317312 1066999038</internalNodes>
      <leafValues>
        -2.2061811387538910e-01 7.6517105102539062e-02</leafValues></_>
    <_>
      <internalNodes>
        0 -1 1375 106890831 191946011 -930754434 -1007030785 -1993790415
        212912849 -577649455 -856360876</internalNodes>
      <leafValues>
        -1.6262179613113403e-01 1.2072299420833588e-01</leafValues></_>
    <_>
      <internalNodes>
        0 -1 1531 -1732223914 1516273260 352384336 634389627 486627608
        71357764 33574968 33554480</internalNodes>
      <leafValues>
        -4.0484365820884705e-01 5.8478496968746185e-02</leafValues></_>
    <_>
      <internalNodes>
        0 -1 1072 -486554890 -608714881 1526359515 -777343246
        -2109747287 -1650462870 -747139655 -710558548</internalNodes>
      <leafValues>
        -9.8338857293128967e-02 2.1756176650524139e-01</leafValues></_>
    <_>
      <internalNodes>
        0 -1 1634 177515073 177748895 -1933037709 1005070310 579341873
        -1501949087 751302561 737028378</internalNodes>
      <leafValues>
        -2.1040245890617371e-01 9.2011503875255585e-02</leafValues></_>
    <_>
      <internalNodes>
        0 -1 548 -34094497 -1657251318 305150355 1571325883 1240367234
        -571824779 1966051583 -64037735</internalNodes>
      <leafValues>
        -7.5169548392295837e-02 2.4013786017894745e-01</leafValues></_>
    <_>
      <internalNodes>
        0 -1 3862 -715138853 -758151950 615005052 -184605523 -463107085
        -1454241279 -106301489 -16571850</internalNodes>
      <leafValues>
        -8.6008101701736450e-02 2.2598963975906372e-01</leafValues></_>
    <_>
      <internalNodes>
        0 -1 666 -1054113278 175858338 1991154737 -1056806253 1191641344
        93380720 1086375168 8766321</internalNodes>
      <leafValues>
        -2.7881667017936707e-01 6.9047160446643829e-02</leafValues></_>
    <_>
      <internalNodes>
        0 -1 2909 1414675522 -1662712189 377920923 -1519909882 437237937
        -1413522318 1599788162 535522330</internalNodes>
      <leafValues>
        -1.5560834109783173e-01 1.1964507400989532e-01</leafValues></_>
    <_>
      <internalNodes>
        0 -1 3062 225211455 604929823 2137857787 -1366497824 -50590163
        -1645052227 1014294050 -842017552</internalNodes>
      <leafValues>
        -1.1920166015625000e-01 1.7223393917083740e-01</leafValues></_>
    <_>
      <internalNodes>
        0 -1 2969 304744146 640181911 789931867 765598403 814305529
        -1734852080 2072323334 18907628</internalNodes>
      <leafValues>
        -2.8920444846153259e-01 6.1629895120859146e-02</leafValues></_>
    <_>
      <internalNodes>
        0 -1 3518 -18875661 -305135722 -1382101135 -128062890 1931982625
        -805830859 1597445891 -837047542</internalNodes>
      <leafValues>
        -9.6949294209480286e-02 2.0009922981262207e-01</leafValues></_>
    <_>
      <internalNodes>
        0 -1 3614 -2073573733 343770155 -1912154738 412217061 477958239
        -1136757412 -211504028 732915189</internalNodes>
      <leafValues>
        -1.7128464579582214e-01 1.1621254682540894e-01</leafValues></_>
    <_>
      <internalNodes>
        0 -1 2491 -199278977 2016324682 -663781042 286243859 -129089380
        -1719673518 686184921 -1889900249</internalNodes>
      <leafValues>
        -1.0219077020883560e-01 1.9773469865322113e-01</leafValues></_>
    <_>
      <internalNodes>
        0 -1 3296 -159591172 69471904 365330563 -1802395604 776444182
        -1506761918 1147261740 1040715</internalNodes>
      <leafValues>
        -2.3477911949157715e-01 8.5643306374549866e-02</leafValues></_>
    <_>
      <internalNodes>
        0 -1 1891 -67113570 215219567 -290199565 -1214345753 -571073051
        -751135516 -151106489 -67114753</internalNodes>
      <leafValues>
        -8.4378622472286224e-02 2.3610562086105347e-01</leafValues></_>
    <_>
      <internalNodes>
        0 -1 3336 541853204 10487124 33954109 682496791 776213040
        857355126 728003064 1055600440</internalNodes>
      <leafValues>
        -3.1463328003883362e-01 6.2128830701112747e-02</leafValues></_>
    <_>
      <internalNodes>
        0 -1 575 -564146479 2064537513 341040448 428939337 510059240
        664932630 -937419307 1545084041</internalNodes>
      <leafValues>
        -1.7026504874229431e-01 1.1994268745183945e-01</leafValues></_>
    <_>
      <internalNodes>
        0 -1 2291 -637009928 -1657358347 -1180003664 -2119652622
        -486656353 -79331337 1077160923 -539722727</internalNodes>
      <leafValues>
        -1.1178257316350937e-01 1.9575604796409607e-01</leafValues></_>
    <_>
      <internalNodes>
        0 -1 2579 -754806054 -1702826845 935556954 170294686 -398727934
        -237460550 1900676370 -666720177</internalNodes>
      <leafValues>
        -1.2827053666114807e-01 1.5638992190361023e-01</leafValues></_>
    <_>
      <internalNodes>
        0 -1 2288 817049620 53296534 299673187 27599546 667377593
        -2108535197 -707064312 1803900288</internalNodes>
      <leafValues>
        -2.2841881215572357e-01 8.4718614816665649e-02</leafValues></_>
    <_>
      <internalNodes>
        0 -1 1961 -287581468 -17368518 1111909073 867954009 2135360242
        1670312868 -2090803447 -81860107</internalNodes>
      <leafValues>
        -1.1116951704025269e-01 1.8185071647167206e-01</leafValues></_>
    <_>
      <internalNodes>
        0 -1 1626 -435514864 -796490688 -334579183 1011150037 1665534768
        851911714 -435110075 1426772694</internalNodes>
      <leafValues>
        -2.2232817113399506e-01 9.1370083391666412e-02</leafValues></_>
    <_>
      <internalNodes>
        0 -1 2227 -1367346457 -2002735144 796438193 -70516002 -939130443
        -268702283 -510740773 -1074853649</internalNodes>
      <leafValues>
        -9.6354573965072632e-02 2.1503823995590210e-01</leafValues></_>
    <_>
      <internalNodes>
        0 -1 2675 241437956 -2075335828 -215247136 -301300048 608221956
        -1892901079 -1482118524 794826924</internalNodes>
      <leafValues>
        -2.8592956066131592e-01 7.6792493462562561e-02</leafValues></_>
    <_>
      <internalNodes>
        0 -1 3552 -25237762 -186307364 -1464964743 1484766419
        -2068926936 -1373479592 -1174937798 -34664789</internalNodes>
      <leafValues>
        -9.8933272063732147e-02 2.0984719693660736e-01</leafValues></_>
    <_>
      <internalNodes>
        0 -1 3594 182802177 -656536767 106815176 -39304368 1223823393
        -1393553296 -1464726752 1073498988</internalNodes>
      <leafValues>
        -1.9481547176837921e-01 1.0577458888292313e-01</leafValues></_>
    <_>
      <internalNodes>
        0 -1 3650 -669522237 -286675484 -906887333 -1922748608
        -738344101 -2027551292 986710531 -811863403</internalNodes>
      <leafValues>
        -1.0544922947883606e-01 1.8924811482429504e-01</leafValues></_>
    <_>
      <internalNodes>
        0 -1 3933 1745873619 585433754 1179960051 1434672122 -21274703
        -1342272193 -1260023847 -1466306349</internalNodes>
      <leafValues>
        -1.1145440489053726e-01 1.8143530189990997e-01</leafValues></_>
    <_>
      <internalNodes>
        0 -1 1429 114695315 -1651368801 -1624516645 -1795024325
        -514267696 -1943225807 -561436648 1145152636</internalNodes>
      <leafValues>
        -1.5351900458335876e-01 1.3058264553546906e-01</leafValues></_>
    <_>
      <internalNodes>
        0 -1 556 -672545997 -1026431283 -357319363 -1749479703
        -1528578149 -522203745 -832189489 -336622870</internalNodes>
      <leafValues>
        -6.7163273692131042e-02 3.1733906269073486e-01</leafValues></_>
    <_>
      <internalNodes>
        0 -1 3876 -3675441 -659928950 -490279245 -8422857 2073745985
        -194878367 -435897057 -2098561</internalNodes>
      <leafValues>
        -6.5153591334819794e-02 3.0048459768295288e-01</leafValues></_>
    <_>
      <internalNodes>
        0 -1 1710 -353459136 35956259 583418138 -1602044861 56439043
        174417 -386949344 1966353198</internalNodes>
      <leafValues>
        -3.9052703976631165e-01 5.6893516331911087e-02</leafValues></_>
    <_>
      <internalNodes>
        0 -1 351 1551380308 1474938595 1848813657 -1560952068 -763693657
        -1168544070 -384413441 -883526176</internalNodes>
      <leafValues>
        -1.2959103286266327e-01 1.6123549640178680e-01</leafValues></_>
    <_>
      <internalNodes>
        0 -1 1439 -766648192 -2103658968 -1014314161 722249961 -42282648
        -1337995003 -11235086 4687715</internalNodes>
      <leafValues>
        -1.6629628837108612e-01 1.2535454332828522e-01</leafValues></_>
    <_>
      <internalNodes>
        0 -1 1462 -687139615 498703623 388047245 -1083194000 2001500318
        -238177620 1007403388 -1373574648</internalNodes>
      <leafValues>
        -1.5567016601562500e-01 1.3155005872249603e-01</leafValues></_>
    <_>
      <internalNodes>
        0 -1 396 1887173203 1089644146 -369950721 1063217839 1497689135
        -38350153 -422240357 -1018850173</internalNodes>
      <leafValues>
        -1.0730308294296265e-01 1.9110836088657379e-01</leafValues></_>
    <_>
      <internalNodes>
        0 -1 2637 1473502679 1583301830 1718605651 400535902 -353143638
        2144316822 1866503065 -336651045</internalNodes>
      <leafValues>
        -7.4575781822204590e-02 2.7405023574829102e-01</leafValues></_>
    <_>
      <internalNodes>
        0 -1 1176 -867007257 768404246 -1308976227 491897847 -1538287428
        -611080488 -1744761838 -1081625891</internalNodes>
      <leafValues>
        -9.8914764821529388e-02 2.0570114254951477e-01</leafValues></_>
    <_>
      <internalNodes>
        0 -1 337 -726146057 1535884029 -2020641203 1527765931 1888982712
        -1185460852 -42637159 -674273542</internalNodes>
      <leafValues>
        -8.2338348031044006e-02 2.4767033755779266e-01</leafValues></_>
    <_>
      <internalNodes>
        0 -1 1254 2019148961 1155311320 -1918370275 -1642525007
        282851218 -1873405102 -885653839 -1087469594</internalNodes>
      <leafValues>
        -1.1107929795980453e-01 1.8185655772686005e-01</leafValues></_>
    <_>
      <internalNodes>
        0 -1 3647 671523218 -2105235898 -1297564371 -1131758422 67380173
        -1931268620 -1818529359 654663174</internalNodes>
      <leafValues>
        -2.2367145121097565e-01 9.2472091317176819e-02</leafValues></_>
    <_>
      <internalNodes>
        0 -1 3660 1347250192 1895354411 463172545 1771777559 -946228192
        -193869677 -953677312 1107361939</internalNodes>
      <leafValues>
        -1.8250468373298645e-01 1.1126441508531570e-01</leafValues></_>
    <_>
      <internalNodes>
        0 -1 2557 799323664 149823206 -1597740528 539789962 802045440
        424885872 -635215600 1900214065</internalNodes>
      <leafValues>
        -3.3440589904785156e-01 5.7208463549613953e-02</leafValues></_>
    <_>
      <internalNodes>
        0 -1 2511 -1038733680 -1728828163 801049620 -269475009
        -1400916294 -1157967885 -1468069457 -90723201</internalNodes>
      <leafValues>
        -1.1552190780639648e-01 1.7993977665901184e-01</leafValues></_>
    <_>
      <internalNodes>
        0 -1 1918 145695303 301208714 1116002906 353220176 776351335
        377814086 -2029747369 535116164</internalNodes>
      <leafValues>
        -2.6313784718513489e-01 8.2652792334556580e-02</leafValues></_>
    <_>
      <internalNodes>
        0 -1 2812 -1096844419 -22767235 -1879656073 -39809350
        -2082498306 -143317017 -2132563767 -405766608</internalNodes>
      <leafValues>
        -9.0720437467098236e-02 2.3289725184440613e-01</leafValues></_>
    <_>
      <internalNodes>
        0 -1 3257 1472369752 798386100 35469759 247198068 -1793848767
        1415457238 623121481 275428560</internalNodes>
      <leafValues>
        -2.5267484784126282e-01 8.5528694093227386e-02</leafValues></_>
    <_>
      <internalNodes>
        0 -1 270 -540421440 -1857888388 545427009 -2114677087 1914055168
        -1695215512 -2095593792 -354697530</internalNodes>
      <leafValues>
        -1.5578378736972809e-01 1.3515932857990265e-01</leafValues></_>
    <_>
      <internalNodes>
        0 -1 2007 642189824 38272877 13849088 14768620 1769686018
        740850797 -994372524 1826097398</internalNodes>
      <leafValues>
        -4.2122226953506470e-01 5.1598414778709412e-02</leafValues></_>
    <_>
      <internalNodes>
        0 -1 3954 -93588549 -638865436 -194185987 -674516052 -2102022513
        -1547387555 -697909510 -558516261</internalNodes>
      <leafValues>
        -7.0049658417701721e-02 3.1580263376235962e-01</leafValues></_>
    <_>
      <internalNodes>
        0 -1 3508 -967835857 -16126281 929260238 -1874969925 344813945
        1062063628 948833308 -211054314</internalNodes>
      <leafValues>
        -1.0410796105861664e-01 2.0527337491512299e-01</leafValues></_>
    <_>
      <internalNodes>
        0 -1 1025 426457759 -222666061 -1084553763 -1365960799
        -357842018 21389506 721465226 6382208</internalNodes>
      <leafValues>
        -1.6817568242549896e-01 1.3597750663757324e-01</leafValues></_>
    <_>
      <internalNodes>
        0 -1 246 -749617152 1345383502 -957151912 285320056 -521936000
        1984285140 286655888 115786706</internalNodes>
      <leafValues>
        -2.0714867115020752e-01 1.0971398651599884e-01</leafValues></_>
    <_>
      <internalNodes>
        0 -1 2207 -1096009507 -1170627639 -923370399 -645022777
        -144875374 -328470540 -365810001 -35212576</internalNodes>
      <leafValues>
        -9.1159611940383911e-02 2.4053160846233368e-01</leafValues></_>
    <_>
      <internalNodes>
        0 -1 3438 543334464 -1369588 -1234731724 -42456752 -1381043932
        1112941338 507148566 864749618</internalNodes>
      <leafValues>
        -1.9301284849643707e-01 1.0887883603572845e-01</leafValues></_>
    <_>
      <internalNodes>
        0 -1 2319 1914369206 710200318 -806923041 1278669933 -784898536
        191063573 -917813998 -935068553</internalNodes>
      <leafValues>
        -1.5090255439281464e-01 1.4251856505870819e-01</leafValues></_>
    <_>
      <internalNodes>
        0 -1 2049 403715636 1010838323 -1695412365 -517860182
        -1779777411 -1985552329 -1291052919 6555817</internalNodes>
      <leafValues>
        -2.0417349040508270e-01 1.0324558615684509e-01</leafValues></_>
    <_>
      <internalNodes>
        0 -1 22 42992314 -1995274368 1140857347 230883595 445960416
        -1796930236 2023807105 1407521105</internalNodes>
      <leafValues>
        -2.9561853408813477e-01 7.1159288287162781e-02</leafValues></_>
    <_>
      <internalNodes>
        0 -1 230 -957088793 -1188512264 -332501148 631418040 -1641570673
        -2102260745 -52428913 -1950884869</internalNodes>
      <leafValues>
        -7.3951952159404755e-02 2.9503604769706726e-01</leafValues></_>
    <_>
      <internalNodes>
        0 -1 3760 -894836064 134972462 -1124178407 -1096130490 520411
        1491619953 322643044 571539848</internalNodes>
      <leafValues>
        -2.4221098423004150e-01 9.0631231665611267e-02</leafValues></_>
    <_>
      <internalNodes>
        0 -1 516 -834562917 -1313514246 1726395156 -11689266 -531390774
        -1203880202 -1979072534 -302019617</internalNodes>
      <leafValues>
        -7.0706568658351898e-02 3.0391713976860046e-01</leafValues></_>
    <_>
      <internalNodes>
        0 -1 1544 -2108626912 546882056 -1942198435 280767265 18921088
        1952746300 109447604 239609864</internalNodes>
      <leafValues>
        -2.9765969514846802e-01 7.4602149426937103e-02</leafValues></_>
    <_>
      <internalNodes>
        0 -1 3961 -738860097 -46808392 -443056133 -1793885462 -774535490
        746241746 1255778846 -1646395489</internalNodes>
      <leafValues>
        -7.8094229102134705e-02 2.7830633521080017e-01</leafValues></_>
    <_>
      <internalNodes>
        0 -1 181 -649478586 28809818 -1602191207 83927552 68813088
        1105728880 3146964 1506115163</internalNodes>
      <leafValues>
        -3.0193212628364563e-01 7.1965925395488739e-02</leafValues></_>
    <_>
      <internalNodes>
        0 -1 870 -210502214 1380109184 532217661 232744637 -524964441
        887277047 -362833889 -605109508</internalNodes>
      <leafValues>
        -1.0695447027683258e-01 2.1205349266529083e-01</leafValues></_>
    <_>
      <internalNodes>
        0 -1 6 1091285739 -762402054 -1242057271 -1884315894 1021819587
        -1793855305 2126866745 -544112141</internalNodes>
      <leafValues>
        -1.0646237432956696e-01 1.9473364949226379e-01</leafValues></_>
    <_>
      <internalNodes>
        0 -1 3892 2067515330 -760352357 -1363606333 -253143941 190155964
        804019544 -51947110 -180210309</internalNodes>
      <leafValues>
        -1.0198628902435303e-01 2.0472057163715363e-01</leafValues></_>
    <_>
      <internalNodes>
        0 -1 1006 669483810 8942888 -1346012154 -206906304 184951591
        61216599 1782929414 763031536</internalNodes>
      <leafValues>
        -2.9025939106941223e-01 7.3183789849281311e-02</leafValues></_>
    <_>
      <internalNodes>
        0 -1 3855 1549596392 -559382295 1800681723 -105534380 -782571281
        -833124571 -1200944806 -317986429</internalNodes>
      <leafValues>
        -1.0369707643985748e-01 2.0693406462669373e-01</leafValues></_>
    <_>
      <internalNodes>
        0 -1 254 -1007190561 -549520674 -570470247 -1070102304
        1340983035 -635024645 -862666818 -5701665</internalNodes>
      <leafValues>
        -5.4074034094810486e-02 3.8979530334472656e-01</leafValues></_>
    <_>
      <internalNodes>
        0 -1 3751 220332592 124683274 970195954 34230966 75439681
        641166988 207913060 2084573548</internalNodes>
      <leafValues>
        -3.4880557656288147e-01 6.6064290702342987e-02</leafValues></_>
    <_>
      <internalNodes>
        0 -1 3386 -445653513 -1643003310 733913051 -1109249511
        -745163809 -1881968481 -1325914491 -448664121</internalNodes>
      <leafValues>
        -9.5537349581718445e-02 2.2758622467517853e-01</leafValues></_>
    <_>
      <internalNodes>
        0 -1 2504 740427832 142872398 -1471673232 -621990652 1665574192
        -899001140 949236704 653801248</internalNodes>
      <leafValues>
        -3.1472626328468323e-01 6.8718232214450836e-02</leafValues></_>
    <_>
      <internalNodes>
        0 -1 2919 -942669961 -835345685 -260075531 -30996530 -1413698747
        -94569584 -354703305 -4493573</internalNodes>
      <leafValues>
        -8.0458693206310272e-02 2.6657271385192871e-01</leafValues></_>
    <_>
      <internalNodes>
        0 -1 2727 -1798342825 -1835540937 1450059579 1467993647
        -798633011 -1167356079 -306275607 -607551821</internalNodes>
      <leafValues>
        -7.3142565786838531e-02 2.8785902261734009e-01</leafValues></_>
    <_>
      <internalNodes>
        0 -1 2454 1997452749 1858901450 19005568 -1632650868 -947592222
        -601197523 -343211930 620655552</internalNodes>
      <leafValues>
        -2.1047100424766541e-01 1.0604499280452728e-01</leafValues></_>
    <_>
      <internalNodes>
        0 -1 3812 1529316088 916841539 -1313317833 -570845240 201892434
        -1460332547 -354884617 -1971093000</internalNodes>
      <leafValues>
        -1.2944355607032776e-01 1.6937318444252014e-01</leafValues></_>
    <_>
      <internalNodes>
        0 -1 1942 -1399142312 -1741756064 117623870 -1971860932
        1998143351 1079788439 124997124 1879271126</internalNodes>
      <leafValues>
        -2.3630747199058533e-01 9.0468086302280426e-02</leafValues></_>
    <_>
      <internalNodes>
        0 -1 3773 578842368 -1893194060 -331987324 692422104 832333732
        216683439 -1782834537 763884040</internalNodes>
      <leafValues>
        -2.5060880184173584e-01 8.6074143648147583e-02</leafValues></_>
    <_>
      <internalNodes>
        0 -1 3903 -195302757 -597302680 221065341 885799503 -842755167
        468455186 1053320634 -857919272</internalNodes>
      <leafValues>
        -1.0972535610198975e-01 2.0297852158546448e-01</leafValues></_>
    <_>
      <internalNodes>
        0 -1 3268 -180577095 -517685271 -348487907 -1831532956
        -1103243636 -25832033 -79362149 -268759322</internalNodes>
      <leafValues>
        -1.0563338547945023e-01 2.0905317366123199e-01</leafValues></_>
    <_>
      <internalNodes>
        0 -1 3690 1278788624 1887194916 551470157 1612538988 411469604
        206631920 -1708856868 419439660</internalNodes>
      <leafValues>
        -2.8699132800102234e-01 7.6021581888198853e-02</leafValues></_>
    <_>
      <internalNodes>
        0 -1 138 -916521222 -1012405104 2105779530 -1775512346
        -1323899008 -2050428563 -1485508646 -579345245</internalNodes>
      <leafValues>
        -1.0562411695718765e-01 2.0314078032970428e-01</leafValues></_>
    <_>
      <internalNodes>
        0 -1 2731 -757609346 1126992713 -852257571 -564174023 3143669
        -271310387 -1344029735 -336599313</internalNodes>
      <leafValues>
        -7.7706485986709595e-02 2.6671865582466125e-01</leafValues></_>
    <_>
      <internalNodes>
        0 -1 605 1424475683 -1689536437 734631211 1969956042 608846676
        -1674948857 1420527120 410665550</internalNodes>
      <leafValues>
        -2.6041692495346069e-01 8.8293768465518951e-02</leafValues></_>
    <_>
      <internalNodes>
        0 -1 73 1347528189 -552636659 368996149 -781276504 -217454704
        -1574679920 541121956 72452688</internalNodes>
      <leafValues>
        -1.8472339212894440e-01 1.1591608822345734e-01</leafValues></_></weakClassifiers></stage26>
</opencv_storage>
