<?xml version="1.0"?>
<opencv_storage>
<stage8>
  <maxWeakCount>11</maxWeakCount>
  <stageThreshold>-1.5342224836349487e+00</stageThreshold>
  <weakClassifiers>
    <_>
      <internalNodes>
        0 -1 5658 -3 -1073741825 -708846596 -1350567169 -4194307
        1073740223 1217255900 268431615</internalNodes>
      <leafValues>
        -5.1175343990325928e-01 5.0474250316619873e-01</leafValues></_>
    <_>
      <internalNodes>
        0 -1 19 -805306369 -536873985 268434943 -536871941 -805306369
        -872417037 1342177275 -134220813</internalNodes>
      <leafValues>
        -3.9217430353164673e-01 5.7703942060470581e-01</leafValues></_>
    <_>
      <internalNodes>
        0 -1 0 -805126016 -788529152 0 1359020033 -2147450744 0 65674
        319488139</internalNodes>
      <leafValues>
        -7.1208935976028442e-01 2.9037716984748840e-01</leafValues></_>
    <_>
      <internalNodes>
        0 -1 7902 -278975653 2069854847 2134334847 2002770943 -11580560
        -42242473 -277889067 -67108865</internalNodes>
      <leafValues>
        -4.5693802833557129e-01 4.3046379089355469e-01</leafValues></_>
    <_>
      <internalNodes>
        0 -1 8387 -788475704 -788463616 80 1426129025 -2147442518
        33554432 231610 -1693777525</internalNodes>
      <leafValues>
        -4.8245167732238770e-01 4.0271839499473572e-01</leafValues></_>
    <_>
      <internalNodes>
        0 -1 8302 -805113614 -250380288 16 1964576863 -1610055542
        -1879031680 138 -619773301</internalNodes>
      <leafValues>
        -4.5882701873779297e-01 3.9451161026954651e-01</leafValues></_>
    <_>
      <internalNodes>
        0 -1 5952 78580790 -1358960937 -1812802211 -287389697 -815301803
        -13681 -537396364 -16977932</internalNodes>
      <leafValues>
        -7.3677039146423340e-01 2.9248496890068054e-01</leafValues></_>
    <_>
      <internalNodes>
        0 -1 40 -939491120 1527840784 17828317 1561399381 -2012706632
        -1953496960 184584895 189858563</internalNodes>
      <leafValues>
        -5.9224063158035278e-01 2.8023338317871094e-01</leafValues></_>
    <_>
      <internalNodes>
        0 -1 470 2115960575 2066939895 3858430 1564532159 1810592255
        2139838075 2067790271 2137750511</internalNodes>
      <leafValues>
        -5.5448681116104126e-01 3.2737070322036743e-01</leafValues></_>
    <_>
      <internalNodes>
        0 -1 2661 -217845624 -787365888 268435472 1427062803 -1073561398
        -788529152 17139883 -753958709</internalNodes>
      <leafValues>
        -4.3642848730087280e-01 4.2177423834800720e-01</leafValues></_>
    <_>
      <internalNodes>
        0 -1 7835 -34605072 -82901915 2078336407 1461651647 -238044947
        -671130409 -700469001 469716219</internalNodes>
      <leafValues>
        -6.6766059398651123e-01 2.7371922135353088e-01</leafValues></_></weakClassifiers></stage8>
</opencv_storage>
