<?xml version="1.0"?>
<opencv_storage>
<stage6>
  <maxWeakCount>9</maxWeakCount>
  <stageThreshold>-1.8608083724975586e+00</stageThreshold>
  <weakClassifiers>
    <_>
      <internalNodes>
        0 -1 651 -2100225 -2107425 -1 1560336862 -1113153 2074810363 -1
        -83132549</internalNodes>
      <leafValues>
        -3.6191082000732422e-01 6.7488688230514526e-01</leafValues></_>
    <_>
      <internalNodes>
        0 -1 1436 -784285496 -788529152 0 1359020034 -2147450744 0 32906
        -1827994997</internalNodes>
      <leafValues>
        -5.1930505037307739e-01 5.1560878753662109e-01</leafValues></_>
    <_>
      <internalNodes>
        0 -1 3797 -805327173 -16449 263003647 -537059393 -1073894401
        -1346564673 -1087586305 -1923797205</internalNodes>
      <leafValues>
        -4.7400721907615662e-01 5.2138441801071167e-01</leafValues></_>
    <_>
      <internalNodes>
        0 -1 2024 -800800568 -788463616 0 1430323200 -1069514616 0 98442
        -1961917813</internalNodes>
      <leafValues>
        -5.2572506666183472e-01 4.4799733161926270e-01</leafValues></_>
    <_>
      <internalNodes>
        0 -1 7899 -2249 2012706647 -138412193 402652543 -526428
        -168569484 -336859155 -973080577</internalNodes>
      <leafValues>
        -4.8003074526786804e-01 4.5669350028038025e-01</leafValues></_>
    <_>
      <internalNodes>
        0 -1 751 -18945282 -675092482 -1031638049 -247333905 -2085962821
        -1543438869 327925723 990609311</internalNodes>
      <leafValues>
        -6.9450479745864868e-01 3.2902279496192932e-01</leafValues></_>
    <_>
      <internalNodes>
        0 -1 728 -784084792 -787116032 16777360 1359020043 -1879015288
        268435456 101051 -1693482357</internalNodes>
      <leafValues>
        -4.6617954969406128e-01 4.6635228395462036e-01</leafValues></_>
    <_>
      <internalNodes>
        0 -1 642 -800857974 -619065216 6352 1359192066 1074036872 0
        98443 1124582027</internalNodes>
      <leafValues>
        -5.4590183496475220e-01 3.7017703056335449e-01</leafValues></_>
    <_>
      <internalNodes>
        0 -1 4659 251603751 144768750 -8708 -353698564 2012175221
        -17170497 -335545356 -18022432</internalNodes>
      <leafValues>
        -7.0494031906127930e-01 2.3931103944778442e-01</leafValues></_></weakClassifiers></stage6>
</opencv_storage>
