<?xml version="1.0"?>
<opencv_storage>
<stage16>
  <maxWeakCount>20</maxWeakCount>
  <stageThreshold>-1.7631362676620483e+00</stageThreshold>
  <weakClassifiers>
    <_>
      <internalNodes>
        0 -1 34 -823136273 -536881313 -805306881 -536911913 -543162369
        -872419333 1341095775 1476359031</internalNodes>
      <leafValues>
        -4.4039326906204224e-01 4.1489204764366150e-01</leafValues></_>
    <_>
      <internalNodes>
        0 -1 4091 498024245 -1342177281 -525313 -285474817 1325337655
        -268435457 -106635 -16842755</internalNodes>
      <leafValues>
        -3.4249746799468994e-01 3.9238360524177551e-01</leafValues></_>
    <_>
      <internalNodes>
        0 -1 7615 -1149239433 -1078002691 -1048577 -1090584610
        -1077936777 -1025 501175637 -587279148</internalNodes>
      <leafValues>
        -4.3315896391868591e-01 2.5780677795410156e-01</leafValues></_>
    <_>
      <internalNodes>
        0 -1 730 -805257064 1358954496 16777369 1426128897 557192
        -2004877176 170 453705867</internalNodes>
      <leafValues>
        -4.9480137228965759e-01 2.8029468655586243e-01</leafValues></_>
    <_>
      <internalNodes>
        0 -1 64 -788475704 -783777664 16 1359020033 -1879015286
        134217856 50366602 -1827991409</internalNodes>
      <leafValues>
        -4.4085818529129028e-01 2.3089279234409332e-01</leafValues></_>
    <_>
      <internalNodes>
        0 -1 2486 -1880113281 -1593839745 -34609157 -520160258 -16777217
        1928855543 -1048588 -486604802</internalNodes>
      <leafValues>
        -4.5500504970550537e-01 2.4869871139526367e-01</leafValues></_>
    <_>
      <internalNodes>
        0 -1 8374 -267726710 -654311424 0 1073741825 -2139062144 0 10
        269467839</internalNodes>
      <leafValues>
        -5.8325558900833130e-01 1.6556574404239655e-01</leafValues></_>
    <_>
      <internalNodes>
        0 -1 6320 788207362 -1427247281 -545390798 -285278628 -5537977
        -17665 -6312076 -16973836</internalNodes>
      <leafValues>
        -6.5833026170730591e-01 1.6181609034538269e-01</leafValues></_>
    <_>
      <internalNodes>
        0 -1 2048 -871313192 1561364992 16777425 1393627393 -2147317592
        -1728053120 35003 453181457</internalNodes>
      <leafValues>
        -4.7637549042701721e-01 2.2154954075813293e-01</leafValues></_>
    <_>
      <internalNodes>
        0 -1 4766 1359730687 2141060990 1537210367 435630270 1787690493
        -1028 2042651112 -1076125542</internalNodes>
      <leafValues>
        -3.8728365302085876e-01 2.4865306913852692e-01</leafValues></_>
    <_>
      <internalNodes>
        0 -1 8366 -805248894 268435456 2 1431392262 -1073577846 2 41098
        1359438475</internalNodes>
      <leafValues>
        -5.3593301773071289e-01 1.9508004188537598e-01</leafValues></_>
    <_>
      <internalNodes>
        0 -1 6674 796728797 -1895892172 -5163 -18030884 2046121341
        -68160515 -34802826 -318964235</internalNodes>
      <leafValues>
        -3.8986960053443909e-01 2.5463756918907166e-01</leafValues></_>
    <_>
      <internalNodes>
        0 -1 0 -69601030 -774287360 32888 -720961534 -1031741302
        -1039052160 1350803179 -205798469</internalNodes>
      <leafValues>
        -2.7699589729309082e-01 3.7579137086868286e-01</leafValues></_>
    <_>
      <internalNodes>
        0 -1 5019 243212407 786430975 -805357603 -1403093283 769596757
        -539099393 -537982891 -319357067</internalNodes>
      <leafValues>
        -4.9795141816139221e-01 2.1831400692462921e-01</leafValues></_>
    <_>
      <internalNodes>
        0 -1 2080 -213663550 -654114816 1225261056 1360332801 -536837982
        131120 1377339530 -754252837</internalNodes>
      <leafValues>
        -3.6929693818092346e-01 2.6934880018234253e-01</leafValues></_>
    <_>
      <internalNodes>
        0 -1 7400 -75498657 -8957421 840135279 461271865 -1284064514
        -93306338 1892839166 1920985343</internalNodes>
      <leafValues>
        -3.9595571160316467e-01 2.5896915793418884e-01</leafValues></_>
    <_>
      <internalNodes>
        0 -1 1380 -683609974 -251658240 16 1360073730 -1006591864
        1880121348 33589898 -620026997</internalNodes>
      <leafValues>
        -3.6775752902030945e-01 2.7426564693450928e-01</leafValues></_>
    <_>
      <internalNodes>
        0 -1 5629 720349019 786423806 -205866 714061823 -540033153
        -50331723 -139735180 -318963724</internalNodes>
      <leafValues>
        -4.2223855853080750e-01 2.2523438930511475e-01</leafValues></_>
    <_>
      <internalNodes>
        0 -1 69 -86508862 -1021054974 403229251 285430016 -1870585720
        16842754 1073954819 1526985243</internalNodes>
      <leafValues>
        -4.0810620784759521e-01 2.4725207686424255e-01</leafValues></_>
    <_>
      <internalNodes>
        0 -1 736 -579866488 -774864384 831127560 -1651570688 -1869969272
        -1836578808 11240107 -1685386742</internalNodes>
      <leafValues>
        -3.2556298375129700e-01 2.9252105951309204e-01</leafValues></_></weakClassifiers></stage16>
</opencv_storage>
