<?xml version="1.0"?>
<opencv_storage>
<stage18>
  <maxWeakCount>24</maxWeakCount>
  <stageThreshold>-1.8001846075057983e+00</stageThreshold>
  <weakClassifiers>
    <_>
      <internalNodes>
        0 -1 4065 536829911 805306291 -268439937 -285278217 1073696565
        -4105 -4236 -16842892</internalNodes>
      <leafValues>
        -1.9979481399059296e-01 4.7262194752693176e-01</leafValues></_>
    <_>
      <internalNodes>
        0 -1 7447 687804255 2139045751 -32769 2134851455 1946115957
        -32961 -16842763 -13369473</internalNodes>
      <leafValues>
        -4.3441095948219299e-01 2.6028040051460266e-01</leafValues></_>
    <_>
      <internalNodes>
        0 -1 7636 -74723190 -654245888 0 1363476490 -1073698680 0 164027
        -786480501</internalNodes>
      <leafValues>
        -3.3410128951072693e-01 2.7930894494056702e-01</leafValues></_>
    <_>
      <internalNodes>
        0 -1 6420 -276824203 -363003905 -2687489 -1095434241 -1048715
        -262147 -131083 -1092091692</internalNodes>
      <leafValues>
        -4.4611844420433044e-01 2.1801850199699402e-01</leafValues></_>
    <_>
      <internalNodes>
        0 -1 642 -805252920 -788496384 16384 1090715648 49288 0 491659
        1393000587</internalNodes>
      <leafValues>
        -5.1949048042297363e-01 1.9582721590995789e-01</leafValues></_>
    <_>
      <internalNodes>
        0 -1 5924 792674271 -1367703588 -11 -287311875 -373327010
        -76021885 -251793289 -319488523</internalNodes>
      <leafValues>
        -3.1920337677001953e-01 3.0052390694618225e-01</leafValues></_>
    <_>
      <internalNodes>
        0 -1 3804 -620506992 -786366464 286261661 1561395201 -2146916214
        -1727528952 17402042 17498251</internalNodes>
      <leafValues>
        -4.2796650528907776e-01 2.1163664758205414e-01</leafValues></_>
    <_>
      <internalNodes>
        0 -1 7877 -2622244 1465324743 -575416327 522140111 -633735460
        -40432491 -782696738 534725887</internalNodes>
      <leafValues>
        -5.1950418949127197e-01 1.8792863190174103e-01</leafValues></_>
    <_>
      <internalNodes>
        0 -1 729 -721108856 -683589624 -1811850879 2132234497 -536829814
        -2013167480 166027 -1685356341</internalNodes>
      <leafValues>
        -3.3936232328414917e-01 2.7561432123184204e-01</leafValues></_>
    <_>
      <internalNodes>
        0 -1 6748 -822120577 -1365311521 -291635337 -1363215393
        -562078912 -68361 -884651915 -319503291</internalNodes>
      <leafValues>
        -4.8233428597450256e-01 1.8695411086082458e-01</leafValues></_>
    <_>
      <internalNodes>
        0 -1 8463 -250953528 -754974656 335544330 -654245877 -2147432242
        -654311424 581787 -217343857</internalNodes>
      <leafValues>
        -3.0686432123184204e-01 2.9646629095077515e-01</leafValues></_>
    <_>
      <internalNodes>
        0 -1 3466 100602679 -1898152585 1610610101 -289742958 210648703
        -1896873986 1071595389 -806355074</internalNodes>
      <leafValues>
        -4.4583258032798767e-01 2.2359299659729004e-01</leafValues></_>
    <_>
      <internalNodes>
        0 -1 732 285446394 -687667182 285288921 487608345 -1073610518
        220858504 185207471 -1693843318</internalNodes>
      <leafValues>
        -3.4507045149803162e-01 2.6905527710914612e-01</leafValues></_>
    <_>
      <internalNodes>
        0 -1 8371 -243611006 -175701888 -650051456 -745340854 -761544534
        -687865728 -1064337269 -141621589</internalNodes>
      <leafValues>
        -2.9234245419502258e-01 3.1761074066162109e-01</leafValues></_>
    <_>
      <internalNodes>
        0 -1 7255 1061109619 -1492847369 -671647745 -38626028 -570469761
        -604897281 -35694253 -52371472</internalNodes>
      <leafValues>
        -3.6477985978126526e-01 2.5174716114997864e-01</leafValues></_>
    <_>
      <internalNodes>
        0 -1 8012 -805273464 -682622848 128 1426259968 -2147450694
        25165826 559242 285933707</internalNodes>
      <leafValues>
        -5.9447908401489258e-01 1.3724750280380249e-01</leafValues></_>
    <_>
      <internalNodes>
        0 -1 8279 -137373478 -745209728 328859650 -753991542 -625245958
        -652607328 -2121356657 -743503414</internalNodes>
      <leafValues>
        -2.6386570930480957e-01 3.3138579130172729e-01</leafValues></_>
    <_>
      <internalNodes>
        0 -1 19 -890241537 -620767327 -2050124815 -542120000 1786766267
        714758452 184506289 1440707570</internalNodes>
      <leafValues>
        -4.5231288671493530e-01 2.0982877910137177e-01</leafValues></_>
    <_>
      <internalNodes>
        0 -1 3050 183700007 148938406 -356936231 -1967032392 149635973
        -356844545 1253552885 -19334696</internalNodes>
      <leafValues>
        -4.3601316213607788e-01 1.8453644216060638e-01</leafValues></_>
    <_>
      <internalNodes>
        0 -1 8417 -620502806 1346441216 -1585282912 54722627 -624185208
        268697601 1384163467 1394331791</internalNodes>
      <leafValues>
        -3.9343896508216858e-01 2.3021832108497620e-01</leafValues></_>
    <_>
      <internalNodes>
        0 -1 121 -104738688 -645840896 1191247944 1360199681 1342210184
        8 524943 1359155515</internalNodes>
      <leafValues>
        -4.9646985530853271e-01 1.7040030658245087e-01</leafValues></_>
    <_>
      <internalNodes>
        0 -1 3112 -1349050577 -1560281129 -75502598 -1573204001
        -1644752523 -6312418 1308356592 -285542659</internalNodes>
      <leafValues>
        -4.1115248203277588e-01 2.1382592618465424e-01</leafValues></_>
    <_>
      <internalNodes>
        0 -1 2024 -70258494 -786915328 270795776 1430323242 -268378998
        260 1074301066 -753958005</internalNodes>
      <leafValues>
        -3.3176288008689880e-01 2.7696618437767029e-01</leafValues></_>
    <_>
      <internalNodes>
        0 -1 903 -788865802 -139796262 -616021830 1977014782 443283439
        -1432377221 1406823418 1057709963</internalNodes>
      <leafValues>
        -5.9264147281646729e-01 1.4282611012458801e-01</leafValues></_></weakClassifiers></stage18>
</opencv_storage>
