<?xml version="1.0"?>
<opencv_storage>
<stage14>
  <maxWeakCount>14</maxWeakCount>
  <stageThreshold>-2.0668447017669678e+00</stageThreshold>
  <weakClassifiers>
    <_>
      <internalNodes>
        0 -1 5988 788475711 -1358956545 -206 -285278210 -32937 -1
        -319820256 -320536588</internalNodes>
      <leafValues>
        -6.2841635942459106e-01 5.0535941123962402e-01</leafValues></_>
    <_>
      <internalNodes>
        0 -1 7171 805252991 1878994815 -1 -32769 2147450743 -32769 -11
        -1</internalNodes>
      <leafValues>
        -4.8612275719642639e-01 4.3867537379264832e-01</leafValues></_>
    <_>
      <internalNodes>
        0 -1 5024 1065320255 780140543 -268439745 -285282305 805273429
        -129 -16777388 -17367177</internalNodes>
      <leafValues>
        -4.8488077521324158e-01 3.2523301243782043e-01</leafValues></_>
    <_>
      <internalNodes>
        0 -1 114 -100671506 -537176097 -1622813697 -8257 -1356857345
        136806916 -910296321 1466162655</internalNodes>
      <leafValues>
        -5.1506757736206055e-01 2.9142963886260986e-01</leafValues></_>
    <_>
      <internalNodes>
        0 -1 8433 -255073654 32768 2129920 16973827 -1878466422 0
        1073856517 1091555739</internalNodes>
      <leafValues>
        -5.2449828386306763e-01 2.1658028662204742e-01</leafValues></_>
    <_>
      <internalNodes>
        0 -1 6403 -3 -1145046017 -67174476 -1678262818 447738617
        1072860155 253612248 793762271</internalNodes>
      <leafValues>
        -5.1141715049743652e-01 2.3960325121879578e-01</leafValues></_>
    <_>
      <internalNodes>
        0 -1 8 -805252992 -653262848 268435456 1359544401 -2139062134 0
        2186 319488011</internalNodes>
      <leafValues>
        -6.4067798852920532e-01 1.6244275867938995e-01</leafValues></_>
    <_>
      <internalNodes>
        0 -1 3088 738144063 788524927 -268569089 -385941506 1606385527
        -1078214665 -33562668 -18022404</internalNodes>
      <leafValues>
        -5.0142478942871094e-01 2.5779217481613159e-01</leafValues></_>
    <_>
      <internalNodes>
        0 -1 1367 -805257024 -788004736 1074794652 1426129176
        -2130704248 42074120 682 285950091</internalNodes>
      <leafValues>
        -5.8008599281311035e-01 1.8365569412708282e-01</leafValues></_>
    <_>
      <internalNodes>
        0 -1 7796 -1548779753 -1090603249 -4227073 -1364288002
        -1076144265 -75546626 -134917003 -318966364</internalNodes>
      <leafValues>
        -4.8318943381309509e-01 2.2382299602031708e-01</leafValues></_>
    <_>
      <internalNodes>
        0 -1 420 -255604606 1359069698 2818049 1342230657 1073873034 2
        1107361994 1359475599</internalNodes>
      <leafValues>
        -4.8373085260391235e-01 2.5376075506210327e-01</leafValues></_>
    <_>
      <internalNodes>
        0 -1 8279 -255672192 -784334848 16528 285278208 -2147311480
        268435456 33162 319750794</internalNodes>
      <leafValues>
        -6.5004187822341919e-01 1.4683091640472412e-01</leafValues></_>
    <_>
      <internalNodes>
        0 -1 5157 715853631 217055011 -469762049 -864551109 -33587369
        -36865 -2553 -51052559</internalNodes>
      <leafValues>
        -4.2307126522064209e-01 2.6988682150840759e-01</leafValues></_>
    <_>
      <internalNodes>
        0 -1 7382 -208 1599026403 -449447577 478114303 -64487431
        -78678575 1769465599 165668078</internalNodes>
      <leafValues>
        -6.2147688865661621e-01 1.7020790278911591e-01</leafValues></_></weakClassifiers></stage14>
</opencv_storage>
