<?xml version="1.0"?>
<opencv_storage>
<stage4>
  <maxWeakCount>10</maxWeakCount>
  <stageThreshold>-1.6197077035903931e+00</stageThreshold>
  <weakClassifiers>
    <_>
      <internalNodes>
        0 -1 538 -16777473 -218169345 -18874625 -799866886 2139094911
        2067789695 -1 -9175169</internalNodes>
      <leafValues>
        -4.4495123624801636e-01 6.6107285022735596e-01</leafValues></_>
    <_>
      <internalNodes>
        0 -1 7581 -1 -1145046017 -1048579 -2098177 -2097217 1000313259
        1565905373 -538968097</internalNodes>
      <leafValues>
        -3.8536223769187927e-01 6.8767595291137695e-01</leafValues></_>
    <_>
      <internalNodes>
        0 -1 6466 -10485985 -12616833 926113663 1061123159 -12846081
        -96527829 -92292353 847248127</internalNodes>
      <leafValues>
        -5.2189487218856812e-01 4.7357663512229919e-01</leafValues></_>
    <_>
      <internalNodes>
        0 -1 8196 -784076600 -784269312 1342177416 1359282179
        -2147442550 0 32939 -753942389</internalNodes>
      <leafValues>
        -4.5540422201156616e-01 4.7590446472167969e-01</leafValues></_>
    <_>
      <internalNodes>
        0 -1 6320 804992786 -1360340402 -581239463 -293668993 -605061819
        -18907153 -23265676 -16973868</internalNodes>
      <leafValues>
        -7.6676458120346069e-01 2.6215994358062744e-01</leafValues></_>
    <_>
      <internalNodes>
        0 -1 2017 -805117752 -788201472 0 1359020049 -2147450742 0 33418
        319488143</internalNodes>
      <leafValues>
        -7.0871877670288086e-01 3.0063581466674805e-01</leafValues></_>
    <_>
      <internalNodes>
        0 -1 3430 -2018788549 -2001469447 1308620787 -579403947
        -1880096769 -1968250633 267378655 -538970113</internalNodes>
      <leafValues>
        -4.5037499070167542e-01 4.9734807014465332e-01</leafValues></_>
    <_>
      <internalNodes>
        0 -1 8379 -213651264 -788299648 16384 1359183875 -1073627000
        131072 229515 324002191</internalNodes>
      <leafValues>
        -6.4251303672790527e-01 3.3451449871063232e-01</leafValues></_>
    <_>
      <internalNodes>
        0 -1 841 -783753080 -721338368 268435464 1392857089 -1073643382
        0 32923 1393229995</internalNodes>
      <leafValues>
        -6.6660004854202271e-01 2.8348496556282043e-01</leafValues></_>
    <_>
      <internalNodes>
        0 -1 1377 -786771752 -548077416 1593856287 1392513050 268435624
        -74973048 136923279 -620019525</internalNodes>
      <leafValues>
        -4.4489952921867371e-01 4.7370260953903198e-01</leafValues></_></weakClassifiers></stage4>
</opencv_storage>
