<?xml version="1.0"?>
<opencv_storage>
<stage7>
  <maxWeakCount>10</maxWeakCount>
  <stageThreshold>-1.6398984193801880e+00</stageThreshold>
  <weakClassifiers>
    <_>
      <internalNodes>
        0 -1 49 -547647505 -539947555 218172895 1607926547 -1969058881
        -1614738415 -1956409345 1465060155</internalNodes>
      <leafValues>
        -5.0070077180862427e-01 5.2563226222991943e-01</leafValues></_>
    <_>
      <internalNodes>
        0 -1 4301 1432354815 -73761 2145353215 1071617022 -67109889 -1
        462369788 -1148518262</internalNodes>
      <leafValues>
        -4.2050191760063171e-01 5.4114276170730591e-01</leafValues></_>
    <_>
      <internalNodes>
        0 -1 8004 -259858296 -788463616 268435456 1359020033 -2147450742
        0 32907 -1827962741</internalNodes>
      <leafValues>
        -5.0590670108795166e-01 4.6532118320465088e-01</leafValues></_>
    <_>
      <internalNodes>
        0 -1 7380 -8388859 -10487937 1463644287 2101337951 -76021829
        -67116325 -67109889 813170431</internalNodes>
      <leafValues>
        -5.9742707014083862e-01 3.4540510177612305e-01</leafValues></_>
    <_>
      <internalNodes>
        0 -1 696 -805252976 -788430848 16 1427181633 -2147450744
        -2147483648 98443 -1693515637</internalNodes>
      <leafValues>
        -4.7078689932823181e-01 4.2930579185485840e-01</leafValues></_>
    <_>
      <internalNodes>
        0 -1 1359 -247410496 -787283968 1 1426259976 -536641366
        268570816 21203167 -552631397</internalNodes>
      <leafValues>
        -4.7344806790351868e-01 4.1267886757850647e-01</leafValues></_>
    <_>
      <internalNodes>
        0 -1 6336 785321342 -1360083761 -583139851 -285803564 -34701456
        -67125441 -574489803 -16973836</internalNodes>
      <leafValues>
        -7.2651678323745728e-01 3.0862763524055481e-01</leafValues></_>
    <_>
      <internalNodes>
        0 -1 1073 -352335105 -1694826529 -1774196737 -490014754
        2034760191 1919156223 2139062111 -78381061</internalNodes>
      <leafValues>
        -5.2113324403762817e-01 3.5759812593460083e-01</leafValues></_>
    <_>
      <internalNodes>
        0 -1 8461 -268382080 -787480576 16 1426259968 -1879015286 128
        16941771 17498251</internalNodes>
      <leafValues>
        -7.3043572902679443e-01 2.6269224286079407e-01</leafValues></_>
    <_>
      <internalNodes>
        0 -1 7820 -653274934 -753860480 285278208 1360068609 -1043627894
        -1734344670 229514 -752942949</internalNodes>
      <leafValues>
        -4.4073364138603210e-01 4.4285526871681213e-01</leafValues></_></weakClassifiers></stage7>
</opencv_storage>
