<?xml version="1.0"?>
<opencv_storage>
<stage13>
  <maxWeakCount>16</maxWeakCount>
  <stageThreshold>-2.0058317184448242e+00</stageThreshold>
  <weakClassifiers>
    <_>
      <internalNodes>
        0 -1 7379 -10485921 -76033025 829632791 -5783713 -96600129
        -95181090 -889193217 -1294468369</internalNodes>
      <leafValues>
        -2.3254099488258362e-01 5.7291072607040405e-01</leafValues></_>
    <_>
      <internalNodes>
        0 -1 232 -268381992 -652738552 16777241 1360330776 -2147319672
        -2147483520 -2147448629 -1693777109</internalNodes>
      <leafValues>
        -3.5073721408843994e-01 4.1550615429878235e-01</leafValues></_>
    <_>
      <internalNodes>
        0 -1 571 2027942879 2069861515 1871099391 1363473099 1485515439
        2108887455 -339215397 1531935435</internalNodes>
      <leafValues>
        -4.8570910096168518e-01 3.2618930935859680e-01</leafValues></_>
    <_>
      <internalNodes>
        0 -1 8020 -670371712 -788496384 352321536 286326786 -1610579832
        0 43147 287244427</internalNodes>
      <leafValues>
        -5.9936386346817017e-01 2.3067824542522430e-01</leafValues></_>
    <_>
      <internalNodes>
        0 -1 2914 671038259 -2071417218 326848293 -893332658 148851951
        -1963398477 1138804143 -805309441</internalNodes>
      <leafValues>
        -5.1638662815093994e-01 3.1109610199928284e-01</leafValues></_>
    <_>
      <internalNodes>
        0 -1 8371 -649346870 -666894272 4265178 -787246954 -804736822
        -1862041600 1384221355 -615545201</internalNodes>
      <leafValues>
        -3.8712322711944580e-01 3.9577093720436096e-01</leafValues></_>
    <_>
      <internalNodes>
        0 -1 6266 648220619 -2030798521 -519598766 -52119210 -1363071627
        -630209449 -1192461514 -34210956</internalNodes>
      <leafValues>
        -5.1411890983581543e-01 3.1867799162864685e-01</leafValues></_>
    <_>
      <internalNodes>
        0 -1 2665 -783036232 -577699823 289425821 1426411520 1358995592
        -1199439731 151126219 522911755</internalNodes>
      <leafValues>
        -4.4365099072456360e-01 3.1930518150329590e-01</leafValues></_>
    <_>
      <internalNodes>
        0 -1 8462 -783234934 -578449144 317499 -549369270 1217175754
        -939229052 67688843 -607419765</internalNodes>
      <leafValues>
        -3.5120123624801636e-01 4.1822639107704163e-01</leafValues></_>
    <_>
      <internalNodes>
        0 -1 4749 -396365825 2118567927 -993145895 1782247581 -390487133
        -101092897 -343867472 -1170678344</internalNodes>
      <leafValues>
        -4.4918027520179749e-01 3.6490502953529358e-01</leafValues></_>
    <_>
      <internalNodes>
        0 -1 4816 -601698184 -715775848 1428947035 1568752001
        -1870081879 -1476128606 138445214 -1966209910</internalNodes>
      <leafValues>
        -3.8413086533546448e-01 3.9209139347076416e-01</leafValues></_>
    <_>
      <internalNodes>
        0 -1 7 -784154454 -800882680 524288 268505243 -922583030 3145858
        1074502947 1394034655</internalNodes>
      <leafValues>
        -5.4921656847000122e-01 2.8243055939674377e-01</leafValues></_>
    <_>
      <internalNodes>
        0 -1 3542 1417128007 781678366 -51065541 -359664749 -1592439499
        -268904517 -449119420 -2426049</internalNodes>
      <leafValues>
        -4.5643863081932068e-01 3.2525271177291870e-01</leafValues></_>
    <_>
      <internalNodes>
        0 -1 712 -246222696 -772438012 136612251 -711786287 -666861430
        -1861090688 -1609975157 -611610165</internalNodes>
      <leafValues>
        -3.1511354446411133e-01 4.8854991793632507e-01</leafValues></_>
    <_>
      <internalNodes>
        0 -1 841 -247344936 -245825312 16867408 1427210270 -1342130552
        -1878908878 411740843 -1693742437</internalNodes>
      <leafValues>
        -3.5686433315277100e-01 4.2305800318717957e-01</leafValues></_>
    <_>
      <internalNodes>
        0 -1 7934 652160527 -933406869 -1394961701 -27508002 -417121931
        -1155858119 -665879248 -17829259</internalNodes>
      <leafValues>
        -5.2961385250091553e-01 2.8270059823989868e-01</leafValues></_></weakClassifiers></stage13>
</opencv_storage>
