<?xml version="1.0"?>
<opencv_storage>
<stage3>
  <maxWeakCount>8</maxWeakCount>
  <stageThreshold>-1.6629903316497803e+00</stageThreshold>
  <weakClassifiers>
    <_>
      <internalNodes>
        0 -1 6735 -3 -1073741825 -4 -1073742849 2147481589 1073476607
        1565513180 268434943</internalNodes>
      <leafValues>
        -5.8693963289260864e-01 6.0433089733123779e-01</leafValues></_>
    <_>
      <internalNodes>
        0 -1 3297 -285236701 -21697 -536871425 -2105345 -1048641
        -1346426325 -1048577 -850395329</internalNodes>
      <leafValues>
        -5.3414815664291382e-01 5.9408080577850342e-01</leafValues></_>
    <_>
      <internalNodes>
        0 -1 337 -352325633 -791479554 -770180837 1364391935 1375730623
        13888511 1929870107 -210502785</internalNodes>
      <leafValues>
        -5.0117194652557373e-01 5.4924404621124268e-01</leafValues></_>
    <_>
      <internalNodes>
        0 -1 5968 788212498 -1895909426 -1676480003 -871711489 -71336074
        -66597 -83952779 -18022412</internalNodes>
      <leafValues>
        -7.5576376914978027e-01 3.0790716409683228e-01</leafValues></_>
    <_>
      <internalNodes>
        0 -1 8459 -788479864 -788463616 16 1359020033 -2147442550 0
        32906 319488139</internalNodes>
      <leafValues>
        -7.2222793102264404e-01 3.1880778074264526e-01</leafValues></_>
    <_>
      <internalNodes>
        0 -1 8280 -654118710 -745467776 268451920 1359155203 -1073182582
        -2113929208 268599435 -618954581</internalNodes>
      <leafValues>
        -4.7057807445526123e-01 4.7665065526962280e-01</leafValues></_>
    <_>
      <internalNodes>
        0 -1 7442 -8389345 2138797695 834099839 813683583 -8388796
        -549522309 -786433 -260046849</internalNodes>
      <leafValues>
        -4.8365414142608643e-01 4.5404535531997681e-01</leafValues></_>
    <_>
      <internalNodes>
        0 -1 3812 -587165680 -49217520 286265629 1565589528 -1073182550
        -1743781880 34987 134938777</internalNodes>
      <leafValues>
        -5.8327120542526245e-01 3.8059371709823608e-01</leafValues></_></weakClassifiers></stage3>
</opencv_storage>
