<?xml version="1.0"?>
<opencv_storage>
<stage1>
  <maxWeakCount>9</maxWeakCount>
  <stageThreshold>-2.2334575653076172e+00</stageThreshold>
  <weakClassifiers>
    <_>
      <internalNodes>
        0 -1 175 -3146802 -3077 -269549604 -1025 -3329 -1140903173 -1
        -67111937</internalNodes>
      <leafValues>
        -5.7919901609420776e-01 7.1644717454910278e-01</leafValues></_>
    <_>
      <internalNodes>
        0 -1 7379 -8388833 -10497189 2037611615 2139061631 -29360129
        -96734597 -92274945 -1333789953</internalNodes>
      <leafValues>
        -4.5488041639328003e-01 7.3814308643341064e-01</leafValues></_>
    <_>
      <internalNodes>
        0 -1 571 -1050625 2147481503 2003236863 1359017978 2074804479
        2076901515 -1 -11567105</internalNodes>
      <leafValues>
        -4.2601576447486877e-01 7.0660883188247681e-01</leafValues></_>
    <_>
      <internalNodes>
        0 -1 8097 -603983107 320315395 -1560049655 867170783 -788148083
        172048449 -1002057252 466604511</internalNodes>
      <leafValues>
        -5.7752728462219238e-01 5.0028920173645020e-01</leafValues></_>
    <_>
      <internalNodes>
        0 -1 8186 -775827256 -721207296 16777216 1359036419 -1073708918
        285212680 43211 -1823768149</internalNodes>
      <leafValues>
        -5.3500437736511230e-01 5.2005702257156372e-01</leafValues></_>
    <_>
      <internalNodes>
        0 -1 34 -823218257 -677408769 131588095 -538987553 -1907388945
        -1919186694 1095704443 1440700247</internalNodes>
      <leafValues>
        -6.0663133859634399e-01 4.5846259593963623e-01</leafValues></_>
    <_>
      <internalNodes>
        0 -1 8374 -243011446 -788410356 16392 1359564807 67141768 0
        1073971371 -731917681</internalNodes>
      <leafValues>
        -5.1893794536590576e-01 5.3167372941970825e-01</leafValues></_>
    <_>
      <internalNodes>
        0 -1 5243 -783552296 420548608 285229213 353435653 -1147610902
        -2010513240 69238936 -1693761525</internalNodes>
      <leafValues>
        -5.0512599945068359e-01 5.4128164052963257e-01</leafValues></_>
    <_>
      <internalNodes>
        0 -1 1 -204475670 -788103160 4 1363382275 -134045558 16908288
        41867 -615529809</internalNodes>
      <leafValues>
        -3.9087560772895813e-01 6.1545377969741821e-01</leafValues></_></weakClassifiers></stage1>
</opencv_storage>
