<?xml version="1.0"?>
<opencv_storage>
<stage11>
  <maxWeakCount>14</maxWeakCount>
  <stageThreshold>-1.6623350381851196e+00</stageThreshold>
  <weakClassifiers>
    <_>
      <internalNodes>
        0 -1 8095 -8388813 1970763775 1743513599 229617647 -146278412
        1964459477 2004350974 -973080577</internalNodes>
      <leafValues>
        -3.0879077315330505e-01 5.3897118568420410e-01</leafValues></_>
    <_>
      <internalNodes>
        0 -1 339 -2098689 -788477973 1469399383 -654247173 1397444795
        665722 -75807841 1527740415</internalNodes>
      <leafValues>
        -4.7803646326065063e-01 3.5827621817588806e-01</leafValues></_>
    <_>
      <internalNodes>
        0 -1 8457 -671027008 -787415040 25 1360723977 -805273464
        -1744830464 32907 -1693777781</internalNodes>
      <leafValues>
        -4.2848324775695801e-01 4.0621277689933777e-01</leafValues></_>
    <_>
      <internalNodes>
        0 -1 4469 -1347469505 -1900036225 -1883252737 -44105729
        -1342177293 -1342177289 268418047 -268435457</internalNodes>
      <leafValues>
        -4.1857904195785522e-01 3.8735646009445190e-01</leafValues></_>
    <_>
      <internalNodes>
        0 -1 8394 -805252992 1358954496 16 285278208 -2147450742 0 32907
        319488139</internalNodes>
      <leafValues>
        -6.9648951292037964e-01 2.4513663351535797e-01</leafValues></_>
    <_>
      <internalNodes>
        0 -1 6605 728182643 -1367441541 2136997875 -285327406
        -1082704011 -1049027 -2229388 -196748</internalNodes>
      <leafValues>
        -6.3922584056854248e-01 1.9176912307739258e-01</leafValues></_>
    <_>
      <internalNodes>
        0 -1 8002 -805060480 1358954496 0 285278227 -2147448696 0 138
        319488139</internalNodes>
      <leafValues>
        -6.7349278926849365e-01 2.4386526644229889e-01</leafValues></_>
    <_>
      <internalNodes>
        0 -1 7339 -536872073 -71368717 -544219907 -201654666 -70796459
        -71389827 -544419627 -76588</internalNodes>
      <leafValues>
        -4.1282257437705994e-01 3.6414870619773865e-01</leafValues></_>
    <_>
      <internalNodes>
        0 -1 1373 -779231032 -788299776 16777216 1359032331 -2138537846
        16973960 43179 -752909381</internalNodes>
      <leafValues>
        -4.1083523631095886e-01 3.9351487159729004e-01</leafValues></_>
    <_>
      <internalNodes>
        0 -1 2010 -766971704 -775061376 268451840 1434779661 -1937119096
        -2130706304 16812175 -619740789</internalNodes>
      <leafValues>
        -4.1253978013992310e-01 3.7110164761543274e-01</leafValues></_>
    <_>
      <internalNodes>
        0 -1 705 -8400389 -33686017 -536870977 -586624231 -10092312
        -1078257765 -1093685 -620012789</internalNodes>
      <leafValues>
        -3.0305242538452148e-01 4.9814453721046448e-01</leafValues></_>
    <_>
      <internalNodes>
        0 -1 4654 267877183 -2107644172 1875901949 -293800066 402358101
        -57884851 -2232587 -22478864</internalNodes>
      <leafValues>
        -4.9759772419929504e-01 2.8724777698516846e-01</leafValues></_>
    <_>
      <internalNodes>
        0 -1 8463 -788475694 -784138236 1073741881 1460211787
        -1878474614 268435456 134973659 -754237237</internalNodes>
      <leafValues>
        -4.2267689108848572e-01 3.6458268761634827e-01</leafValues></_>
    <_>
      <internalNodes>
        0 -1 16 -792670000 -787480560 16473 353828865 -2139051864
        -1333690360 134785195 453705770</internalNodes>
      <leafValues>
        -4.6149227023124695e-01 3.2381722331047058e-01</leafValues></_></weakClassifiers></stage11>
</opencv_storage>
