<?xml version="1.0"?>
<opencv_storage>
<stage12>
  <maxWeakCount>65</maxWeakCount>
  <stageThreshold>-1.1370394229888916e+00</stageThreshold>
  <weakClassifiers>
    <_>
      <internalNodes>
        0 -1 1978 -2140461517 31133559 -1817231884 -1157718170
        -2074661069 -824283820 -1595568194 -336069233</internalNodes>
      <leafValues>
        -1.9563367590308189e-02 3.9192569255828857e-01</leafValues></_>
    <_>
      <internalNodes>
        0 -1 204 -637538485 1467971823 1440073719 1470652751 358613506
        254504471 1365328117 -604247169</internalNodes>
      <leafValues>
        -1.9167898595333099e-01 1.9946177303791046e-01</leafValues></_>
    <_>
      <internalNodes>
        0 -1 1850 1041592799 -1091655099 -577010295 1616961757
        -177800641 1474871 1153840255 -1057556745</internalNodes>
      <leafValues>
        -2.4153019487857819e-01 1.4870382845401764e-01</leafValues></_>
    <_>
      <internalNodes>
        0 -1 875 -102765833 -252510472 -1426169859 -570446083 -500979533
        -1601003310 -1356436529 -805319987</internalNodes>
      <leafValues>
        -1.0100343823432922e-01 3.1945574283599854e-01</leafValues></_>
    <_>
      <internalNodes>
        0 -1 1079 974189107 827924603 931758617 966873314 1585312701
        284301267 1254311833 13768312</internalNodes>
      <leafValues>
        -2.9403081536293030e-01 9.1025792062282562e-02</leafValues></_>
    <_>
      <internalNodes>
        0 -1 2739 2080793304 -154850058 -515323412 1467959551
        -1206861744 -1354201256 173804168 -1625334502</internalNodes>
      <leafValues>
        -1.4016605913639069e-01 2.3835690319538116e-01</leafValues></_>
    <_>
      <internalNodes>
        0 -1 3336 103679508 283388451 1135362043 1572679447 68420144
        1048557034 723822474 1069233979</internalNodes>
      <leafValues>
        -2.8672930598258972e-01 1.1323361098766327e-01</leafValues></_>
    <_>
      <internalNodes>
        0 -1 2815 -144769541 -356583473 116264727 -2131932497 -69277903
        -285786703 -83701901 -865083633</internalNodes>
      <leafValues>
        -1.3703063130378723e-01 2.5122860074043274e-01</leafValues></_>
    <_>
      <internalNodes>
        0 -1 3402 -603000580 -931612 85998429 1575028776 -1131357510
        -1869558368 -1083590982 -544538486</internalNodes>
      <leafValues>
        -1.2718251347541809e-01 2.5912678241729736e-01</leafValues></_>
    <_>
      <internalNodes>
        0 -1 1879 -2010871472 1289226908 -1799568131 -537586145
        -1935768622 -890104104 731156410 532611242</internalNodes>
      <leafValues>
        -2.0548772811889648e-01 1.4821065962314606e-01</leafValues></_>
    <_>
      <internalNodes>
        0 -1 3894 -500176214 -936729942 -1334859104 1353175263
        -1536954482 723995698 -9463297 -1835653</internalNodes>
      <leafValues>
        -1.6419854760169983e-01 1.8348303437232971e-01</leafValues></_>
    <_>
      <internalNodes>
        0 -1 1601 -134284811 -143225763 -352328382 -1382208844
        -178436959 2070271445 -1496251445 -281360528</internalNodes>
      <leafValues>
        -1.2571308016777039e-01 2.4319973587989807e-01</leafValues></_>
    <_>
      <internalNodes>
        0 -1 107 -63639944 -639060233 -371728420 -728892107 -91320806
        1098908744 -1461601411 2141919215</internalNodes>
      <leafValues>
        -2.2704693675041199e-01 1.4400081336498260e-01</leafValues></_>
    <_>
      <internalNodes>
        0 -1 2019 -1963990273 578731251 -404883977 -2064848278
        -551584969 -469835785 -146276447 -879886366</internalNodes>
      <leafValues>
        -1.5477715432643890e-01 1.9726206362247467e-01</leafValues></_>
    <_>
      <internalNodes>
        0 -1 3078 1082174528 442772048 472656245 2142504294 659826948
        -344429248 184074134 999231242</internalNodes>
      <leafValues>
        -2.2768957912921906e-01 1.4553676545619965e-01</leafValues></_>
    <_>
      <internalNodes>
        0 -1 1803 868103135 -1282826109 -845318401 -1222822081 162766780
        856902655 -895714892 976775200</internalNodes>
      <leafValues>
        -2.9925912618637085e-01 9.9589847028255463e-02</leafValues></_>
    <_>
      <internalNodes>
        0 -1 3312 -420785056 -366977532 -1074955015 -1163696 -1442449632
        -1651228879 -1212811132 -1074065701</internalNodes>
      <leafValues>
        -1.4259502291679382e-01 2.1632449328899384e-01</leafValues></_>
    <_>
      <internalNodes>
        0 -1 750 1128448656 -201801994 -1918757602 1506888600
        -2129616760 -1086789056 105910159 56601231</internalNodes>
      <leafValues>
        -1.6405300796031952e-01 1.9019696116447449e-01</leafValues></_>
    <_>
      <internalNodes>
        0 -1 2473 -334188809 148942788 148669524 14229792 709111104
        910596338 1715549844 519962674</internalNodes>
      <leafValues>
        -3.3988955616950989e-01 8.1057161092758179e-02</leafValues></_>
    <_>
      <internalNodes>
        0 -1 2983 -16783849 -1152483521 -1905334084 -1300465990
        -713066667 -1907007692 -697830064 -412500548</internalNodes>
      <leafValues>
        -1.4717008173465729e-01 2.0653577148914337e-01</leafValues></_>
    <_>
      <internalNodes>
        0 -1 1638 -1528126654 -1265104338 -511814338 -545485092
        1917494178 -1474276830 251825901 804193501</internalNodes>
      <leafValues>
        -2.0123083889484406e-01 1.6082194447517395e-01</leafValues></_>
    <_>
      <internalNodes>
        0 -1 3226 1881032724 2144376127 1860149241 -38228946 -1292870116
        -1102163971 -67032022 -1998005013</internalNodes>
      <leafValues>
        -2.1321138739585876e-01 1.3995902240276337e-01</leafValues></_>
    <_>
      <internalNodes>
        0 -1 366 -68568896 -570609072 -360118359 -9462229 -1130593638
        -1328539008 2035102686 -680807730</internalNodes>
      <leafValues>
        -1.0400278121232986e-01 2.7801936864852905e-01</leafValues></_>
    <_>
      <internalNodes>
        0 -1 270 -540282240 -772887264 1899184640 325975065 -1854078976
        -1396047756 -1550195776 -2092175689</internalNodes>
      <leafValues>
        -1.8939463794231415e-01 1.5926992893218994e-01</leafValues></_>
    <_>
      <internalNodes>
        0 -1 2695 205693220 -1441479000 -182533873 -1393818544 987000368
        -1386838923 -1484724348 1069493498</internalNodes>
      <leafValues>
        -2.4231326580047607e-01 1.2603050470352173e-01</leafValues></_>
    <_>
      <internalNodes>
        0 -1 1895 -1631084587 -125849859 -237309983 -576238448
        2012361456 -1728404574 -1035854774 -536940636</internalNodes>
      <leafValues>
        -1.2898667156696320e-01 2.4563854932785034e-01</leafValues></_>
    <_>
      <internalNodes>
        0 -1 3309 -51461082 545792558 362611 36512134 2122255549
        744230665 2752771 7857188</internalNodes>
      <leafValues>
        -4.4239732623100281e-01 6.5276771783828735e-02</leafValues></_>
    <_>
      <internalNodes>
        0 -1 3048 -61942030 -550501800 -2050203843 491294002 -546404672
        -1179775821 -286125808 -1962211242</internalNodes>
      <leafValues>
        -1.6189363598823547e-01 1.9701988995075226e-01</leafValues></_>
    <_>
      <internalNodes>
        0 -1 1954 -288703343 651472858 -1451644367 -1944151819
        -335123424 -1101845128 -1027402638 112637662</internalNodes>
      <leafValues>
        -2.4730245769023895e-01 1.2393662333488464e-01</leafValues></_>
    <_>
      <internalNodes>
        0 -1 3728 -896113675 2020485633 -1372010506 2014735635
        1800643764 -1409011743 -1458641512 -1079297090</internalNodes>
      <leafValues>
        -1.4057624340057373e-01 2.2395567595958710e-01</leafValues></_>
    <_>
      <internalNodes>
        0 -1 978 -2074950912 -1597466976 1511916304 1829255060 37978883
        -1957593342 87762562 268163534</internalNodes>
      <leafValues>
        -2.3455725610256195e-01 1.3090395927429199e-01</leafValues></_>
    <_>
      <internalNodes>
        0 -1 1749 -573573933 1654280071 -50370471 12643555 -634145271
        1263853152 1268973090 -898382057</internalNodes>
      <leafValues>
        -1.5253493189811707e-01 2.0085778832435608e-01</leafValues></_>
    <_>
      <internalNodes>
        0 -1 1742 1083199639 899415871 -1694876161 866842611 -1470330882
        -1634875621 -884532817 -2009741540</internalNodes>
      <leafValues>
        -1.2556999921798706e-01 2.3384988307952881e-01</leafValues></_>
    <_>
      <internalNodes>
        0 -1 3901 -268245856 -657948096 1891547538 -592962920 -698962194
        552140791 1988562942 -8399253</internalNodes>
      <leafValues>
        -1.4234797656536102e-01 2.1166671812534332e-01</leafValues></_>
    <_>
      <internalNodes>
        0 -1 3123 204569140 1121979476 -1090907964 2075004184 470170917
        -844627363 -1558437868 938147964</internalNodes>
      <leafValues>
        -2.8784015774726868e-01 1.0823174566030502e-01</leafValues></_>
    <_>
      <internalNodes>
        0 -1 2092 1429412343 -1678247437 335017175 495409437 -1167243650
        -559759622 2121978460 -1360084224</internalNodes>
      <leafValues>
        -1.4534841477870941e-01 2.0542398095130920e-01</leafValues></_>
    <_>
      <internalNodes>
        0 -1 3956 -1145047397 453083706 1072836113 -1719433164
        1442824189 194613237 631422111 -1685061926</internalNodes>
      <leafValues>
        -1.2724746763706207e-01 2.4397911131381989e-01</leafValues></_>
    <_>
      <internalNodes>
        0 -1 3678 1147184186 2127511616 49939631 -586070368 -1148807284
        -1459973084 -1894737778 2064326171</internalNodes>
      <leafValues>
        -1.6465237736701965e-01 1.8452875316143036e-01</leafValues></_>
    <_>
      <internalNodes>
        0 -1 2535 -2101357929 -2039480582 -1592956204 144618943
        1671712594 -570589857 1195888499 -50664508</internalNodes>
      <leafValues>
        -1.6042265295982361e-01 1.9441556930541992e-01</leafValues></_>
    <_>
      <internalNodes>
        0 -1 893 -562913070 -241625378 -1671348215 357702903 -65474420
        285879665 18984177 292966731</internalNodes>
      <leafValues>
        -3.4450557827949524e-01 9.0865097939968109e-02</leafValues></_>
    <_>
      <internalNodes>
        0 -1 2732 745286960 734530328 1296069112 1014900530 253767073
        246950862 209988972 796797628</internalNodes>
      <leafValues>
        -4.4413718581199646e-01 7.3818907141685486e-02</leafValues></_>
    <_>
      <internalNodes>
        0 -1 3947 -829621018 -22893568 44614195 1886539334 1023200226
        1630863649 579715471 -143984066</internalNodes>
      <leafValues>
        -1.7092765867710114e-01 1.9025579094886780e-01</leafValues></_>
    <_>
      <internalNodes>
        0 -1 3821 -528908246 317064200 134567531 -1858641883 1544415312
        232669703 1628386188 1065312480</internalNodes>
      <leafValues>
        -2.1549041569232941e-01 1.5497922897338867e-01</leafValues></_>
    <_>
      <internalNodes>
        0 -1 171 -652754933 -269723438 -1958786191 522290832 4523264
        -1116874463 1364169353 -23903594</internalNodes>
      <leafValues>
        -1.5723429620265961e-01 2.0699891448020935e-01</leafValues></_>
    <_>
      <internalNodes>
        0 -1 1794 1111680240 1539321464 1035885537 -38466044 -1457743170
        -833723900 -1191144502 -1080081926</internalNodes>
      <leafValues>
        -1.3836531341075897e-01 2.3839551210403442e-01</leafValues></_>
    <_>
      <internalNodes>
        0 -1 2044 -692591910 -1431767866 -334038989 538752923
        -1019084970 -323104427 -448270509 1208209206</internalNodes>
      <leafValues>
        -2.3536698520183563e-01 1.5151771903038025e-01</leafValues></_>
    <_>
      <internalNodes>
        0 -1 1961 -16816400 -760042758 1445515863 522612345 -38840846
        -969156891 1609686937 -545295367</internalNodes>
      <leafValues>
        -1.2149248272180557e-01 2.6974400877952576e-01</leafValues></_>
    <_>
      <internalNodes>
        0 -1 702 -288586752 -1331164585 416977464 2035598004 -632651264
        -898944482 105300624 682094832</internalNodes>
      <leafValues>
        -2.6053571701049805e-01 1.2090918421745300e-01</leafValues></_>
    <_>
      <internalNodes>
        0 -1 3131 1283445255 -260894190 1325384951 1567507467 -729965359
        -1064218756 -2079550096 -814781598</internalNodes>
      <leafValues>
        -1.2660099565982819e-01 2.5184246897697449e-01</leafValues></_>
    <_>
      <internalNodes>
        0 -1 1695 779732481 36347710 1674243188 821600254 2008886023
        1177508167 -456589662 1421832579</internalNodes>
      <leafValues>
        -3.4996321797370911e-01 8.8782779872417450e-02</leafValues></_>
    <_>
      <internalNodes>
        0 -1 420 1838134258 -859215180 -1343666457 -38302992 -815012111
        -1684973936 202961567 -918076207</internalNodes>
      <leafValues>
        -1.4855711162090302e-01 2.2202317416667938e-01</leafValues></_>
    <_>
      <internalNodes>
        0 -1 3652 -674707222 -995217930 -588710344 -1108761803
        2005037538 939698060 -1383788069 -20476582</internalNodes>
      <leafValues>
        -1.3168743252754211e-01 2.3457582294940948e-01</leafValues></_>
    <_>
      <internalNodes>
        0 -1 2705 1345478738 -662617440 -2071062220 1562409199 401024
        -1338809531 1483808689 1595389870</internalNodes>
      <leafValues>
        -2.0204137265682220e-01 1.5572766959667206e-01</leafValues></_>
    <_>
      <internalNodes>
        0 -1 1317 -1133874881 32146653 -1201636011 -1946805003
        -1455713243 289016645 -1007281710 -203763536</internalNodes>
      <leafValues>
        -1.6645586490631104e-01 1.8917024135589600e-01</leafValues></_>
    <_>
      <internalNodes>
        0 -1 1002 -1305820669 950577862 1544634450 -1742187168 172925186
        -1628689802 136688547 1339942802</internalNodes>
      <leafValues>
        -2.2864869236946106e-01 1.3536737859249115e-01</leafValues></_>
    <_>
      <internalNodes>
        0 -1 899 -1565138309 1444842148 1250918261 -1114772043
        -2120865098 -2004547934 1197776575 -1618436866</internalNodes>
      <leafValues>
        -1.0977109521627426e-01 2.7534255385398865e-01</leafValues></_>
    <_>
      <internalNodes>
        0 -1 2592 1601470039 263485337 1897158931 -1646672043 396371500
        -107070913 -408268721 1655186240</internalNodes>
      <leafValues>
        -2.8782224655151367e-01 1.0763476043939590e-01</leafValues></_>
    <_>
      <internalNodes>
        0 -1 199 -51910125 -620249285 1615630961 -338510448 -1346731350
        113740652 -419309134 -1018052190</internalNodes>
      <leafValues>
        -1.2137410789728165e-01 2.5937342643737793e-01</leafValues></_>
    <_>
      <internalNodes>
        0 -1 3906 4309658 -101412137 814363990 -686987434 1141545184
        1477840080 963735944 1226541186</internalNodes>
      <leafValues>
        -1.8434751033782959e-01 1.6552746295928955e-01</leafValues></_>
    <_>
      <internalNodes>
        0 -1 3018 -692854317 -898107396 -76453195 -1997633020
        -1082483251 -521275679 -1287307693 -1085808029</internalNodes>
      <leafValues>
        -1.2020063400268555e-01 2.6085177063941956e-01</leafValues></_>
    <_>
      <internalNodes>
        0 -1 1448 1961788210 -1857551688 41505619 -1861694161 350695844
        -845166598 1723007662 1258843054</internalNodes>
      <leafValues>
        -1.6823266446590424e-01 1.8576139211654663e-01</leafValues></_>
    <_>
      <internalNodes>
        0 -1 3158 212835768 105412260 -1117268001 -1418013825 1477921974
        -1124793559 614564218 -1457299302</internalNodes>
      <leafValues>
        -2.4442367255687714e-01 1.3838043808937073e-01</leafValues></_>
    <_>
      <internalNodes>
        0 -1 2529 1693081638 1080719233 -322121072 -522194046 1616471895
        610946074 59888192 1994584902</internalNodes>
      <leafValues>
        -4.1645431518554688e-01 7.6462835073471069e-02</leafValues></_>
    <_>
      <internalNodes>
        0 -1 202 -336135237 -1706431305 -1776853097 -1763848855
        -1839071358 35912560 1312791179 -905982813</internalNodes>
      <leafValues>
        -1.1511375010013580e-01 2.8841075301170349e-01</leafValues></_>
    <_>
      <internalNodes>
        0 -1 3754 -72619301 812842 -2131298717 -697141994 493776573
        -914995202 2104000182 -319109924</internalNodes>
      <leafValues>
        -1.7111763358116150e-01 1.9067052006721497e-01</leafValues></_></weakClassifiers></stage12>
</opencv_storage>
