<?xml version="1.0"?>
<opencv_storage>
<stage19>
  <maxWeakCount>84</maxWeakCount>
  <stageThreshold>-1.0972759723663330e+00</stageThreshold>
  <weakClassifiers>
    <_>
      <internalNodes>
        0 -1 1313 -492822507 551553301 699612210 603004757 992935988
        1131466073 -1433322725 -371623174</internalNodes>
      <leafValues>
        -2.4018552154302597e-02 3.5986244678497314e-01</leafValues></_>
    <_>
      <internalNodes>
        0 -1 3357 39813687 1953906459 1814969873 1223128694 1934970900
        -276333701 1526679380 -285213713</internalNodes>
      <leafValues>
        -1.6046546399593353e-01 1.6000568866729736e-01</leafValues></_>
    <_>
      <internalNodes>
        0 -1 1614 1214156570 15739196 -1967368651 914883678 672049330
        -1352632453 -1412716633 805273082</internalNodes>
      <leafValues>
        -1.9632789492607117e-01 1.3309076428413391e-01</leafValues></_>
    <_>
      <internalNodes>
        0 -1 820 -2124696890 -950976368 89184200 1205366800 738521474
        -2131174253 1239174507 53489971</internalNodes>
      <leafValues>
        -3.6549565196037292e-01 6.0904167592525482e-02</leafValues></_>
    <_>
      <internalNodes>
        0 -1 1556 1873513853 -1825177807 -272978311 -1423201376
        -272745314 -634850109 -151911748 -571220744</internalNodes>
      <leafValues>
        -1.0491329431533813e-01 2.1773436665534973e-01</leafValues></_>
    <_>
      <internalNodes>
        0 -1 3377 -1360007680 116190918 -1500633088 1727059494
        1192694017 1700821067 644219904 1967516179</internalNodes>
      <leafValues>
        -4.0805423259735107e-01 2.5356313213706017e-02</leafValues></_>
    <_>
      <internalNodes>
        0 -1 3839 -242898246 -578770548 229586911 -1255429134 -839961207
        -1963300770 1401814719 -1174719026</internalNodes>
      <leafValues>
        -1.0071022808551788e-01 2.1720418334007263e-01</leafValues></_>
    <_>
      <internalNodes>
        0 -1 3720 1648314464 540429846 -698029519 2095848566 1075643169
        -1595403994 1612591712 1057565800</internalNodes>
      <leafValues>
        -2.4818035960197449e-01 8.6981467902660370e-02</leafValues></_>
    <_>
      <internalNodes>
        0 -1 1082 -276513 20386047 -273778083 -1711941897 -824324349
        -935379097 -177800265 -927596545</internalNodes>
      <leafValues>
        -1.2745071947574615e-01 1.8286900222301483e-01</leafValues></_>
    <_>
      <internalNodes>
        0 -1 731 -119847867 -753412719 -1141110849 925436607 349716904
        772417887 -573747717 -1794083009</internalNodes>
      <leafValues>
        -1.2291532009840012e-01 1.7730395495891571e-01</leafValues></_>
    <_>
      <internalNodes>
        0 -1 3151 586040418 148778050 1276784412 2085560350 67380224
        716972194 786886458 1064835861</internalNodes>
      <leafValues>
        -2.8470543026924133e-01 7.2428293526172638e-02</leafValues></_>
    <_>
      <internalNodes>
        0 -1 2997 -18945 617598078 -1934348750 -1934426134 -2065758909
        -583115555 -430361836 -100272304</internalNodes>
      <leafValues>
        -1.3998173177242279e-01 1.6142612695693970e-01</leafValues></_>
    <_>
      <internalNodes>
        0 -1 2703 1397196895 -2129552260 345919292 871701533 639086550
        -1776423485 2080499428 952042649</internalNodes>
      <leafValues>
        -1.9241546094417572e-01 1.2474003434181213e-01</leafValues></_>
    <_>
      <internalNodes>
        0 -1 384 235636450 -1986622680 -732791489 230911776 -1011502339
        -791515167 1011900235 -1922853888</internalNodes>
      <leafValues>
        -1.5154626965522766e-01 1.4898073673248291e-01</leafValues></_>
    <_>
      <internalNodes>
        0 -1 3584 -934288435 -179884795 -726061669 -36351365 -928673423
        2096719221 -2040053927 -1074851841</internalNodes>
      <leafValues>
        -7.6980464160442352e-02 2.7515128254890442e-01</leafValues></_>
    <_>
      <internalNodes>
        0 -1 2013 -1394890725 134244142 -707331542 -1329013696
        -820681389 220621832 -1649884592 1987833068</internalNodes>
      <leafValues>
        -2.8015920519828796e-01 7.4385575950145721e-02</leafValues></_>
    <_>
      <internalNodes>
        0 -1 3708 -34617146 137179176 1779567109 268577308 -1147445197
        717383751 402724108 134676507</internalNodes>
      <leafValues>
        -2.9788139462471008e-01 8.0002203583717346e-02</leafValues></_>
    <_>
      <internalNodes>
        0 -1 3945 -928789870 -717381573 544498381 -779303174 -1548443655
        -1398532518 3207422 -250816293</internalNodes>
      <leafValues>
        -1.1064589768648148e-01 2.0727433264255524e-01</leafValues></_>
    <_>
      <internalNodes>
        0 -1 1323 -1420866729 915145150 -1161373611 -609994742 618692258
        -1461700618 704859319 217007327</internalNodes>
      <leafValues>
        -1.8069000542163849e-01 1.2001767009496689e-01</leafValues></_>
    <_>
      <internalNodes>
        0 -1 2973 580821252 511520032 -467587990 -726721272 1700280179
        -648249600 1364386558 -857148390</internalNodes>
      <leafValues>
        -1.7305435240268707e-01 1.3912482559680939e-01</leafValues></_>
    <_>
      <internalNodes>
        0 -1 269 1601049265 -674209196 -1379749054 645931092 2633907
        1145845267 -1037508663 705823125</internalNodes>
      <leafValues>
        -2.1559818089008331e-01 1.0439611226320267e-01</leafValues></_>
    <_>
      <internalNodes>
        0 -1 1597 -1354123407 -900153354 116588486 -1597915219 449841300
        -759740555 -827320122 -1415594245</internalNodes>
      <leafValues>
        -1.4355540275573730e-01 1.7261493206024170e-01</leafValues></_>
    <_>
      <internalNodes>
        0 -1 198 -658838624 1394373352 789894932 1564525804 174457602
        -2146421632 1923413466 1078584022</internalNodes>
      <leafValues>
        -1.9037045538425446e-01 1.2531735002994537e-01</leafValues></_>
    <_>
      <internalNodes>
        0 -1 2248 -526899179 447343696 -1983632799 -1914773374 214050372
        267153900 1759914868 595573874</internalNodes>
      <leafValues>
        -2.5272995233535767e-01 8.8420391082763672e-02</leafValues></_>
    <_>
      <internalNodes>
        0 -1 2946 -563880214 1987092719 -38310127 2012636453 491630988
        811009436 -2030263927 -1086378342</internalNodes>
      <leafValues>
        -1.1213951557874680e-01 2.1180930733680725e-01</leafValues></_>
    <_>
      <internalNodes>
        0 -1 498 -1695512696 5705537 4107 545295829 580643924 12431183
        -357563887 1381166912</internalNodes>
      <leafValues>
        -2.9149144887924194e-01 8.2984216511249542e-02</leafValues></_>
    <_>
      <internalNodes>
        0 -1 273 -907811885 93998586 887560821 -744232557 1197399955
        -2115969806 1335881171 -655360137</internalNodes>
      <leafValues>
        -1.1130140721797943e-01 2.0789729058742523e-01</leafValues></_>
    <_>
      <internalNodes>
        0 -1 2344 410015 1608517697 1721518589 501524224 -396718724
        -1641260100 1859403240 1009647624</internalNodes>
      <leafValues>
        -2.0740532875061035e-01 1.1084637790918350e-01</leafValues></_>
    <_>
      <internalNodes>
        0 -1 1360 3604992 394883 4621366 622208090 1293092352
        -2133267935 -982142239 149429492</internalNodes>
      <leafValues>
        -3.6022800207138062e-01 6.2231600284576416e-02</leafValues></_>
    <_>
      <internalNodes>
        0 -1 3078 -1032326073 2082668538 525457919 2111440511
        -1090602207 -272945957 -1915955242 -1073758226</internalNodes>
      <leafValues>
        -8.9533075690269470e-02 2.6854050159454346e-01</leafValues></_>
    <_>
      <internalNodes>
        0 -1 729 -495434752 944281802 -933945670 688201318 -1272693504
        -1206095294 -480899666 67387068</internalNodes>
      <leafValues>
        -2.4864402413368225e-01 9.2611312866210938e-02</leafValues></_>
    <_>
      <internalNodes>
        0 -1 1564 -2146958809 646823464 -1716644531 1071195984 211321012
        -1205284360 333488336 1063525898</internalNodes>
      <leafValues>
        -2.0743961632251740e-01 1.0846289247274399e-01</leafValues></_>
    <_>
      <internalNodes>
        0 -1 2924 -1952461277 -968358326 41690967 -652294545 -1440057855
        -1721176513 -1635918183 -1153721858</internalNodes>
      <leafValues>
        -1.1753568798303604e-01 2.1020554006099701e-01</leafValues></_>
    <_>
      <internalNodes>
        0 -1 3489 1179944612 -2109280967 1356675482 851625570 1122697816
        1241925395 826482870 750170163</internalNodes>
      <leafValues>
        -2.5818020105361938e-01 9.2301473021507263e-02</leafValues></_>
    <_>
      <internalNodes>
        0 -1 3042 -567827886 1461260926 964304207 -37523364 -1125273424
        2010427104 -1546023269 -318005541</internalNodes>
      <leafValues>
        -1.0100475698709488e-01 2.3439773917198181e-01</leafValues></_>
    <_>
      <internalNodes>
        0 -1 291 -704985190 1078720121 -411185968 -1849593610 338122007
        8558946 -962353238 -1044055372</internalNodes>
      <leafValues>
        -1.5157644450664520e-01 1.5276071429252625e-01</leafValues></_>
    <_>
      <internalNodes>
        0 -1 3002 -1907306620 -2112997664 -1220133673 -1295472523
        257848436 -735151451 35812378 275010928</internalNodes>
      <leafValues>
        -2.5467559695243835e-01 8.7533414363861084e-02</leafValues></_>
    <_>
      <internalNodes>
        0 -1 84 1492099829 -611657200 721178521 -986076991 1154087364
        1356603553 54656475 -586683997</internalNodes>
      <leafValues>
        -1.1433307081460953e-01 2.0617343485355377e-01</leafValues></_>
    <_>
      <internalNodes>
        0 -1 372 1896722844 -1820085570 726793236 -202399650 -1052601702
        -1027603132 291045535 -605052790</internalNodes>
      <leafValues>
        -1.0012402385473251e-01 2.2816537320613861e-01</leafValues></_>
    <_>
      <internalNodes>
        0 -1 2051 -1196789578 -553835529 396868441 -645654293
        -1101064707 -816188115 -1334045252 -999162264</internalNodes>
      <leafValues>
        -1.1983974277973175e-01 1.9650000333786011e-01</leafValues></_>
    <_>
      <internalNodes>
        0 -1 2286 1825516686 675184450 -1058740708 -362627584 1220491028
        -1935061177 1384479300 1639566194</internalNodes>
      <leafValues>
        -3.1597107648849487e-01 8.3353497087955475e-02</leafValues></_>
    <_>
      <internalNodes>
        0 -1 168 -1016428398 1518921398 -863043383 1501939920 -882956672
        1222117573 1099088035 1272299803</internalNodes>
      <leafValues>
        -1.7133131623268127e-01 1.4240148663520813e-01</leafValues></_>
    <_>
      <internalNodes>
        0 -1 1434 -703094587 -1472582952 708518791 1135071386 -245461232
        -884109562 1302086240 -2006496685</internalNodes>
      <leafValues>
        -1.4954914152622223e-01 1.5596918761730194e-01</leafValues></_>
    <_>
      <internalNodes>
        0 -1 2462 217909440 36176466 605097368 561232056 1596036057
        179317689 1587099897 136487931</internalNodes>
      <leafValues>
        -3.8292357325553894e-01 6.0508012771606445e-02</leafValues></_>
    <_>
      <internalNodes>
        0 -1 2942 1947965847 -787472361 -765345729 1599945751 1235603529
        -1725729424 1283223945 -1619317186</internalNodes>
      <leafValues>
        -9.2404626309871674e-02 2.6282551884651184e-01</leafValues></_>
    <_>
      <internalNodes>
        0 -1 3263 887753856 407512206 484907 -1532481292 850804498
        1378647 1692284810 1078776838</internalNodes>
      <leafValues>
        -3.6945578455924988e-01 6.3300974667072296e-02</leafValues></_>
    <_>
      <internalNodes>
        0 -1 3565 -65735520 -1136837559 -1326681427 -655279726
        -667074108 -1079873059 -40212839 1002382616</internalNodes>
      <leafValues>
        -1.8823440372943878e-01 1.2690773606300354e-01</leafValues></_>
    <_>
      <internalNodes>
        0 -1 3715 -465090009 -219781530 826202757 -581703453 1886398659
        1783883138 -1459464453 -11373806</internalNodes>
      <leafValues>
        -1.0656327009201050e-01 2.3494726419448853e-01</leafValues></_>
    <_>
      <internalNodes>
        0 -1 3518 -1117783359 -1979193458 769642991 -1133660454
        2074493767 -1137377707 -553708992 -231255238</internalNodes>
      <leafValues>
        -1.3257780671119690e-01 1.8372942507266998e-01</leafValues></_>
    <_>
      <internalNodes>
        0 -1 3210 -717228574 -2084363271 -749668300 -1918533937
        -36683722 -1580157872 -950772730 1225237073</internalNodes>
      <leafValues>
        -1.6702358424663544e-01 1.4126551151275635e-01</leafValues></_>
    <_>
      <internalNodes>
        0 -1 577 1667615361 -1804290508 1293436277 1884942943 172148772
        -913391754 -2074770207 -300225734</internalNodes>
      <leafValues>
        -1.3381187617778778e-01 1.8224611878395081e-01</leafValues></_>
    <_>
      <internalNodes>
        0 -1 2822 -1607161200 1062347268 -1487046225 185836176
        -1287731475 -2088019170 198907869 1214057749</internalNodes>
      <leafValues>
        -1.8291307985782623e-01 1.3058054447174072e-01</leafValues></_>
    <_>
      <internalNodes>
        0 -1 3936 -351356389 1354671656 -1366505025 -114235243
        -1120207686 1034226170 -1804796622 -2111647632</internalNodes>
      <leafValues>
        -1.4903275668621063e-01 1.6272234916687012e-01</leafValues></_>
    <_>
      <internalNodes>
        0 -1 3036 -595357101 -76817923 -1657027111 1195502294 1326727723
        -105267256 -363026296 -1072919782</internalNodes>
      <leafValues>
        -1.2671656906604767e-01 1.8790590763092041e-01</leafValues></_>
    <_>
      <internalNodes>
        0 -1 1807 269111288 686313360 1499570934 -1054252711 1098982048
        41703409 997733486 728239360</internalNodes>
      <leafValues>
        -2.6413875818252563e-01 9.2725478112697601e-02</leafValues></_>
    <_>
      <internalNodes>
        0 -1 2480 -1511410500 707267442 147850359 -1401373132 -413465408
        -1406661780 -1442816847 783682750</internalNodes>
      <leafValues>
        -2.5524157285690308e-01 9.1401539742946625e-02</leafValues></_>
    <_>
      <internalNodes>
        0 -1 497 -1851685390 -2098004295 -1695578379 1735762329
        -545382717 -1293786425 -1131521505 -570701155</internalNodes>
      <leafValues>
        -1.0277532786130905e-01 2.3674410581588745e-01</leafValues></_>
    <_>
      <internalNodes>
        0 -1 3892 -2096962864 -1567898392 884637778 -1868274937
        424766808 125047960 1954961836 -389672637</internalNodes>
      <leafValues>
        -2.0573845505714417e-01 1.2041358649730682e-01</leafValues></_>
    <_>
      <internalNodes>
        0 -1 3877 -572543265 -616674836 -1435582765 -106197481
        -1077720152 -186294496 -332505507 -70789116</internalNodes>
      <leafValues>
        -7.4927143752574921e-02 3.2785174250602722e-01</leafValues></_>
    <_>
      <internalNodes>
        0 -1 380 201365168 -1831850168 -895070955 1571003072 -397690648
        379609700 -2009869888 1308664832</internalNodes>
      <leafValues>
        -3.1645402312278748e-01 7.5781919062137604e-02</leafValues></_>
    <_>
      <internalNodes>
        0 -1 339 1985037742 501107833 -1711506904 1018849472 -1788603488
        -1405958318 1925002710 70667619</internalNodes>
      <leafValues>
        -2.0438440144062042e-01 1.1454343050718307e-01</leafValues></_>
    <_>
      <internalNodes>
        0 -1 3648 -718213770 1242416934 -168595811 -599793738 -124392172
        -1901416179 -704314349 -833515745</internalNodes>
      <leafValues>
        -1.2537503242492676e-01 1.9118711352348328e-01</leafValues></_>
    <_>
      <internalNodes>
        0 -1 3951 -1006318934 680064 -268164963 -1566423424 -1072491854
        239542310 -60448688 1546610562</internalNodes>
      <leafValues>
        -2.7514269948005676e-01 8.5430040955543518e-02</leafValues></_>
    <_>
      <internalNodes>
        0 -1 2950 53710852 586786690 -844707352 -1909979826 136183872
        191384144 194808472 1526875498</internalNodes>
      <leafValues>
        -2.6615250110626221e-01 8.7616845965385437e-02</leafValues></_>
    <_>
      <internalNodes>
        0 -1 2555 -22480165 -2066027777 1109834461 1153774468 -623038713
        -829574923 -412764878 -2044477854</internalNodes>
      <leafValues>
        -1.4342412352561951e-01 1.7748220264911652e-01</leafValues></_>
    <_>
      <internalNodes>
        0 -1 3085 -1517909011 804846574 1683044754 774403128 983303107
        665518326 637413226 1579872544</internalNodes>
      <leafValues>
        -2.2046911716461182e-01 1.1085364967584610e-01</leafValues></_>
    <_>
      <internalNodes>
        0 -1 744 -584910712 357024979 1596857689 -1356608801 -463302248
        -1475488504 1455777930 -912424262</internalNodes>
      <leafValues>
        -1.1575949192047119e-01 2.0973698794841766e-01</leafValues></_>
    <_>
      <internalNodes>
        0 -1 576 1254081250 1386785422 643873649 -1881822754 -1530808702
        -1485908867 1108209290 -69468678</internalNodes>
      <leafValues>
        -9.5136299729347229e-02 2.3826779425144196e-01</leafValues></_>
    <_>
      <internalNodes>
        0 -1 954 11982698 8438109 420282434 -669369823 126257056
        -1482238896 217327794 248786554</internalNodes>
      <leafValues>
        -2.2514733672142029e-01 1.0978531837463379e-01</leafValues></_>
    <_>
      <internalNodes>
        0 -1 1844 -2129157892 -1637473439 103941779 -1331109295
        1041836091 -1701061759 -2096224538 -756624012</internalNodes>
      <leafValues>
        -1.8241177499294281e-01 1.2995655834674835e-01</leafValues></_>
    <_>
      <internalNodes>
        0 -1 2253 549384763 296135420 -124014408 825348282 -1352160890
        -2146945944 -408733714 1057245454</internalNodes>
      <leafValues>
        -1.8058705329895020e-01 1.3138201832771301e-01</leafValues></_>
    <_>
      <internalNodes>
        0 -1 1297 -1338856760 -802419258 -1615219459 -705621590
        -767683807 1343066193 -1967985729 -605296515</internalNodes>
      <leafValues>
        -1.1537627130746841e-01 2.1863484382629395e-01</leafValues></_>
    <_>
      <internalNodes>
        0 -1 3185 304484740 34619807 -1773957249 59977516 -1677175618
        -1715795728 621184233 193552258</internalNodes>
      <leafValues>
        -2.5274309515953064e-01 9.4933442771434784e-02</leafValues></_>
    <_>
      <internalNodes>
        0 -1 18 1378034214 160168320 232946097 -1649155677 -239860389
        -601624143 -272250149 -1807261657</internalNodes>
      <leafValues>
        -1.4705400168895721e-01 1.6443760693073273e-01</leafValues></_>
    <_>
      <internalNodes>
        0 -1 2215 -868229306 -1741287546 -327268178 1057244799
        -344677900 -1024727742 1541732266 -616572981</internalNodes>
      <leafValues>
        -1.1285339295864105e-01 2.0864379405975342e-01</leafValues></_>
    <_>
      <internalNodes>
        0 -1 3880 -892867040 -856791368 -1399550784 1589187622
        2064989141 118424852 2058220321 958132301</internalNodes>
      <leafValues>
        -2.1211852133274078e-01 1.1691571027040482e-01</leafValues></_>
    <_>
      <internalNodes>
        0 -1 3955 -2146832868 -1743871478 1358615737 -731591562
        610005706 -2048068717 47928985 956626098</internalNodes>
      <leafValues>
        -1.9719901680946350e-01 1.2460469454526901e-01</leafValues></_>
    <_>
      <internalNodes>
        0 -1 1066 -2008211442 18951502 -763207748 814251966 857170962
        -2142216507 -186311264 32828145</internalNodes>
      <leafValues>
        -2.8904029726982117e-01 8.2393638789653778e-02</leafValues></_>
    <_>
      <internalNodes>
        0 -1 2982 1357462046 505364007 -297898240 -117512361 1065301749
        -1567328436 1559199536 -1346382009</internalNodes>
      <leafValues>
        -1.5546239912509918e-01 1.6477236151695251e-01</leafValues></_>
    <_>
      <internalNodes>
        0 -1 3798 1884481284 2122131044 -1659886421 -380940158
        1923364588 -532602270 -379457094 2097157912</internalNodes>
      <leafValues>
        -1.9852255284786224e-01 1.2491460889577866e-01</leafValues></_>
    <_>
      <internalNodes>
        0 -1 3420 -762883018 -621752468 -613908485 -645522637 1479457441
        -537299956 -1900900802 -643726574</internalNodes>
      <leafValues>
        -1.2759445607662201e-01 1.9023747742176056e-01</leafValues></_>
    <_>
      <internalNodes>
        0 -1 2991 114180608 182644358 -959446944 -1460999624 1853567536
        126073392 904061360 1731181596</internalNodes>
      <leafValues>
        -3.9466488361358643e-01 6.4993940293788910e-02</leafValues></_>
    <_>
      <internalNodes>
        0 -1 990 -1895925773 -1132810754 -370902115 2139072121
        -429482773 -1669446568 1188031675 -33556777</internalNodes>
      <leafValues>
        -7.5960755348205566e-02 3.2577124238014221e-01</leafValues></_>
    <_>
      <internalNodes>
        0 -1 2670 1050139138 1887839782 245367444 1073764211 2059687500
        60581892 -865528578 274731522</internalNodes>
      <leafValues>
        -3.2875865697860718e-01 7.9761855304241180e-02</leafValues></_></weakClassifiers></stage19>
</opencv_storage>
