<?xml version="1.0"?>
<opencv_storage>
<stage15>
  <maxWeakCount>72</maxWeakCount>
  <stageThreshold>-1.0834368467330933e+00</stageThreshold>
  <weakClassifiers>
    <_>
      <internalNodes>
        0 -1 3168 540476243 -291545253 1862026852 -321323265 1878476548
        -363075593 -9099692 -2101254</internalNodes>
      <leafValues>
        1.1874032206833363e-02 3.9592459797859192e-01</leafValues></_>
    <_>
      <internalNodes>
        0 -1 2249 -520097929 -203178243 -254484523 -235438604 -840434689
        -840011777 -1930166281 -20625</internalNodes>
      <leafValues>
        -9.1758690774440765e-02 3.3901458978652954e-01</leafValues></_>
    <_>
      <internalNodes>
        0 -1 1778 421910519 996499228 1065089791 -101712259 931069871
        -21037061 -360780305 -1561399692</internalNodes>
      <leafValues>
        -1.6078934073448181e-01 1.7945732176303864e-01</leafValues></_>
    <_>
      <internalNodes>
        0 -1 2958 212271238 466879072 -1093435532 284760893 575964614
        537994487 189366984 737885935</internalNodes>
      <leafValues>
        -2.9799035191535950e-01 6.2440052628517151e-02</leafValues></_>
    <_>
      <internalNodes>
        0 -1 176 -794427502 -1153623537 1345374197 1267583209 74448896
        1102674555 1432703221 -894481281</internalNodes>
      <leafValues>
        -1.9415378570556641e-01 1.3462767004966736e-01</leafValues></_>
    <_>
      <internalNodes>
        0 -1 1115 -1035194351 1897018141 -360908553 319422853 1422034172
        -1460079400 1433212125 395993280</internalNodes>
      <leafValues>
        -1.8475207686424255e-01 1.3430288434028625e-01</leafValues></_>
    <_>
      <internalNodes>
        0 -1 1319 791657303 684768895 418591155 -1769699348 248231827
        -1080197137 720289775 -1073754385</internalNodes>
      <leafValues>
        -8.7999053299427032e-02 2.7961033582687378e-01</leafValues></_>
    <_>
      <internalNodes>
        0 -1 2713 -252320514 -1439388433 -1975511023 845000147 390257015
        68422491 1808790495 584774010</internalNodes>
      <leafValues>
        -2.7869740128517151e-01 8.5025891661643982e-02</leafValues></_>
    <_>
      <internalNodes>
        0 -1 3302 1117149778 -207395485 -600844487 1601504638 1678125011
        -1141423341 79073227 -1683226866</internalNodes>
      <leafValues>
        -9.9303908646106720e-02 2.5219663977622986e-01</leafValues></_>
    <_>
      <internalNodes>
        0 -1 629 -1696596185 19838695 -1079515231 299242595 23725632
        -842531595 1439958439 265943781</internalNodes>
      <leafValues>
        -2.2481922805309296e-01 1.0827485471963882e-01</leafValues></_>
    <_>
      <internalNodes>
        0 -1 2988 -405807526 -2098268162 -1368595137 -1061096730
        2117535511 -15472737 1999890240 -353322362</internalNodes>
      <leafValues>
        -1.5747739374637604e-01 1.6220462322235107e-01</leafValues></_>
    <_>
      <internalNodes>
        0 -1 1953 -1565744224 -1750596057 -116471364 1963764765
        560637829 -1208813264 171635867 695151927</internalNodes>
      <leafValues>
        -2.1371385455131531e-01 1.3635210692882538e-01</leafValues></_>
    <_>
      <internalNodes>
        0 -1 2069 -203098146 -1969439858 1804533207 748254105 -345202855
        -824250034 -26395895 -662192065</internalNodes>
      <leafValues>
        -1.2132818251848221e-01 2.1294498443603516e-01</leafValues></_>
    <_>
      <internalNodes>
        0 -1 2488 -328810498 1351094152 -1395569996 -1331284363
        759709652 -2141987586 -2051595528 2094982572</internalNodes>
      <leafValues>
        -1.7256844043731689e-01 1.4883890748023987e-01</leafValues></_>
    <_>
      <internalNodes>
        0 -1 3504 -13631757 -857213153 -1939400585 -152372769 121333616
        -63521697 -707317981 -101843665</internalNodes>
      <leafValues>
        -1.1166361719369888e-01 2.3313082754611969e-01</leafValues></_>
    <_>
      <internalNodes>
        0 -1 2878 283145592 896304092 -980820067 -1985232148 -2147436752
        -1749800708 220114602 774506024</internalNodes>
      <leafValues>
        -2.6650798320770264e-01 1.0010091215372086e-01</leafValues></_>
    <_>
      <internalNodes>
        0 -1 2272 678373962 14704246 -1730622444 -1206871179 -168460937
        -1360317934 257407344 418667616</internalNodes>
      <leafValues>
        -2.9016220569610596e-01 8.8426247239112854e-02</leafValues></_>
    <_>
      <internalNodes>
        0 -1 958 79691671 -1966942212 401014679 -636968396 -1516781917
        -1431895834 1266612922 -1086004</internalNodes>
      <leafValues>
        -1.0158205777406693e-01 2.6123732328414917e-01</leafValues></_>
    <_>
      <internalNodes>
        0 -1 320 1447497210 1393111031 2047804477 1538400480 89945248
        -1423893553 943279150 570703790</internalNodes>
      <leafValues>
        -2.0022134482860565e-01 1.3203746080398560e-01</leafValues></_>
    <_>
      <internalNodes>
        0 -1 3018 -782893134 -1363150723 1598728426 239725319 -81928361
        -386218442 -1151990670 -452500670</internalNodes>
      <leafValues>
        -1.5208615362644196e-01 1.7297260463237762e-01</leafValues></_>
    <_>
      <internalNodes>
        0 -1 963 -58534031 1075978846 914495339 59877631 -817700350
        726374913 -536405960 419233348</internalNodes>
      <leafValues>
        -2.1941664814949036e-01 1.2052340060472488e-01</leafValues></_>
    <_>
      <internalNodes>
        0 -1 288 -663236608 -1273648421 -745404656 668590710 -481311615
        -1734612732 -485956992 -431509802</internalNodes>
      <leafValues>
        -1.6778181493282318e-01 1.4514298737049103e-01</leafValues></_>
    <_>
      <internalNodes>
        0 -1 3614 -869284721 336923662 -1978231066 374591362 -915597960
        -1942604448 1880227924 722370420</internalNodes>
      <leafValues>
        -1.9515615701675415e-01 1.2903647124767303e-01</leafValues></_>
    <_>
      <internalNodes>
        0 -1 1965 -588777217 -190124833 -553848805 487263951 -265331718
        -900257550 2071294099 -546833425</internalNodes>
      <leafValues>
        -9.4198569655418396e-02 2.7402108907699585e-01</leafValues></_>
    <_>
      <internalNodes>
        0 -1 1146 1075956979 -2134830904 1089972315 -782682941
        -933214487 -50720041 138739673 -892231533</internalNodes>
      <leafValues>
        -1.1509789526462555e-01 2.1444739401340485e-01</leafValues></_>
    <_>
      <internalNodes>
        0 -1 3935 -903027576 33555132 -902675888 1359609950 -234567430
        776081702 -391224050 1093462240</internalNodes>
      <leafValues>
        -2.4510729312896729e-01 1.0112838447093964e-01</leafValues></_>
    <_>
      <internalNodes>
        0 -1 3634 -1441890006 202170914 -1762373418 -1229798578 8672437
        4542496 2511318 -729647751</internalNodes>
      <leafValues>
        -2.5643321871757507e-01 9.1324642300605774e-02</leafValues></_>
    <_>
      <internalNodes>
        0 -1 628 1336913915 -951255302 -1388976159 -1693392158 233760139
        -335110672 -873988165 -1344276997</internalNodes>
      <leafValues>
        -6.7369535565376282e-02 3.5719209909439087e-01</leafValues></_>
    <_>
      <internalNodes>
        0 -1 1377 -2107445486 7812357 -941671212 499821771 1895788291
        74508919 1326793554 1325397360</internalNodes>
      <leafValues>
        -3.0935007333755493e-01 8.1708885729312897e-02</leafValues></_>
    <_>
      <internalNodes>
        0 -1 455 -874018294 1528941110 -184261247 -618983415 -764271885
        582291934 1701913295 -593100641</internalNodes>
      <leafValues>
        -1.5208193659782410e-01 1.6462519764900208e-01</leafValues></_>
    <_>
      <internalNodes>
        0 -1 2547 -100666465 -1561401602 -1827032009 -1469056531
        1665549650 -550568006 -282607054 -91237564</internalNodes>
      <leafValues>
        -1.2903219461441040e-01 1.9895559549331665e-01</leafValues></_>
    <_>
      <internalNodes>
        0 -1 3595 -636736196 513583557 1019515164 -1326985688 935878192
        507258036 160390537 729804688</internalNodes>
      <leafValues>
        -2.2935090959072113e-01 1.1747563630342484e-01</leafValues></_>
    <_>
      <internalNodes>
        0 -1 2643 -681379621 -547675570 -1358954955 2134198808 169205485
        -1416150542 1652371167 -611618341</internalNodes>
      <leafValues>
        -8.2653179764747620e-02 3.1682944297790527e-01</leafValues></_>
    <_>
      <internalNodes>
        0 -1 791 1696616788 30459332 71324700 1834038970 335650627
        -664957184 472276440 292779262</internalNodes>
      <leafValues>
        -3.1845182180404663e-01 8.5254162549972534e-02</leafValues></_>
    <_>
      <internalNodes>
        0 -1 1884 1148710471 1491273287 1994358655 2010974077
        -1034012023 -1391166802 640610235 -1411469573</internalNodes>
      <leafValues>
        -9.7188293933868408e-02 2.6973533630371094e-01</leafValues></_>
    <_>
      <internalNodes>
        0 -1 2841 -1996772874 -47182287 -1893794689 -540081071
        -1339187544 -1195733350 -1476257061 -1089253869</internalNodes>
      <leafValues>
        -1.1265984922647476e-01 2.3346313834190369e-01</leafValues></_>
    <_>
      <internalNodes>
        0 -1 3468 -1912383660 -358071142 1145567925 1902386788
        1026561941 -379054239 80086928 2076125489</internalNodes>
      <leafValues>
        -2.1061258018016815e-01 1.2736664712429047e-01</leafValues></_>
    <_>
      <internalNodes>
        0 -1 3944 -231735585 -177494490 953076983 -44471233 -932455524
        -566468926 -2025423761 -872423513</internalNodes>
      <leafValues>
        -8.5401803255081177e-02 3.2602635025978088e-01</leafValues></_>
    <_>
      <internalNodes>
        0 -1 1655 674628098 2237381 604706612 853283027 256182016
        -1971522940 71377397 687618164</internalNodes>
      <leafValues>
        -4.5964959263801575e-01 6.5144374966621399e-02</leafValues></_>
    <_>
      <internalNodes>
        0 -1 3198 -606341187 1792552700 -276701667 -2008302627 217709907
        -25759907 1915777877 -850919885</internalNodes>
      <leafValues>
        -1.3628219068050385e-01 2.0083397626876831e-01</leafValues></_>
    <_>
      <internalNodes>
        0 -1 2519 -1136760482 -2091061777 -1282849388 397453004
        -668111393 -1439832758 -1827854178 952666286</internalNodes>
      <leafValues>
        -1.7978613078594208e-01 1.5048256516456604e-01</leafValues></_>
    <_>
      <internalNodes>
        0 -1 521 1488631698 217373858 1315926673 -607794279 -2097496190
        -2004838784 1127660957 -1881297782</internalNodes>
      <leafValues>
        -1.1993756890296936e-01 2.2104339301586151e-01</leafValues></_>
    <_>
      <internalNodes>
        0 -1 78 1880594306 944091594 -777783903 1334698980 2004920000
        -777256796 1062332177 258734151</internalNodes>
      <leafValues>
        -1.9035407900810242e-01 1.4062616229057312e-01</leafValues></_>
    <_>
      <internalNodes>
        0 -1 3908 1344938500 2112828643 341616679 1560738440 448881236
        -61681242 -1059546374 -1006583646</internalNodes>
      <leafValues>
        -2.2450481355190277e-01 1.1439740657806396e-01</leafValues></_>
    <_>
      <internalNodes>
        0 -1 3297 149085297 -17014953 -17367195 -72078598 -786825952
        -1615058999 -283272641 -5275990</internalNodes>
      <leafValues>
        -1.0952939838171005e-01 2.3830652236938477e-01</leafValues></_>
    <_>
      <internalNodes>
        0 -1 1867 -1662666242 91524137 -717154957 181800625 1757511181
        1192324116 1171849786 250087028</internalNodes>
      <leafValues>
        -3.7604117393493652e-01 7.4491262435913086e-02</leafValues></_>
    <_>
      <internalNodes>
        0 -1 3888 -923800342 72325026 1613153294 -1334982100 515099701
        -919990159 2035919962 -83887449</internalNodes>
      <leafValues>
        -1.7596597969532013e-01 1.4998507499694824e-01</leafValues></_>
    <_>
      <internalNodes>
        0 -1 2054 -800341288 -1964791986 1502977969 1290986645 240405838
        -500243361 -671888537 558300775</internalNodes>
      <leafValues>
        -2.1201282739639282e-01 1.2826336920261383e-01</leafValues></_>
    <_>
      <internalNodes>
        0 -1 1740 1411121666 808206298 -402509218 470880494 -1510735520
        -1127731631 -329227576 205787456</internalNodes>
      <leafValues>
        -3.0699780583381653e-01 8.7924525141716003e-02</leafValues></_>
    <_>
      <internalNodes>
        0 -1 2443 -1001669777 -554375259 709270223 -67146146 719968402
        -1336698019 -1288261669 -67421013</internalNodes>
      <leafValues>
        -8.5905969142913818e-02 3.2118204236030579e-01</leafValues></_>
    <_>
      <internalNodes>
        0 -1 3653 -1465845016 -1166966296 1807917481 -1148590197
        1699214516 -1915483936 83365694 1431568929</internalNodes>
      <leafValues>
        -1.8558429181575775e-01 1.5059550106525421e-01</leafValues></_>
    <_>
      <internalNodes>
        0 -1 313 1741835264 386260127 662917890 816051497 2002806340
        36684660 -1834592560 544218162</internalNodes>
      <leafValues>
        -3.7452515959739685e-01 6.7436873912811279e-02</leafValues></_>
    <_>
      <internalNodes>
        0 -1 3946 -1811174214 464521442 -964140619 -1316625702
        -1195340408 122899361 435733211 -2119051451</internalNodes>
      <leafValues>
        -1.7652516067028046e-01 1.4695040881633759e-01</leafValues></_>
    <_>
      <internalNodes>
        0 -1 3496 1979608722 707710223 -527533446 -1303184674 1145763352
        -1966193356 1025177060 -563122155</internalNodes>
      <leafValues>
        -1.7169244587421417e-01 1.5405343472957611e-01</leafValues></_>
    <_>
      <internalNodes>
        0 -1 2915 1879880428 1055913130 1444330745 -1611735150
        -803187324 -2131609103 -1038866656 1034335186</internalNodes>
      <leafValues>
        -1.9972847402095795e-01 1.4024977385997772e-01</leafValues></_>
    <_>
      <internalNodes>
        0 -1 3897 -123278198 1377420846 -1374247690 -802168315
        2053449458 -1074860387 -157286623 -12339972</internalNodes>
      <leafValues>
        -1.3059692084789276e-01 2.0462489128112793e-01</leafValues></_>
    <_>
      <internalNodes>
        0 -1 1801 305151168 1119456408 -696495619 -1175704848 576603820
        806483925 673335178 587753220</internalNodes>
      <leafValues>
        -3.1875771284103394e-01 8.5941456258296967e-02</leafValues></_>
    <_>
      <internalNodes>
        0 -1 3798 -169896941 -1115749752 -2037572179 1364033162
        -1197611968 -1697567198 -588722198 -1081395877</internalNodes>
      <leafValues>
        -9.8400354385375977e-02 2.7725791931152344e-01</leafValues></_>
    <_>
      <internalNodes>
        0 -1 1256 -813912327 281814485 6438032 47948508 1629947089
        63322901 1717901938 719989876</internalNodes>
      <leafValues>
        -2.9886326193809509e-01 9.3564264476299286e-02</leafValues></_>
    <_>
      <internalNodes>
        0 -1 967 -554697040 -67983783 795491597 -769221897 859432611
        -1024376327 1249901659 -873005060</internalNodes>
      <leafValues>
        -1.0468266904354095e-01 2.7248650789260864e-01</leafValues></_>
    <_>
      <internalNodes>
        0 -1 271 -178304512 488542867 1910579657 -415212603 132285976
        216209576 1951789200 1084553736</internalNodes>
      <leafValues>
        -2.3162795603275299e-01 1.2055257707834244e-01</leafValues></_>
    <_>
      <internalNodes>
        0 -1 2550 581121586 748967537 -1027164934 577146598 -175537559
        -1988501804 -2089348944 610695680</internalNodes>
      <leafValues>
        -3.0464625358581543e-01 8.3670817315578461e-02</leafValues></_>
    <_>
      <internalNodes>
        0 -1 1269 -102770029 -1828739510 16014077 1931398871 -1603503956
        -1841411214 -185524549 -13952881</internalNodes>
      <leafValues>
        -9.1353654861450195e-02 2.9612651467323303e-01</leafValues></_>
    <_>
      <internalNodes>
        0 -1 1622 243462692 -1307508525 -2100897783 372125405
        -1763484384 -2052943164 -2116927871 1498916253</internalNodes>
      <leafValues>
        -2.2280104458332062e-01 1.2156349420547485e-01</leafValues></_>
    <_>
      <internalNodes>
        0 -1 1444 -657225078 -1111602728 1717849067 328594393
        -2100149781 -545878696 -23247477 -909145862</internalNodes>
      <leafValues>
        -1.1043335497379303e-01 2.4973914027214050e-01</leafValues></_>
    <_>
      <internalNodes>
        0 -1 2596 303176020 499142728 1342446481 -1406631868 1444151916
        -1682883680 -378376708 2753556</internalNodes>
      <leafValues>
        -3.4073436260223389e-01 8.0305062234401703e-02</leafValues></_>
    <_>
      <internalNodes>
        0 -1 3438 -1965106748 -86440392 -1076879689 1597004812
        -1237386750 -1636060947 -1785876519 -538238034</internalNodes>
      <leafValues>
        -1.1964803189039230e-01 2.3009987175464630e-01</leafValues></_>
    <_>
      <internalNodes>
        0 -1 3381 -1578574285 249032404 -882452879 -1030682773
        1375934768 -1638886316 -764213659 1301690976</internalNodes>
      <leafValues>
        -2.4649162590503693e-01 1.1342570930719376e-01</leafValues></_>
    <_>
      <internalNodes>
        0 -1 53 -1863014945 1193909951 -1581898058 -1887645675
        -973500751 -855890561 1487504856 -908109061</internalNodes>
      <leafValues>
        -1.1942424625158310e-01 2.3695690929889679e-01</leafValues></_>
    <_>
      <internalNodes>
        0 -1 1 1243869315 1466013100 1166931180 -1034437038 1390254585
        1803381893 1400851106 -691536317</internalNodes>
      <leafValues>
        -1.1501959711313248e-01 2.4784834682941437e-01</leafValues></_>
    <_>
      <internalNodes>
        0 -1 3776 -68881629 -1012083794 -815002920 -1630536571 469698474
        -2027362615 2082624667 -1020854166</internalNodes>
      <leafValues>
        -1.2539301812648773e-01 2.2662612795829773e-01</leafValues></_>
    <_>
      <internalNodes>
        0 -1 2731 1143252640 -971764709 33916848 2019976712 136701220
        788292544 -1423867504 498009738</internalNodes>
      <leafValues>
        -2.6606968045234680e-01 1.0446707159280777e-01</leafValues></_></weakClassifiers></stage15>
</opencv_storage>
