<?xml version="1.0"?>
<opencv_storage>
<stage13>
  <maxWeakCount>65</maxWeakCount>
  <stageThreshold>-1.1340029239654541e+00</stageThreshold>
  <weakClassifiers>
    <_>
      <internalNodes>
        0 -1 1993 720348691 -1437549218 560015734 -1325514886 -807407625
        -1427570691 -974139913 -67183170</internalNodes>
      <leafValues>
        1.9350215792655945e-02 4.1384896636009216e-01</leafValues></_>
    <_>
      <internalNodes>
        0 -1 33 318998463 -1625956917 288067983 961806243 892050859
        -1344117795 1841559999 1079079008</internalNodes>
      <leafValues>
        -2.9892620444297791e-01 1.3795498013496399e-01</leafValues></_>
    <_>
      <internalNodes>
        0 -1 3348 144647703 469705505 743530103 2063415091 1865824023
        -285311691 1998023543 -16810049</internalNodes>
      <leafValues>
        -1.8917661905288696e-01 1.6555723547935486e-01</leafValues></_>
    <_>
      <internalNodes>
        0 -1 83 -645930053 1462565695 1080091025 1534348317 1670971440
        515995511 896620243 2037859935</internalNodes>
      <leafValues>
        -2.3801703751087189e-01 1.3901001214981079e-01</leafValues></_>
    <_>
      <internalNodes>
        0 -1 1303 -865292701 542117559 498874387 438832316 -1985790045
        -1426163674 1225183227 522803487</internalNodes>
      <leafValues>
        -1.9213046133518219e-01 1.5180771052837372e-01</leafValues></_>
    <_>
      <internalNodes>
        0 -1 3186 -71311361 -286263681 -735200979 -1996756034 -548449162
        -2244683 1600649796 -621825574</internalNodes>
      <leafValues>
        -1.6529083251953125e-01 2.0391637086868286e-01</leafValues></_>
    <_>
      <internalNodes>
        0 -1 3865 -617894913 808851466 1424083711 1476409328 -828125270
        -1171540109 -1356337697 -1987601733</internalNodes>
      <leafValues>
        -1.4961071312427521e-01 1.9931986927986145e-01</leafValues></_>
    <_>
      <internalNodes>
        0 -1 936 -481984609 1092523001 85009584 193113777 -883460335
        184032780 -14269837 714269232</internalNodes>
      <leafValues>
        -2.8978800773620605e-01 9.7659453749656677e-02</leafValues></_>
    <_>
      <internalNodes>
        0 -1 3143 -195572609 277076681 1819868672 497656607 1654784
        -1469382652 2019819612 257899199</internalNodes>
      <leafValues>
        -1.8158823251724243e-01 1.6165903210639954e-01</leafValues></_>
    <_>
      <internalNodes>
        0 -1 1066 -564181889 5144150 -863257094 1922236406 2092128064
        -2078347500 -154701327 -2142175772</internalNodes>
      <leafValues>
        -1.9366985559463501e-01 1.5224832296371460e-01</leafValues></_>
    <_>
      <internalNodes>
        0 -1 3951 -401634680 -1031258038 -1601957840 -221869528
        1745981514 1157760261 -867885029 1346859631</internalNodes>
      <leafValues>
        -2.5795677304267883e-01 1.0576899349689484e-01</leafValues></_>
    <_>
      <internalNodes>
        0 -1 2563 -779356453 -1896366409 654973814 -2140550266
        -685392027 -323166500 -449495289 -632291506</internalNodes>
      <leafValues>
        -1.3015267252922058e-01 2.1573717892169952e-01</leafValues></_>
    <_>
      <internalNodes>
        0 -1 2030 37359664 940583382 -1549942981 319432762 833488285
        22876571 596771049 36473040</internalNodes>
      <leafValues>
        -3.2439538836479187e-01 9.0694338083267212e-02</leafValues></_>
    <_>
      <internalNodes>
        0 -1 3060 -1065062126 1441932844 254030838 1434259820
        -1369789254 -1077003460 428227514 -1618276802</internalNodes>
      <leafValues>
        -1.5271678566932678e-01 1.9107291102409363e-01</leafValues></_>
    <_>
      <internalNodes>
        0 -1 1589 182248035 71579740 246689009 1282679516 -2142199680
        -1396509215 783007394 1070295866</internalNodes>
      <leafValues>
        -1.8857042491436005e-01 1.5063756704330444e-01</leafValues></_>
    <_>
      <internalNodes>
        0 -1 3920 1578058942 2045297156 5547767 411218612 -805231446
        1824049908 -1540867301 -871313246</internalNodes>
      <leafValues>
        -2.0262572169303894e-01 1.3940620422363281e-01</leafValues></_>
    <_>
      <internalNodes>
        0 -1 648 -77602669 -1053741514 119989267 -788408725 1512023682
        -1058489823 -1874340958 -319820801</internalNodes>
      <leafValues>
        -1.0828606039285660e-01 2.5204819440841675e-01</leafValues></_>
    <_>
      <internalNodes>
        0 -1 2419 -188787507 -223091503 759035879 -582001433 -1325936397
        -1605172884 -362533605 -613533841</internalNodes>
      <leafValues>
        -1.0153451561927795e-01 2.7643826603889465e-01</leafValues></_>
    <_>
      <internalNodes>
        0 -1 3341 1079422011 35635039 1244411676 817248255 70980
        1174544150 389362753 746002881</internalNodes>
      <leafValues>
        -2.9553171992301941e-01 1.0059465467929840e-01</leafValues></_>
    <_>
      <internalNodes>
        0 -1 3965 -736582990 286565510 -2050740587 -1189508128 352421371
        419770446 -1295605302 -740705093</internalNodes>
      <leafValues>
        -1.4628714323043823e-01 2.0347234606742859e-01</leafValues></_>
    <_>
      <internalNodes>
        0 -1 1463 260048080 908107953 289101085 -172689616 179047352
        -495439910 -303009924 1626400256</internalNodes>
      <leafValues>
        -3.9375096559524536e-01 6.8507909774780273e-02</leafValues></_>
    <_>
      <internalNodes>
        0 -1 2128 -261872618 -1864367380 1279543797 493357532 813734625
        -54990396 -1369166859 197853706</internalNodes>
      <leafValues>
        -2.1380758285522461e-01 1.4131796360015869e-01</leafValues></_>
    <_>
      <internalNodes>
        0 -1 2141 1808541247 1055813497 -1367401549 1011695296
        2146987587 373189973 -457566645 -218172940</internalNodes>
      <leafValues>
        -1.6875386238098145e-01 1.8412053585052490e-01</leafValues></_>
    <_>
      <internalNodes>
        0 -1 2950 305454788 14692331 -875574412 1600931047 1212418056
        234737552 210783240 456007097</internalNodes>
      <leafValues>
        -2.7775731682777405e-01 9.8442010581493378e-02</leafValues></_>
    <_>
      <internalNodes>
        0 -1 3219 -264863535 -49039656 -1078436133 2132928087 -633302824
        -1427105568 -1959243733 -2013231006</internalNodes>
      <leafValues>
        -1.4837783575057983e-01 2.0349039137363434e-01</leafValues></_>
    <_>
      <internalNodes>
        0 -1 1654 -2026462345 1189086940 1265366965 -538779724
        -1576736001 -1145509437 -1895962633 -1342181714</internalNodes>
      <leafValues>
        -1.0428190976381302e-01 2.8120216727256775e-01</leafValues></_>
    <_>
      <internalNodes>
        0 -1 192 -655273583 1346411795 -574329973 1404052961 71835908
        832385617 2080666538 1343520053</internalNodes>
      <leafValues>
        -2.9317128658294678e-01 1.0538650304079056e-01</leafValues></_>
    <_>
      <internalNodes>
        0 -1 3393 -183502895 -369780921 -295379625 -856352843
        -1284914312 -52762782 -1775815066 -713571693</internalNodes>
      <leafValues>
        -1.2093672156333923e-01 2.4916543066501617e-01</leafValues></_>
    <_>
      <internalNodes>
        0 -1 108 -1761353294 -801986332 1161552561 353756192 1295381120
        349964400 541165190 223866123</internalNodes>
      <leafValues>
        -1.8927976489067078e-01 1.5831270813941956e-01</leafValues></_>
    <_>
      <internalNodes>
        0 -1 2004 134953522 134230646 199712310 2146180 711272262
        -1907934252 -1101958736 718602100</internalNodes>
      <leafValues>
        -3.5960513353347778e-01 8.7888874113559723e-02</leafValues></_>
    <_>
      <internalNodes>
        0 -1 3283 -204191240 -630717036 1047315824 1006049293 225467632
        -786245291 -1749216528 -303094254</internalNodes>
      <leafValues>
        -1.5819077193737030e-01 1.8216370046138763e-01</leafValues></_>
    <_>
      <internalNodes>
        0 -1 2970 105776688 680002176 291769120 1021063097 233324176
        258437633 675612312 1035452158</internalNodes>
      <leafValues>
        -3.7093073129653931e-01 7.4783958494663239e-02</leafValues></_>
    <_>
      <internalNodes>
        0 -1 1044 -761403893 9611506 69297671 1131170442 -1083719674
        213808620 -876244093 -1919162374</internalNodes>
      <leafValues>
        -1.5057092905044556e-01 1.9775643944740295e-01</leafValues></_>
    <_>
      <internalNodes>
        0 -1 751 -880060720 2010487578 691685741 294193270 14501260
        -1439109380 -1182774645 -1387416433</internalNodes>
      <leafValues>
        -1.3266353309154510e-01 2.2889156639575958e-01</leafValues></_>
    <_>
      <internalNodes>
        0 -1 3773 -1326781718 -1876425152 -1523109110 425264696
        -522216450 -1932780710 -1900737113 1591173696</internalNodes>
      <leafValues>
        -1.8822769820690155e-01 1.5253722667694092e-01</leafValues></_>
    <_>
      <internalNodes>
        0 -1 48 -1742167422 -1465111342 334511065 2012557337 -1558465605
        -1985846044 1192235392 -1639713433</internalNodes>
      <leafValues>
        -1.7253556847572327e-01 1.6639143228530884e-01</leafValues></_>
    <_>
      <internalNodes>
        0 -1 2479 -1132926420 -1159158986 -1708481231 -170646223
        1043368196 -1380265304 782368410 795831770</internalNodes>
      <leafValues>
        -2.1593965590000153e-01 1.3162903487682343e-01</leafValues></_>
    <_>
      <internalNodes>
        0 -1 2776 -1701897857 -1972570161 1298330869 -1159168034
        -1652721885 -324305417 -730531088 -24051904</internalNodes>
      <leafValues>
        -1.5098643302917480e-01 1.9595076143741608e-01</leafValues></_>
    <_>
      <internalNodes>
        0 -1 3947 -84226817 -118628317 -2089789188 1363638287
        -1099117121 -360185598 -590759478 -218105857</internalNodes>
      <leafValues>
        -1.0140889883041382e-01 3.0999922752380371e-01</leafValues></_>
    <_>
      <internalNodes>
        0 -1 3015 -762259839 -426527777 -885818635 -1932821011 -17483360
        -7921864 -10217968 1280296483</internalNodes>
      <leafValues>
        -1.8122395873069763e-01 1.6180558502674103e-01</leafValues></_>
    <_>
      <internalNodes>
        0 -1 1346 274403410 274924736 -1157481417 16953054 -1720496693
        1972003838 865955343 504917295</internalNodes>
      <leafValues>
        -2.6897606253623962e-01 1.0618330538272858e-01</leafValues></_>
    <_>
      <internalNodes>
        0 -1 1085 -119732273 1898980655 1806183678 -509062634
        -2092605819 -1884432679 -4515340 -981018718</internalNodes>
      <leafValues>
        -1.3789303600788116e-01 2.1748003363609314e-01</leafValues></_>
    <_>
      <internalNodes>
        0 -1 1941 -833679630 1485046400 -357879792 1422094019 1512785682
        -1777535552 1317051793 1335740175</internalNodes>
      <leafValues>
        -2.2016112506389618e-01 1.2869271636009216e-01</leafValues></_>
    <_>
      <internalNodes>
        0 -1 1623 -19932233 790088699 784226138 -1287944834 -612988745
        2050741689 -893428641 -20675872</internalNodes>
      <leafValues>
        -1.2187781929969788e-01 2.3750360310077667e-01</leafValues></_>
    <_>
      <internalNodes>
        0 -1 1347 715968052 584321028 287035733 203334264 1449627248
        603356472 101403687 192358767</internalNodes>
      <leafValues>
        -3.4253555536270142e-01 8.4323562681674957e-02</leafValues></_>
    <_>
      <internalNodes>
        0 -1 600 -102505513 1889725165 -286206889 -110639147 -342892661
        -1180174492 -963128401 -337904129</internalNodes>
      <leafValues>
        -6.9794014096260071e-02 4.4140583276748657e-01</leafValues></_>
    <_>
      <internalNodes>
        0 -1 2589 1357993491 434662548 722743805 534586421 -1739721326
        -1097268036 519483387 -1978053805</internalNodes>
      <leafValues>
        -1.2634176015853882e-01 2.2691348195075989e-01</leafValues></_>
    <_>
      <internalNodes>
        0 -1 2126 1585081681 1576490452 -25233931 -169376269 -114967120
        -1741476506 -754812935 -1473105733</internalNodes>
      <leafValues>
        -1.6492427885532379e-01 1.6993597149848938e-01</leafValues></_>
    <_>
      <internalNodes>
        0 -1 2803 -286268416 180006054 1087022610 539769582 1534643248
        2000504437 1147433028 1888604742</internalNodes>
      <leafValues>
        -4.5976361632347107e-01 6.2792621552944183e-02</leafValues></_>
    <_>
      <internalNodes>
        0 -1 360 -689647232 1886093218 -2016786360 292102296 -265058140
        895487030 1058867840 822735798</internalNodes>
      <leafValues>
        -2.1390773355960846e-01 1.3994117081165314e-01</leafValues></_>
    <_>
      <internalNodes>
        0 -1 880 -541669769 -1294774559 -402666433 -1079523443
        -1209110832 -1594507018 1715784527 -269504807</internalNodes>
      <leafValues>
        -1.0017103701829910e-01 2.9537874460220337e-01</leafValues></_>
    <_>
      <internalNodes>
        0 -1 3866 -757144952 -689034378 650955294 -582391575 1951678600
        -1422743504 915180175 1224991258</internalNodes>
      <leafValues>
        -1.7902083694934845e-01 1.6854725778102875e-01</leafValues></_>
    <_>
      <internalNodes>
        0 -1 2197 -178206823 380190649 -420197 1049568401 926267028
        -106963701 -253019174 -16798074</internalNodes>
      <leafValues>
        -1.1044099181890488e-01 2.6936987042427063e-01</leafValues></_>
    <_>
      <internalNodes>
        0 -1 952 -631274280 9055112 345346917 1030840259 -1354384600
        19011609 -930954507 331072347</internalNodes>
      <leafValues>
        -3.2352897524833679e-01 9.4708956778049469e-02</leafValues></_>
    <_>
      <internalNodes>
        0 -1 2311 -1770982668 -1398236449 -1944563213 2375454 -46121888
        -1942749838 -749426922 74498320</internalNodes>
      <leafValues>
        -2.8981542587280273e-01 1.0229743272066116e-01</leafValues></_>
    <_>
      <internalNodes>
        0 -1 2049 -2141773359 -82872457 -1997311077 -1088247134
        -1108372011 -1078870145 -1319845896 -262955607</internalNodes>
      <leafValues>
        -1.2428450584411621e-01 2.4158233404159546e-01</leafValues></_>
    <_>
      <internalNodes>
        0 -1 2211 -1469415882 1860971869 630256471 -66319304 -1424970160
        -910658250 -1903859836 1001332654</internalNodes>
      <leafValues>
        -2.2079150378704071e-01 1.3142025470733643e-01</leafValues></_>
    <_>
      <internalNodes>
        0 -1 3602 1953225085 -1130349114 266387037 2104370661 614278621
        -85166211 584886168 -1140953157</internalNodes>
      <leafValues>
        -1.1895512789487839e-01 2.5099828839302063e-01</leafValues></_>
    <_>
      <internalNodes>
        0 -1 139 -265240669 -777410464 -1363268814 1450807809 706797825
        1144731209 1320339905 -704652718</internalNodes>
      <leafValues>
        -1.4787735044956207e-01 2.0307902991771698e-01</leafValues></_>
    <_>
      <internalNodes>
        0 -1 3844 1159607443 -168839715 -80955273 1599398542 -538020790
        -169987340 -286876998 -938102070</internalNodes>
      <leafValues>
        -1.3878983259201050e-01 2.0966465771198273e-01</leafValues></_>
    <_>
      <internalNodes>
        0 -1 1344 -1542381006 56037183 -1986333705 548285695 1113922577
        -1720717961 1286632785 146733173</internalNodes>
      <leafValues>
        -3.3653879165649414e-01 8.5814118385314941e-02</leafValues></_>
    <_>
      <internalNodes>
        0 -1 2997 -1278214947 -2046828617 -928089052 -1408569878
        1677895425 -624962185 1197758740 -130028104</internalNodes>
      <leafValues>
        -1.5500432252883911e-01 1.8789200484752655e-01</leafValues></_>
    <_>
      <internalNodes>
        0 -1 2722 1343033981 121309804 -973691427 -1860873413 1197129592
        -1797664418 -1914487648 1068573016</internalNodes>
      <leafValues>
        -2.2842738032341003e-01 1.3921232521533966e-01</leafValues></_>
    <_>
      <internalNodes>
        0 -1 3904 -353333092 -791893864 1837639688 998263010 -2035079175
        -257662744 2017792395 -787832070</internalNodes>
      <leafValues>
        -1.4621804654598236e-01 2.0406971871852875e-01</leafValues></_>
    <_>
      <internalNodes>
        0 -1 2127 649302600 -1728240548 -1680469555 -718535536
        -1827225616 -1544024841 -1678377501 1036979450</internalNodes>
      <leafValues>
        -1.8223410844802856e-01 1.6267271339893341e-01</leafValues></_></weakClassifiers></stage13>
</opencv_storage>
