<?xml version="1.0"?>
<opencv_storage>
<stage5>
  <maxWeakCount>35</maxWeakCount>
  <stageThreshold>-1.4596047401428223e+00</stageThreshold>
  <weakClassifiers>
    <_>
      <internalNodes>
        0 -1 71 -50331681 -69206017 1006563103 -805879873 -235160129
        -1816443753 -541376737 871314303</internalNodes>
      <leafValues>
        -2.4476650357246399e-01 4.7923588752746582e-01</leafValues></_>
    <_>
      <internalNodes>
        0 -1 2767 1079452167 -355537201 -16845476 -235405315 -277878921
        -318865413 -133164 -1</internalNodes>
      <leafValues>
        -2.4265250563621521e-01 3.2061952352523804e-01</leafValues></_>
    <_>
      <internalNodes>
        0 -1 16 602406847 134201243 1900796183 637237109 1675549599
        2080104399 -151268413 1400071987</internalNodes>
      <leafValues>
        -3.3857142925262451e-01 2.1116653084754944e-01</leafValues></_>
    <_>
      <internalNodes>
        0 -1 3229 -64500497 -1215315009 678772407 -1114269585 -620766481
        -1362121105 76124143 3142399</internalNodes>
      <leafValues>
        -3.2874077558517456e-01 1.9931568205356598e-01</leafValues></_>
    <_>
      <internalNodes>
        0 -1 2355 -652813128 -138148784 368369117 -6485772 -1467302470
        -84114328 -1702822929 -1148516214</internalNodes>
      <leafValues>
        -1.7686153948307037e-01 3.8202390074729919e-01</leafValues></_>
    <_>
      <internalNodes>
        0 -1 1933 -932776910 1342439500 738214712 495586540 573628288
        -1472720919 1258994314 521079951</internalNodes>
      <leafValues>
        -3.0696573853492737e-01 1.9664309918880463e-01</leafValues></_>
    <_>
      <internalNodes>
        0 -1 1309 -353525065 1649454423 -1459804233 62123999 -977281007
        -883042787 -1409701397 -1346638343</internalNodes>
      <leafValues>
        -2.0934389531612396e-01 2.9578968882560730e-01</leafValues></_>
    <_>
      <internalNodes>
        0 -1 3968 -804478272 1361708036 705466392 -1858004952 -686783608
        811606852 1191218942 -1080328053</internalNodes>
      <leafValues>
        -1.9719408452510834e-01 3.0647653341293335e-01</leafValues></_>
    <_>
      <internalNodes>
        0 -1 3947 -893329154 -1073084414 54910 1883652140 -1270548214
        1712128080 1619063771 -343414085</internalNodes>
      <leafValues>
        -2.2822456061840057e-01 2.4633546173572540e-01</leafValues></_>
    <_>
      <internalNodes>
        0 -1 269 1366524627 1542870837 -541664398 996532509 815935741
        1998346783 -935824547 1809738676</internalNodes>
      <leafValues>
        -2.6826685667037964e-01 2.1158494055271149e-01</leafValues></_>
    <_>
      <internalNodes>
        0 -1 2655 -931884032 -59766692 389549965 2113212110 1014671774
        -1094918380 932229567 -1142224641</internalNodes>
      <leafValues>
        -1.7408372461795807e-01 3.4154096245765686e-01</leafValues></_>
    <_>
      <internalNodes>
        0 -1 1958 -495803533 21892943 148058422 3547772 -1521417977
        121254269 180621178 266223212</internalNodes>
      <leafValues>
        -4.5413121581077576e-01 1.2418621033430099e-01</leafValues></_>
    <_>
      <internalNodes>
        0 -1 1953 -1395735680 413673489 -1372825825 288236593 16810880
        -908941 255054479 1059790603</internalNodes>
      <leafValues>
        -2.7329984307289124e-01 2.0308965444564819e-01</leafValues></_>
    <_>
      <internalNodes>
        0 -1 2054 -776220450 -928887666 -756398373 44180510 -221208764
        -797903274 -551424653 -1073479913</internalNodes>
      <leafValues>
        -2.2524644434452057e-01 2.5971457362174988e-01</leafValues></_>
    <_>
      <internalNodes>
        0 -1 2428 1175550034 1483743424 524772701 493421649 -1608244592
        -1693958126 708876187 1001006219</internalNodes>
      <leafValues>
        -2.3445370793342590e-01 2.3214375972747803e-01</leafValues></_>
    <_>
      <internalNodes>
        0 -1 1838 1610395509 60904420 -13387905 279237428 1712368465
        2138372388 -162388430 -17895648</internalNodes>
      <leafValues>
        -2.2703924775123596e-01 2.3576389253139496e-01</leafValues></_>
    <_>
      <internalNodes>
        0 -1 288 -745029632 -581483364 1353080848 1497582095 -241399680
        -2147447164 -952900733 -606104677</internalNodes>
      <leafValues>
        -2.0515801012516022e-01 2.6620757579803467e-01</leafValues></_>
    <_>
      <internalNodes>
        0 -1 788 -2073816839 -8589640 -1803934219 -710746631 -1459998550
        -1372690078 1491123963 4254968</internalNodes>
      <leafValues>
        -3.4499144554138184e-01 1.7454583942890167e-01</leafValues></_>
    <_>
      <internalNodes>
        0 -1 3426 -802127784 -785185788 574414143 2031421493 -1163736392
        -835319952 1057025758 -1156903749</internalNodes>
      <leafValues>
        -1.9064007699489594e-01 3.1638193130493164e-01</leafValues></_>
    <_>
      <internalNodes>
        0 -1 558 -671117387 67100159 -266919045 16235767 1379073
        214384287 -605093855 180546162</internalNodes>
      <leafValues>
        -3.6944463849067688e-01 1.4508578181266785e-01</leafValues></_>
    <_>
      <internalNodes>
        0 -1 3468 -401854384 -252166124 -1047068803 2036334628
        -2092687036 675809062 563350168 1059793992</internalNodes>
      <leafValues>
        -3.3024567365646362e-01 1.6719286143779755e-01</leafValues></_>
    <_>
      <internalNodes>
        0 -1 3177 -455879961 -1437123609 1763863828 -354189313 -96214202
        -4106 709145616 -19136746</internalNodes>
      <leafValues>
        -1.9324386119842529e-01 2.9213967919349670e-01</leafValues></_>
    <_>
      <internalNodes>
        0 -1 2714 -576727809 48629647 -50547175 167749887 -8424003
        27807221 -307767297 -1349518433</internalNodes>
      <leafValues>
        -2.1089045703411102e-01 2.6732358336448669e-01</leafValues></_>
    <_>
      <internalNodes>
        0 -1 3803 -194592767 -237829120 -194096097 -45253521 -242968368
        -1728178942 -1475559477 -81015589</internalNodes>
      <leafValues>
        -1.2268814444541931e-01 4.3899273872375488e-01</leafValues></_>
    <_>
      <internalNodes>
        0 -1 1663 -2040191437 846360184 -1560543882 2058288566 98776848
        1475953157 -2136882185 1207936890</internalNodes>
      <leafValues>
        -3.3878666162490845e-01 1.6387991607189178e-01</leafValues></_>
    <_>
      <internalNodes>
        0 -1 2946 -1002386212 -766370436 -584785968 -249293541
        -1935095636 -256667 -1975508532 -1079047014</internalNodes>
      <leafValues>
        -1.8667697906494141e-01 2.9911607503890991e-01</leafValues></_>
    <_>
      <internalNodes>
        0 -1 2958 5214230 184887346 564297534 -18143229 38044484 2105648
        850181082 1067393019</internalNodes>
      <leafValues>
        -3.2276070117950439e-01 1.6797387599945068e-01</leafValues></_>
    <_>
      <internalNodes>
        0 -1 2471 1512222786 978343424 -1039646112 1015284658 75565328
        793776656 1749081872 184997310</internalNodes>
      <leafValues>
        -3.8747954368591309e-01 1.4262057840824127e-01</leafValues></_>
    <_>
      <internalNodes>
        0 -1 2085 -836444971 -612396976 -1134534691 1609767060
        -1361139270 -69594464 -1199186005 -1107162086</internalNodes>
      <leafValues>
        -1.5605826675891876e-01 3.4105354547500610e-01</leafValues></_>
    <_>
      <internalNodes>
        0 -1 95 -306782525 -1686255203 1603957 1273337105 1209069635
        2129795860 1870343962 1329549151</internalNodes>
      <leafValues>
        -2.9528149962425232e-01 1.8008778989315033e-01</leafValues></_>
    <_>
      <internalNodes>
        0 -1 924 -1028395854 -957870922 1546182421 -584100856
        -1476226176 2142775242 108445371 -1409317409</internalNodes>
      <leafValues>
        -1.5481534600257874e-01 3.5973790287971497e-01</leafValues></_>
    <_>
      <internalNodes>
        0 -1 2046 -196130928 -957473188 -1375205750 539550894
        -1745062120 -2069365381 -1675035392 1616822058</internalNodes>
      <leafValues>
        -3.5568609833717346e-01 1.5260776877403259e-01</leafValues></_>
    <_>
      <internalNodes>
        0 -1 2929 -193800097 -257159582 438836575 -714201841 -265411916
        -218003440 323665835 -1691358209</internalNodes>
      <leafValues>
        -1.4106784760951996e-01 3.8402867317199707e-01</leafValues></_>
    <_>
      <internalNodes>
        0 -1 2647 1490447486 -655295137 1316156895 -1448401391
        1560752422 107320439 45818743 676069428</internalNodes>
      <leafValues>
        -4.5139342546463013e-01 1.2339934706687927e-01</leafValues></_>
    <_>
      <internalNodes>
        0 -1 1363 -1560556537 138755482 -1726499021 846449406 99042631
        209651063 -1577337359 -1947337492</internalNodes>
      <leafValues>
        -2.7077552676200867e-01 1.9984458386898041e-01</leafValues></_></weakClassifiers></stage5>
</opencv_storage>
