<?xml version="1.0"?>
<opencv_storage>
<cascade>
  <stageType>BOOST</stageType>
  <featureType>LBP</featureType>
  <height>20</height>
  <width>20</width>
  <stageParams>
    <boostType>GAB</boostType>
    <minHitRate>9.9900001287460327e-01</minHitRate>
    <maxFalseAlarm>5.0000000000000000e-01</maxFalseAlarm>
    <weightTrimRate>9.4999999999999996e-01</weightTrimRate>
    <maxDepth>1</maxDepth>
    <maxWeakCount>1000</maxWeakCount></stageParams>
  <featureParams>
    <maxCatCount>256</maxCatCount>
    <featSize>1</featSize></featureParams>
  <stageNum>1</stageNum>
  <stages>
    <!-- stage 0 -->
    <_>
      <maxWeakCount>13</maxWeakCount>
      <stageThreshold>-1.5834810733795166e+00</stageThreshold>
      <weakClassifiers>
        <_>
          <internalNodes>
            0 -1 6 -1 -4199441 -1443889153 -1417181777 -69210369
            -1428484753 598453247 3088943</internalNodes>
          <leafValues>
            -5.8480209112167358e-01 7.3252117633819580e-01</leafValues></_>
        <_>
          <internalNodes>
            0 -1 0 -779625473 386659223 824004959 391379207 1115416319
            290399027 1980960815 322114307</internalNodes>
          <leafValues>
            -5.2496814727783203e-01 4.7754168510437012e-01</leafValues></_>
        <_>
          <internalNodes>
            0 -1 11 -802959109 1369438779 991772087 -1752966977
            -882670933 -1073797569 1623035023 5231199</internalNodes>
          <leafValues>
            -3.6094051599502563e-01 3.7978765368461609e-01</leafValues></_>
        <_>
          <internalNodes>
            0 -1 2 -783287405 20315095 -1518583331 266171231 71303424
            26040959 1364399332 1330641755</internalNodes>
          <leafValues>
            -4.1484716534614563e-01 3.1183865666389465e-01</leafValues></_>
        <_>
          <internalNodes>
            0 -1 7 -269507725 21302018 138675062 20318094 -1881865465
            77007165 178064171 268372747</internalNodes>
          <leafValues>
            -5.0397813320159912e-01 2.2692681849002838e-01</leafValues></_>
        <_>
          <internalNodes>
            0 -1 4 151519440 489949360 798261193 529861633 -132610884
            -85018930 1566084299 134217792</internalNodes>
          <leafValues>
            -4.7821390628814697e-01 2.3641769587993622e-01</leafValues></_>
        <_>
          <internalNodes>
            0 -1 3 1901809919 291438995 539361468 295706930 998864381
            563356405 810812328 820129816</internalNodes>
          <leafValues>
            -4.3403357267379761e-01 2.1023491024971008e-01</leafValues></_>
        <_>
          <internalNodes>
            0 -1 12 -353515894 34057862 1107562506 1073327 911549939
            138704195 1108235407 1107673183</internalNodes>
          <leafValues>
            -4.4619697332382202e-01 2.4043233692646027e-01</leafValues></_>
        <_>
          <internalNodes>
            0 -1 5 -1052673 1900511637 -442538729 658441549 -109652757
            2050883641 -873509718 -269514193</internalNodes>
          <leafValues>
            -1.9999402761459351e-01 4.6576118469238281e-01</leafValues></_>
        <_>
          <internalNodes>
            0 -1 10 403702960 1037567433 1401437471 1039025925 278939832
            -639384287 1311000984 134483720</internalNodes>
          <leafValues>
            -4.5589113235473633e-01 1.9443373382091522e-01</leafValues></_>
        <_>
          <internalNodes>
            0 -1 9 -1027608993 2289204 127233296 38467375 2128454219
            -834765846 593455876 1221326452</internalNodes>
          <leafValues>
            -3.5544565320014954e-01 2.6124283671379089e-01</leafValues></_>
        <_>
          <internalNodes>
            0 -1 1 -588136302 1600410421 1217421405 1416569345 545980568
            458440707 88163023 1140277351</internalNodes>
          <leafValues>
            -3.6698740720748901e-01 2.4748995900154114e-01</leafValues></_>
        <_>
          <internalNodes>
            0 -1 8 1244853328 951552032 784746077 520242517 595610112
            -358403846 696426377 1069439119</internalNodes>
          <leafValues>
            -3.3861598372459412e-01 2.6764264702796936e-01</leafValues></_></weakClassifiers></_></stages>
  <features>
    <_>
      <rect>
        0 1 4 5</rect></_>
    <_>
      <rect>
        0 2 2 6</rect></_>
    <_>
      <rect>
        0 5 3 4</rect></_>
    <_>
      <rect>
        1 11 6 3</rect></_>
    <_>
      <rect>
        3 0 3 2</rect></_>
    <_>
      <rect>
        4 6 3 2</rect></_>
    <_>
      <rect>
        5 0 5 6</rect></_>
    <_>
      <rect>
        5 7 3 2</rect></_>
    <_>
      <rect>
        6 4 2 1</rect></_>
    <_>
      <rect>
        6 11 1 1</rect></_>
    <_>
      <rect>
        8 0 3 2</rect></_>
    <_>
      <rect>
        11 0 3 5</rect></_>
    <_>
      <rect>
        16 10 1 1</rect></_></features></cascade>
</opencv_storage>
