<?xml version="1.0"?>
<opencv_storage>
<stage23>
  <maxWeakCount>87</maxWeakCount>
  <stageThreshold>-1.0331360101699829e+00</stageThreshold>
  <weakClassifiers>
    <_>
      <internalNodes>
        0 -1 2275 1653508614 48738267 -165446030 -1340032466 1289086743
        -1060704265 -980054976 -319312283</internalNodes>
      <leafValues>
        -9.0862335637211800e-03 3.4654104709625244e-01</leafValues></_>
    <_>
      <internalNodes>
        0 -1 2019 -1171522081 140179626 -1342255618 15654686 -536872277
        -69468427 -137896217 -10617040</internalNodes>
      <leafValues>
        -1.0373938083648682e-01 2.1738876402378082e-01</leafValues></_>
    <_>
      <internalNodes>
        0 -1 130 -183001223 859682084 -938194685 422788147 1829638998
        142062421 852561922 1886908465</internalNodes>
      <leafValues>
        -3.0439746379852295e-01 8.0070711672306061e-02</leafValues></_>
    <_>
      <internalNodes>
        0 -1 1291 -1828914982 -1315303979 796815153 727919639 2098472457
        1665518419 -1361626305 -337053956</internalNodes>
      <leafValues>
        -1.3575237989425659e-01 1.6167429089546204e-01</leafValues></_>
    <_>
      <internalNodes>
        0 -1 1663 1899048209 299605032 1803627891 -1735487558 2913552
        356619264 -2100697730 1104071854</internalNodes>
      <leafValues>
        -2.6934781670570374e-01 5.3503926843404770e-02</leafValues></_>
    <_>
      <internalNodes>
        0 -1 789 1294503202 229920782 538059981 1164865543 990993192
        -281443304 565891214 11051198</internalNodes>
      <leafValues>
        -2.5131669640541077e-01 1.0909757763147354e-01</leafValues></_>
    <_>
      <internalNodes>
        0 -1 2884 2108054523 -191929147 -136879179 -712034683 -210440095
        817583409 -143656022 -1154870524</internalNodes>
      <leafValues>
        -1.2543116509914398e-01 1.7520233988761902e-01</leafValues></_>
    <_>
      <internalNodes>
        0 -1 1614 -2011650510 11277244 -681818890 1347944572 654108819
        -1359427587 -1352421535 718118446</internalNodes>
      <leafValues>
        -2.0984600484371185e-01 9.7510963678359985e-02</leafValues></_>
    <_>
      <internalNodes>
        0 -1 311 1967194628 1540694683 -1166253385 1895835734 -685371392
        923277593 1494816234 541073630</internalNodes>
      <leafValues>
        -2.4225272238254547e-01 9.1702274978160858e-02</leafValues></_>
    <_>
      <internalNodes>
        0 -1 1045 -1043610497 200244222 -2100041270 -1112165761
        -1388079933 -2039522993 -2064321834 -2002715971</internalNodes>
      <leafValues>
        -1.0815826803445816e-01 2.0972676575183868e-01</leafValues></_>
    <_>
      <internalNodes>
        0 -1 2648 -572658562 1209593689 22407606 -842200623 684992538
        1331268264 -2147276098 -1387055361</internalNodes>
      <leafValues>
        -1.5333920717239380e-01 1.3264638185501099e-01</leafValues></_>
    <_>
      <internalNodes>
        0 -1 1229 -1605990766 573285974 250990449 -37745650 2503074
        -1107553028 1306410933 521134234</internalNodes>
      <leafValues>
        -1.4437407255172729e-01 1.4919815957546234e-01</leafValues></_>
    <_>
      <internalNodes>
        0 -1 2571 -183110195 212656843 -1037127237 -1977906535
        1609920308 -1406418092 -314477739 172488482</internalNodes>
      <leafValues>
        -1.8470372259616852e-01 1.0738464444875717e-01</leafValues></_>
    <_>
      <internalNodes>
        0 -1 608 -915669033 -651945357 446949031 1940181178 1228586667
        -1446639379 -1898979333 -570784017</internalNodes>
      <leafValues>
        -6.5730407834053040e-02 3.2053613662719727e-01</leafValues></_>
    <_>
      <internalNodes>
        0 -1 1742 2883604 -1148576454 -1109098985 -1280758821 1272981256
        -1184221176 457316431 2425889</internalNodes>
      <leafValues>
        -2.3866692185401917e-01 8.9492596685886383e-02</leafValues></_>
    <_>
      <internalNodes>
        0 -1 2448 1587836483 -956838363 -47289466 -1624341499
        -1841317611 -9945750 -2087388519 -558374</internalNodes>
      <leafValues>
        -1.1076070368289948e-01 1.9121000170707703e-01</leafValues></_>
    <_>
      <internalNodes>
        0 -1 2958 747077638 -400285676 988478804 708717339 239706189
        549270944 560732824 715796363</internalNodes>
      <leafValues>
        -2.6113647222518921e-01 9.1602236032485962e-02</leafValues></_>
    <_>
      <internalNodes>
        0 -1 3178 -1085309417 -1496000545 1538888710 -1741312878
        2087672838 -9709477 -768016012 -1908085819</internalNodes>
      <leafValues>
        -1.4927861094474792e-01 1.3428422808647156e-01</leafValues></_>
    <_>
      <internalNodes>
        0 -1 2449 -236652640 1357681802 -659674873 -1136942962
        -504049423 -209026222 -297743870 638451712</internalNodes>
      <leafValues>
        -2.4002547562122345e-01 8.9266248047351837e-02</leafValues></_>
    <_>
      <internalNodes>
        0 -1 2075 -453483824 -1871141175 -426332910 142775056 -580174440
        -1361643214 -1857980119 72541778</internalNodes>
      <leafValues>
        -1.8080428242683411e-01 1.1607179790735245e-01</leafValues></_>
    <_>
      <internalNodes>
        0 -1 3939 -137890561 -143705580 1651405823 1979663918 2141058793
        -1202269840 -106632534 -10753057</internalNodes>
      <leafValues>
        -6.5817564725875854e-02 3.2957172393798828e-01</leafValues></_>
    <_>
      <internalNodes>
        0 -1 3938 -783289710 2228785 699697405 832025567 1051786985
        -1963603353 1075936479 686017787</internalNodes>
      <leafValues>
        -1.4227202534675598e-01 1.4967417716979980e-01</leafValues></_>
    <_>
      <internalNodes>
        0 -1 3618 139331072 143270198 785399410 136722279 1618898258
        614864244 1793420660 1060122386</internalNodes>
      <leafValues>
        -4.0499511361122131e-01 4.9414139240980148e-02</leafValues></_>
    <_>
      <internalNodes>
        0 -1 1677 -268768325 -1828798660 1772541438 -110167938
        -272669697 -361386185 -865992708 -537542987</internalNodes>
      <leafValues>
        -8.0675117671489716e-02 2.6228162646293640e-01</leafValues></_>
    <_>
      <internalNodes>
        0 -1 1574 -747115405 -1132207773 -1788182665 2001183669
        1695233286 -1127440720 1887830777 -5530697</internalNodes>
      <leafValues>
        -7.7941112220287323e-02 2.5593334436416626e-01</leafValues></_>
    <_>
      <internalNodes>
        0 -1 1684 -841748653 1944993657 -264777071 -712213208 268420351
        -2021716903 -432569168 996463913</internalNodes>
      <leafValues>
        -1.2104411423206329e-01 1.8231788277626038e-01</leafValues></_>
    <_>
      <internalNodes>
        0 -1 3123 778378022 -433567785 803999319 1004490254 407813925
        -417826990 -1150373500 -4507126</internalNodes>
      <leafValues>
        -1.2268329411745071e-01 1.7549043893814087e-01</leafValues></_>
    <_>
      <internalNodes>
        0 -1 186 -756488327 -738418560 568016 355170427 36700932
        84772403 7213598 324957789</internalNodes>
      <leafValues>
        -2.9745689034461975e-01 7.7980391681194305e-02</leafValues></_>
    <_>
      <internalNodes>
        0 -1 636 -810549281 1543180367 2034184864 -1681932642 -563093769
        -891351268 -84023075 -2097185</internalNodes>
      <leafValues>
        -6.0722496360540390e-02 3.4615987539291382e-01</leafValues></_>
    <_>
      <internalNodes>
        0 -1 3213 -1723289345 1531958268 876033859 1596841179
        -1643471878 -1802978536 -108249455 -1416913734</internalNodes>
      <leafValues>
        -8.9859336614608765e-02 2.2433628141880035e-01</leafValues></_>
    <_>
      <internalNodes>
        0 -1 3151 5692468 248331380 -2080229734 745939518 1680106804
        514749586 -1395217504 528106295</internalNodes>
      <leafValues>
        -2.6973167061805725e-01 7.7634856104850769e-02</leafValues></_>
    <_>
      <internalNodes>
        0 -1 3014 -216409545 -1150464198 -1955697171 -1960206597
        -1936630278 -805882328 350883800 -1648216619</internalNodes>
      <leafValues>
        -9.5312803983688354e-02 2.1526440978050232e-01</leafValues></_>
    <_>
      <internalNodes>
        0 -1 3888 -393754582 11012098 1142810206 818752170 2117422401
        -1641147860 -513585768 954526820</internalNodes>
      <leafValues>
        -2.4840119481086731e-01 8.3137020468711853e-02</leafValues></_>
    <_>
      <internalNodes>
        0 -1 3127 -728273982 -1142541165 1307207408 -550759406
        1289884088 -1181677167 -1985552484 -1610958026</internalNodes>
      <leafValues>
        -1.1538977921009064e-01 1.8200477957725525e-01</leafValues></_>
    <_>
      <internalNodes>
        0 -1 2871 1611976966 -627274094 -1626271381 -204118728
        -1153136740 -1208309010 -2009817605 516893594</internalNodes>
      <leafValues>
        -1.4818188548088074e-01 1.4416168630123138e-01</leafValues></_>
    <_>
      <internalNodes>
        0 -1 290 1981805188 -1383481669 -2085066727 1032457772 638648456
        1025520653 -479973958 671294367</internalNodes>
      <leafValues>
        -1.6403789818286896e-01 1.2892654538154602e-01</leafValues></_>
    <_>
      <internalNodes>
        0 -1 145 -1845498970 -1964866777 665985671 -2080915159 485557507
        194193069 434053365 -1110839493</internalNodes>
      <leafValues>
        -1.3696262240409851e-01 1.5267419815063477e-01</leafValues></_>
    <_>
      <internalNodes>
        0 -1 2391 -762886128 1556128845 2084654097 2038029889 1745292193
        -345302037 746782480 -645726320</internalNodes>
      <leafValues>
        -1.4013412594795227e-01 1.5414904057979584e-01</leafValues></_>
    <_>
      <internalNodes>
        0 -1 2050 -1931007344 42142968 -968072701 551683226 250549357
        52365691 -1583917950 1887696751</internalNodes>
      <leafValues>
        -2.9696145653724670e-01 7.5396053493022919e-02</leafValues></_>
    <_>
      <internalNodes>
        0 -1 737 -194546046 -71758377 972182418 1493924417 395150841
        -71433233 1298347512 -53113409</internalNodes>
      <leafValues>
        -9.0638130903244019e-02 2.4125793576240540e-01</leafValues></_>
    <_>
      <internalNodes>
        0 -1 3386 -2040473996 78425106 1243531141 72229657 204788134
        -1981195142 -2070834965 15168519</internalNodes>
      <leafValues>
        -2.4812860786914825e-01 8.8497281074523926e-02</leafValues></_>
    <_>
      <internalNodes>
        0 -1 3514 -605292173 -274737245 -21127369 -1166147627 1799320903
        -718356657 1734296404 -854096546</internalNodes>
      <leafValues>
        -1.0961379110813141e-01 2.0122772455215454e-01</leafValues></_>
    <_>
      <internalNodes>
        0 -1 3912 575640 -773289845 -1614137406 1573760126 -727682036
        450117866 1629022667 1235298954</internalNodes>
      <leafValues>
        -1.8361328542232513e-01 1.2491010129451752e-01</leafValues></_>
    <_>
      <internalNodes>
        0 -1 1989 542247474 678824374 1047407863 147744748 339764833
        -1097766288 81147751 803043700</internalNodes>
      <leafValues>
        -3.4367498755455017e-01 6.7637562751770020e-02</leafValues></_>
    <_>
      <internalNodes>
        0 -1 3688 2133018239 -1034811389 1914189457 -268058038 -52368501
        743116349 -339985151 -1858899565</internalNodes>
      <leafValues>
        -1.3533654808998108e-01 1.6267298161983490e-01</leafValues></_>
    <_>
      <internalNodes>
        0 -1 2283 -245425571 742866782 -1970782945 40578813 -677987055
        -1916993699 1934883445 -865929895</internalNodes>
      <leafValues>
        -1.4152859151363373e-01 1.5754422545433044e-01</leafValues></_>
    <_>
      <internalNodes>
        0 -1 2227 774431268 2057316692 779021283 -542373872 -525015264
        679601975 -857340248 1057491070</internalNodes>
      <leafValues>
        -2.3225049674510956e-01 9.9869698286056519e-02</leafValues></_>
    <_>
      <internalNodes>
        0 -1 450 2032400042 -2143281184 -1887439772 -446855356
        -990584155 -1933678158 845903019 -716449989</internalNodes>
      <leafValues>
        -1.1060887575149536e-01 1.9745640456676483e-01</leafValues></_>
    <_>
      <internalNodes>
        0 -1 0 -1056925032 -1321607653 865240409 420250398 448593595
        -1287620383 -40628309 2013913167</internalNodes>
      <leafValues>
        -1.4607529342174530e-01 1.5038412809371948e-01</leafValues></_>
    <_>
      <internalNodes>
        0 -1 1046 141820758 -1851669438 420154244 2110815778 -666467198
        2070813450 1920442519 -935250044</internalNodes>
      <leafValues>
        -1.7931357026100159e-01 1.2086608260869980e-01</leafValues></_>
    <_>
      <internalNodes>
        0 -1 1977 -886060452 580952074 102106932 136710190 81400320
        1199255349 -2012008596 1448048454</internalNodes>
      <leafValues>
        -3.0762124061584473e-01 7.2339072823524475e-02</leafValues></_>
    <_>
      <internalNodes>
        0 -1 3736 80481068 71568053 137645250 1985267426 875106492
        -323180184 1416351952 690101801</internalNodes>
      <leafValues>
        -2.7956616878509521e-01 7.7927693724632263e-02</leafValues></_>
    <_>
      <internalNodes>
        0 -1 2239 -1662256420 -186647438 -2083355839 2070932063
        -1187234598 -808165808 -211227829 -12588033</internalNodes>
      <leafValues>
        -8.5467621684074402e-02 2.5776135921478271e-01</leafValues></_>
    <_>
      <internalNodes>
        0 -1 3773 -1527387334 1966188723 -1407551883 -1624299665
        -816351265 -2007215675 1437444060 -36310563</internalNodes>
      <leafValues>
        -1.1047829687595367e-01 1.9741243124008179e-01</leafValues></_>
    <_>
      <internalNodes>
        0 -1 3439 -798739244 615817884 -996932163 275130669 -1861965360
        1860991540 -479976608 20923988</internalNodes>
      <leafValues>
        -2.4415737390518188e-01 8.9320935308933258e-02</leafValues></_>
    <_>
      <internalNodes>
        0 -1 3507 1817142336 337478 1649999360 218021501 1158549508
        101632031 834747536 1415833404</internalNodes>
      <leafValues>
        -3.8595908880233765e-01 5.7363055646419525e-02</leafValues></_>
    <_>
      <internalNodes>
        0 -1 2755 -479271203 -562722000 -132122895 1440599405
        -1556803957 1648277570 -1417949251 -549472035</internalNodes>
      <leafValues>
        -8.4351167082786560e-02 2.6222801208496094e-01</leafValues></_>
    <_>
      <internalNodes>
        0 -1 247 -195835629 -1221668630 1143268404 -1879656915
        -2008069628 -807149335 1092997225 -1178475527</internalNodes>
      <leafValues>
        -1.3523705303668976e-01 1.6146142780780792e-01</leafValues></_>
    <_>
      <internalNodes>
        0 -1 3943 -19925529 -655613440 -1604133897 -784074180 1561810871
        -713327981 -861134115 -605815042</internalNodes>
      <leafValues>
        -7.9128436744213104e-02 2.7155914902687073e-01</leafValues></_>
    <_>
      <internalNodes>
        0 -1 3915 2048149752 1082819079 -1063713757 8561320 1344884464
        -2013254110 -1374789510 2654400</internalNodes>
      <leafValues>
        -3.3244085311889648e-01 6.7053690552711487e-02</leafValues></_>
    <_>
      <internalNodes>
        0 -1 3934 -58922245 -772921844 150505658 -184165816 2003890152
        1449229350 -113992486 -15472617</internalNodes>
      <leafValues>
        -8.9715175330638885e-02 2.4200081825256348e-01</leafValues></_>
    <_>
      <internalNodes>
        0 -1 3711 -321066104 13535813 271536161 -1198556631 -2143251168
        -1927542000 1295923632 749564576</internalNodes>
      <leafValues>
        -2.4089111387729645e-01 9.0725526213645935e-02</leafValues></_>
    <_>
      <internalNodes>
        0 -1 2860 1316896 627314854 4853148 244637640 -1436394892
        -1948244051 793790278 153100296</internalNodes>
      <leafValues>
        -3.7699711322784424e-01 5.8281928300857544e-02</leafValues></_>
    <_>
      <internalNodes>
        0 -1 3882 -1954307174 -771542346 -2144255721 -716115943
        -2029388438 704991069 915300245 -1196399298</internalNodes>
      <leafValues>
        -1.4860855042934418e-01 1.5253043174743652e-01</leafValues></_>
    <_>
      <internalNodes>
        0 -1 402 2066414218 1035715202 -1667981489 -647563002
        -1022712710 -1887027084 1079060996 1343356931</internalNodes>
      <leafValues>
        -1.9581235945224762e-01 1.1702975630760193e-01</leafValues></_>
    <_>
      <internalNodes>
        0 -1 2037 -25521316 -886106449 -1200292866 -1597988986
        -276947976 -1921091586 -158761230 -1264209525</internalNodes>
      <leafValues>
        -1.3309834897518158e-01 1.7528545856475830e-01</leafValues></_>
    <_>
      <internalNodes>
        0 -1 1078 -118627790 1394528647 419497777 859850003 -819336453
        6568209 421634472 635172</internalNodes>
      <leafValues>
        -1.9777740538120270e-01 1.1663341522216797e-01</leafValues></_>
    <_>
      <internalNodes>
        0 -1 943 111742512 137001724 -1243590040 25177155 88620552
        576240816 394379155 673450268</internalNodes>
      <leafValues>
        -3.6701163649559021e-01 6.2406644225120544e-02</leafValues></_>
    <_>
      <internalNodes>
        0 -1 2211 -459288781 -950372810 -1095349345 -571733940
        1720576469 -89156655 -274023487 -1076892261</internalNodes>
      <leafValues>
        -9.3514934182167053e-02 2.5882613658905029e-01</leafValues></_>
    <_>
      <internalNodes>
        0 -1 967 -1467145263 584895696 -2012932864 -2138144609
        -1308188605 1343919201 -966059935 750100576</internalNodes>
      <leafValues>
        -2.8091868758201599e-01 8.5896022617816925e-02</leafValues></_>
    <_>
      <internalNodes>
        0 -1 3344 -65020961 1561300600 -555042246 -573843909 -327781241
        -231718895 1555810592 -1085415746</internalNodes>
      <leafValues>
        -7.5969114899635315e-02 3.1127399206161499e-01</leafValues></_>
    <_>
      <internalNodes>
        0 -1 2853 -775186473 -54776108 725487421 -75639555 -1338247238
        -171933698 -1346352705 -72666366</internalNodes>
      <leafValues>
        -7.9742133617401123e-02 2.9204070568084717e-01</leafValues></_>
    <_>
      <internalNodes>
        0 -1 1739 -991969585 1622907234 1621425755 579600253 -378607608
        1499385941 -1264150569 482731538</internalNodes>
      <leafValues>
        -1.6173650324344635e-01 1.4483475685119629e-01</leafValues></_>
    <_>
      <internalNodes>
        0 -1 3396 -614337017 1640823734 -272077341 -622019105 323772210
        -63301328 -9260761 -1013079757</internalNodes>
      <leafValues>
        -1.1632189154624939e-01 2.0876528322696686e-01</leafValues></_>
    <_>
      <internalNodes>
        0 -1 828 19056776 -124065128 -636551902 228559457 -1942377772
        -973451242 -1145724710 458049103</internalNodes>
      <leafValues>
        -1.6803361475467682e-01 1.3844086229801178e-01</leafValues></_>
    <_>
      <internalNodes>
        0 -1 2337 7701759 1043372710 1690095413 -1728457889 -44917204
        -70586650 -1630504173 -28704687</internalNodes>
      <leafValues>
        -1.3141816854476929e-01 1.7273284494876862e-01</leafValues></_>
    <_>
      <internalNodes>
        0 -1 2458 1533767411 1023089871 506172253 -80898857 -1956653442
        845117783 -1451404387 -13920274</internalNodes>
      <leafValues>
        -8.2520097494125366e-02 2.7147650718688965e-01</leafValues></_>
    <_>
      <internalNodes>
        0 -1 3948 -2077571069 -2004573658 675546182 839789804 1153149008
        -534720445 -1405560070 1016393782</internalNodes>
      <leafValues>
        -2.3869012296199799e-01 9.8232448101043701e-02</leafValues></_>
    <_>
      <internalNodes>
        0 -1 1206 -96478991 -1139595670 -1941988905 -1078095035
        -2145935368 -50406432 433753305 -19943574</internalNodes>
      <leafValues>
        -8.2765281200408936e-02 2.8224688768386841e-01</leafValues></_>
    <_>
      <internalNodes>
        0 -1 3966 -1316554724 -135289138 137817307 -1813500823
        -837556268 1350603386 1331702171 -97277990</internalNodes>
      <leafValues>
        -1.1180018633604050e-01 2.0125100016593933e-01</leafValues></_>
    <_>
      <internalNodes>
        0 -1 3360 617555456 615457598 -1704112592 1056494 684681057
        1162816629 783052640 876013414</internalNodes>
      <leafValues>
        -4.5858144760131836e-01 5.2442401647567749e-02</leafValues></_>
    <_>
      <internalNodes>
        0 -1 1555 707983073 1073151580 -1616162943 -571098475
        -1725249609 -1067386767 1396342667 -67181891</internalNodes>
      <leafValues>
        -1.0440706461668015e-01 2.2171165049076080e-01</leafValues></_>
    <_>
      <internalNodes>
        0 -1 541 -562112924 1913425180 1381371329 -1309923789 1531535548
        73458002 -730462772 275974246</internalNodes>
      <leafValues>
        -2.4792702496051788e-01 1.0102871805429459e-01</leafValues></_>
    <_>
      <internalNodes>
        0 -1 3221 632555560 -1793760688 1591030371 514070792 -85710810
        184296144 -999765844 544478496</internalNodes>
      <leafValues>
        -4.3969458341598511e-01 5.2389547228813171e-02</leafValues></_>
    <_>
      <internalNodes>
        0 -1 2191 -864457409 -559620266 -432014086 1623133930 -394935131
        -2105819429 -2022460503 -2097702</internalNodes>
      <leafValues>
        -8.9658096432685852e-02 2.7188748121261597e-01</leafValues></_>
    <_>
      <internalNodes>
        0 -1 547 895545354 -2146204380 472592434 1506812727 1325698624
        -1996617540 70124945 104388104</internalNodes>
      <leafValues>
        -2.5004059076309204e-01 9.7104504704475403e-02</leafValues></_>
    <_>
      <internalNodes>
        0 -1 1343 653266722 34213858 228579489 -1184357136 1718933249
        710336826 671508743 155324284</internalNodes>
      <leafValues>
        -3.1644091010093689e-01 7.1390889585018158e-02</leafValues></_></weakClassifiers></stage23>
</opencv_storage>
