<?xml version="1.0"?>
<opencv_storage>
<stage29>
  <maxWeakCount>90</maxWeakCount>
  <stageThreshold>-1.0077052116394043e+00</stageThreshold>
  <weakClassifiers>
    <_>
      <internalNodes>
        0 -1 1680 -353303374 721304120 -101229218 -315122790 -956520701
        -1901636109 -438109969 -805906435</internalNodes>
      <leafValues>
        7.2030566632747650e-02 3.8594803214073181e-01</leafValues></_>
    <_>
      <internalNodes>
        0 -1 2815 -69206017 773251023 -2048094457 -1935478929 -210241609
        -393809290 -148416681 -354943153</internalNodes>
      <leafValues>
        -1.0075961053371429e-01 2.1968212723731995e-01</leafValues></_>
    <_>
      <internalNodes>
        0 -1 825 1145286897 -956004626 1228998128 84418623 1214601789
        235721341 823738107 3682847</internalNodes>
      <leafValues>
        -2.9359960556030273e-01 7.0034421980381012e-02</leafValues></_>
    <_>
      <internalNodes>
        0 -1 1909 1554495055 1258219037 -1083679286 -1217614995
        1000119191 -1663049293 -1124471857 -77910309</internalNodes>
      <leafValues>
        -9.1145917773246765e-02 2.2791936993598938e-01</leafValues></_>
    <_>
      <internalNodes>
        0 -1 2471 -666869180 -1698896672 1107841026 338182627
        -1341826560 998261696 644368128 2120672351</internalNodes>
      <leafValues>
        -2.7840131521224976e-01 4.2878493666648865e-02</leafValues></_>
    <_>
      <internalNodes>
        0 -1 2198 -645064608 327073744 160473074 -1787347187 -183372224
        1045534317 -473340398 184420656</internalNodes>
      <leafValues>
        -2.2465774416923523e-01 1.0059195756912231e-01</leafValues></_>
    <_>
      <internalNodes>
        0 -1 3598 2143251455 -111714013 -935905037 -13140129 2122203637
        -279088297 1911590331 -12587201</internalNodes>
      <leafValues>
        -7.5228214263916016e-02 3.5446947813034058e-01</leafValues></_>
    <_>
      <internalNodes>
        0 -1 2546 1072945338 -1149255714 529210742 95683189 192826559
        -1747777539 1783024732 -49722531</internalNodes>
      <leafValues>
        -1.0680311173200607e-01 1.8022544682025909e-01</leafValues></_>
    <_>
      <internalNodes>
        0 -1 1424 -903429631 170035961 -1180699333 710799076 -1441216504
        -999491503 -813248650 1153957680</internalNodes>
      <leafValues>
        -2.0030571520328522e-01 8.9807622134685516e-02</leafValues></_>
    <_>
      <internalNodes>
        0 -1 1397 -789112973 -1657051985 954612585 -174087877 -539411559
        -1204576257 -267158757 -1898256727</internalNodes>
      <leafValues>
        -9.1734886169433594e-02 2.0552800595760345e-01</leafValues></_>
    <_>
      <internalNodes>
        0 -1 19 84306615 2066818040 1276177903 1335885731 211803112
        396258303 -537765553 1639427073</internalNodes>
      <leafValues>
        -1.4055791497230530e-01 1.4476309716701508e-01</leafValues></_>
    <_>
      <internalNodes>
        0 -1 479 -1935498438 1178655817 -867142376 349183175 -905844431
        436542261 645933945 17057218</internalNodes>
      <leafValues>
        -2.8988859057426453e-01 7.1934245526790619e-02</leafValues></_>
    <_>
      <internalNodes>
        0 -1 1202 320147387 882891407 888563473 337552931 95725511
        108378876 -84451822 -151339862</internalNodes>
      <leafValues>
        -1.0095519572496414e-01 2.0090189576148987e-01</leafValues></_>
    <_>
      <internalNodes>
        0 -1 2277 653225751 1641824076 -1123019720 -1325150904
        1786540819 -895890898 -1157610748 1992747060</internalNodes>
      <leafValues>
        -2.0200534164905548e-01 9.3924134969711304e-02</leafValues></_>
    <_>
      <internalNodes>
        0 -1 242 -1276535327 -215555085 -165318007 -784335731 -726171520
        1449582827 1176889739 -70549090</internalNodes>
      <leafValues>
        -8.5965223610401154e-02 2.2190766036510468e-01</leafValues></_>
    <_>
      <internalNodes>
        0 -1 218 -1576285241 1404690142 -2066721535 -1226611626
        -962460797 -1060338288 -2135642649 -783875209</internalNodes>
      <leafValues>
        -1.3585248589515686e-01 1.3731740415096283e-01</leafValues></_>
    <_>
      <internalNodes>
        0 -1 1303 -959968670 5539545 769398193 310255756 8535844
        -1427883981 70241943 534736345</internalNodes>
      <leafValues>
        -2.0204992592334747e-01 1.0499037057161331e-01</leafValues></_>
    <_>
      <internalNodes>
        0 -1 929 1685846649 -1300989197 -1464926543 -56244419 1093387689
        -291603488 -1913193588 -270533196</internalNodes>
      <leafValues>
        -8.0989107489585876e-02 2.3255246877670288e-01</leafValues></_>
    <_>
      <internalNodes>
        0 -1 909 -118555151 245213239 713714613 1025388045 1099948865
        -2136496526 1135385301 933416122</internalNodes>
      <leafValues>
        -1.5473385155200958e-01 1.2745350599288940e-01</leafValues></_>
    <_>
      <internalNodes>
        0 -1 2656 -3280107 -1293097221 -1507238192 -1653622408 -26652811
        -19763580 -98486342 -16795746</internalNodes>
      <leafValues>
        -8.5644677281379700e-02 2.3497006297111511e-01</leafValues></_>
    <_>
      <internalNodes>
        0 -1 3266 1434810510 1684024386 -1405075187 68091042 1157782990
        76419171 877719819 17151603</internalNodes>
      <leafValues>
        -2.9208669066429138e-01 6.9574959576129913e-02</leafValues></_>
    <_>
      <internalNodes>
        0 -1 1685 -14680065 -544567927 -197878315 1159592412 -545329921
        -1652765057 -323929426 -39993925</internalNodes>
      <leafValues>
        -4.7964915633201599e-02 4.2917159199714661e-01</leafValues></_>
    <_>
      <internalNodes>
        0 -1 3137 69664768 -1467338544 747766800 -1462749804 28325908
        -2139019248 1239766280 1073354552</internalNodes>
      <leafValues>
        -3.7145936489105225e-01 5.3820889443159103e-02</leafValues></_>
    <_>
      <internalNodes>
        0 -1 1363 -19404073 -2128225159 -1557092582 -1129893911
        -18456853 -822184461 -505544993 -1442980746</internalNodes>
      <leafValues>
        -7.7549971640110016e-02 2.5060045719146729e-01</leafValues></_>
    <_>
      <internalNodes>
        0 -1 1654 85009715 711068352 1984501232 -538925939 694493237
        -1170359478 -1887832777 805179010</internalNodes>
      <leafValues>
        -2.2339636087417603e-01 8.9625827968120575e-02</leafValues></_>
    <_>
      <internalNodes>
        0 -1 1910 -71437313 -1321815601 1874145599 -441983757 -171736394
        -72615521 -266033241 -5185</internalNodes>
      <leafValues>
        -5.0728566944599152e-02 3.4997430443763733e-01</leafValues></_>
    <_>
      <internalNodes>
        0 -1 1455 -117965837 -1480792641 -1245376645 2099592245
        -1893125957 -642177324 -1966367077 -342890541</internalNodes>
      <leafValues>
        -6.7223757505416870e-02 2.9223215579986572e-01</leafValues></_>
    <_>
      <internalNodes>
        0 -1 2092 271584324 -1993934106 -1787761677 231040328 -454544952
        1447565545 720812692 1055806016</internalNodes>
      <leafValues>
        -2.2328752279281616e-01 8.9796662330627441e-02</leafValues></_>
    <_>
      <internalNodes>
        0 -1 3024 1355976710 -111262588 -1852664736 1441802226
        -1702435378 -2109699448 -310055686 226627742</internalNodes>
      <leafValues>
        -1.7447319626808167e-01 1.1985310912132263e-01</leafValues></_>
    <_>
      <internalNodes>
        0 -1 3741 -47855426 1610678796 1044192441 -232298184 478377103
        -1926393777 1354725523 -280632108</internalNodes>
      <leafValues>
        -1.3785655796527863e-01 1.4540256559848785e-01</leafValues></_>
    <_>
      <internalNodes>
        0 -1 1612 -8466209 -2901146 -1245783043 -174829085 -210310184
        -1617771216 -21370395 -11827003</internalNodes>
      <leafValues>
        -4.7958362847566605e-02 4.0828743577003479e-01</leafValues></_>
    <_>
      <internalNodes>
        0 -1 3399 -213071194 -2054527604 138423180 547916173 1734805172
        -388137500 -15973308 809636550</internalNodes>
      <leafValues>
        -1.9725336134433746e-01 1.0430311411619186e-01</leafValues></_>
    <_>
      <internalNodes>
        0 -1 2535 700848283 647663283 165989690 46722858 1705844032
        -1921351899 1661691506 1322411332</internalNodes>
      <leafValues>
        -2.5311034917831421e-01 7.4914999306201935e-02</leafValues></_>
    <_>
      <internalNodes>
        0 -1 1101 -1723928496 1406869821 1501108892 -1020168441
        -1160481361 -1425590868 -1040252675 -309678747</internalNodes>
      <leafValues>
        -9.8663829267024994e-02 2.0987227559089661e-01</leafValues></_>
    <_>
      <internalNodes>
        0 -1 204 1971755539 86589575 30114788 1373332207 91102774
        -1752751602 1170310641 -644806017</internalNodes>
      <leafValues>
        -1.7235931754112244e-01 1.1851337552070618e-01</leafValues></_>
    <_>
      <internalNodes>
        0 -1 3521 -1297834448 -1861893546 -1464947380 -1725337904
        -2137188423 -272470019 48187391 -283966818</internalNodes>
      <leafValues>
        -1.2942059338092804e-01 1.5953437983989716e-01</leafValues></_>
    <_>
      <internalNodes>
        0 -1 517 -260644101 -827682137 179649457 -542849189 794928003
        -1985386897 -1880102993 -822219009</internalNodes>
      <leafValues>
        -6.6475979983806610e-02 3.0975174903869629e-01</leafValues></_>
    <_>
      <internalNodes>
        0 -1 3793 -766730624 2056708290 -1294984821 -1400068592
        681100056 680584704 1658900378 975513888</internalNodes>
      <leafValues>
        -2.2017723321914673e-01 9.8538801074028015e-02</leafValues></_>
    <_>
      <internalNodes>
        0 -1 750 1145234586 1508878437 -445139529 1533390798 -551309080
        -1141736183 803884970 -15761153</internalNodes>
      <leafValues>
        -9.6659772098064423e-02 2.1225968003273010e-01</leafValues></_>
    <_>
      <internalNodes>
        0 -1 2443 644483590 -1473721523 723500941 -891025234 -531432655
        -1601435819 1003761480 250349466</internalNodes>
      <leafValues>
        -2.4100315570831299e-01 8.2973048090934753e-02</leafValues></_>
    <_>
      <internalNodes>
        0 -1 3018 -848247951 -2135051035 -1648919449 172486479 -13297322
        -1042034893 1901335063 -330344445</internalNodes>
      <leafValues>
        -1.3150626420974731e-01 1.5670464932918549e-01</leafValues></_>
    <_>
      <internalNodes>
        0 -1 2453 1429666867 451511523 515339885 -1656290627 -536638335
        -69698852 -985408805 -8414019</internalNodes>
      <leafValues>
        -7.7806688845157623e-02 2.5501960515975952e-01</leafValues></_>
    <_>
      <internalNodes>
        0 -1 195 33617272 278633891 1557677203 318847057 553650562
        84223990 555290685 60830288</internalNodes>
      <leafValues>
        -3.7203121185302734e-01 5.7442750781774521e-02</leafValues></_>
    <_>
      <internalNodes>
        0 -1 1010 -885332999 -89768854 -1885184971 -1312904990 -3211300
        -1344127234 -691545185 -25248787</internalNodes>
      <leafValues>
        -6.7079998552799225e-02 3.1771898269653320e-01</leafValues></_>
    <_>
      <internalNodes>
        0 -1 2303 -546423075 -2037764530 -899705771 673638516 1161920257
        -907317923 1736396658 5633569</internalNodes>
      <leafValues>
        -2.2873882949352264e-01 9.3689486384391785e-02</leafValues></_>
    <_>
      <internalNodes>
        0 -1 364 -26748004 -646630141 1338178271 2070606637 -260502860
        -838018010 -1334053255 -1907781214</internalNodes>
      <leafValues>
        -8.7459526956081390e-02 2.3175129294395447e-01</leafValues></_>
    <_>
      <internalNodes>
        0 -1 3408 1182926916 1717061400 1190534453 890549827 823295136
        -93953607 -497964448 1343547922</internalNodes>
      <leafValues>
        -2.1435774862766266e-01 9.6074923872947693e-02</leafValues></_>
    <_>
      <internalNodes>
        0 -1 1686 4131966 135564406 -1885814076 135274636 1140924496
        67715588 67693152 668946466</internalNodes>
      <leafValues>
        -4.5477741956710815e-01 4.5552790164947510e-02</leafValues></_>
    <_>
      <internalNodes>
        0 -1 3678 -541133395 -147120390 -1939337627 1575262946
        -358745463 -392507844 -297427057 -1182012165</internalNodes>
      <leafValues>
        -8.2164250314235687e-02 2.5609138607978821e-01</leafValues></_>
    <_>
      <internalNodes>
        0 -1 2515 -2849 -1847039042 -1916965700 -1107951985 -1345978473
        -856379561 -1279867236 -42116577</internalNodes>
      <leafValues>
        -6.1579786241054535e-02 3.3211413025856018e-01</leafValues></_>
    <_>
      <internalNodes>
        0 -1 2219 -833832314 -1682849600 1422815792 1919724737 226534144
        105170290 1314164227 1273449647</internalNodes>
      <leafValues>
        -2.0928615331649780e-01 1.0240641981363297e-01</leafValues></_>
    <_>
      <internalNodes>
        0 -1 2709 788466688 216541373 -1513316094 92682520 491067451
        -1918348536 -2111723643 136976</internalNodes>
      <leafValues>
        -3.4914118051528931e-01 5.9799123555421829e-02</leafValues></_>
    <_>
      <internalNodes>
        0 -1 3909 1366161582 1408789169 251128379 -674860990 1552369889
        -291402633 -327811680 -923935570</internalNodes>
      <leafValues>
        -1.2529124319553375e-01 1.6646330058574677e-01</leafValues></_>
    <_>
      <internalNodes>
        0 -1 3729 206447466 674120735 681051859 982003953 231486772
        960772608 859992336 791939072</internalNodes>
      <leafValues>
        -3.5602495074272156e-01 6.0792166739702225e-02</leafValues></_>
    <_>
      <internalNodes>
        0 -1 2946 -362312329 -147456147 -1661412285 1559168303
        -1335276132 1065279373 -1944487703 -1342197857</internalNodes>
      <leafValues>
        -8.4543645381927490e-02 2.6690271496772766e-01</leafValues></_>
    <_>
      <internalNodes>
        0 -1 3320 -755017341 -80249853 1575384606 -14517491 1953764827
        -1163956335 1508115963 -5514466</internalNodes>
      <leafValues>
        -5.7325880974531174e-02 3.6350563168525696e-01</leafValues></_>
    <_>
      <internalNodes>
        0 -1 1906 509681888 243996746 977285246 684533197 -934536848
        1591349250 769393489 725101168</internalNodes>
      <leafValues>
        -3.6767598986625671e-01 5.8804966509342194e-02</leafValues></_>
    <_>
      <internalNodes>
        0 -1 1954 -317984045 -714230817 1730785574 -34087747 1829428366
        -1154101988 -982203138 -1781159188</internalNodes>
      <leafValues>
        -7.9755619168281555e-02 2.7355045080184937e-01</leafValues></_>
    <_>
      <internalNodes>
        0 -1 206 -257997845 13154858 -979606267 1082831479 -766311424
        67248829 -1071151072 424395225</internalNodes>
      <leafValues>
        -2.4099579453468323e-01 9.6435792744159698e-02</leafValues></_>
    <_>
      <internalNodes>
        0 -1 1824 1091207176 -596357756 -1146462934 -310304568
        -2144282948 823794341 -1757680390 1601400538</internalNodes>
      <leafValues>
        -1.5841865539550781e-01 1.3913601636886597e-01</leafValues></_>
    <_>
      <internalNodes>
        0 -1 3003 -694168612 -339941441 1068629669 -353805688 -971112933
        -9050500 -460101789 -366579337</internalNodes>
      <leafValues>
        -1.2450549006462097e-01 1.8449161946773529e-01</leafValues></_>
    <_>
      <internalNodes>
        0 -1 2180 123208704 1150297456 1642713410 780461492 1242078992
        1141148758 -1773015689 187701435</internalNodes>
      <leafValues>
        -2.8813442587852478e-01 7.7217452228069305e-02</leafValues></_>
    <_>
      <internalNodes>
        0 -1 3968 -719658862 -655420908 705967159 -1286360922 858865581
        -1476913427 -2021619573 -2025650758</internalNodes>
      <leafValues>
        -1.1750186979770660e-01 1.8780812621116638e-01</leafValues></_>
    <_>
      <internalNodes>
        0 -1 2904 -901584349 -587307129 1769160295 2112037907 -811407595
        -826355995 -1477072474 -1080195073</internalNodes>
      <leafValues>
        -9.3193873763084412e-02 2.2698271274566650e-01</leafValues></_>
    <_>
      <internalNodes>
        0 -1 1160 543445496 1723364064 -1945431657 -148467079 576338561
        -1550712423 -554366019 342228992</internalNodes>
      <leafValues>
        -2.6976311206817627e-01 8.0476135015487671e-02</leafValues></_>
    <_>
      <internalNodes>
        0 -1 3904 -232087885 -720507040 1017273084 -1240822210
        -225400854 -1563653960 342619081 -607527300</internalNodes>
      <leafValues>
        -9.8583295941352844e-02 2.1588733792304993e-01</leafValues></_>
    <_>
      <internalNodes>
        0 -1 2824 -1501284222 537869535 14330894 82200745 1455315969
        -1920179587 -1272041200 271934816</internalNodes>
      <leafValues>
        -3.2048466801643372e-01 6.7296609282493591e-02</leafValues></_>
    <_>
      <internalNodes>
        0 -1 2736 -82528482 827401955 -652667879 -1266864606 206150832
        170271472 742519032 1331392328</internalNodes>
      <leafValues>
        -1.7982871830463409e-01 1.2245141714811325e-01</leafValues></_>
    <_>
      <internalNodes>
        0 -1 2054 -594778691 719075213 -1225875969 81638463 -1946824953
        -937889169 -717752333 -596011450</internalNodes>
      <leafValues>
        -1.2912955880165100e-01 1.7535302042961121e-01</leafValues></_>
    <_>
      <internalNodes>
        0 -1 3866 1549488616 -1337195428 1727794415 2109891339 219571507
        1699398868 -1811408177 2081285918</internalNodes>
      <leafValues>
        -1.5384565293788910e-01 1.4122512936592102e-01</leafValues></_>
    <_>
      <internalNodes>
        0 -1 2503 593348830 1292482724 129746575 -552653957 34678304
        -2083302723 -420247155 -865606097</internalNodes>
      <leafValues>
        -1.1769364774227142e-01 1.8377174437046051e-01</leafValues></_>
    <_>
      <internalNodes>
        0 -1 1677 640166914 145777924 17726772 942283570 54076934
        675637860 224470372 1189371508</internalNodes>
      <leafValues>
        -4.4068524241447449e-01 5.0658307969570160e-02</leafValues></_>
    <_>
      <internalNodes>
        0 -1 3939 -52570113 -4969752 -1023774179 -147885313 -311757569
        -1166094532 -1869510178 -1051977</internalNodes>
      <leafValues>
        -6.2906421720981598e-02 3.5355532169342041e-01</leafValues></_>
    <_>
      <internalNodes>
        0 -1 1109 -1999094494 1973448480 1221602011 1370441883
        -2125105771 -348509875 -1346033297 81797145</internalNodes>
      <leafValues>
        -1.7927359044551849e-01 1.2089582532644272e-01</leafValues></_>
    <_>
      <internalNodes>
        0 -1 496 1566043391 -541160345 71711157 795588449 -1043516529
        -2016643846 -472339555 -1362391153</internalNodes>
      <leafValues>
        -6.7893266677856445e-02 3.2489943504333496e-01</leafValues></_>
    <_>
      <internalNodes>
        0 -1 3643 -73804009 -846781921 1019089406 -1245497411 399890869
        -790472818 2025678071 -195311593</internalNodes>
      <leafValues>
        -9.2859990894794464e-02 2.3217225074768066e-01</leafValues></_>
    <_>
      <internalNodes>
        0 -1 1374 44508674 7157555 719317536 1215760866 573784576
        246671517 298304019 180903140</internalNodes>
      <leafValues>
        -3.6337861418724060e-01 6.0255348682403564e-02</leafValues></_>
    <_>
      <internalNodes>
        0 -1 3779 -2134760152 -1276475726 -450527411 83961365 -858818636
        196438424 1027069756 2123089481</internalNodes>
      <leafValues>
        -1.7217727005481720e-01 1.2551894783973694e-01</leafValues></_>
    <_>
      <internalNodes>
        0 -1 2444 -1216744739 -348950159 -1163217580 2046747758
        -1804798258 -1957773647 -1031950901 -278397946</internalNodes>
      <leafValues>
        -8.4377445280551910e-02 2.6191663742065430e-01</leafValues></_>
    <_>
      <internalNodes>
        0 -1 3913 444124312 1993227967 -1921892871 -534670660 -397819865
        -933264577 -1914372957 -402162681</internalNodes>
      <leafValues>
        -1.4201186597347260e-01 1.5692989528179169e-01</leafValues></_>
    <_>
      <internalNodes>
        0 -1 1213 822591955 -1741055840 345952409 259365553 277169056
        -1569151617 3465117 1860962926</internalNodes>
      <leafValues>
        -1.5216262638568878e-01 1.4843913912773132e-01</leafValues></_>
    <_>
      <internalNodes>
        0 -1 1116 -581189108 -2116750275 -1302188597 -483540798
        -652938614 -1714054139 -557066765 -1431830761</internalNodes>
      <leafValues>
        -1.0971546173095703e-01 2.0572677254676819e-01</leafValues></_>
    <_>
      <internalNodes>
        0 -1 3923 -531837232 1075906557 382096730 410254992 1416481008
        -1596948222 1121420523 -1431175961</internalNodes>
      <leafValues>
        -1.4786221086978912e-01 1.4565853774547577e-01</leafValues></_>
    <_>
      <internalNodes>
        0 -1 3055 312034490 -1334186432 -1041980891 1278806550
        -800493940 -219799058 -2022412913 882911240</internalNodes>
      <leafValues>
        -2.4026356637477875e-01 9.2659212648868561e-02</leafValues></_>
    <_>
      <internalNodes>
        0 -1 3821 1551214303 2016347113 -1444379593 2080325403
        1924739893 -35818475 -181478687 -6355069</internalNodes>
      <leafValues>
        -8.4510199725627899e-02 2.7439853549003601e-01</leafValues></_>
    <_>
      <internalNodes>
        0 -1 2979 570689058 684391544 -1926382572 674368798 1824944208
        674660665 2032310816 474021352</internalNodes>
      <leafValues>
        -4.2381304502487183e-01 5.3416304290294647e-02</leafValues></_>
    <_>
      <internalNodes>
        0 -1 3569 -795611617 -709221299 1711566311 -552778199 -25855299
        -1107756035 -1422286866 -552362694</internalNodes>
      <leafValues>
        -7.9852573573589325e-02 3.0758243799209595e-01</leafValues></_>
    <_>
      <internalNodes>
        0 -1 450 1107446928 716302752 516606656 1145772624 -1965325644
        -1333330656 557016976 1297187161</internalNodes>
      <leafValues>
        -2.1700377762317657e-01 1.0252324491739273e-01</leafValues></_>
    <_>
      <internalNodes>
        0 -1 3766 -1463058169 48033607 -1937452401 -1911742146
        1448039534 -1928581261 1890280482 -763378209</internalNodes>
      <leafValues>
        -1.6141737997531891e-01 1.4204248785972595e-01</leafValues></_>
    <_>
      <internalNodes>
        0 -1 109 -831545450 -141064472 1856998569 -773377030 1194762121
        -1560779468 -796933128 -824839302</internalNodes>
      <leafValues>
        -1.0796128958463669e-01 2.0578661561012268e-01</leafValues></_></weakClassifiers></stage29>
</opencv_storage>
