<?xml version="1.0"?>
<opencv_storage>
<stage14>
  <maxWeakCount>68</maxWeakCount>
  <stageThreshold>-1.1104755401611328e+00</stageThreshold>
  <weakClassifiers>
    <_>
      <internalNodes>
        0 -1 2345 1058504191 1946139365 -285212801 -570950683 1790203903
        -1140953217 2046619391 -521770428</internalNodes>
      <leafValues>
        4.1026234626770020e-02 4.0585598349571228e-01</leafValues></_>
    <_>
      <internalNodes>
        0 -1 2283 -827338529 -1933067665 -916455857 -2136641677 -8388709
        -268500993 -87691401 -1050777</internalNodes>
      <leafValues>
        -1.1678168177604675e-01 2.7408123016357422e-01</leafValues></_>
    <_>
      <internalNodes>
        0 -1 1615 200683351 435561599 1071397751 432804978 144977972
        1054750766 1518218614 785263326</internalNodes>
      <leafValues>
        -2.9482287168502808e-01 1.1182979494333267e-01</leafValues></_>
    <_>
      <internalNodes>
        0 -1 117 -675292257 -578181409 1167086613 1215163935 19928832
        -660977589 342123283 1467697695</internalNodes>
      <leafValues>
        -2.4056322872638702e-01 1.2188450992107391e-01</leafValues></_>
    <_>
      <internalNodes>
        0 -1 3181 -364915179 -411584641 -163272969 -1335710977
        1936654460 -9495444 1905725654 -34345228</internalNodes>
      <leafValues>
        -1.9049991667270660e-01 1.6154539585113525e-01</leafValues></_>
    <_>
      <internalNodes>
        0 -1 3472 1110919007 418906214 -269631670 1569341023 1952919025
        -1405930443 223777193 725302655</internalNodes>
      <leafValues>
        -1.3902235031127930e-01 2.0128491520881653e-01</leafValues></_>
    <_>
      <internalNodes>
        0 -1 1042 394263295 293079359 1620102643 1910167632 1349482491
        1159941737 -527990496 1688504459</internalNodes>
      <leafValues>
        -2.3923055827617645e-01 1.1379645019769669e-01</leafValues></_>
    <_>
      <internalNodes>
        0 -1 1561 -1492449417 126822185 -2028974403 -1961102719
        1176518519 5114743 1821445438 -932125961</internalNodes>
      <leafValues>
        -1.6529238224029541e-01 1.9112065434455872e-01</leafValues></_>
    <_>
      <internalNodes>
        0 -1 1729 -26239809 683559587 732755033 -2006983713 -542381309
        -649408659 -839589929 -288887457</internalNodes>
      <leafValues>
        -1.3698789477348328e-01 2.1940843760967255e-01</leafValues></_>
    <_>
      <internalNodes>
        0 -1 2697 -805921452 -1420018274 890773215 28983205 -1907094160
        853688319 228605570 721169972</internalNodes>
      <leafValues>
        -3.6185449361801147e-01 7.8205876052379608e-02</leafValues></_>
    <_>
      <internalNodes>
        0 -1 1904 -2000158929 -790878153 882874899 -50424963 -1913419873
        -822454279 -1351696678 -1074036737</internalNodes>
      <leafValues>
        -9.2488586902618408e-02 3.1354120373725891e-01</leafValues></_>
    <_>
      <internalNodes>
        0 -1 1113 38752849 997393941 -1073786373 859011775 2124353750
        -1157989169 1256730811 -1164413323</internalNodes>
      <leafValues>
        -1.4188803732395172e-01 2.0706859230995178e-01</leafValues></_>
    <_>
      <internalNodes>
        0 -1 3448 1286029861 1584269156 -1346954895 1905526352
        -1859193088 -25909135 -1682902816 1034886638</internalNodes>
      <leafValues>
        -1.7671684920787811e-01 1.6235704720020294e-01</leafValues></_>
    <_>
      <internalNodes>
        0 -1 3954 -1069290754 -536166358 -802774854 -798037974
        -837769569 1701289238 1564776186 -186124549</internalNodes>
      <leafValues>
        -1.6539251804351807e-01 1.6249006986618042e-01</leafValues></_>
    <_>
      <internalNodes>
        0 -1 2499 1183452211 -1514274791 -2036458312 494806020 126484994
        -2102437117 88286699 259935469</internalNodes>
      <leafValues>
        -2.5741729140281677e-01 1.0948906838893890e-01</leafValues></_>
    <_>
      <internalNodes>
        0 -1 2807 -143669281 -2003894337 1225570619 147435396 -110563535
        -924268043 -25750525 -298592269</internalNodes>
      <leafValues>
        -1.3164070248603821e-01 2.1013042330741882e-01</leafValues></_>
    <_>
      <internalNodes>
        0 -1 2219 1745055440 303368704 1046243088 2033181891 478419712
        774340960 1313403657 1058000383</internalNodes>
      <leafValues>
        -2.0709364116191864e-01 1.3472488522529602e-01</leafValues></_>
    <_>
      <internalNodes>
        0 -1 129 711645403 -1323695488 1694932309 -2015896109 -679453981
        1089680384 2017509213 1197728756</internalNodes>
      <leafValues>
        -2.1299919486045837e-01 1.2926489114761353e-01</leafValues></_>
    <_>
      <internalNodes>
        0 -1 1782 1562891792 -343834446 1693914615 353456983 -1372976910
        -86314832 -603399429 -1949367501</internalNodes>
      <leafValues>
        -1.2873242795467377e-01 2.2330020368099213e-01</leafValues></_>
    <_>
      <internalNodes>
        0 -1 624 -479546624 -712992550 494227506 347451000 39031683
        -1935888494 -488463677 -286462773</internalNodes>
      <leafValues>
        -1.4245198667049408e-01 1.8591751158237457e-01</leafValues></_>
    <_>
      <internalNodes>
        0 -1 2790 579733506 183431022 -429481952 9361094 1719104273
        341244787 1675666688 1147206768</internalNodes>
      <leafValues>
        -5.4311847686767578e-01 6.1919547617435455e-02</leafValues></_>
    <_>
      <internalNodes>
        0 -1 792 1224855762 -1313032286 216110240 1465144230 -1519800934
        -1455415870 723884027 467370382</internalNodes>
      <leafValues>
        -1.6132138669490814e-01 1.7214232683181763e-01</leafValues></_>
    <_>
      <internalNodes>
        0 -1 2 258333856 -2129990000 -284385039 -1356494048 1201777615
        1847610932 2084683470 -1620711408</internalNodes>
      <leafValues>
        -1.9686482846736908e-01 1.4099635183811188e-01</leafValues></_>
    <_>
      <internalNodes>
        0 -1 1080 -556923390 -908073206 -972080846 -2137524537
        -737442270 137630990 -45756253 -1988632590</internalNodes>
      <leafValues>
        -1.8373359739780426e-01 1.5308846533298492e-01</leafValues></_>
    <_>
      <internalNodes>
        0 -1 3890 -2102738262 271952818 850571378 -42602833 1231020285
        -1989408728 1455352027 -321402893</internalNodes>
      <leafValues>
        -1.5993674099445343e-01 1.7306384444236755e-01</leafValues></_>
    <_>
      <internalNodes>
        0 -1 3951 -632030502 -234168146 -1562324271 -756738399
        -400985790 504878369 -598851429 -119017153</internalNodes>
      <leafValues>
        -1.2952604889869690e-01 2.2267296910285950e-01</leafValues></_>
    <_>
      <internalNodes>
        0 -1 2714 -6617602 170460877 -1890287360 -1961191179 -378044766
        -1382982765 -324864817 -1349917611</internalNodes>
      <leafValues>
        -1.7716865241527557e-01 1.5963213145732880e-01</leafValues></_>
    <_>
      <internalNodes>
        0 -1 1554 751534610 -1794636284 -1006597439 1042944725 437164594
        1678246690 6307215 2066427019</internalNodes>
      <leafValues>
        -1.8062050640583038e-01 1.6504402458667755e-01</leafValues></_>
    <_>
      <internalNodes>
        0 -1 3248 1991597566 -32636736 -1368341423 -725862388 377066011
        -1360788128 100990850 36640695</internalNodes>
      <leafValues>
        -2.9633727669715881e-01 9.2952303588390350e-02</leafValues></_>
    <_>
      <internalNodes>
        0 -1 3159 184498993 1795108658 202845520 -51049520 835790164
        -1362263491 -766093968 -1342178050</internalNodes>
      <leafValues>
        -1.9297508895397186e-01 1.4838668704032898e-01</leafValues></_>
    <_>
      <internalNodes>
        0 -1 2483 -1058740494 479864967 -70356776 -61938435 -1072585568
        36526957 227119568 464454139</internalNodes>
      <leafValues>
        -2.0846693217754364e-01 1.4320890605449677e-01</leafValues></_>
    <_>
      <internalNodes>
        0 -1 3420 -557854465 -235634604 507907967 1493183005 -19953136
        -165053056 -1314458693 -637304769</internalNodes>
      <leafValues>
        -1.1307022720575333e-01 2.6542308926582336e-01</leafValues></_>
    <_>
      <internalNodes>
        0 -1 2329 -232111877 -1831328900 -620385767 306733720 1579487393
        -591114771 -1774311979 -404365372</internalNodes>
      <leafValues>
        -1.3677147030830383e-01 2.0803292095661163e-01</leafValues></_>
    <_>
      <internalNodes>
        0 -1 1880 -691751116 -728713612 -1281062991 297381496 1650964177
        -1599549163 865478354 266745010</internalNodes>
      <leafValues>
        -2.3847943544387817e-01 1.1824872344732285e-01</leafValues></_>
    <_>
      <internalNodes>
        0 -1 456 -1450246149 -104058638 1073555445 -272507803 1638578603
        -353865632 1329256859 -841657125</internalNodes>
      <leafValues>
        -1.0429602116346359e-01 2.7449154853820801e-01</leafValues></_>
    <_>
      <internalNodes>
        0 -1 3968 -179257168 -749066622 924113629 -1823268677 -206335319
        -874970644 107001496 -1223720369</internalNodes>
      <leafValues>
        -1.1692623794078827e-01 2.2991307079792023e-01</leafValues></_>
    <_>
      <internalNodes>
        0 -1 3375 -1760577604 -1966149729 621200949 -1931850789
        2138514466 -2040540257 656864612 1835977557</internalNodes>
      <leafValues>
        -2.2694078087806702e-01 1.2915119528770447e-01</leafValues></_>
    <_>
      <internalNodes>
        0 -1 1659 -1610437101 36792247 718077878 972162233 488250949
        427199557 231960737 249485564</internalNodes>
      <leafValues>
        -2.9029598832130432e-01 9.5754347741603851e-02</leafValues></_>
    <_>
      <internalNodes>
        0 -1 684 -726478334 -902446892 2064347552 -1888076350
        -1053884160 -1165515776 -568133967 -897135626</internalNodes>
      <leafValues>
        -1.8683518469333649e-01 1.5146979689598083e-01</leafValues></_>
    <_>
      <internalNodes>
        0 -1 3127 1901589011 2079676054 1859528145 -547455395 1009825681
        -1426329357 1218878409 -536908289</internalNodes>
      <leafValues>
        -8.4741078317165375e-02 3.0585727095603943e-01</leafValues></_>
    <_>
      <internalNodes>
        0 -1 2428 -1034684917 -365712725 526312757 1534789445 439285287
        -72684901 937607119 -1079252833</internalNodes>
      <leafValues>
        -1.0266479104757309e-01 2.7280300855636597e-01</leafValues></_>
    <_>
      <internalNodes>
        0 -1 695 341911376 869760407 898055415 890646843 -798095342
        -1336968394 -292738248 554460948</internalNodes>
      <leafValues>
        -2.4582207202911377e-01 1.1779395490884781e-01</leafValues></_>
    <_>
      <internalNodes>
        0 -1 3618 2097152 141435011 104868443 404635159 276050288
        217979911 1986272564 1051344179</internalNodes>
      <leafValues>
        -4.2816820740699768e-01 6.3486576080322266e-02</leafValues></_>
    <_>
      <internalNodes>
        0 -1 135 -1925095510 -1694691451 1259508739 26237273 203106539
        16021361 473182831 275886421</internalNodes>
      <leafValues>
        -3.2778167724609375e-01 8.3338052034378052e-02</leafValues></_>
    <_>
      <internalNodes>
        0 -1 1916 -46867721 -581068396 1602171703 -1545689172 -140242103
        -704906028 -828829163 -269570780</internalNodes>
      <leafValues>
        -1.3250488042831421e-01 2.2290529310703278e-01</leafValues></_>
    <_>
      <internalNodes>
        0 -1 2070 -1875716928 12100114 -1721701095 2887726 1547849476
        -1207514524 -1280862141 12616230</internalNodes>
      <leafValues>
        -2.9249152541160583e-01 9.6758350729942322e-02</leafValues></_>
    <_>
      <internalNodes>
        0 -1 546 -257195614 -1058363456 494201248 874107118 245428864
        -2010726042 175223706 1037848783</internalNodes>
      <leafValues>
        -1.8012054264545441e-01 1.5668836236000061e-01</leafValues></_>
    <_>
      <internalNodes>
        0 -1 3891 -827611638 1085261484 -2037370832 1377563679
        1667098421 1264542019 -2043790998 -669063946</internalNodes>
      <leafValues>
        -1.8382301926612854e-01 1.5351946651935577e-01</leafValues></_>
    <_>
      <internalNodes>
        0 -1 2033 1050265786 295440816 134953497 500544383 670792447
        -2116140509 545800842 -1724170968</internalNodes>
      <leafValues>
        -1.7027398943901062e-01 1.6002805531024933e-01</leafValues></_>
    <_>
      <internalNodes>
        0 -1 2315 -38546728 1858743932 -1551224233 -1572732316
        1607318797 -447250025 -1668216411 347400307</internalNodes>
      <leafValues>
        -2.1563069522380829e-01 1.3184739649295807e-01</leafValues></_>
    <_>
      <internalNodes>
        0 -1 964 -14501958 1945380318 -1963520257 129212139 -988478000
        -1129609222 -579401411 -1141920141</internalNodes>
      <leafValues>
        -1.3500933349132538e-01 2.0656675100326538e-01</leafValues></_>
    <_>
      <internalNodes>
        0 -1 25 738197650 -1789238002 772747059 636446816 823397624
        -1073755408 -2119400764 1429210244</internalNodes>
      <leafValues>
        -2.9032242298126221e-01 9.5463685691356659e-02</leafValues></_>
    <_>
      <internalNodes>
        0 -1 727 -165170642 -1610927737 799159248 834795227 -1798447922
        -1141219618 -243304518 -17923346</internalNodes>
      <leafValues>
        -1.1159785836935043e-01 2.4757628142833710e-01</leafValues></_>
    <_>
      <internalNodes>
        0 -1 2284 -1478552993 -1467487369 -1124937910 -1737201818
        -202213 -834675203 -136739849 -1079191884</internalNodes>
      <leafValues>
        -1.4896485209465027e-01 1.8722088634967804e-01</leafValues></_>
    <_>
      <internalNodes>
        0 -1 1739 -166161688 -923655903 2127310785 -1970486341
        -1121680891 -904740348 -1693323424 1766046807</internalNodes>
      <leafValues>
        -2.1761108934879303e-01 1.3437296450138092e-01</leafValues></_>
    <_>
      <internalNodes>
        0 -1 3827 764032 -2010878034 -762436251 887907963 261613266
        -1345431017 -2042241925 -296472496</internalNodes>
      <leafValues>
        -2.4796368181705475e-01 1.1443113535642624e-01</leafValues></_>
    <_>
      <internalNodes>
        0 -1 3880 1892665994 -565311861 -1071900667 947530786 -208789584
        1091066228 -372207216 1057101062</internalNodes>
      <leafValues>
        -2.1410968899726868e-01 1.3565868139266968e-01</leafValues></_>
    <_>
      <internalNodes>
        0 -1 3244 1880642704 -1801977178 -318575825 -1005185855
        -500683772 -726345619 1053833994 1948540934</internalNodes>
      <leafValues>
        -2.9257118701934814e-01 1.0036972910165787e-01</leafValues></_>
    <_>
      <internalNodes>
        0 -1 2103 -380177240 -336224556 1971461145 -680425939 1461501436
        -1187359102 -1186940178 -1953518178</internalNodes>
      <leafValues>
        -1.2665323913097382e-01 2.2987963259220123e-01</leafValues></_>
    <_>
      <internalNodes>
        0 -1 10 1753409934 1046540934 28211504 1234669653 -2146312231
        -1738442763 -383400484 1598255633</internalNodes>
      <leafValues>
        -2.3264226317405701e-01 1.2479969859123230e-01</leafValues></_>
    <_>
      <internalNodes>
        0 -1 3443 2126483991 -141341624 336520637 1935364665 -10551508
        -69912480 -1658193061 -13922365</internalNodes>
      <leafValues>
        -8.8285058736801147e-02 3.4017363190650940e-01</leafValues></_>
    <_>
      <internalNodes>
        0 -1 3522 -603674160 -1969178744 1265750367 -2080057289
        -1252371135 1312008293 1934971138 5119543</internalNodes>
      <leafValues>
        -2.5563007593154907e-01 1.1532568186521530e-01</leafValues></_>
    <_>
      <internalNodes>
        0 -1 1427 -1005715440 -1816456357 -1137482370 -1859585093
        2044856813 -1132776185 -301582694 -1531038969</internalNodes>
      <leafValues>
        -1.8122586607933044e-01 1.6139954328536987e-01</leafValues></_>
    <_>
      <internalNodes>
        0 -1 3585 -183178204 -994811824 92872400 613890128 -885710456
        -1730252371 186494877 803145936</internalNodes>
      <leafValues>
        -2.3975294828414917e-01 1.2093667685985565e-01</leafValues></_>
    <_>
      <internalNodes>
        0 -1 2158 1465268223 304972208 -1914210074 -1933889791
        -272226605 1035986047 -734858634 -50547824</internalNodes>
      <leafValues>
        -1.5095654129981995e-01 1.9566345214843750e-01</leafValues></_>
    <_>
      <internalNodes>
        0 -1 1969 607322656 145885010 679092176 975176318 276571155
        986607478 751047220 183634044</internalNodes>
      <leafValues>
        -4.5751902461051941e-01 6.4243353903293610e-02</leafValues></_>
    <_>
      <internalNodes>
        0 -1 1323 -1486143525 -88601667 -1088197103 1910422648 730024358
        -1361562060 -1563644481 -67111937</internalNodes>
      <leafValues>
        -9.8250754177570343e-02 3.0796214938163757e-01</leafValues></_>
    <_>
      <internalNodes>
        0 -1 2022 -18930155 1119790899 -223839136 -492585694 2088049577
        1154645307 1441779824 1677392342</internalNodes>
      <leafValues>
        -2.2743703424930573e-01 1.3718871772289276e-01</leafValues></_></weakClassifiers></stage14>
</opencv_storage>
