<?xml version="1.0"?>
<opencv_storage>
<stage11>
  <maxWeakCount>61</maxWeakCount>
  <stageThreshold>-1.2213673591613770e+00</stageThreshold>
  <weakClassifiers>
    <_>
      <internalNodes>
        0 -1 1876 -92543493 -1565660639 -2030712179 -2132139846
        -1888056449 8022834 1196838111 1089659639</internalNodes>
      <leafValues>
        -1.7170596122741699e-01 3.3246842026710510e-01</leafValues></_>
    <_>
      <internalNodes>
        0 -1 1678 -1601704237 1081338867 2096627058 -776753162 167763455
        -1980760217 -1929449997 -1073873827</internalNodes>
      <leafValues>
        -1.4922937750816345e-01 2.6031258702278137e-01</leafValues></_>
    <_>
      <internalNodes>
        0 -1 3665 -647366433 -44346146 -2058071147 1376038995
        -1173126521 -66376320 -1436466761 11224303</internalNodes>
      <leafValues>
        -2.5904747843742371e-01 1.5009805560112000e-01</leafValues></_>
    <_>
      <internalNodes>
        0 -1 2799 -102763021 -2131831057 -1945823931 -856759154
        -281544701 -18415625 -673147037 -119537867</internalNodes>
      <leafValues>
        -1.5396100282669067e-01 2.4727372825145721e-01</leafValues></_>
    <_>
      <internalNodes>
        0 -1 2905 -624889724 -1863575044 -857422360 -17451019 -254488616
        -306159124 -784975 2013242078</internalNodes>
      <leafValues>
        -2.1630726754665375e-01 1.6584578156471252e-01</leafValues></_>
    <_>
      <internalNodes>
        0 -1 187 -49056935 -145419836 2153431 1363153227 556400896
        24394317 1302486783 1872707421</internalNodes>
      <leafValues>
        -2.8191491961479187e-01 1.1431948840618134e-01</leafValues></_>
    <_>
      <internalNodes>
        0 -1 1261 -1561338209 926606777 775831357 733948477 -1292411654
        1056833307 2080320079 -1090605379</internalNodes>
      <leafValues>
        -1.4833116531372070e-01 2.3319664597511292e-01</leafValues></_>
    <_>
      <internalNodes>
        0 -1 2631 -1034751936 1437870356 1466736541 -1646522092
        574269866 -8384884 -2017412470 428541146</internalNodes>
      <leafValues>
        -2.1002046763896942e-01 1.6990029811859131e-01</leafValues></_>
    <_>
      <internalNodes>
        0 -1 3172 -419446781 927360711 -1901959489 -1162721281
        1979651413 -884055682 -1235307274 -19617313</internalNodes>
      <leafValues>
        -1.7001229524612427e-01 1.9527173042297363e-01</leafValues></_>
    <_>
      <internalNodes>
        0 -1 3468 -1944960688 -119013292 -2000109707 -583792592
        773067152 -742116831 588033921 1069231551</internalNodes>
      <leafValues>
        -2.3337541520595551e-01 1.3692493736743927e-01</leafValues></_>
    <_>
      <internalNodes>
        0 -1 1424 -28316950 -1561929118 -1690831047 256755266
        -1417947391 -864715440 -1081032814 -1000869257</internalNodes>
      <leafValues>
        -1.5144433081150055e-01 2.1332867443561554e-01</leafValues></_>
    <_>
      <internalNodes>
        0 -1 953 817597175 334705495 1436385241 368497140 -80038913
        286140584 -251398703 496354713</internalNodes>
      <leafValues>
        -2.4879460036754608e-01 1.2327338010072708e-01</leafValues></_>
    <_>
      <internalNodes>
        0 -1 2186 373767763 1590625354 571938685 2031605251 829900322
        -1437415423 -2123512433 -1626379333</internalNodes>
      <leafValues>
        -1.0563289374113083e-01 3.0441179871559143e-01</leafValues></_>
    <_>
      <internalNodes>
        0 -1 2763 182986528 139864592 479014672 283011064 773602864
        238319475 784950774 1870396150</internalNodes>
      <leafValues>
        -3.9228096604347229e-01 8.7258413434028625e-02</leafValues></_>
    <_>
      <internalNodes>
        0 -1 306 -228076928 -622506037 -886647980 -719068447 -888962688
        580818148 -685342590 -913049865</internalNodes>
      <leafValues>
        -1.5638735890388489e-01 2.1320681273937225e-01</leafValues></_>
    <_>
      <internalNodes>
        0 -1 2731 -769595668 -968088552 1019002293 -108105212 170714608
        -1395462460 732010896 -1347476293</internalNodes>
      <leafValues>
        -1.5370060503482819e-01 2.0828320086002350e-01</leafValues></_>
    <_>
      <internalNodes>
        0 -1 57 113378208 130923944 235084311 444143172 553759125
        434957892 450445828 544424464</internalNodes>
      <leafValues>
        -4.9170544743537903e-01 6.3485383987426758e-02</leafValues></_>
    <_>
      <internalNodes>
        0 -1 1280 1755631490 284736508 -1957909963 9840700 2132699026
        988174932 -1411940494 718816732</internalNodes>
      <leafValues>
        -2.7986633777618408e-01 1.0667511075735092e-01</leafValues></_>
    <_>
      <internalNodes>
        0 -1 2079 1411445384 -169989472 263510973 -539125359 -116329794
        -20043296 689882763 -1433729906</internalNodes>
      <leafValues>
        -1.3648119568824768e-01 2.2505939006805420e-01</leafValues></_>
    <_>
      <internalNodes>
        0 -1 2286 1318021648 33992691 -1035842532 6618296 1590916966
        117128021 2008274800 1961646543</internalNodes>
      <leafValues>
        -3.7068408727645874e-01 8.8387779891490936e-02</leafValues></_>
    <_>
      <internalNodes>
        0 -1 3905 -805133632 -745927038 822355085 991170792 -1477919042
        -1599945588 1929591019 -143982433</internalNodes>
      <leafValues>
        -1.4215572178363800e-01 2.1957600116729736e-01</leafValues></_>
    <_>
      <internalNodes>
        0 -1 3266 -44182320 1648641224 -501651979 1193370082 -49644109
        211695454 637908266 184669010</internalNodes>
      <leafValues>
        -2.6391571760177612e-01 1.2033605575561523e-01</leafValues></_>
    <_>
      <internalNodes>
        0 -1 2463 -2010637278 182854188 -1491334882 -1612400060
        2013444112 -348881371 -1431978083 992684490</internalNodes>
      <leafValues>
        -2.4600511789321899e-01 1.3466498255729675e-01</leafValues></_>
    <_>
      <internalNodes>
        0 -1 2982 1314597479 232402495 -19097090 -54595910 2079733589
        -1517224682 -572785296 -1224868917</internalNodes>
      <leafValues>
        -2.1890202164649963e-01 1.5530040860176086e-01</leafValues></_>
    <_>
      <internalNodes>
        0 -1 3930 -649602853 1306665634 731544756 -251534609 1748469498
        -867541466 -835528709 -251404597</internalNodes>
      <leafValues>
        -1.0222097486257553e-01 3.2541510462760925e-01</leafValues></_>
    <_>
      <internalNodes>
        0 -1 1854 581616146 39977184 94707505 -570610316 575578354
        -34057524 513843103 465243544</internalNodes>
      <leafValues>
        -2.0072364807128906e-01 1.5239250659942627e-01</leafValues></_>
    <_>
      <internalNodes>
        0 -1 3522 -745538061 -932385298 -605949701 -187754505 2076407153
        -917239515 1431679106 -642842873</internalNodes>
      <leafValues>
        -1.2268776446580887e-01 2.5815135240554810e-01</leafValues></_>
    <_>
      <internalNodes>
        0 -1 351 -801682186 1542729981 -1767701958 1073015535 -772210544
        -540593739 -1342551862 -1380557445</internalNodes>
      <leafValues>
        -1.5127287805080414e-01 2.0363125205039978e-01</leafValues></_>
    <_>
      <internalNodes>
        0 -1 1959 -387526755 1374278142 344845144 827634434 302676885
        1530150779 -1276575823 1810990608</internalNodes>
      <leafValues>
        -1.7229329049587250e-01 1.8048922717571259e-01</leafValues></_>
    <_>
      <internalNodes>
        0 -1 38 -1431074910 -1822393088 -1813260651 -884611951
        -344852566 1780830736 -14294631 -549069296</internalNodes>
      <leafValues>
        -1.8486744165420532e-01 1.6798971593379974e-01</leafValues></_>
    <_>
      <internalNodes>
        0 -1 929 10136755 -2101318920 -1885733699 -77985739 -1045711741
        -1399699214 255057915 -268698881</internalNodes>
      <leafValues>
        -9.8539464175701141e-02 3.1180551648139954e-01</leafValues></_>
    <_>
      <internalNodes>
        0 -1 2495 615255552 210931230 1342225905 2046363258 476853761
        -1199812801 -1503652315 264178446</internalNodes>
      <leafValues>
        -3.4487122297286987e-01 9.7220592200756073e-02</leafValues></_>
    <_>
      <internalNodes>
        0 -1 516 -742207254 -612057936 -1455335648 1573879944 -813261688
        -2002694394 386865034 -842016277</internalNodes>
      <leafValues>
        -1.2184128910303116e-01 2.6791107654571533e-01</leafValues></_>
    <_>
      <internalNodes>
        0 -1 3495 1145941506 71798254 -96219462 853293370 2650214
        1246054490 1215531337 2120415103</internalNodes>
      <leafValues>
        -3.2746279239654541e-01 1.0400754958391190e-01</leafValues></_>
    <_>
      <internalNodes>
        0 -1 2202 -9112232 1892325440 -776178317 1071691978 280012982
        -1128310327 -72104114 -268505648</internalNodes>
      <leafValues>
        -1.5114030241966248e-01 2.1615469455718994e-01</leafValues></_>
    <_>
      <internalNodes>
        0 -1 2762 181905631 169798388 703845242 262784664 1994876376
        -1982709623 1636835688 -1779144312</internalNodes>
      <leafValues>
        -2.3300336301326752e-01 1.3977777957916260e-01</leafValues></_>
    <_>
      <internalNodes>
        0 -1 3192 -10767694 -419791830 -1000580577 -926509426 -622918350
        -48699093 1362434340 1147652096</internalNodes>
      <leafValues>
        -2.5280186533927917e-01 1.3204587996006012e-01</leafValues></_>
    <_>
      <internalNodes>
        0 -1 2845 469793636 1061465973 -1852010019 995721013 1874472184
        -1473771272 733231775 782237744</internalNodes>
      <leafValues>
        -4.3879142403602600e-01 7.2088621556758881e-02</leafValues></_>
    <_>
      <internalNodes>
        0 -1 3871 -587207498 -28957176 -829755602 1898542668 -157533486
        -340378112 437144046 -16030705</internalNodes>
      <leafValues>
        -1.2998762726783752e-01 2.7208733558654785e-01</leafValues></_>
    <_>
      <internalNodes>
        0 -1 3724 -154668321 1893886478 1794947955 2032166439 -803913784
        239796512 -1094813233 1533238591</internalNodes>
      <leafValues>
        -1.4682300388813019e-01 2.2489230334758759e-01</leafValues></_>
    <_>
      <internalNodes>
        0 -1 1375 -1015086373 -2002650529 185177594 -625344643 -11467725
        -1913202735 -174722607 -1445593352</internalNodes>
      <leafValues>
        -1.5373520553112030e-01 2.1784114837646484e-01</leafValues></_>
    <_>
      <internalNodes>
        0 -1 1377 -1971640693 5678279 -836765806 -469920582 -1074940121
        250993527 -802690089 234617205</internalNodes>
      <leafValues>
        -2.4420943856239319e-01 1.3242727518081665e-01</leafValues></_>
    <_>
      <internalNodes>
        0 -1 3957 -736040214 -263542612 1749570102 1348698248 -396095537
        556546430 1146376390 -564419560</internalNodes>
      <leafValues>
        -1.8108157813549042e-01 1.8579146265983582e-01</leafValues></_>
    <_>
      <internalNodes>
        0 -1 3534 70289686 -666048769 1291863597 2035362236 -58944888
        -1194794834 2032770056 135997458</internalNodes>
      <leafValues>
        -2.1233966946601868e-01 1.5758347511291504e-01</leafValues></_>
    <_>
      <internalNodes>
        0 -1 2076 -42475821 -1210789644 -223710533 333003280 -1353248005
        -211715686 -2074255905 -145822598</internalNodes>
      <leafValues>
        -1.0631157457828522e-01 3.1736359000205994e-01</leafValues></_>
    <_>
      <internalNodes>
        0 -1 223 -150289392 -786965294 339813393 1352255029 538968608
        542772552 1099281808 1158936652</internalNodes>
      <leafValues>
        -2.5000256299972534e-01 1.3241466879844666e-01</leafValues></_>
    <_>
      <internalNodes>
        0 -1 338 -251997184 -1444282408 708937740 832969836 1157697536
        -1419313102 -144505597 1147582439</internalNodes>
      <leafValues>
        -3.3770874142646790e-01 9.4363763928413391e-02</leafValues></_>
    <_>
      <internalNodes>
        0 -1 2710 -1150863745 -1144538514 1187606622 -140241301
        -413161729 -1295579792 -1220879175 -609252609</internalNodes>
      <leafValues>
        -9.4736188650131226e-02 3.5426101088523865e-01</leafValues></_>
    <_>
      <internalNodes>
        0 -1 1313 -1472109289 395315637 995236176 731451705 288294705
        1197003329 596862267 198801516</internalNodes>
      <leafValues>
        -3.2780537009239197e-01 1.0127058625221252e-01</leafValues></_>
    <_>
      <internalNodes>
        0 -1 2675 103217697 -965457152 -320473557 -10924049 710848276
        -1089538777 -1148874868 -1090314278</internalNodes>
      <leafValues>
        -1.5295356512069702e-01 2.3037174344062805e-01</leafValues></_>
    <_>
      <internalNodes>
        0 -1 990 -881166600 -1169544462 -1423018491 2067692278 350723746
        -1193475440 1326311881 1599556571</internalNodes>
      <leafValues>
        -1.7065356671810150e-01 1.9373993575572968e-01</leafValues></_>
    <_>
      <internalNodes>
        0 -1 2988 -212355497 14647186 -1099239810 -1063191434 -848340429
        1048309559 -545802476 -55485376</internalNodes>
      <leafValues>
        -1.8126082420349121e-01 2.0478117465972900e-01</leafValues></_>
    <_>
      <internalNodes>
        0 -1 840 -550658817 -642970830 479390709 -78812651 -1571898954
        -866298128 1746590168 -1125124417</internalNodes>
      <leafValues>
        -9.4448380172252655e-02 3.4806701540946960e-01</leafValues></_>
    <_>
      <internalNodes>
        0 -1 3932 -223481602 -2084961877 -1743754595 2079186155
        -207556353 -1418671580 -2061181709 -2111516565</internalNodes>
      <leafValues>
        -1.5881720185279846e-01 2.0761334896087646e-01</leafValues></_>
    <_>
      <internalNodes>
        0 -1 2303 -262852400 -1971146866 1769960945 -2009551843
        -1443215865 -835326413 -1367911597 425973351</internalNodes>
      <leafValues>
        -2.6571637392044067e-01 1.2561726570129395e-01</leafValues></_>
    <_>
      <internalNodes>
        0 -1 546 -760486093 1451812008 -810061519 -850535464 -1385527679
        1085700066 -1963210754 -808462165</internalNodes>
      <leafValues>
        -1.0837791115045547e-01 3.1191426515579224e-01</leafValues></_>
    <_>
      <internalNodes>
        0 -1 3834 -214302805 -1029245266 983546035 -55600737 -1744845698
        -1910286488 2000114814 -68169858</internalNodes>
      <leafValues>
        -1.1696027964353561e-01 2.7630355954170227e-01</leafValues></_>
    <_>
      <internalNodes>
        0 -1 1419 171049026 -1708452855 455225144 -787306859 299743697
        -1905845249 -609346567 1112997439</internalNodes>
      <leafValues>
        -2.3105394840240479e-01 1.5345264971256256e-01</leafValues></_>
    <_>
      <internalNodes>
        0 -1 892 1629648 -267165984 25333809 55582226 -853983815
        340594544 73676155 6370430</internalNodes>
      <leafValues>
        -5.0862956047058105e-01 6.4192153513431549e-02</leafValues></_>
    <_>
      <internalNodes>
        0 -1 1627 -805326885 -702652676 -1346699515 -1422076866
        -2139476740 -1817187004 -273724404 -269683072</internalNodes>
      <leafValues>
        -1.4124466478824615e-01 2.5050941109657288e-01</leafValues></_>
    <_>
      <internalNodes>
        0 -1 3083 -967130057 2050508893 -481657131 513544863 -2066855920
        866532978 -1165321554 455035928</internalNodes>
      <leafValues>
        -1.9724586606025696e-01 1.7451752722263336e-01</leafValues></_></weakClassifiers></stage11>
</opencv_storage>
