<?xml version="1.0"?>
<opencv_storage>
<stage7>
  <maxWeakCount>44</maxWeakCount>
  <stageThreshold>-1.4106218814849854e+00</stageThreshold>
  <weakClassifiers>
    <_>
      <internalNodes>
        0 -1 23 -571219969 -707155449 -537941795 1226920279 -235542593
        1561789520 -1460168049 322376467</internalNodes>
      <leafValues>
        -2.5845354795455933e-01 3.8107123970985413e-01</leafValues></_>
    <_>
      <internalNodes>
        0 -1 2982 1651450371 1180639798 -285331932 -83952034 2009035639
        -1897960163 1433270101 -1185</internalNodes>
      <leafValues>
        -3.0929678678512573e-01 2.4985180795192719e-01</leafValues></_>
    <_>
      <internalNodes>
        0 -1 3748 -475010936 141346 615151638 268623903 7981293
        611349596 -529542145 -420481409</internalNodes>
      <leafValues>
        -3.1755048036575317e-01 1.7676517367362976e-01</leafValues></_>
    <_>
      <internalNodes>
        0 -1 1993 -491789805 -896205477 837055796 -118463617 -808458569
        -805371937 -2047093545 -524</internalNodes>
      <leafValues>
        -1.6136883199214935e-01 3.1537139415740967e-01</leafValues></_>
    <_>
      <internalNodes>
        0 -1 107 -118359045 -652610562 -644429411 1431403893 -221056342
        37945601 -1330496065 297485213</internalNodes>
      <leafValues>
        -3.3206981420516968e-01 1.4856101572513580e-01</leafValues></_>
    <_>
      <internalNodes>
        0 -1 1266 -411048001 65908407 -298336503 -1422218447 -1373172223
        2048246867 -297990085 -268441413</internalNodes>
      <leafValues>
        -2.0262755453586578e-01 2.6114475727081299e-01</leafValues></_>
    <_>
      <internalNodes>
        0 -1 3960 -798236022 -788092886 539394256 -792465344 -1754274339
        -1845015540 1981271962 -211818785</internalNodes>
      <leafValues>
        -1.3106712698936462e-01 3.2819709181785583e-01</leafValues></_>
    <_>
      <internalNodes>
        0 -1 2954 -1000617252 340544728 143917654 499468460 1484801536
        -2012871676 755100824 457926747</internalNodes>
      <leafValues>
        -3.0268168449401855e-01 1.5766608715057373e-01</leafValues></_>
    <_>
      <internalNodes>
        0 -1 3924 -565526386 -741513656 575146550 -784071640 -261828472
        -288823878 -1472138614 -1576276821</internalNodes>
      <leafValues>
        -1.7138716578483582e-01 2.6444655656814575e-01</leafValues></_>
    <_>
      <internalNodes>
        0 -1 702 -205814784 -1070986420 1084772880 -1712334443
        -702184960 677717351 -530407230 -1043859737</internalNodes>
      <leafValues>
        -2.2728580236434937e-01 1.9368602335453033e-01</leafValues></_>
    <_>
      <internalNodes>
        0 -1 2265 38735158 137243412 541237084 -780257336 35071332
        250364168 371707902 1475606951</internalNodes>
      <leafValues>
        -3.4971711039543152e-01 1.3847111165523529e-01</leafValues></_>
    <_>
      <internalNodes>
        0 -1 1988 -1275073793 301062135 -1393853702 363986869 828004287
        -1428478532 1878344904 -1347813377</internalNodes>
      <leafValues>
        -1.6408921778202057e-01 2.6339921355247498e-01</leafValues></_>
    <_>
      <internalNodes>
        0 -1 2889 -902379260 -1029158400 1150295511 -34137748
        -1624723678 -1628690901 -1969570898 -1074851334</internalNodes>
      <leafValues>
        -1.7476373910903931e-01 2.5408852100372314e-01</leafValues></_>
    <_>
      <internalNodes>
        0 -1 2606 386229277 -66853868 -1827909315 1225503816 -1301568002
        -218379208 675237318 3089759</internalNodes>
      <leafValues>
        -3.8694635033607483e-01 1.1610794067382812e-01</leafValues></_>
    <_>
      <internalNodes>
        0 -1 2171 677513220 172624384 -1427370843 2138309656 714979102
        698932828 200320955 1069223342</internalNodes>
      <leafValues>
        -2.8031718730926514e-01 1.6250362992286682e-01</leafValues></_>
    <_>
      <internalNodes>
        0 -1 2997 -274733953 -1025048645 1119718774 -938480086
        -182737853 -272960145 1730181892 -311427210</internalNodes>
      <leafValues>
        -1.9270455837249756e-01 2.6573753356933594e-01</leafValues></_>
    <_>
      <internalNodes>
        0 -1 251 -780149345 -953067801 1337576151 -570747994 275124736
        1085822503 396608482 -680789153</internalNodes>
      <leafValues>
        -1.8751972913742065e-01 2.4226920306682587e-01</leafValues></_>
    <_>
      <internalNodes>
        0 -1 2719 1076027906 -659554272 -526713478 2100055137 107138720
        -1364176432 -2003144792 187325663</internalNodes>
      <leafValues>
        -2.8562730550765991e-01 1.5374001860618591e-01</leafValues></_>
    <_>
      <internalNodes>
        0 -1 450 -1056769374 252898880 778759409 -580023232 -1047484756
        247862256 570551704 -720644781</internalNodes>
      <leafValues>
        -1.7464998364448547e-01 2.4911616742610931e-01</leafValues></_>
    <_>
      <internalNodes>
        0 -1 2143 1610110204 -1934586404 394556668 164176401 1682520163
        1142437159 707002386 178257968</internalNodes>
      <leafValues>
        -5.3782349824905396e-01 8.5263065993785858e-02</leafValues></_>
    <_>
      <internalNodes>
        0 -1 3510 -810555561 -421019154 -2040973995 -589127810
        2133554992 -312752685 -647936508 -545261953</internalNodes>
      <leafValues>
        -1.7108047008514404e-01 2.7471494674682617e-01</leafValues></_>
    <_>
      <internalNodes>
        0 -1 2747 174825490 -2072499136 -1629907594 318250708 648200849
        49965325 579964642 735772686</internalNodes>
      <leafValues>
        -3.3207780122756958e-01 1.4040869474411011e-01</leafValues></_>
    <_>
      <internalNodes>
        0 -1 1739 -73541978 -1971100793 -1333769261 580188127 -196441855
        -378623883 -1755064746 -502792377</internalNodes>
      <leafValues>
        -2.0580364763736725e-01 2.2392794489860535e-01</leafValues></_>
    <_>
      <internalNodes>
        0 -1 83 -655889160 1550724925 6353857 1152918594 75497604
        -1903484334 1833979802 1242319450</internalNodes>
      <leafValues>
        -2.9848486185073853e-01 1.5450344979763031e-01</leafValues></_>
    <_>
      <internalNodes>
        0 -1 1929 -969005550 150485372 613699381 -603181396 639819776
        -1347412049 589302465 1073707423</internalNodes>
      <leafValues>
        -2.7287095785140991e-01 1.7576685547828674e-01</leafValues></_>
    <_>
      <internalNodes>
        0 -1 3929 1489425536 1948272984 -1897103649 1360637561
        -601574248 1744982178 -1030951734 -133445350</internalNodes>
      <leafValues>
        -1.8187355995178223e-01 2.5188180804252625e-01</leafValues></_>
    <_>
      <internalNodes>
        0 -1 32 33694368 2005697040 -2112309003 1540327800 1512741614
        -1945581432 751941372 1415610640</internalNodes>
      <leafValues>
        -4.0699407458305359e-01 1.1548089236021042e-01</leafValues></_>
    <_>
      <internalNodes>
        0 -1 3552 -621625736 -216922082 2016138365 -79881188 -1465194244
        -1979688496 -1453789445 -1154807381</internalNodes>
      <leafValues>
        -1.5093991160392761e-01 3.0605936050415039e-01</leafValues></_>
    <_>
      <internalNodes>
        0 -1 651 -1453333248 46142320 1875895072 -2127379231 23003648
        21541747 1078445377 1241248870</internalNodes>
      <leafValues>
        -4.6032196283340454e-01 9.6781305968761444e-02</leafValues></_>
    <_>
      <internalNodes>
        0 -1 3939 -694697730 -259872762 888819423 1471113330 -201135622
        405554500 -397620498 -70526497</internalNodes>
      <leafValues>
        -1.3395816087722778e-01 3.4151032567024231e-01</leafValues></_>
    <_>
      <internalNodes>
        0 -1 3093 40370176 -156622832 1283773787 408686148 753669664
        -1704065867 629679136 1066010778</internalNodes>
      <leafValues>
        -3.5854342579841614e-01 1.3050965964794159e-01</leafValues></_>
    <_>
      <internalNodes>
        0 -1 684 -656949242 1084672728 2097456 299825759 -836108282
        244702395 10691250 -1031278862</internalNodes>
      <leafValues>
        -2.4766345322132111e-01 1.8438771367073059e-01</leafValues></_>
    <_>
      <internalNodes>
        0 -1 3689 -15729153 1236205587 246185461 991801574 -16152071
        -1904476561 -1482826823 -1111760073</internalNodes>
      <leafValues>
        -1.5270598232746124e-01 3.0454680323600769e-01</leafValues></_>
    <_>
      <internalNodes>
        0 -1 701 1410068730 1880498613 1866142106 292578578 953111535
        55670004 1197310893 332152929</internalNodes>
      <leafValues>
        -2.8504776954650879e-01 1.5212553739547729e-01</leafValues></_>
    <_>
      <internalNodes>
        0 -1 1529 -584401281 167641060 -1091502163 -2005607312 938487199
        685165745 1987189298 -22088652</internalNodes>
      <leafValues>
        -2.0981235802173615e-01 2.2565993666648865e-01</leafValues></_>
    <_>
      <internalNodes>
        0 -1 3458 49432320 -927202540 -91501048 -529267384 -1599850716
        -1171097215 -2046283920 1066076478</internalNodes>
      <leafValues>
        -3.2755035161972046e-01 1.4792302250862122e-01</leafValues></_>
    <_>
      <internalNodes>
        0 -1 2571 -233189129 -1034243365 -1166126315 -2142441473
        -135798932 -301211788 -785388729 -647496638</internalNodes>
      <leafValues>
        -1.6164748370647430e-01 2.9779756069183350e-01</leafValues></_>
    <_>
      <internalNodes>
        0 -1 1323 187620319 240916340 -647995397 1004282074 606797728
        -1427483087 723880367 225139805</internalNodes>
      <leafValues>
        -2.1570725739002228e-01 2.0805689692497253e-01</leafValues></_>
    <_>
      <internalNodes>
        0 -1 600 -663492477 -2140616901 -2098043280 -706362863
        -1975025279 -586162315 -2139450693 -352584529</internalNodes>
      <leafValues>
        -1.3889054954051971e-01 3.7103548645973206e-01</leafValues></_>
    <_>
      <internalNodes>
        0 -1 9 52462496 496020096 -248830543 -1968030960 -1408902215
        -248375211 2034915200 1161950976</internalNodes>
      <leafValues>
        -3.8516104221343994e-01 1.2245201319456100e-01</leafValues></_>
    <_>
      <internalNodes>
        0 -1 3672 1256426586 -623374139 -346001667 -716087097 585173192
        -867279374 -1832088566 -870089509</internalNodes>
      <leafValues>
        -1.7902371287345886e-01 2.6333579421043396e-01</leafValues></_>
    <_>
      <internalNodes>
        0 -1 1643 1876667251 558041943 -1470745821 404368535 1100354916
        588533841 248840294 150397648</internalNodes>
      <leafValues>
        -3.6188328266143799e-01 1.2734983861446381e-01</leafValues></_>
    <_>
      <internalNodes>
        0 -1 2551 -557061028 670040063 47168024 -1607677334 1461366835
        1601134159 -2134390844 -1259867562</internalNodes>
      <leafValues>
        -2.6732575893402100e-01 1.7658780515193939e-01</leafValues></_>
    <_>
      <internalNodes>
        0 -1 3332 1548723951 -732033521 -925902754 -578014141 -786476759
        -1202971296 1429182866 1231549879</internalNodes>
      <leafValues>
        -2.0504708588123322e-01 2.2522994875907898e-01</leafValues></_></weakClassifiers></stage7>
</opencv_storage>
