<?xml version="1.0"?>
<opencv_storage>
<stage31>
  <maxWeakCount>93</maxWeakCount>
  <stageThreshold>-1.0545296669006348e+00</stageThreshold>
  <weakClassifiers>
    <_>
      <internalNodes>
        0 -1 1893 678421870 474823774 563934294 1998942326 -1304416725
        1249485989 -770314269 -540147717</internalNodes>
      <leafValues>
        1.1308046430349350e-01 4.2693081498146057e-01</leafValues></_>
    <_>
      <internalNodes>
        0 -1 1551 1427994059 363502255 -281211901 546770593 -33727484
        2006145965 -1662097890 -50338708</internalNodes>
      <leafValues>
        -1.1397564411163330e-01 1.8615996837615967e-01</leafValues></_>
    <_>
      <internalNodes>
        0 -1 1323 728660855 -1934093508 -1431558347 -1078183752
        1106201527 -1161294665 1110404315 -269803361</internalNodes>
      <leafValues>
        -1.0118467360734940e-01 1.9692298769950867e-01</leafValues></_>
    <_>
      <internalNodes>
        0 -1 1029 267890482 47080928 -472452329 294179026 87369521
        83460914 1147363905 216395894</internalNodes>
      <leafValues>
        -3.5265731811523438e-01 3.4194841980934143e-02</leafValues></_>
    <_>
      <internalNodes>
        0 -1 1790 -2129717002 -610520129 -964259503 -417837785 445132988
        2115285370 -1934321480 -131272154</internalNodes>
      <leafValues>
        -1.6153404116630554e-01 1.2520720064640045e-01</leafValues></_>
    <_>
      <internalNodes>
        0 -1 3188 -1399853502 783092778 577118732 -1607671164 1376670976
        557958400 1469142086 1682263904</internalNodes>
      <leafValues>
        -3.8914921879768372e-01 2.9885573312640190e-02</leafValues></_>
    <_>
      <internalNodes>
        0 -1 3143 -696300165 1385384671 -318847780 -713233833 1080051080
        -1958870859 -370853860 -1689527777</internalNodes>
      <leafValues>
        -8.7429463863372803e-02 2.1800285577774048e-01</leafValues></_>
    <_>
      <internalNodes>
        0 -1 1366 -306975231 -1840592759 602985599 -522452598 1324174740
        -1379366808 -2017028667 769417752</internalNodes>
      <leafValues>
        -1.4876052737236023e-01 1.3809575140476227e-01</leafValues></_>
    <_>
      <internalNodes>
        0 -1 2688 1593360255 1375248895 1816465020 -101375241 223213854
        -1022804183 1333208670 -293625162</internalNodes>
      <leafValues>
        -1.0374016314744949e-01 2.0380768179893494e-01</leafValues></_>
    <_>
      <internalNodes>
        0 -1 1671 1088282842 17960921 1611179092 541365458 -988778404
        338053474 741896473 1286709792</internalNodes>
      <leafValues>
        -2.7892300486564636e-01 7.7160790562629700e-02</leafValues></_>
    <_>
      <internalNodes>
        0 -1 2011 1656204368 -1209620516 1582591440 1908915707 259772399
        -2126794917 1156648645 -240092132</internalNodes>
      <leafValues>
        -1.2808485329151154e-01 1.5184091031551361e-01</leafValues></_>
    <_>
      <internalNodes>
        0 -1 1079 678691348 805898017 303407641 727712130 128717755
        546526635 1485167756 709912265</internalNodes>
      <leafValues>
        -2.7662131190299988e-01 6.4517430961132050e-02</leafValues></_>
    <_>
      <internalNodes>
        0 -1 2829 -1635253120 704685512 31443968 -2004677074 1210139712
        -1000288428 1202734096 1416644098</internalNodes>
      <leafValues>
        -3.1056314706802368e-01 6.8095631897449493e-02</leafValues></_>
    <_>
      <internalNodes>
        0 -1 1549 1514657443 -1865734425 -310458477 -13957797 1680599811
        -1766616394 1290584027 -68447505</internalNodes>
      <leafValues>
        -7.2962924838066101e-02 2.8432273864746094e-01</leafValues></_>
    <_>
      <internalNodes>
        0 -1 2 1059166114 1284866691 430758237 799838178 -506158402
        1211227300 -1108797100 -775553712</internalNodes>
      <leafValues>
        -1.6460575163364410e-01 1.2807379662990570e-01</leafValues></_>
    <_>
      <internalNodes>
        0 -1 1128 -112476018 -1323633946 1854728983 -1717996723
        -1039490388 -1888616010 -514063378 299737454</internalNodes>
      <leafValues>
        -1.2313793599605560e-01 1.6397154331207275e-01</leafValues></_>
    <_>
      <internalNodes>
        0 -1 2535 -1160782949 -1464275202 231477087 142827307 -637722754
        -287474666 -11448717 -925113816</internalNodes>
      <leafValues>
        -1.2179776281118393e-01 1.5941947698593140e-01</leafValues></_>
    <_>
      <internalNodes>
        0 -1 1973 -949642318 -117555952 -1744840372 -654406564
        1668851328 -536611531 69192603 666636183</internalNodes>
      <leafValues>
        -1.5701851248741150e-01 1.3299228250980377e-01</leafValues></_>
    <_>
      <internalNodes>
        0 -1 3282 1081571175 -167557083 465498053 -84011399 -437871549
        -168091977 -1260405194 -546361633</internalNodes>
      <leafValues>
        -8.4264397621154785e-02 2.3161135613918304e-01</leafValues></_>
    <_>
      <internalNodes>
        0 -1 944 2088338715 1132496000 -1768690663 1393457168
        -2075340185 -1551587965 709992289 390005924</internalNodes>
      <leafValues>
        -1.8009234964847565e-01 1.1593566834926605e-01</leafValues></_>
    <_>
      <internalNodes>
        0 -1 651 -912269361 -873968302 200224575 -614276896 1700766875
        -1955517983 -36198417 -319041678</internalNodes>
      <leafValues>
        -6.6739000380039215e-02 2.8841125965118408e-01</leafValues></_>
    <_>
      <internalNodes>
        0 -1 302 1383287840 385953154 1360012791 558237658 463632
        103309883 722441 0</internalNodes>
      <leafValues>
        -3.5287043452262878e-01 5.8492884039878845e-02</leafValues></_>
    <_>
      <internalNodes>
        0 -1 1417 -624596522 -2112729559 -1103892483 -719380481
        -1022288455 -2110761099 -109159753 -666486240</internalNodes>
      <leafValues>
        -1.1778048425912857e-01 1.7011590301990509e-01</leafValues></_>
    <_>
      <internalNodes>
        0 -1 3526 -778702396 -888887814 824977561 -1425429780 1808081849
        -2122087979 -783220542 1091154499</internalNodes>
      <leafValues>
        -1.5831899642944336e-01 1.3157787919044495e-01</leafValues></_>
    <_>
      <internalNodes>
        0 -1 2989 -208992641 -1601979157 -386104961 -91965058 2094889076
        -53451257 1055258068 -101654964</internalNodes>
      <leafValues>
        -1.1819175630807877e-01 1.7676565051078796e-01</leafValues></_>
    <_>
      <internalNodes>
        0 -1 2970 144974368 547490468 406064642 1056049185 1016211396
        718680597 742408388 502759132</internalNodes>
      <leafValues>
        -4.0230441093444824e-01 5.0123732537031174e-02</leafValues></_>
    <_>
      <internalNodes>
        0 -1 1800 -662252904 -36405086 29891603 498098224 -1845696112
        1056311524 -988751429 176947614</internalNodes>
      <leafValues>
        -1.7217117547988892e-01 1.1897903680801392e-01</leafValues></_>
    <_>
      <internalNodes>
        0 -1 224 -611594149 495344829 -843773091 -912038801 -969817173
        -1666584605 -441075721 -986972547</internalNodes>
      <leafValues>
        -7.6572842895984650e-02 2.6168441772460938e-01</leafValues></_>
    <_>
      <internalNodes>
        0 -1 3158 329910446 235818409 -1609685545 801759408 826392775
        -1500904063 1638932810 -1993850309</internalNodes>
      <leafValues>
        -2.2919028997421265e-01 9.2016525566577911e-02</leafValues></_>
    <_>
      <internalNodes>
        0 -1 3803 544255137 1480852533 -602654650 -802351524 819086096
        -1162961548 2139807537 1495357978</internalNodes>
      <leafValues>
        -1.7327898740768433e-01 1.2405569851398468e-01</leafValues></_>
    <_>
      <internalNodes>
        0 -1 2723 1499811455 -537580859 1233461841 -614628257 439532688
        -1344187690 2072375081 -80806953</internalNodes>
      <leafValues>
        -7.6956018805503845e-02 2.7634754776954651e-01</leafValues></_>
    <_>
      <internalNodes>
        0 -1 1212 -661420806 2017144388 199437431 -561132853 -1746635634
        1325002292 -709648511 -1100282882</internalNodes>
      <leafValues>
        -1.0813084244728088e-01 1.8743564188480377e-01</leafValues></_>
    <_>
      <internalNodes>
        0 -1 2960 935847426 692232640 -1549383852 977301554 -633189879
        -1350504443 -1912284696 998188821</internalNodes>
      <leafValues>
        -1.7707762122154236e-01 1.1708061397075653e-01</leafValues></_>
    <_>
      <internalNodes>
        0 -1 1623 -1781632036 -356309730 -1432458186 -264461185
        837911231 -1288468623 -940668357 -353645966</internalNodes>
      <leafValues>
        -9.9760808050632477e-02 2.0939388871192932e-01</leafValues></_>
    <_>
      <internalNodes>
        0 -1 543 -1484668874 202032528 1146221131 13654097 1170739977
        51320583 105144860 35679046</internalNodes>
      <leafValues>
        -4.4198361039161682e-01 4.5303810387849808e-02</leafValues></_>
    <_>
      <internalNodes>
        0 -1 576 1261304322 162964954 571544164 -1066376708 1623451186
        205702237 136695178 1341693422</internalNodes>
      <leafValues>
        -1.7007599771022797e-01 1.2173161655664444e-01</leafValues></_>
    <_>
      <internalNodes>
        0 -1 223 -716208063 454676055 604825168 1544680981 1832133633
        -456414296 31696385 -2074099707</internalNodes>
      <leafValues>
        -1.6446703672409058e-01 1.2781658768653870e-01</leafValues></_>
    <_>
      <internalNodes>
        0 -1 3060 1611977579 -667448232 -1200967521 -379460 -1398902982
        1063960506 -1412588614 -1444313350</internalNodes>
      <leafValues>
        -1.0654364526271820e-01 1.9309876859188080e-01</leafValues></_>
    <_>
      <internalNodes>
        0 -1 3469 903358744 609231701 -1366412868 1991392784 -557310916
        -1170203148 1267739906 226784272</internalNodes>
      <leafValues>
        -2.8883105516433716e-01 7.3150947690010071e-02</leafValues></_>
    <_>
      <internalNodes>
        0 -1 3625 -72353982 1271329919 7155831 -695168698 611010897
        237376839 -65790860 -277159949</internalNodes>
      <leafValues>
        -1.0883514583110809e-01 2.0289914309978485e-01</leafValues></_>
    <_>
      <internalNodes>
        0 -1 1985 -222310155 -596911626 1446869932 1608918583 1182198669
        -926595097 -228391529 -42732174</internalNodes>
      <leafValues>
        -7.2909504175186157e-02 2.9704207181930542e-01</leafValues></_>
    <_>
      <internalNodes>
        0 -1 3710 704830761 -1706417659 -1372305504 -297205642
        -1911273823 1121411728 -1198530640 504044616</internalNodes>
      <leafValues>
        -1.9300077855587006e-01 1.1245657503604889e-01</leafValues></_>
    <_>
      <internalNodes>
        0 -1 414 673866402 1112314536 70519990 749570082 -1784156016
        706295872 1435876426 155779160</internalNodes>
      <leafValues>
        -2.1650178730487823e-01 9.2679031193256378e-02</leafValues></_>
    <_>
      <internalNodes>
        0 -1 3400 -1015161095 396911176 -792117349 -544564610 1447643064
        -806703116 -78764905 -567945311</internalNodes>
      <leafValues>
        -8.7349861860275269e-02 2.3666836321353912e-01</leafValues></_>
    <_>
      <internalNodes>
        0 -1 3861 -926842219 -1189092678 -427480838 -753574817
        1924576184 -1998666363 -1908353093 2074038194</internalNodes>
      <leafValues>
        -1.0798784345388412e-01 1.9141960144042969e-01</leafValues></_>
    <_>
      <internalNodes>
        0 -1 3889 -1960189630 -2147334101 -1448329921 1389790664
        -2029605758 674723101 -22712359 -1075031151</internalNodes>
      <leafValues>
        -1.7146545648574829e-01 1.2263977527618408e-01</leafValues></_>
    <_>
      <internalNodes>
        0 -1 1589 175489623 -2002248587 210241560 1680631519 171549986
        1811116826 -1532636143 1073687439</internalNodes>
      <leafValues>
        -1.6918885707855225e-01 1.2475974857807159e-01</leafValues></_>
    <_>
      <internalNodes>
        0 -1 2787 -927513473 148698499 -1806670763 -1631117568
        1885942288 -29115510 1344533568 -161582220</internalNodes>
      <leafValues>
        -1.5298940241336823e-01 1.5089413523674011e-01</leafValues></_>
    <_>
      <internalNodes>
        0 -1 563 -253727050 -987959395 16787691 461581884 -444591248
        35128765 960498995 445710400</internalNodes>
      <leafValues>
        -3.1651020050048828e-01 6.5975062549114227e-02</leafValues></_>
    <_>
      <internalNodes>
        0 -1 3402 508015142 -680475852 657207524 1904543020 470317218
        -1602190336 177744890 738245683</internalNodes>
      <leafValues>
        -1.8829944729804993e-01 1.1336670815944672e-01</leafValues></_>
    <_>
      <internalNodes>
        0 -1 2202 -1127882256 314650506 1664099435 -1092489756
        -1129787214 -1682322919 -740147185 -1460738592</internalNodes>
      <leafValues>
        -1.3874337077140808e-01 1.5327538549900055e-01</leafValues></_>
    <_>
      <internalNodes>
        0 -1 1711 -1698897794 -1821486471 720697748 -777508116
        1627205624 -2006777921 -940093528 1630320268</internalNodes>
      <leafValues>
        -1.4268738031387329e-01 1.5206497907638550e-01</leafValues></_>
    <_>
      <internalNodes>
        0 -1 1954 1164956240 -915562557 -1053037710 221230833 1297104052
        -1082816732 -839547738 -826354966</internalNodes>
      <leafValues>
        -1.1082246154546738e-01 1.9555115699768066e-01</leafValues></_>
    <_>
      <internalNodes>
        0 -1 799 1117793952 -1941831488 1170229203 500476577 1364460162
        -1610547104 622272960 144993284</internalNodes>
      <leafValues>
        -3.4252253174781799e-01 6.0664389282464981e-02</leafValues></_>
    <_>
      <internalNodes>
        0 -1 3225 1590398464 -631526505 1944527197 1988346223 -311965575
        -1166483262 -536434239 271794794</internalNodes>
      <leafValues>
        -1.7367385327816010e-01 1.2399265915155411e-01</leafValues></_>
    <_>
      <internalNodes>
        0 -1 3518 697013760 1717759180 1295241277 6866713 534515522
        -1957196907 1281835075 1544970519</internalNodes>
      <leafValues>
        -2.5461274385452271e-01 8.4984898567199707e-02</leafValues></_>
    <_>
      <internalNodes>
        0 -1 3021 -579797510 1523439324 -419160401 -64300114 -72723164
        -764952976 1734637171 -582838765</internalNodes>
      <leafValues>
        -1.1769077181816101e-01 1.9334328174591064e-01</leafValues></_>
    <_>
      <internalNodes>
        0 -1 2330 -1984484677 971762690 -1502059715 726212973 2129765051
        -1098990691 -176972401 705170999</internalNodes>
      <leafValues>
        -1.3023145496845245e-01 1.7160184681415558e-01</leafValues></_>
    <_>
      <internalNodes>
        0 -1 2308 -1125049019 -649090091 -38831497 -618119364
        -1212403269 -959114627 -1292529941 -713856387</internalNodes>
      <leafValues>
        -1.0130093246698380e-01 2.2275714576244354e-01</leafValues></_>
    <_>
      <internalNodes>
        0 -1 3083 -426222241 1468287293 1717261716 -99352250 -1276007776
        -1886855556 -1151887729 -12595523</internalNodes>
      <leafValues>
        -9.5184855163097382e-02 2.2985792160034180e-01</leafValues></_>
    <_>
      <internalNodes>
        0 -1 2468 -811354156 -1542440010 -2061663198 -1462161248
        -2076171146 1166935550 729810660 716836864</internalNodes>
      <leafValues>
        -2.8589716553688049e-01 7.5842633843421936e-02</leafValues></_>
    <_>
      <internalNodes>
        0 -1 1642 -1503726926 1578223358 1780968223 -1086476115
        1193606580 -1348263774 1286538379 -12857921</internalNodes>
      <leafValues>
        -9.6909314393997192e-02 2.3658488690853119e-01</leafValues></_>
    <_>
      <internalNodes>
        0 -1 2835 -70851364 -1850992968 769705097 -641629128 -489309476
        1773718810 -574494294 -884768098</internalNodes>
      <leafValues>
        -1.1589618027210236e-01 2.0927545428276062e-01</leafValues></_>
    <_>
      <internalNodes>
        0 -1 3720 -431087004 -527824368 -963971404 -1137038234
        -2127865919 -1078519028 1847207905 991778092</internalNodes>
      <leafValues>
        -2.2418831288814545e-01 1.0015001893043518e-01</leafValues></_>
    <_>
      <internalNodes>
        0 -1 653 -762327681 288403239 909012893 1466646315 -1219431771
        -1734674561 -649217605 -86344018</internalNodes>
      <leafValues>
        -8.1069417297840118e-02 2.8133776783943176e-01</leafValues></_>
    <_>
      <internalNodes>
        0 -1 379 -143660149 788906273 274570597 -838914879 139175817
        -1998147936 -2122792250 -857886990</internalNodes>
      <leafValues>
        -9.3081742525100708e-02 2.3226475715637207e-01</leafValues></_>
    <_>
      <internalNodes>
        0 -1 72 -616582241 -140596492 1575332187 1472990068 1903538875
        963289552 -420755847 -4205345</internalNodes>
      <leafValues>
        -7.0583261549472809e-02 3.0002534389495850e-01</leafValues></_>
    <_>
      <internalNodes>
        0 -1 1412 -309926328 93115285 495113683 1073906324 1308713688
        69782106 -1589345684 548547080</internalNodes>
      <leafValues>
        -2.4611537158489227e-01 8.9738339185714722e-02</leafValues></_>
    <_>
      <internalNodes>
        0 -1 3366 1366515811 720824789 -823309579 -421566133 1931547972
        754973658 323448832 -299705537</internalNodes>
      <leafValues>
        -1.6552557051181793e-01 1.4009217917919159e-01</leafValues></_>
    <_>
      <internalNodes>
        0 -1 3618 544572418 445531182 -288580940 -1093990121 606353460
        -2066048316 415853496 1058482584</internalNodes>
      <leafValues>
        -2.5408482551574707e-01 9.1996632516384125e-02</leafValues></_>
    <_>
      <internalNodes>
        0 -1 750 1378461120 1439561188 -517779236 -107177036 1227602092
        306848632 1202195162 -972966164</internalNodes>
      <leafValues>
        -1.3527312874794006e-01 1.6406902670860291e-01</leafValues></_>
    <_>
      <internalNodes>
        0 -1 978 1165141093 181569153 2077823025 -56579720 685116721
        -1908283342 1308265619 1054939294</internalNodes>
      <leafValues>
        -1.9294546544551849e-01 1.1210940778255463e-01</leafValues></_>
    <_>
      <internalNodes>
        0 -1 962 1248825021 -1832923408 1279356865 -75123978 -34287662
        -1325651402 -330718437 -107249297</internalNodes>
      <leafValues>
        -8.7738156318664551e-02 2.6740455627441406e-01</leafValues></_>
    <_>
      <internalNodes>
        0 -1 2140 -1250798337 -1853363471 -106008603 254667921
        1912162660 -218511375 -145240308 -1614878200</internalNodes>
      <leafValues>
        -1.2854078412055969e-01 1.7234721779823303e-01</leafValues></_>
    <_>
      <internalNodes>
        0 -1 486 1394408680 -668430616 -1350016173 -1991155848 906359018
        476815256 -169615729 1874541722</internalNodes>
      <leafValues>
        -1.3292403519153595e-01 1.7239449918270111e-01</leafValues></_>
    <_>
      <internalNodes>
        0 -1 3030 -1873384126 -298992730 1575394027 -1449548269
        -564259616 -1929386516 -215560047 -89513454</internalNodes>
      <leafValues>
        -1.4152799546718597e-01 1.6239456832408905e-01</leafValues></_>
    <_>
      <internalNodes>
        0 -1 2321 -805154602 173926920 -1465768436 543514822 831713088
        -1896642527 -720340555 1683240519</internalNodes>
      <leafValues>
        -2.5342306494712830e-01 9.2980340123176575e-02</leafValues></_>
    <_>
      <internalNodes>
        0 -1 3654 -359160949 -630218579 -1713208975 2105678257
        -755660129 -379063466 -836698982 -317742450</internalNodes>
      <leafValues>
        -8.5243768990039825e-02 2.7450042963027954e-01</leafValues></_>
    <_>
      <internalNodes>
        0 -1 3939 -618203413 -198508364 -558171463 -178849154 1165521660
        -47484608 -198886427 -2633505</internalNodes>
      <leafValues>
        -7.8417912125587463e-02 2.7605426311492920e-01</leafValues></_>
    <_>
      <internalNodes>
        0 -1 249 -407498488 442037303 1596361664 -35749620 810772624
        -1903781873 960974264 -351984862</internalNodes>
      <leafValues>
        -1.9888997077941895e-01 1.1506889015436172e-01</leafValues></_>
    <_>
      <internalNodes>
        0 -1 3566 -79793161 868669741 -1975668852 209111773 1122895379
        66490236 -230990258 -840176396</internalNodes>
      <leafValues>
        -1.0800669342279434e-01 2.1485395729541779e-01</leafValues></_>
    <_>
      <internalNodes>
        0 -1 113 1321590515 -92665436 1588557841 -1125864775 1116431271
        562951431 1473625920 -1680813318</internalNodes>
      <leafValues>
        -1.3157962262630463e-01 1.7062461376190186e-01</leafValues></_>
    <_>
      <internalNodes>
        0 -1 1707 -831881202 36886097 -390009734 -325203630 1833916675
        709446629 1433920273 1302590024</internalNodes>
      <leafValues>
        -2.8897553682327271e-01 7.7330172061920166e-02</leafValues></_>
    <_>
      <internalNodes>
        0 -1 979 -572006689 1038132419 -823851049 -1583391274 -389031681
        -539470120 -268784436 -276038430</internalNodes>
      <leafValues>
        -5.8838181197643280e-02 3.9512357115745544e-01</leafValues></_>
    <_>
      <internalNodes>
        0 -1 3920 -580946225 -204231783 745297903 -1618739951
        -1003131721 -185225816 1465155582 -948573005</internalNodes>
      <leafValues>
        -8.1381469964981079e-02 2.6749441027641296e-01</leafValues></_>
    <_>
      <internalNodes>
        0 -1 787 -951661056 435794695 1133654605 -1645154357 271335430
        -1140319694 -354417093 -2133169980</internalNodes>
      <leafValues>
        -1.7849317193031311e-01 1.2520451843738556e-01</leafValues></_>
    <_>
      <internalNodes>
        0 -1 602 1216055882 1821362330 1843910924 -302949141 -2132539790
        -20181544 -2070554384 -922785030</internalNodes>
      <leafValues>
        -1.4464770257472992e-01 1.5486994385719299e-01</leafValues></_>
    <_>
      <internalNodes>
        0 -1 1028 350564954 1593850506 289773653 -18886711 -1977114150
        -1832832732 -932874340 -1201444234</internalNodes>
      <leafValues>
        -1.6010470688343048e-01 1.4240680634975433e-01</leafValues></_>
    <_>
      <internalNodes>
        0 -1 1455 1496763281 24479414 -1847986177 -1812116013 -353371397
        -61262644 -464782693 -1148602662</internalNodes>
      <leafValues>
        -9.1196149587631226e-02 2.5438401103019714e-01</leafValues></_>
    <_>
      <internalNodes>
        0 -1 3912 150167874 -205748836 2064557534 1704339058 -935728483
        -193164081 -1018631384 1240410755</internalNodes>
      <leafValues>
        -1.6025936603546143e-01 1.4320538938045502e-01</leafValues></_>
    <_>
      <internalNodes>
        0 -1 3599 -35654317 -544213841 1277900673 -13114681 -793512818
        -817635970 1072521398 -11538209</internalNodes>
      <leafValues>
        -5.0324365496635437e-02 4.4167640805244446e-01</leafValues></_>
    <_>
      <internalNodes>
        0 -1 3453 784622640 840303661 1444252764 478306927 1712214464
        2090928738 -2050588374 137119516</internalNodes>
      <leafValues>
        -2.7909970283508301e-01 8.4305882453918457e-02</leafValues></_>
    <_>
      <internalNodes>
        0 -1 3769 -1677985859 -751653504 -624984138 -1175084301
        192334231 -1870430551 -187222678 752199281</internalNodes>
      <leafValues>
        -1.1401325464248657e-01 2.0235736668109894e-01</leafValues></_></weakClassifiers></stage31>
</opencv_storage>
