<?xml version="1.0"?>
<opencv_storage>
<stage1>
  <maxWeakCount>17</maxWeakCount>
  <stageThreshold>-1.6991331577301025e+00</stageThreshold>
  <weakClassifiers>
    <_>
      <internalNodes>
        0 -1 29 -570425345 -150217 -570687689 1476330343 -117441537
        -1695055052 -17473 58139395</internalNodes>
      <leafValues>
        -4.9611338973045349e-01 6.4205664396286011e-01</leafValues></_>
    <_>
      <internalNodes>
        0 -1 2629 -77596929 1931325566 676716375 -1276146505 -976241153
        673150759 150990319 7333375</internalNodes>
      <leafValues>
        -4.1596919298171997e-01 4.1324844956398010e-01</leafValues></_>
    <_>
      <internalNodes>
        0 -1 270 -750272512 -779910144 131072 1363267603 1090551808
        134348804 16826368 1126692507</internalNodes>
      <leafValues>
        -4.8055687546730042e-01 2.6772513985633850e-01</leafValues></_>
    <_>
      <internalNodes>
        0 -1 2171 43024 172228608 17866905 352658632 2663338 -1937734614
        16949663 254478474</internalNodes>
      <leafValues>
        -3.8682037591934204e-01 3.2393833994865417e-01</leafValues></_>
    <_>
      <internalNodes>
        0 -1 2631 -1072660480 -753920476 553664981 1570308164
        -1432313688 -1362624368 58759358 453182474</internalNodes>
      <leafValues>
        -3.8751336932182312e-01 2.8720366954803467e-01</leafValues></_>
    <_>
      <internalNodes>
        0 -1 219 -16777221 -623398409 257027851 87425505 -147872885
        1391525925 2131451695 255291967</internalNodes>
      <leafValues>
        -4.2674311995506287e-01 2.4175345897674561e-01</leafValues></_>
    <_>
      <internalNodes>
        0 -1 3957 -259595582 -259088382 4243480 268665378 1346871426
        1073741890 51626203 1934864607</internalNodes>
      <leafValues>
        -3.0847293138504028e-01 3.3833828568458557e-01</leafValues></_>
    <_>
      <internalNodes>
        0 -1 516 -787746688 -237985056 4368 1573097476 1073775232
        1208000770 33723274 1334263962</internalNodes>
      <leafValues>
        -3.1713023781776428e-01 3.2321077585220337e-01</leafValues></_>
    <_>
      <internalNodes>
        0 -1 3563 2135949051 402981898 17219795 1024672387 1633135855
        722645018 38642667 233814207</internalNodes>
      <leafValues>
        -3.2000675797462463e-01 2.9615059494972229e-01</leafValues></_>
    <_>
      <internalNodes>
        0 -1 3402 -133918536 -578377580 17045661 1367408688 -1739552072
        -90170200 170043578 420610058</internalNodes>
      <leafValues>
        -3.1229022145271301e-01 3.1096047163009644e-01</leafValues></_>
    <_>
      <internalNodes>
        0 -1 3939 -556351250 -800292796 -2010497016 -783597558
        -872363893 -804896508 -502875942 2064375887</internalNodes>
      <leafValues>
        -2.6847630739212036e-01 3.7547382712364197e-01</leafValues></_>
    <_>
      <internalNodes>
        0 -1 180 -739250257 469749227 488463643 20178075 1077282049
        14883111 -782154949 61077343</internalNodes>
      <leafValues>
        -3.5697656869888306e-01 2.7526181936264038e-01</leafValues></_>
    <_>
      <internalNodes>
        0 -1 3127 -262872976 2024277060 473564252 1426674760 1210056880
        -2005548912 578064 254758687</internalNodes>
      <leafValues>
        -3.6452916264533997e-01 2.4887661635875702e-01</leafValues></_>
    <_>
      <internalNodes>
        0 -1 792 285257840 -805260672 150995984 524369962 -1971207280
        -213384832 247569066 252903426</internalNodes>
      <leafValues>
        -3.5723584890365601e-01 2.4337731301784515e-01</leafValues></_>
    <_>
      <internalNodes>
        0 -1 197 -761530126 1343410164 1343282513 1964112159 1101869459
        299043021 2068779263 967830463</internalNodes>
      <leafValues>
        -3.1653842329978943e-01 2.7790069580078125e-01</leafValues></_>
    <_>
      <internalNodes>
        0 -1 2252 1258261299 201295862 -648450986 -1176530498 727002657
        -1939142418 -1982730500 -2106754</internalNodes>
      <leafValues>
        -2.9718509316444397e-01 3.0923932790756226e-01</leafValues></_>
    <_>
      <internalNodes>
        0 -1 32 -1977161996 -543756036 9549269 -844705335 1405395439
        -1166473569 -1396643604 -1052719036</internalNodes>
      <leafValues>
        -3.6899438500404358e-01 2.5090590119361877e-01</leafValues></_></weakClassifiers></stage1>
</opencv_storage>
