<?xml version="1.0"?>
<opencv_storage>
<stage2>
  <maxWeakCount>15</maxWeakCount>
  <stageThreshold>-1.5116450786590576e+00</stageThreshold>
  <weakClassifiers>
    <_>
      <internalNodes>
        0 -1 35 -536870913 -6593 -537264645 1440424179 -1610612805
        -2103476049 -6291457 54202679</internalNodes>
      <leafValues>
        -4.6265327930450439e-01 5.9769445657730103e-01</leafValues></_>
    <_>
      <internalNodes>
        0 -1 3954 -1039480182 49152 4358144 268566560 -2147187072
        21365760 -2147310438 -221253409</internalNodes>
      <leafValues>
        -4.0731081366539001e-01 4.6913611888885498e-01</leafValues></_>
    <_>
      <internalNodes>
        0 -1 246 -615783936 -786306040 272678912 1363394629 -2142624768
        67112973 237970 -674263349</internalNodes>
      <leafValues>
        -3.5943141579627991e-01 4.4251260161399841e-01</leafValues></_>
    <_>
      <internalNodes>
        0 -1 3947 -760561430 -1073348608 6340656 1342310946 -1283006282
        1107951680 -536285053 -214191201</internalNodes>
      <leafValues>
        -3.0828061699867249e-01 4.3296667933464050e-01</leafValues></_>
    <_>
      <internalNodes>
        0 -1 2277 -424719857 -1059157943 -1508677924 -772015137
        1982548515 -896319233 -550331722 -1617</internalNodes>
      <leafValues>
        -3.4319019317626953e-01 3.2508897781372070e-01</leafValues></_>
    <_>
      <internalNodes>
        0 -1 21 -222109699 -1109401863 180836279 335527746 -1194922757
        1342147228 -403644425 1667364161</internalNodes>
      <leafValues>
        -3.4118288755416870e-01 3.3080661296844482e-01</leafValues></_>
    <_>
      <internalNodes>
        0 -1 3894 -359929150 -402152830 10747906 1349496979 1363397170
        33555456 1112456835 -76562209</internalNodes>
      <leafValues>
        -3.0246633291244507e-01 3.4675487875938416e-01</leafValues></_>
    <_>
      <internalNodes>
        0 -1 2853 -657948520 -686028668 943195121 -705884091 -1156909440
        -1656706928 -2146911333 -1727135224</internalNodes>
      <leafValues>
        -2.7014714479446411e-01 3.4515348076820374e-01</leafValues></_>
    <_>
      <internalNodes>
        0 -1 863 -17125637 -86014754 -2071637051 525574519 -1150635458
        180425312 -1538330149 1006609375</internalNodes>
      <leafValues>
        -3.1683874130249023e-01 2.9627701640129089e-01</leafValues></_>
    <_>
      <internalNodes>
        0 -1 714 -212863350 -526445952 455361536 90695385 -489979902
        -1977891840 -468540798 -750259801</internalNodes>
      <leafValues>
        -2.5898259878158569e-01 3.8272079825401306e-01</leafValues></_>
    <_>
      <internalNodes>
        0 -1 2283 -959458594 -532239188 86003778 -1069160735 -670055013
        -851640357 -204492121 -611059974</internalNodes>
      <leafValues>
        -1.8759018182754517e-01 4.5451676845550537e-01</leafValues></_>
    <_>
      <internalNodes>
        0 -1 3135 -622280492 1081106436 1091360761 -576060915
        -1465907128 -2013003128 537955976 998967578</internalNodes>
      <leafValues>
        -3.5689485073089600e-01 2.4504803121089935e-01</leafValues></_>
    <_>
      <internalNodes>
        0 -1 222 -110431534 -258939404 1700335617 -791292344 -1442477952
        -2012798848 -2147373678 -673195829</internalNodes>
      <leafValues>
        -2.0604898035526276e-01 4.3376553058624268e-01</leafValues></_>
    <_>
      <internalNodes>
        0 -1 2710 -78668686 -1878769590 117461081 352764971 243776183
        541197842 1126224283 286520047</internalNodes>
      <leafValues>
        -3.2767498493194580e-01 2.4594794213771820e-01</leafValues></_>
    <_>
      <internalNodes>
        0 -1 2989 -346045869 -2111619431 70443053 -667946834 -550018537
        -1016728045 1347943796 -641011564</internalNodes>
      <leafValues>
        -2.0319819450378418e-01 3.9104136824607849e-01</leafValues></_></weakClassifiers></stage2>
</opencv_storage>
