<?xml version="1.0"?>
<opencv_storage>
<stage30>
  <maxWeakCount>92</maxWeakCount>
  <stageThreshold>-9.9000686407089233e-01</stageThreshold>
  <weakClassifiers>
    <_>
      <internalNodes>
        0 -1 2514 772418878 12468012 364278552 -1376437511 1449555251
        704337758 771729370 -67373473</internalNodes>
      <leafValues>
        1.7782589420676231e-02 3.5092929005622864e-01</leafValues></_>
    <_>
      <internalNodes>
        0 -1 3015 -111674465 -300941601 781974495 -1473384820 -27820171
        -1137467849 1600411456 -823269821</internalNodes>
      <leafValues>
        -1.0793048143386841e-01 2.0726655423641205e-01</leafValues></_>
    <_>
      <internalNodes>
        0 -1 1904 10379023 -1602354699 142720013 1924033133 688162304
        -1359027849 -1984513637 1068089343</internalNodes>
      <leafValues>
        -1.5610845386981964e-01 1.3827866315841675e-01</leafValues></_>
    <_>
      <internalNodes>
        0 -1 3334 -545632530 394380 1959148059 976897814 271107184
        1147632705 443351870 118347181</internalNodes>
      <leafValues>
        -2.7110660076141357e-01 7.4052847921848297e-02</leafValues></_>
    <_>
      <internalNodes>
        0 -1 1378 -1959530954 -1571063209 836024830 -512419941 401202083
        -1931221342 -716863184 -1996702283</internalNodes>
      <leafValues>
        -1.3917635381221771e-01 1.4346528053283691e-01</leafValues></_>
    <_>
      <internalNodes>
        0 -1 670 -2100624814 32853053 1851119326 -583856677 56034082
        -2068157072 -1452525437 3158624</internalNodes>
      <leafValues>
        -2.7035069465637207e-01 5.8804821223020554e-02</leafValues></_>
    <_>
      <internalNodes>
        0 -1 2487 1379857618 1157603556 33972446 808920239 -1703888728
        -1959772590 1139715723 1530486239</internalNodes>
      <leafValues>
        -1.7583739757537842e-01 1.0366982966661453e-01</leafValues></_>
    <_>
      <internalNodes>
        0 -1 2163 1064250871 238682009 1278918279 440253368 1022000230
        -132240399 2063138822 -152903582</internalNodes>
      <leafValues>
        -1.3134096562862396e-01 1.4845062792301178e-01</leafValues></_>
    <_>
      <internalNodes>
        0 -1 2034 -294958337 677855098 1217428605 13781063 1613180962
        -1972974415 257026931 1213256980</internalNodes>
      <leafValues>
        -2.1686969697475433e-01 9.0702123939990997e-02</leafValues></_>
    <_>
      <internalNodes>
        0 -1 3598 1874283127 -55095257 -2078918072 2105506663 -16788655
        -1565318316 -1047099955 -1086665</internalNodes>
      <leafValues>
        -7.2227321565151215e-02 2.6285219192504883e-01</leafValues></_>
    <_>
      <internalNodes>
        0 -1 3040 911029498 -110685676 1008207875 1016438104 -503215456
        -1000374759 29109527 8282338</internalNodes>
      <leafValues>
        -3.2151994109153748e-01 5.8666612952947617e-02</leafValues></_>
    <_>
      <internalNodes>
        0 -1 2499 -420046086 -189907396 1455199448 -648325888
        -1544650062 -453037311 -807162902 -704644673</internalNodes>
      <leafValues>
        -7.5984388589859009e-02 2.4725924432277679e-01</leafValues></_>
    <_>
      <internalNodes>
        0 -1 3104 -205988387 -1086645371 -440954221 -542906326
        -1320062993 -168844965 -1812553301 -2097525</internalNodes>
      <leafValues>
        -6.0064926743507385e-02 3.8187694549560547e-01</leafValues></_>
    <_>
      <internalNodes>
        0 -1 2177 -708467764 1416407752 -591112377 -938598336 -107142768
        -1740796477 -769430777 502211520</internalNodes>
      <leafValues>
        -1.7854891717433929e-01 1.1735489964485168e-01</leafValues></_>
    <_>
      <internalNodes>
        0 -1 2568 -1103137197 -1120515819 -1380013381 -643093253
        -42004325 -471433217 -1997977461 -1198011458</internalNodes>
      <leafValues>
        -9.7209595143795013e-02 2.0703108608722687e-01</leafValues></_>
    <_>
      <internalNodes>
        0 -1 621 -1862045456 17368401 688936352 43111960 340541955
        1126964528 1883791956 545937456</internalNodes>
      <leafValues>
        -4.0768775343894958e-01 5.6944414973258972e-02</leafValues></_>
    <_>
      <internalNodes>
        0 -1 3504 -675290657 -269664353 1715276131 -50553890 -2043426991
        -359457209 1196533510 -360133958</internalNodes>
      <leafValues>
        -9.6875838935375214e-02 2.1235367655754089e-01</leafValues></_>
    <_>
      <internalNodes>
        0 -1 3469 911224662 660146649 -1886902948 831700850 2107125480
        1051467228 -392155264 786400656</internalNodes>
      <leafValues>
        -2.1271176636219025e-01 1.0076970607042313e-01</leafValues></_>
    <_>
      <internalNodes>
        0 -1 1207 -1188934191 -1662620567 397807529 1541119401
        -120904797 -729938825 -1906120948 -1611739188</internalNodes>
      <leafValues>
        -1.1719030886888504e-01 1.7161177098751068e-01</leafValues></_>
    <_>
      <internalNodes>
        0 -1 409 -1932573077 -1726363881 1693141735 33419186 -1696703298
        -38466259 -2080418146 -249543094</internalNodes>
      <leafValues>
        -1.2232702225446701e-01 1.6126593947410583e-01</leafValues></_>
    <_>
      <internalNodes>
        0 -1 173 -159990798 -1865220366 -1089480201 -840004307 332748935
        13252322 264371913 -1614427681</internalNodes>
      <leafValues>
        -1.0146062821149826e-01 2.0109122991561890e-01</leafValues></_>
    <_>
      <internalNodes>
        0 -1 1949 33004097 1113893832 725927538 -1645464182 782153237
        678843364 172939046 252644075</internalNodes>
      <leafValues>
        -1.9440914690494537e-01 1.0059985518455505e-01</leafValues></_>
    <_>
      <internalNodes>
        0 -1 1328 -177342521 -1202544810 -1070196503 -650393028
        -12259925 -77081407 -454592021 -1612935720</internalNodes>
      <leafValues>
        -6.7491181194782257e-02 2.8628057241439819e-01</leafValues></_>
    <_>
      <internalNodes>
        0 -1 2807 -1078069562 612028369 1213225610 69971336 -226818796
        -631229655 1130656837 1245365090</internalNodes>
      <leafValues>
        -2.2326219081878662e-01 9.0662203729152679e-02</leafValues></_>
    <_>
      <internalNodes>
        0 -1 2724 1893845658 -1661582160 -986805188 -1536695000
        -449825339 -11845738 850470075 -1797850224</internalNodes>
      <leafValues>
        -1.2796512246131897e-01 1.6346870362758636e-01</leafValues></_>
    <_>
      <internalNodes>
        0 -1 3872 -573575431 -643086696 548432391 1915365795 -394499911
        -101835248 268646585 1798102050</internalNodes>
      <leafValues>
        -1.3828526437282562e-01 1.4845801889896393e-01</leafValues></_>
    <_>
      <internalNodes>
        0 -1 1404 -1314472994 15637402 1872553391 1431243007 -42090745
        -1428766930 -920193693 -1939385391</internalNodes>
      <leafValues>
        -1.2654961645603180e-01 1.5842103958129883e-01</leafValues></_>
    <_>
      <internalNodes>
        0 -1 351 -733981628 1930000613 -493664074 -1284548360
        -1066662592 944204389 792809627 1890852040</internalNodes>
      <leafValues>
        -2.0589888095855713e-01 9.9192865192890167e-02</leafValues></_>
    <_>
      <internalNodes>
        0 -1 420 -675350029 -574756208 124083643 -181952348 -1950248998
        -4837871 1325922702 -817381197</internalNodes>
      <leafValues>
        -9.0988032519817352e-02 2.2956509888172150e-01</leafValues></_>
    <_>
      <internalNodes>
        0 -1 717 2130393499 -1320421428 2067227579 -1687913899
        -1500191095 -1720315817 -218714118 -1981616773</internalNodes>
      <leafValues>
        -8.4899254143238068e-02 2.3471282422542572e-01</leafValues></_>
    <_>
      <internalNodes>
        0 -1 584 -2080657433 834011639 -1396190064 -242112259
        -1545679485 -2069468933 -867971107 -1989194311</internalNodes>
      <leafValues>
        -8.3600327372550964e-02 2.3018138110637665e-01</leafValues></_>
    <_>
      <internalNodes>
        0 -1 2071 -486859052 62128559 -1029414640 574620676 648871440
        -2095018993 -819887086 1883436836</internalNodes>
      <leafValues>
        -2.2972095012664795e-01 8.7889105081558228e-02</leafValues></_>
    <_>
      <internalNodes>
        0 -1 3689 -174194705 101777488 1220320913 2003681891 53553851
        -1368756307 466633003 -1659635909</internalNodes>
      <leafValues>
        -1.2770880758762360e-01 1.6152304410934448e-01</leafValues></_>
    <_>
      <internalNodes>
        0 -1 3387 -1189939552 -2034742315 377487963 80400406 -1182829056
        -297472692 -1255997086 1077121030</internalNodes>
      <leafValues>
        -2.4484552443027496e-01 8.4078840911388397e-02</leafValues></_>
    <_>
      <internalNodes>
        0 -1 3866 -554317057 -540858782 -2098305141 2074965239
        1964481656 -96012580 -378692193 -83103825</internalNodes>
      <leafValues>
        -6.3781186938285828e-02 3.1744983792304993e-01</leafValues></_>
    <_>
      <internalNodes>
        0 -1 3602 687351286 810191601 88918968 372913909 43590949
        972301581 1091314840 423127562</internalNodes>
      <leafValues>
        -2.4845975637435913e-01 8.5094757378101349e-02</leafValues></_>
    <_>
      <internalNodes>
        0 -1 3312 -287737988 -365364057 -537100587 533993290 -1363531888
        -1442855107 -1480851947 -40946405</internalNodes>
      <leafValues>
        -1.1561219394207001e-01 1.8746905028820038e-01</leafValues></_>
    <_>
      <internalNodes>
        0 -1 97 792823544 1529020588 683693057 -1785446956 -1301210900
        -261843726 1279396756 123014480</internalNodes>
      <leafValues>
        -2.5722029805183411e-01 8.3509176969528198e-02</leafValues></_>
    <_>
      <internalNodes>
        0 -1 1905 2135992798 -739369537 -1916879754 -18959565 1294400951
        -1108865167 2062920883 -1359561110</internalNodes>
      <leafValues>
        -1.1091894656419754e-01 1.9051940739154816e-01</leafValues></_>
    <_>
      <internalNodes>
        0 -1 198 -257236318 1393273578 714422784 128462464 68797184
        158960642 385333138 1321723419</internalNodes>
      <leafValues>
        -1.9501638412475586e-01 1.1007203906774521e-01</leafValues></_>
    <_>
      <internalNodes>
        0 -1 3261 -1067291638 349578286 -958218602 67166214 -632695532
        -758775562 -429165568 271255691</internalNodes>
      <leafValues>
        -2.4877768754959106e-01 8.2074634730815887e-02</leafValues></_>
    <_>
      <internalNodes>
        0 -1 168 -774115585 -220164436 -80294629 -375673889 -377506160
        -1663624133 -343224369 -2234373</internalNodes>
      <leafValues>
        -6.3112437725067139e-02 3.2940956950187683e-01</leafValues></_>
    <_>
      <internalNodes>
        0 -1 2966 771193854 1599414469 -12801026 1501005421 -143400908
        135346372 -1506793303 -1412547235</internalNodes>
      <leafValues>
        -1.0369215160608292e-01 2.0130498707294464e-01</leafValues></_>
    <_>
      <internalNodes>
        0 -1 2184 -1203672327 520137054 705843542 64304252 1628182848
        54939333 567874104 179386420</internalNodes>
      <leafValues>
        -3.0478543043136597e-01 7.4513368308544159e-02</leafValues></_>
    <_>
      <internalNodes>
        0 -1 2259 39986960 37750614 -2137332668 1063871 246158183
        173833642 -1469796493 1052777790</internalNodes>
      <leafValues>
        -3.6228126287460327e-01 5.7003714144229889e-02</leafValues></_>
    <_>
      <internalNodes>
        0 -1 1387 -537536673 -82776321 -1766148057 -1858866330
        -864288773 209540975 141724681 -420414255</internalNodes>
      <leafValues>
        -8.5963480174541473e-02 2.5558602809906006e-01</leafValues></_>
    <_>
      <internalNodes>
        0 -1 3426 -1031803257 -76028079 509547677 -579530126 395770816
        -1720699523 -63642179 -341053734</internalNodes>
      <leafValues>
        -7.2087526321411133e-02 2.8609848022460938e-01</leafValues></_>
    <_>
      <internalNodes>
        0 -1 1777 990529200 1043564614 -872705395 65112753 1547062254
        1826583097 -1085774236 246073352</internalNodes>
      <leafValues>
        -2.0339161157608032e-01 1.0376106202602386e-01</leafValues></_>
    <_>
      <internalNodes>
        0 -1 1045 -866971636 806910911 -933522582 -1796136565 -765361562
        -848797624 129236209 717518824</internalNodes>
      <leafValues>
        -1.9830445945262909e-01 1.0817474871873856e-01</leafValues></_>
    <_>
      <internalNodes>
        0 -1 3676 1477992982 1409893506 1141512018 402948700 1612843783
        -1907699440 610833161 1251387</internalNodes>
      <leafValues>
        -2.9465922713279724e-01 7.5489699840545654e-02</leafValues></_>
    <_>
      <internalNodes>
        0 -1 378 1377879957 1565585739 -2058837457 1477151838 2084816024
        682990132 837020599 1078034767</internalNodes>
      <leafValues>
        -1.4916433393955231e-01 1.4554275572299957e-01</leafValues></_>
    <_>
      <internalNodes>
        0 -1 2904 175588655 -814026063 917708291 -102007361 -1756371065
        -813814159 -1411670333 -68211014</internalNodes>
      <leafValues>
        -8.3608992397785187e-02 2.6370504498481750e-01</leafValues></_>
    <_>
      <internalNodes>
        0 -1 3151 -923514508 78668903 -1906758851 944121379 -1034910346
        882278435 -334918864 2065909521</internalNodes>
      <leafValues>
        -2.2121040523052216e-01 9.4319947063922882e-02</leafValues></_>
    <_>
      <internalNodes>
        0 -1 1314 -1974547862 1097412151 2055980338 709507189
        -1959100186 319410237 -691192609 -1344855747</internalNodes>
      <leafValues>
        -1.4964805543422699e-01 1.4822204411029816e-01</leafValues></_>
    <_>
      <internalNodes>
        0 -1 556 -1969232984 -1663259090 516939635 -559184822 15147585
        8651813 218466945 732018832</internalNodes>
      <leafValues>
        -2.1705499291419983e-01 9.8509766161441803e-02</leafValues></_>
    <_>
      <internalNodes>
        0 -1 840 -916734778 73246443 480257461 -406020347 -1026625104
        2138920498 1114635249 -1096053441</internalNodes>
      <leafValues>
        -1.1333779990673065e-01 1.9406124949455261e-01</leafValues></_>
    <_>
      <internalNodes>
        0 -1 172 1782980624 1938302605 621352849 1570088769 1208566020
        698560539 -148831494 1947091039</internalNodes>
      <leafValues>
        -2.4643364548683167e-01 8.9879207313060760e-02</leafValues></_>
    <_>
      <internalNodes>
        0 -1 1444 -1019104318 -1823587435 -276733047 1034544153
        1004491880 -97346225 -812046101 -899679538</internalNodes>
      <leafValues>
        -1.1457820236682892e-01 1.9469819962978363e-01</leafValues></_>
    <_>
      <internalNodes>
        0 -1 288 -537146984 -447617845 -1664186244 117168423 -217717112
        671403934 -1577545088 1121502520</internalNodes>
      <leafValues>
        -1.6189546883106232e-01 1.4422561228275299e-01</leafValues></_>
    <_>
      <internalNodes>
        0 -1 3060 286720 2013281012 -1316949895 483799888 -301319504
        987802595 -1627080920 968888976</internalNodes>
      <leafValues>
        -3.0477216839790344e-01 7.0244774222373962e-02</leafValues></_>
    <_>
      <internalNodes>
        0 -1 1224 -210781461 381107420 1707077891 -545714324 266961326
        -288637392 -404038989 -1147158529</internalNodes>
      <leafValues>
        -7.3261588811874390e-02 3.0118861794471741e-01</leafValues></_>
    <_>
      <internalNodes>
        0 -1 3954 -1968658936 1170393126 2026374868 -1040150392
        -1944699260 1064362261 144090778 1895069021</internalNodes>
      <leafValues>
        -2.4824522435665131e-01 8.7964676320552826e-02</leafValues></_>
    <_>
      <internalNodes>
        0 -1 3904 781746176 1367770976 -393721186 549588306 214966694
        1421922800 -1204352278 1224815184</internalNodes>
      <leafValues>
        -2.4200098216533661e-01 8.9480213820934296e-02</leafValues></_>
    <_>
      <internalNodes>
        0 -1 2004 -477397089 1147484131 30244723 -1018796102 -1585988309
        -277921804 -1675723221 -321192112</internalNodes>
      <leafValues>
        -1.0320797562599182e-01 2.0979824662208557e-01</leafValues></_>
    <_>
      <internalNodes>
        0 -1 901 2001539754 278141420 38291468 734933953 26872576
        709725248 1752437296 465052688</internalNodes>
      <leafValues>
        -3.3258476853370667e-01 6.6676899790763855e-02</leafValues></_>
    <_>
      <internalNodes>
        0 -1 2625 1221939298 1514989846 622365141 297329676 -196329036
        -107189508 -1122741126 -1324739126</internalNodes>
      <leafValues>
        -1.5007849037647247e-01 1.4338462054729462e-01</leafValues></_>
    <_>
      <internalNodes>
        0 -1 3203 36733440 88082563 -1467234170 737685116 83300789
        85410759 567780769 1074214261</internalNodes>
      <leafValues>
        -3.0424267053604126e-01 7.3287211358547211e-02</leafValues></_>
    <_>
      <internalNodes>
        0 -1 2302 -1359055028 2049287494 162166590 -1245707691 649562554
        -971676290 -2014001427 -185670322</internalNodes>
      <leafValues>
        -1.2828600406646729e-01 1.6772717237472534e-01</leafValues></_>
    <_>
      <internalNodes>
        0 -1 1919 1265622347 -658520726 619976085 443180380 -1769322936
        -1438977374 -1169828649 2142305710</internalNodes>
      <leafValues>
        -1.4325159788131714e-01 1.5203891694545746e-01</leafValues></_>
    <_>
      <internalNodes>
        0 -1 3762 -745544997 1317767846 -215562021 -822479202 1164913443
        -1901537449 2085903415 -554312451</internalNodes>
      <leafValues>
        -1.1657270789146423e-01 1.9146998226642609e-01</leafValues></_>
    <_>
      <internalNodes>
        0 -1 124 866134991 -575635013 -1229348073 359344604 -1138546969
        -710360875 -1955733991 -1650865191</internalNodes>
      <leafValues>
        -9.6919268369674683e-02 2.3367065191268921e-01</leafValues></_>
    <_>
      <internalNodes>
        0 -1 170 -131149449 -2076194499 126217573 368322893 503161119
        -1647174682 1962797037 -72433057</internalNodes>
      <leafValues>
        -8.8636435568332672e-02 2.5040692090988159e-01</leafValues></_>
    <_>
      <internalNodes>
        0 -1 2684 1357540878 -1954274195 358076852 1354762301 492015594
        -1498890236 -2046126768 522854097</internalNodes>
      <leafValues>
        -2.1855168044567108e-01 1.0372580587863922e-01</leafValues></_>
    <_>
      <internalNodes>
        0 -1 894 1277216320 172413570 926284544 1540949348 68580800
        417744355 185877008 197395524</internalNodes>
      <leafValues>
        -3.2848015427589417e-01 6.4923837780952454e-02</leafValues></_>
    <_>
      <internalNodes>
        0 -1 3108 1160178147 -1026939027 -4263926 -796122673 -422671612
        -1344995427 -1478051935 -68174962</internalNodes>
      <leafValues>
        -9.8418869078159332e-02 2.2336508333683014e-01</leafValues></_>
    <_>
      <internalNodes>
        0 -1 2449 -523962828 276860979 2038079685 144519444 1104247312
        -508881933 -864990634 1134428704</internalNodes>
      <leafValues>
        -2.5064727663993835e-01 8.9104056358337402e-02</leafValues></_>
    <_>
      <internalNodes>
        0 -1 879 -899687725 -1469085885 1290743615 -1650242481
        -1023367702 241845574 -956576596 -1701076774</internalNodes>
      <leafValues>
        -8.8125966489315033e-02 2.4488793313503265e-01</leafValues></_>
    <_>
      <internalNodes>
        0 -1 2151 1174711920 -1171781570 1754278704 -1258280640
        112631734 1832088539 -1562161274 504365060</internalNodes>
      <leafValues>
        -2.9348462820053101e-01 7.4897281825542450e-02</leafValues></_>
    <_>
      <internalNodes>
        0 -1 2211 -529041829 -663962084 632712531 -217694926 -1382875855
        1810586133 -1969298535 -271590482</internalNodes>
      <leafValues>
        -9.0495944023132324e-02 2.4735307693481445e-01</leafValues></_>
    <_>
      <internalNodes>
        0 -1 164 -1944426761 -662582063 -2112716798 1136987472 621282181
        270193683 -1862183353 274846353</internalNodes>
      <leafValues>
        -2.8738933801651001e-01 7.9657971858978271e-02</leafValues></_>
    <_>
      <internalNodes>
        0 -1 1843 829578809 465165559 -34224477 -1251758697 1601424567
        -239081525 -19083861 -2385</internalNodes>
      <leafValues>
        -5.5554173886775970e-02 4.0619212388992310e-01</leafValues></_>
    <_>
      <internalNodes>
        0 -1 3006 -477473747 -1360760838 659152111 -1837093556 10686783
        -853170524 -2050115195 1963146345</internalNodes>
      <leafValues>
        -1.7466300725936890e-01 1.2951909005641937e-01</leafValues></_>
    <_>
      <internalNodes>
        0 -1 3968 -238451869 2139129463 1309774264 -1716370 -367158117
        -1156700852 925043115 -45806401</internalNodes>
      <leafValues>
        -9.0450800955295563e-02 2.5146105885505676e-01</leafValues></_>
    <_>
      <internalNodes>
        0 -1 561 -772883231 -156262533 -1443378331 -1113472359
        -1001879635 -1103686319 1219861929 -555034632</internalNodes>
      <leafValues>
        -7.6098762452602386e-02 2.8659653663635254e-01</leafValues></_>
    <_>
      <internalNodes>
        0 -1 3025 -2007629764 1022367000 575952041 863807472 1775254704
        1448391436 -1158352973 943734328</internalNodes>
      <leafValues>
        -3.4459587931632996e-01 6.5749086439609528e-02</leafValues></_>
    <_>
      <internalNodes>
        0 -1 1 1131407075 1609025219 -1313478511 -260194558 1121314783
        -630937483 -1055446022 -130810270</internalNodes>
      <leafValues>
        -9.4928354024887085e-02 2.3374864459037781e-01</leafValues></_>
    <_>
      <internalNodes>
        0 -1 60 -520682416 -1933461125 667425216 1898005554 440771186
        -1968759784 -650552041 -204226533</internalNodes>
      <leafValues>
        -1.5100674331188202e-01 1.4790382981300354e-01</leafValues></_>
    <_>
      <internalNodes>
        0 -1 1953 1757402931 -722193205 -1887615218 -1120424482
        593733366 -934384912 179013067 -72352529</internalNodes>
      <leafValues>
        -7.9377762973308563e-02 2.7441060543060303e-01</leafValues></_>
    <_>
      <internalNodes>
        0 -1 3329 -228594027 320060616 1949569392 -1285004911
        -1006616689 1552929707 1618157970 699430932</internalNodes>
      <leafValues>
        -1.8448536098003387e-01 1.2655326724052429e-01</leafValues></_>
    <_>
      <internalNodes>
        0 -1 2871 -916461485 -489844807 -1371587187 1927762988 -68687196
        -1628726099 -1897160706 -806384929</internalNodes>
      <leafValues>
        -7.0433817803859711e-02 3.0990374088287354e-01</leafValues></_>
    <_>
      <internalNodes>
        0 -1 2337 249976819 -911687830 1477729621 -1874761888 1925968108
        1935473366 -827839057 -1681339486</internalNodes>
      <leafValues>
        -1.2894554436206818e-01 1.8063549697399139e-01</leafValues></_>
    <_>
      <internalNodes>
        0 -1 2747 65381042 -1984054396 -401699884 1501238005 -2132663677
        -1929674996 302225067 268352303</internalNodes>
      <leafValues>
        -2.0726418495178223e-01 1.1084701120853424e-01</leafValues></_></weakClassifiers></stage30>
</opencv_storage>
